1048 64
1832.PA-06.04.PHIL.txt -2.4055519 4.580214 1.1150622 -0.92084944 0.58799815 1.560033 -4.8498626 -0.16776347 -1.5772525 0.60042858 -0.69834983 -0.39860374 -0.37603936 3.7952154 -4.134315 -6.1859989 0.36523449 -2.1129858 3.3610082 0.54794776 -0.95790607 4.4313159 0.37782493 3.1305969 4.4052629 -0.023843996 2.5117736 3.6583018 -2.0700128 3.4760947 -2.9766572 2.7112513 0.28332213 -0.93743694 -3.7218595 -7.1530118 -2.9691436 -0.25482878 -0.79354781 -2.1787755 1.5248978 -0.21357535 5.1912675 -3.6674545 0.4681001 3.733062 -0.67128021 -3.0987008 3.2968514 -2.6195531 -1.7071482 -2.8584085 -0.29902139 3.8130245 0.86612666 -0.7641862 3.408006 3.4388225 0.97805375 2.3844435 3.5235376 -2.5497518 -0.87604606 -1.2340951
1864.NY-10.04.SYRA.txt 0.8421846 -5.6126499 -0.2048551 -0.087375186 2.9160445 3.5133924 -0.12245769 5.433722 1.8352226 0.12651691 0.16633852 -1.4956732 4.8259296 1.3542137 1.7110177 0.58331329 -3.0175104 1.8813254 1.2716947 -4.4647913 -4.0603361 -0.14907686 -0.91340792 -0.12230867 -6.8117499 -2.9275193 -1.3630708 0.47256428 0.46999016 0.025449963 4.4360728 -0.30106807 2.2099597 1.6168518 4.2779469 -1.3040422 -1.6782386 -6.8627419 3.6281505 -1.6888407 -2.2121966 2.0431378 1.7398677 -0.28545749 3.6338387 6.9408293 -2.8254228 -4.3694215 0.68683088 -2.4467037 4.6335864 0.50716966 -3.3444183 -5.8050756 2.8031046 1.5178394 1.4975281 0.83835751 -1.3533167 -0.5075264 -1.0764371 -2.4172544 1.4614635 3.0329158
1853.NY-07.06.ROCH.txt -0.67757344 0.00438488 0.27468088 -1.4650475 -1.8933089 1.8154409 0.90612179 -2.590405 1.8027242 -0.32877633 4.3938293 0.51421982 -2.0176749 -2.8018866 3.7833745 3.6719923 -2.6940548 -3.6545663 2.1121325 -2.6595607 -1.389879 -1.7809914 -0.39251631 -1.5189114 0.63914609 -6.1098742 3.2980313 2.3942542 2.3714256 0.82804954 -1.2239826 -3.2228127 -7.4968123 -0.37850115 -1.3475583 -0.22696151 0.23696579 1.6110773 6.0191031 -3.8131578 0.16214089 3.6921279 1.1435965 -0.45462728 -2.1860046 -1.4421453 -0.099404275 4.6037145 -1.7209015 -1.1184013 2.2380521 -3.572803 -0.9999674 1.0165377 2.0485926 -0.95280015 8.9060154 0.022422217 1.3916169 -4.0784607 0.8345086 -1.4341979 -6.2973895 1.6998376
1847.NY-11.06.TROY.txt -1.945361 -5.2191882 3.6846116 -0.71132022 2.6644855 1.2992637 1.3084029 -4.540422 2.629792 9.3064432 0.55383271 -1.2910612 0.69273627 -0.24998724 0.11281081 1.1375498 -2.9012153 1.8136532 -0.64788336 -1.1190746 -1.3847489 -2.4016044 -3.3740656 -2.6085827 -1.6971933 1.5500295 6.6748328 5.5618477 2.564168 2.2278893 -2.4472387 1.4527247 -1.3455466 1.0000304 0.3082225 -2.1147463 4.2328582 2.9154451 2.0507865 0.1501638 0.77718461 -0.4741616 -2.128551 1.1582788 0.87927359 4.055964 -1.5247418 0.70658231 -1.394349 5.1423154 2.1688735 1.4927212 -2.2985384 -0.3819485 -1.2990979 1.6595234 -1.9768368 3.5131884 0.28809091 -6.2469711 3.8177555 2.6181889 -1.5986881 0.89335144
1840.NY-08.18.ALBA.1.txt -0.57973856 -5.3683939 -0.2542178 -0.38403615 -1.5030907 -0.93280548 0.56465572 -4.6915555 -2.5627339 -3.4176712 -1.1058213 0.28362691 -0.63429052 -5.1658421 5.3339577 -2.8085155 2.1620541 5.7647552 1.3064123 2.2683671 -1.828445 0.073272482 3.1748309 -1.5646676 3.039916 -0.86474788 -1.185845 -0.13360365 -2.5313861 0.14814465 1.1871513 4.4328928 0.20317237 5.5776682 1.420119 3.5399144 2.9199595 1.1826432 -1.0611485 6.5366211 -4.078886 -2.0509744 -3.4502568 4.4728322 2.0756879 2.2502518 0.98767442 -1.2359262 4.5806556 1.5894966 -0.65303421 2.032939 -2.717782 5.1128263 -3.5311103 4.7347522 1.937833 2.860688 1.7032565 -2.8463595 -0.40436837 2.5316839 -0.87145066 0.67240739
1855.PA-10.16.PHIL.txt -1.658715 -6.8958182 0.60649061 -4.7432842 3.355036 2.265697 2.7146125 4.7581034 3.2271705 -0.17344563 -1.9724767 4.4825268 -4.3001819 0.92135018 0.41043273 4.9529538 -0.69625795 -2.7216518 -2.1567464 -4.691093 0.34633648 1.057882 2.3251543 2.4707479 2.2875297 3.4121878 0.12574282 -5.3539639 -2.7374377 3.2113149 1.665211 0.16352229 4.1502371 -3.3145378 -1.1486748 4.3703842 -0.404084 1.8147264 2.4998364 -4.5416436 0.65082389 -0.35623768 -1.1813821 0.00052198576 1.2962979 -0.17743985 -3.5950179 6.7177997 -2.9550552 3.6451783 2.0829182 -1.6509622 -4.3485465 4.3128095 -3.9333699 -2.1771922 2.8162334 1.927231 -2.3539693 -1.8867134 3.4907389 -1.4404714 -1.0722822 -0.052492917
1833.PA-06.03.PHIL.txt -1.3363289 0.01924102 3.2400808 -7.3860331 -1.519824 -0.68848884 -4.154459 1.5096029 -1.7260915 -2.3466713 2.281451 -5.0353613 0.84041244 4.1858277 -5.7645702 0.53796196 -1.2278836 -3.0232611 1.2026906 3.5005138 1.7078017 -0.58671367 -3.1159735 5.6144915 2.650367 -2.9568396 1.3297191 6.2065663 0.25032821 0.85338354 1.0198916 -1.150254 1.340693 3.812887 -3.2136536 -0.62845278 -0.31314149 3.5625272 -0.93949437 -1.3185471 -0.97470266 1.8462859 6.2728715 -2.1207349 0.83423096 0.91422361 1.5951744 -2.388139 1.9047012 2.5530593 -2.6691468 0.55856746 -3.264209 3.5270097 -0.64740998 -0.76306349 3.0377078 1.3437568 5.3444605 0.46553722 0.5210824 -5.186202 1.7396181 0.38789597
1834.NY-06.02.NEWY_MINUTES.txt -1.9253438 0.065658897 -0.82607174 -1.6135027 3.1472414 -0.66035712 -3.1234365 2.5150528 -4.6035852 -1.1450411 -0.77605009 -4.7837262 4.9078879 -0.24572067 -1.3198858 1.2504607 1.1142918 1.4312263 0.97906959 3.9891043 -3.7534814 -2.1807702 0.46643052 3.7159255 7.3455062 -8.106761 2.7180705 5.5943637 -0.2381198 -2.2614286 0.080856845 0.54319549 0.96137792 1.4366373 -3.1786108 -1.4414067 1.77667 -0.024242893 -2.0025082 -0.35799372 2.0978537 0.11373249 5.0656538 -2.5211837 0.72489405 0.93793237 0.77921557 0.052690156 0.93535972 5.0602274 -0.037875708 2.584106 -2.3868723 -0.24061358 -4.8933759 -6.5097222 4.2243872 -3.2111917 -1.3202809 3.9879608 2.9576957 -1.7657626 -0.94941211 -2.9706924
1856.CA-12.09.SACR.txt 6.5294609 -3.1172826 1.681343 -2.9858022 -0.67079103 -2.8319094 -0.40233144 1.5208153 2.9080725 -3.2949419 3.5577116 0.5159983 0.98326212 -4.4791183 -5.4767761 2.3227873 -0.016521258 2.4570017 -1.8278847 2.1421595 3.6782901 1.3763545 -1.4077953 5.0407104 -1.5088794 2.2479603 6.0426593 1.0658413 5.6386251 -0.31691968 2.3660145 -0.034075063 -2.5145047 -1.1615082 4.58289 -4.5390925 -1.1408453 0.56400001 -2.6407104 4.5056167 -0.87619191 -1.1405746 -1.4491047 0.16608326 -4.7539015 -5.8004265 -0.66634756 1.8317423 3.5289929 1.1306161 1.2733704 3.4676826 5.5288172 -3.1225374 2.2171946 0.33827767 0.10739245 -4.0038633 -2.4833779 0.068569019 1.1880543 2.2112575 2.9601653 -6.6118317
1843.NY-08.15.BUFF.txt -1.0461792 0.64756471 1.1091163 0.012398244 2.4912467 -5.6915135 3.9026289 -2.9108446 2.8724048 -3.1219032 2.5684404 -1.7735027 3.5124803 2.3802245 2.8012674 5.185226 -0.42389885 2.5120232 1.2257558 -2.1396863 -0.082713172 -6.8159299 -2.7164612 1.3536007 5.8346767 0.88592303 0.38118109 -0.07774812 -3.1646886 2.1276674 -5.0573153 2.1968675 3.2799299 -0.36363593 4.968441 -2.2255507 4.7620182 -3.34237 1.79116 -3.1832678 -2.6738131 -0.2152593 -6.9690785 5.9808664 -3.6732454 -1.4937896 0.41761741 -0.85171139 0.56911939 3.6632905 0.93244123 -0.090575717 2.6594212 -2.0581272 0.97419035 4.1074805 2.0887468 0.16095096 7.912878 1.0899662 4.5361743 -1.4607849 1.2387629 -0.96071786
1851.NY-07.22.ALBA.txt -2.1996486 0.53857684 -3.6465442 -4.9670258 6.6919785 5.2317891 3.4762506 -4.5609803 3.1659288 0.50601315 -1.8204964 -6.1742506 -5.6149282 5.4528036 3.3999937 1.6944593 0.86441731 0.29120734 -2.0391533 -3.2076473 -2.8082585 -1.7728677 0.5039984 0.07541348 -0.14099704 -1.5400773 1.3728898 3.4729679 0.47621751 0.097411931 -3.6837819 3.3894565 -6.797349 0.6364243 -0.71297616 0.97025746 2.1986778 3.5485325 -4.4759231 2.2817485 -3.5202742 -0.15600316 -1.7596123 1.802411 3.0162523 2.096879 -2.5163553 7.5315042 1.6822305 -2.2336216 4.6284471 3.8896608 2.2175009 2.0474026 1.7042841 5.0489793 0.8682518 2.7115278 -1.3163712 -1.9579399 -3.9653788 -0.80075932 3.9238608 1.0828192
1831.PA-06.06.PHIL.txt -0.86447442 7.4465313 1.4475564 -0.77166408 -0.82205224 -2.3629057 -2.0339487 2.5050108 -0.66644585 3.9134564 1.4909942 0.65640575 0.25635648 4.5129304 -2.1740141 -2.0857234 3.5673819 -4.8184776 -0.1431545 7.6726489 -3.3484893 2.8147061 -0.27795643 3.8185239 4.9006877 1.2842185 2.7248302 1.9206488 -1.4702749 1.2851787 1.8555659 3.2314909 -2.932431 -4.0846529 1.0318828 -3.1924775 -5.4813166 4.7674885 -2.2928669 -4.5080109 2.5982938 0.85475057 4.5651155 -1.5378982 1.6344316 2.5376875 -0.93098122 -4.4618087 2.374094 -2.7181768 -3.3673491 -1.5138335 -0.14046492 3.973438 -2.472384 -0.43357384 0.15555187 2.7321062 -0.32788464 -0.7043488 2.3936794 -3.6705928 0.19377139 0.45449126
1879.TN-05.06.NASH.txt -4.056221 0.30257452 1.5715957 2.8720784 -2.2009561 -3.446178 0.65402836 -2.2642663 4.2429743 3.3516805 -2.8952692 -3.6351254 -3.3497107 -1.9890294 -5.8509011 6.0120258 -2.4346757 2.3428416 2.7282739 -2.3239071 1.3978103 -4.6241598 2.484426 -0.37758502 -4.1600175 -4.6783671 -4.9930363 -0.75247401 -2.0115767 0.57309037 3.9344597 9.5649729 -0.74227321 3.3735433 -2.0649157 -1.3860871 4.8492289 -3.2363553 0.73624396 1.8594139 -1.5186565 2.1603363 5.9577937 1.7595094 -1.0215113 -7.2441297 3.5459869 -1.013384 -0.54915977 -0.17046306 -5.5749326 2.2096009 6.2791395 -0.35885328 3.0728853 -2.4721017 -0.061737385 1.681988 -2.4577792 -0.6327973 3.3877015 2.4721708 2.7895198 -0.1336678
1851.OH-01.15.COLU.txt -0.073039122 4.0018034 -2.8209198 -1.4689173 3.9575977 -0.1874713 0.21286632 -1.3442156 4.2292457 -1.7991986 0.61699533 2.3862171 -1.7805212 -1.9646469 -1.7304235 2.557308 -4.2144156 2.6284962 0.012299483 -5.5108571 -4.5463428 2.2618718 0.48519367 -5.3041344 2.0050552 -9.6969767 -1.9812559 -0.69900286 3.8188777 -1.7161548 -0.28565395 -7.6808476 -0.69715756 5.4356947 -3.7829237 0.9248718 -3.3926697 -0.15107153 -2.8880458 -0.49282002 -0.80221933 -3.2827508 -2.737071 1.0020101 -4.0135927 -0.28148535 3.9498839 -1.0329168 2.2940044 -0.60586703 -1.245103 -2.9102788 2.7222419 -3.1618521 4.6775188 -2.9932492 -7.9637113 -3.1412945 -0.30036101 -2.557359 -0.54668176 -2.3870363 -3.2542787 1.5778395
1855.CA-11.20.SACR.txt 10.413264 -2.9928267 -1.9652289 2.2994196 -3.288214 -3.7116592 -1.1021712 1.4121248 -0.893951 0.092351869 2.3816102 1.109007 5.4221983 -4.4700756 -5.3360314 1.2147512 -5.8895764 3.9456987 -0.95784771 0.99913621 5.0258317 2.4351697 1.219685 4.8728032 1.7673767 6.3722491 3.1941946 -2.6580031 3.0883243 1.9416006 -1.2847333 -0.0034296478 -2.9146993 1.5148759 0.20509736 -2.5136991 -0.91226882 0.61465484 -1.8472521 1.4052323 1.9973338 -4.1325526 -2.7040095 -0.14590836 -1.6554261 -1.988511 0.44483194 1.2737036 0.96558881 -0.066346705 4.5235925 0.64449847 6.5021915 -0.52085227 -1.7110271 2.4304941 3.3581285 -4.0784612 -0.92416883 4.2320004 -3.8100414 -1.054509 -1.3757174 -2.4362478
1855.NY-09.04.TROY.txt -4.3869686 -4.0617256 0.80278927 1.9333693 4.0945506 2.1022503 -3.345928 -1.3445446 1.714947 -0.66070592 2.7789359 1.1921155 -4.080153 -3.892698 1.6734926 5.3219957 1.7565351 -7.666254 -1.3249991 -4.739728 4.1582294 2.9448018 1.0474458 -0.11676766 -1.8253496 6.3874311 -0.22403763 2.9829726 -5.3788919 4.8933477 2.1149728 0.12233829 0.7169956 3.6482534 4.5433717 -3.9127209 7.2312355 2.519007 -4.3430171 4.4629812 -3.422137 -0.38987237 0.20757444 3.3813417 3.5681114 3.2528243 1.0277457 3.7247262 -3.5869081 -4.7832026 -2.2037461 -0.42775652 0.80311859 3.0210643 -0.22408013 0.51874363 -0.94122046 -4.4498219 3.819598 0.092279486 1.5543344 -0.83239448 3.0929911 1.5861565
1840.NY-08.18.ALBA.2.txt -2.4058838 -4.7579541 1.7413136 -1.6879058 -0.87127119 0.16644637 1.9454893 -6.2346864 -3.0743127 0.079030469 -1.7168332 1.833729 -1.3017538 -4.0866222 2.2460451 -7.2011952 0.68982136 3.3483648 -0.44482726 3.2777064 -0.97504562 -0.79143232 2.3783269 2.2607675 5.0605516 -1.8122932 1.3554689 0.93041301 -2.7383354 4.02918 1.4624153 2.0189748 4.0268278 2.5693119 4.8829808 3.5507145 2.7295945 -1.164369 -1.5415242 2.8193495 -4.2956114 -2.4439857 -6.9819126 1.5623567 0.61324358 -1.6175287 -1.6975605 -3.5426722 0.94776314 -0.96887839 -2.1639957 -0.88581175 -5.2355418 1.9216539 -5.4771738 5.7313299 3.9361441 2.1063933 -0.79794526 -1.8973153 -2.9231372 1.7769799 -2.6582105 1.8625782
1865.CA-10.25.SACR.txt 3.1059351 0.31425378 -2.109808 1.2898498 -5.6233673 0.34490201 -3.6204236 2.5580652 -0.12671217 -0.65043455 -5.1404285 1.8653294 2.9270208 1.8859999 -3.3347442 -1.7848341 -5.6199389 2.7894015 -5.5151029 -3.9610565 4.0457883 0.87743145 0.052721668 1.822787 -1.7949054 2.2500899 7.0333924 2.9594092 0.77536136 2.2340198 -0.90550953 0.81231374 -1.2195845 0.25023046 1.3613243 -4.8142285 -0.35778543 -1.6336169 -4.6333642 0.40301776 -4.4526405 3.5215127 -5.7829943 -0.81125748 -8.0635204 -2.2896342 0.98887342 0.93389875 -0.070102237 -0.68669343 0.10457639 1.4899324 1.6232305 -1.6691898 1.9432439 3.9319391 2.0238466 -1.9281719 -7.5926547 6.4152169 -3.7036867 1.4069198 3.2786899 -3.1698852
1848.PA-12.13.HARR.txt -3.3961687 -1.629375 1.3675784 -4.0906806 4.4956298 2.78495 -4.3640251 -1.0523063 0.15291743 3.3124559 -4.0920591 -2.0055721 3.2593114 -0.35664743 -0.92455155 5.3260245 -1.087478 -0.049635738 -0.27418727 0.18236668 4.9859605 -0.064112641 3.1601346 -2.7625747 4.1838861 1.5344779 2.1033359 -2.846468 2.7603667 -4.6595531 2.4710443 -1.7482563 -3.49458 1.9158472 -4.1035347 -0.11771732 -9.7613049 2.0137475 1.6871684 -1.6792866 3.7130165 -4.4854045 0.73397791 7.0219064 -3.3585868 2.400589 -2.0281718 4.1457434 -3.2909107 3.0495903 -0.63390142 -3.1382208 -1.4252956 3.7390118 0.15723528 -3.4777982 3.7456088 -0.59277117 1.2050171 7.072547 4.2108073 0.026530795 5.2007799 -2.3594885
1843.MA-08.03.SALE.txt 0.33811414 -1.5878233 5.1007018 -5.4637556 -0.63134325 -9.2544594 2.1617 -1.8227086 -0.99164188 1.7555368 -5.9628601 -5.3861885 0.71746492 -6.1158676 -2.9020112 1.2377316 2.1629806 -1.1004368 -2.5558603 2.8021221 2.1504219 -1.0798154 -2.7422032 1.2611552 -0.31374523 1.6152123 -4.0439806 0.18011287 0.97876716 -1.6246011 -3.9176776 2.7519348 1.1150563 2.9334192 5.1144791 -1.2048796 -4.1621861 -2.2462168 4.9366984 -2.7278187 2.5528762 -2.3884137 -0.22548127 -3.9058278 0.54105604 -2.7017093 -6.051373 1.1440189 -1.5298483 1.1713083 5.8987422 -2.3352621 -1.1857108 5.0640273 -8.059638 -2.0105147 1.6167282 -5.2337489 -1.9179273 0.63196814 1.4900897 0.56841028 -3.9237602 -4.8880296
1850.OH-01.09.COLU.txt -0.78877473 6.1239367 -1.7073212 -1.7990571 -3.6924736 0.11888965 1.3467582 0.38626042 3.5710473 -0.84958351 -1.8227468 3.3624473 -4.6869364 0.20698434 1.8818723 -0.64206129 -5.446106 0.55628455 -0.04977075 -5.0506783 1.8201203 -5.7929416 1.6416097 -2.5122247 -1.0039853 -4.4575005 -3.7179372 1.7112297 5.8061743 -1.8676012 -5.3522491 -9.711791 2.3844886 6.3796124 -3.380029 1.5690116 0.14025638 -1.6224228 0.35063848 3.0787318 -2.5928354 -2.1719129 -1.4803506 3.8486679 -0.076944195 3.3678441 -2.7486949 1.6272194 -3.6870368 -3.7674828 -5.173048 1.650749 4.5698891 -2.4274845 -5.2475638 -4.7909946 -3.0687566 -2.4601662 2.5467496 -1.2283388 -1.5389109 2.2197309 -0.54266477 -0.6534254
1844.NY-09.18.SCHE-Minutes.txt 0.96979308 -10.104999 2.8891549 -3.1524837 -0.38070822 -1.7209994 -1.4453177 -2.5538244 3.8377154 -2.9516726 0.3006832 1.968906 0.75246984 -4.055912 6.221375 -9.340682 2.6285207 -1.4420006 6.6564274 -0.62528425 -1.7139091 1.6829431 -2.5206928 -3.1226027 1.587689 -2.0027492 0.41323704 -1.4516259 4.030025 -1.8152891 3.9203415 -2.7481439 -1.0371341 1.818939 1.4214082 0.19718531 7.1726727 -3.0388141 1.076714 2.5709932 2.0872242 -2.6464725 0.5364427 -3.1174645 2.9444098 3.9321144 0.43162158 1.0804794 5.3825798 2.0909646 -0.6599822 2.3155055 0.075588398 5.0566874 -1.5770155 2.9006767 -2.9324729 2.6252663 3.4487443 0.82654035 3.2205386 1.5014039 -2.5579214 3.8824437
1865.NC-09.29.RALE.txt 0.079786107 0.014227383 -1.4865963 0.37650988 1.8236361 0.37221369 1.3012094 -4.5186276 -1.860376 -1.1443168 3.5653138 -1.696908 1.2021351 2.5164564 -0.25002736 0.13862129 2.2906396 -0.61971706 2.3804698 -5.8284817 2.6152129 2.5036945 0.52215856 -1.318084 -4.567451 1.2223331 -1.8268964 -4.1003819 -3.4206235 -0.63016045 1.5564803 -4.1440458 2.8381634 -3.8723552 -0.60000217 1.2428805 1.7136824 -1.4526563 -1.2072493 2.9840446 4.2726822 0.0091867028 1.2095094 -0.11268322 3.0303771 -3.5190794 -0.38755423 -2.978498 -7.4841967 1.5889376 1.6447847 -1.3424917 -1.1800348 -2.2730463 5.7643909 0.29185933 -4.0734673 -5.3625908 2.0493429 2.7561891 -6.4554276 1.3915291 -0.33779165 -1.7713523
1865.NC-09.29.RALE.01.txt -0.18280657 -0.28971496 -1.1325312 0.55518955 2.0646033 -0.18390393 1.094954 -4.8707972 -2.5164771 -0.7748335 3.3516538 -1.8252003 1.380251 2.8494251 -0.2887069 -0.015168427 2.9212701 -0.41190094 2.6725788 -5.3447647 2.4838519 2.2746754 0.53426176 -1.3211683 -4.4033999 1.5774935 -1.5317106 -4.5093746 -3.7820835 -0.70856887 1.8749554 -3.9649386 3.370569 -4.3377895 -0.93771833 1.3112143 1.6379913 -1.4454381 -1.0684264 3.2093532 3.935015 -0.35259935 1.5861766 -0.30752498 3.1319017 -3.3013406 -0.39741388 -2.9304402 -7.1461124 1.5315931 1.7542335 -1.2455529 -1.3231101 -2.5333421 5.5179992 0.31098768 -3.5731928 -5.2507124 1.7264459 2.4565518 -6.0998511 1.0543725 -0.67964274 -1.8490642
1853.IL-10.06.CHIC.txt 1.1255977 1.4514662 5.2453814 4.132946 0.81783974 1.6145453 -1.2948897 1.1166557 -3.3244493 -2.2157693 -0.25234467 4.3801742 2.9085875 -2.210953 4.36654 8.2861795 2.0858264 1.8254458 3.9590642 4.4396815 4.0086908 -1.5334353 -5.1902008 -1.5354216 -1.0017737 -3.5593848 -2.3384044 -0.0075337533 -4.5737972 0.040720407 -7.1866579 -1.6729019 -4.8333941 0.34626889 1.0784774 1.6290723 -2.6380103 3.7522502 -2.7440953 -2.3978059 -1.2373197 1.6627184 0.21628651 0.63505918 3.158097 -2.1547587 2.460217 1.3548641 -0.67691368 -8.2651978 1.037394 -5.8846841 3.0298512 -0.8080287 2.5048108 -4.309701 -1.6070571 2.5185385 -1.50582 -5.7776279 -3.6002178 5.3756342 -0.59129989 -4.9889927
1857.OH-01.21.COLU.txt -2.5917957 5.9667912 1.0974224 -0.59911007 -1.4924214 -0.58435374 3.2196631 1.8767779 -0.11709265 -4.6881623 -4.9536309 4.3867984 -2.3491471 -6.1089334 -0.12269434 2.8101203 1.0245281 1.5619501 -4.6195765 -6.1779914 -2.6150818 -1.4468144 0.020780321 3.6368866 -1.4314595 -5.5228438 1.2302935 0.58236718 3.1505172 3.4328558 -2.4864399 -3.9569879 0.21326771 5.1173329 4.151134 -2.402168 -1.8486463 5.8210092 3.8471148 0.329409 2.8061304 0.97886282 -3.4654598 3.1222172 -4.1821547 4.9677744 -2.7880132 0.88952279 -2.0161762 -4.791091 -7.5481491 -0.084625885 1.7234712 -1.3890754 9.1106901 3.2044811 -3.617192 -2.8479493 1.1928689 -1.5152837 -6.3053479 -1.0805981 -3.7395933 -2.0126889
1848.OH-09.06.CLEV.txt 1.6347508 2.7395523 0.24911241 -0.6509943 2.5081933 -1.5212265 -1.8222826 -2.8295248 0.99794108 -2.644393 2.8197031 -2.2829123 3.5987604 3.3037739 -2.1302481 -5.0712342 -3.003139 1.8946936 1.9791518 -5.7413707 -3.566088 -8.4520159 -1.8777255 -5.8586173 -5.2152858 -8.3149376 -7.5656171 2.7249303 0.6762749 1.9063091 -0.48966095 -2.3254211 -1.1294191 2.053689 0.11281339 -2.3882623 2.9084809 1.1841604 3.8069024 -7.7309337 -3.1568382 -2.188015 -3.4423339 5.4316087 0.24714719 -1.1443737 -6.1973405 1.3075494 -0.10139378 -1.5001349 -4.2203383 4.4479985 3.8400843 2.2057657 -1.6524369 -5.1574578 2.0876257 -0.48974702 5.0107722 -3.2798762 -1.6103828 0.19398712 0.044472259 -7.8625665
1856.IL-11.13.ALTO.txt 2.5416217 -2.1269372 7.139915 0.92738795 1.0121739 -2.1835918 -2.3870375 3.5567679 -1.6547666 -4.0340476 -2.0896428 5.5862083 2.6991425 -0.62248462 0.78199112 7.0883145 0.94696355 0.45208445 5.019403 -0.046851348 3.0005162 0.25922066 -2.8938622 1.3500564 -1.7665104 -0.50446326 -5.9186029 2.2599161 -3.485157 1.3585017 -6.2661548 -0.60329998 -1.4428282 2.9310553 -0.45047182 5.7715998 2.7500229 1.3507822 -3.1034019 -4.4184875 -1.4024607 -2.1814969 -0.66717404 -4.559947 -1.2274591 4.1127715 6.8435798 5.914638 -1.4004174 -7.0411367 -4.3205385 0.89006507 2.5920458 0.29120624 5.7816195 -0.48212308 -3.6253188 0.50151402 -1.6395046 0.74372661 0.85093701 4.8429871 2.9041882 -2.6001413
1865.NC-09.29.RALE.02.txt -0.3493588 0.41054711 -1.8204459 -0.57534796 1.7423347 0.28266624 -0.69968027 -5.446167 -0.38785875 -0.86881304 3.0124638 -2.0798476 -0.47180766 2.1714537 -1.6536134 0.9639225 4.1293669 -0.27883908 4.3855028 -5.9165645 2.7692113 1.8767037 1.7584466 -1.0633194 -4.1412754 1.9442285 -2.421772 -3.3040946 -5.293057 -0.88310826 1.8980308 -3.4118717 1.1002659 -2.6005712 -2.7185144 -0.73985267 2.0867498 -3.1811998 0.013592798 3.4462433 4.6172643 -0.15252021 1.3421309 1.8951498 2.8115525 -3.8767424 1.2876073 -3.1839681 -6.1720204 2.6726329 0.5887019 0.033821862 0.16347422 -2.8548033 6.5181689 0.051748749 -2.2595294 -5.0598216 1.6994668 0.89759141 -5.492702 0.8019262 1.6158547 -1.3563519
1830.PA-09.24.PHIL.txt -0.11380304 2.4756021 3.5497661 -2.2223928 1.9824824 -1.8310268 -3.777576 0.46091062 -0.019355843 2.8526134 -3.3892629 -6.5230145 1.5445511 2.508091 0.34299496 -4.7390952 -2.2091396 -0.85247397 -1.3166097 4.0873122 -0.82941186 6.0136943 -1.2710611 -1.6508595 3.0969989 -3.5465434 2.735291 1.2573924 4.1360235 0.60374373 1.0888184 -0.48381755 4.9058061 -6.2676105 2.0415297 2.2955024 0.36404684 5.1836734 -5.0233855 -4.3708878 -0.62812126 0.81216383 7.9558773 0.14560644 2.8512726 -2.0438261 0.058526829 -2.60514 0.3255803 -6.1117935 -7.8575263 -2.0631504 0.6143536 2.6907992 -6.0610461 -2.3779054 0.26919383 5.7306223 -3.8668044 5.6028399 3.8742251 -0.077632412 -3.7692637 1.8262215
1849.CT-09.12.NEWH.txt 5.1999373 5.8711119 1.6903516 -3.3223002 7.584444 0.43654191 4.8674431 2.4498188 2.0259035 -4.8137722 -0.24107264 1.4344919 -6.8706684 -0.62814647 -0.014523253 -1.5226291 1.3325651 3.4794052 -0.40615121 6.9957595 -0.39155152 -2.2336805 4.9127669 2.6937904 -1.9192729 -0.091699138 2.7976491 0.0083460603 -1.841406 2.084007 -3.7382748 0.11650568 -6.7518129 -1.505893 -5.7344975 -2.1250012 3.817914 -4.0664124 3.2513599 1.3410522 -1.8789992 6.2145338 -3.2845263 -1.9624439 -4.2206798 -4.9076791 3.9020102 2.9997959 -1.147072 -0.8563568 4.0723124 4.9585929 -6.7907677 0.70525473 -5.741858 -4.0333023 0.82497221 3.0262206 2.7528615 -3.8028686 5.1480136 -1.8573991 -0.78681558 -1.4416624
1866.PA-08.08.PITT.txt 3.7060616 -4.9106188 -2.7866888 -4.4221354 4.9368353 -0.87427324 0.33644503 6.5499845 -3.1427593 3.2318113 2.0273373 3.754508 1.5698458 -6.4926105 -2.7772853 -1.1614679 -0.47327676 -5.0305386 -1.4494296 5.7865458 4.5442009 3.0894861 1.1783162 -2.2628152 -5.4159784 -1.7569133 -6.7217121 0.14573282 -0.86697352 -2.2655163 -2.5458407 3.9957116 -2.810874 0.23006341 -0.74251336 -2.0756671 -1.4539926 -9.7282991 -1.9049183 2.5213904 -0.86036521 -6.1230569 -0.40412182 6.4908733 -2.2121501 0.14157316 -5.4421749 -5.5981498 1.0880994 -0.36706546 1.264302 -6.3466144 1.0488214 -1.3640097 -0.73361677 -7.509119 0.56474191 -2.1763151 4.7696476 5.2508307 0.88575387 -2.2456818 -0.52052349 6.2304444
1871.TN-02.22.NASH.txt -0.60623264 0.11003616 2.4960594 0.76586372 -1.0421633 4.1011243 -4.0846934 0.84741807 -0.055044875 0.083072588 1.7087595 -0.89208162 -1.1002058 -3.8174403 -1.1153035 1.8248113 -3.8448339 0.61709446 5.2485476 0.94306952 -3.1006815 -1.2239088 2.6369915 0.95632792 0.24264741 -4.3032446 4.5146861 -7.8810415 1.9121994 -0.81077987 -4.6011114 3.7027025 0.95965445 -5.3290815 1.4193999 -2.2138331 2.222837 -11.824416 -2.7094655 6.6263661 -2.0032482 -4.7604513 3.8703215 -3.3631592 0.18445162 -6.017014 8.1453753 -0.25085208 -1.871264 0.18145539 0.09770757 0.11803321 0.34354365 -6.5626798 5.0423503 0.86379045 -1.8849587 2.7513659 -6.0413694 0.28701904 3.7890882 -1.9292303 -7.8806024 -6.926867
1856.OH-01.16.COLU.txt -4.4987526 8.0844269 -7.8337588 2.4990177 0.78634208 -2.094887 4.559967 1.010492 3.781424 -0.2126862 0.51846784 -1.4228016 -0.64079255 -7.0648308 -1.7465347 0.98879248 -1.325833 0.80944449 1.7348831 -2.6504595 -2.7702618 1.8770065 1.1794999 -5.5075622 -2.9392166 -6.2681231 -1.5096154 -2.981581 7.3969641 3.6504297 -0.92033464 -8.9238443 3.6283779 -0.047788911 0.88393575 -2.606905 -4.7783356 -0.026658142 7.2745547 0.95210767 -2.1512425 5.444067 -4.2568583 1.4418812 -0.19282281 3.4428208 -0.43449476 -1.0223463 -2.041748 -4.5337896 -6.09442 1.0335281 -3.3723722 -2.9419353 -1.0928069 0.90162313 -4.1633992 0.81134886 -2.7691646 -1.1211498 1.5298945 -0.37655255 0.73573744 -3.0997853
1854.NY-01.02.ALBA.txt -2.4270263 -7.5654621 -9.9901991 -1.0364635 2.1544316 5.8899875 5.0353575 -2.0366619 4.5705457 0.60534173 1.2565502 3.3162553 -1.3588109 -1.8589402 3.7974629 -2.727596 -0.69462591 -6.7346873 0.10406911 -2.9687743 3.9794254 1.0351604 -1.2188531 1.4911823 0.047277957 1.3976971 11.05497 6.4932547 -4.7524948 -3.1662543 1.4216661 2.1359792 -2.8616452 -2.2002356 6.0268149 1.305053 -1.3923727 -0.4360534 -5.658814 0.88563859 -8.4162378 1.1874772 2.8191054 0.98292172 -1.7808827 0.55147797 -3.5121584 3.886862 3.4975097 -0.029138038 -5.0888805 0.33996156 -0.14775021 4.3046751 2.931515 -1.9186199 -0.12024379 -1.397902 0.99040675 -5.0355692 0.70102865 -4.5128188 4.3515749 0.14107306
1858.MA-08.01.NEWB.txt -0.39154279 -3.8983624 2.6581271 7.7951126 3.9826691 -0.023652075 0.92080343 1.9146243 5.1900058 5.3824582 -2.7909558 -4.3818216 1.5054425 -3.7606122 0.11524376 2.0881245 0.97466689 8.7521038 -7.485528 -4.6869478 -0.56113422 1.6409715 -7.4606729 1.5744154 4.1928992 -3.8834305 0.20211563 -0.22060764 -4.7841134 8.0109062 -1.9924511 -3.0333781 5.4872465 1.5714259 -5.8248148 3.7570553 -2.6264622 -1.1211905 -6.7090392 -0.6639657 6.5479116 5.1962395 1.1816145 3.965178 2.2068765 -2.7161303 -2.7296572 -0.96654326 5.4458399 1.7486657 1.1216466 -4.1155701 2.8012202 -1.4970051 3.1918716 4.6074452 1.5895996 2.7500839 4.5282149 3.2055006 3.2898328 -4.334322 -0.17007631 -0.57780999
1867.PA-01.08.PHIL.02.txt 6.0834837 -4.5486212 -1.4460096 1.3938857 -2.3119066 2.6787601 1.6076056 5.7562213 -8.3984041 3.0725942 -2.1748531 -1.549899 -2.8544428 -7.3037071 2.1759787 4.9106717 0.022619927 0.58367425 -1.3398746 -8.4670372 -5.9726691 -0.19500586 0.64884788 -3.6331637 1.6537764 3.9674392 -3.0649867 2.1838191 2.0107305 -4.3535213 0.90533555 3.3049681 3.5797567 5.4492774 -3.5496895 -2.6854074 -4.6363082 -2.3873913 1.4316649 -1.3313582 -4.5723767 -3.2343745 11.219396 -4.9909105 -2.4659855 1.2146031 1.6304905 -4.822804 -0.6059134 4.8749342 3.6730289 -2.0755143 6.5291805 -2.5969517 2.3986766 -1.2276134 -3.8197601 3.1488516 1.3816851 -0.65478486 3.3065255 3.2354679 0.13610081 3.7963936
1841.ME-10.06.PORT.02.txt 4.9176879 2.5498645 1.0666475 3.4822271 -2.3924856 2.3736925 0.48440886 -0.97275025 1.6769572 -7.425981 -2.1553326 -9.2691259 -5.3639488 -1.8961776 3.1734891 6.0079155 -3.3263078 -9.9082031 -1.3998039 0.78845739 -4.2389479 -4.4533877 0.45029131 2.6586144 0.55609208 -6.505002 2.7681422 -4.2425289 1.3660753 7.2863431 4.4329314 2.2016914 2.5411904 -1.1421738 2.8117347 -2.5601974 0.135445 0.83466721 4.651917 -2.7253349 4.2866278 -4.249814 -4.0252409 -0.60437107 -1.602739 -0.53148109 1.1210935 6.0891566 -3.6208878 4.6178255 1.139848 3.1249871 5.3299756 4.2190137 0.59628642 3.6858826 -1.9834949 7.6382704 -0.312774 1.1581324 -5.1432967 5.2946496 3.022841 3.9507809
1843.MI-10.26.DETR.txt 0.5969401 -0.41142729 2.7518811 11.437637 2.3206592 -3.2815139 -7.4983211 -2.7741005 0.36337474 -3.0321317 0.84704208 1.6075063 1.823826 -2.5796516 -4.7516122 -4.8562908 2.8800001 -0.35305193 -5.4904284 -4.1738205 -3.4655602 -4.060554 2.320049 -6.2394061 2.0808516 -0.81591791 0.65539312 -5.5397406 -3.5879166 4.3106022 3.046366 2.571408 -8.4828653 3.4264059 0.074601196 -3.1628783 0.10095014 1.4820615 -0.42829281 -0.98062074 -1.8438216 -4.3305578 1.3570281 -1.783708 -1.5076585 -3.1893826 5.8821249 0.89347953 -0.25728658 1.5552841 2.104923 5.0824237 -1.600525 -4.6396604 5.8276196 -2.8555694 -2.6463885 6.4683781 7.4951348 -2.8622398 3.4161377 2.24577 -5.6526384 0.25609505
1854.MA-01.02.BOST.txt -5.6572785 -2.7449594 1.4242748 1.37772 -1.8932639 1.0599405 0.80960959 1.8042057 0.60110271 3.9738016 -5.2253633 2.6510425 0.10034703 -4.92625 3.1727302 0.7014786 -3.5095053 7.0207334 1.4333448 -1.1555544 4.6316619 -5.7696543 -7.5378084 2.3948083 -6.6027899 3.1154611 2.5671058 -2.5762072 3.4187493 5.2186356 3.3145535 -6.4140735 -0.48613495 -2.1601837 -1.4696989 0.99257046 2.0656624 1.3050951 -3.8148873 -1.7293693 6.5682015 6.4689898 0.2596983 0.33501896 4.6839247 0.10622612 -1.9862616 4.5715914 4.1558471 -1.0165048 1.648096 -6.469202 6.201189 -0.093717106 0.27779287 -4.6357713 7.6896901 7.6578412 1.4130952 -0.54442275 -2.6068597 -2.1037841 -8.5793257 -3.5238643
1858.NY-09.14.TROY.txt 0.7527796 -4.0650239 -4.0824347 -0.94438332 0.6989947 1.5493875 3.0468795 0.67529124 3.5647211 2.6902566 -4.3040047 5.7127008 2.5646944 -3.6251278 0.14666869 -3.269506 4.9467525 -8.3715363 -0.75372452 -1.0185052 -2.9018776 -10.434636 -3.2851226 -1.8691001 4.8231821 -0.84437895 5.0095615 -2.8110063 -3.3424284 5.0776486 -8.0452728 2.6116669 -3.0009134 5.165812 -7.0220747 -4.6943521 4.1137724 -7.6027083 -1.3423612 6.3691082 0.053989191 -0.97136396 -2.1883428 1.3827062 2.6198857 2.832984 0.90989935 -0.10428103 1.5857395 -3.8420994 6.7899899 1.6739566 3.5564442 0.69592601 2.2094057 1.3986168 -5.7696619 0.04992694 0.21143204 3.027384 -1.5394599 1.1024117 7.6023746 -1.1453342
1851.ON-09.11.TORO.txt 2.5466776 -2.6130056 4.3517175 4.4576788 6.8073196 -0.89468759 1.9569341 1.7211964 3.0983274 -4.8795176 7.5518169 0.00018574101 -5.432579 -0.92654812 -9.4554901 -8.1161146 -5.4140797 3.0178347 -5.1818614 -3.661983 -0.58562022 -3.7573435 -0.64911586 -8.7032108 1.259521 -2.7099695 1.2546268 1.3593695 -2.03021 -0.95301461 0.39211303 4.1626945 5.7256007 -2.1300457 4.8264494 6.3978062 -1.532187 8.2599707 5.8009849 -0.011323446 -5.579463 -0.7006799 5.6787868 -0.34667996 1.1567336 -2.3562496 -1.5232995 0.13836235 0.26187405 0.31399706 2.684639 5.1386962 -2.0000076 3.217608 4.3998675 -2.1716957 1.2442949 -2.8152015 3.3554022 -1.6615908 1.772458 6.578259 1.7550193 -0.077199869
1865.MA-12.20.BOST.txt -5.0105901 -12.013468 2.9331274 -0.31640321 1.2795826 4.4226747 1.6527313 3.1889069 0.23388563 4.7449446 2.4289243 -4.8903041 1.7116629 -3.1492066 -0.39613524 -1.1023593 6.0232191 1.6730782 -4.658246 -4.4404736 -6.0845609 -2.8971596 -4.2666116 10.088736 -0.62038648 2.4731052 -4.6038389 4.9495168 3.3640485 1.2517034 0.45873296 -4.3644152 1.3325443 -4.7773647 -3.0640616 1.709305 6.2426138 -4.5850577 -0.50746673 -6.6529818 6.3038292 1.9330933 -0.30871862 5.1369681 -2.9263105 -0.70919853 5.4361858 3.4237368 -4.8865395 -3.5650802 -5.4117827 -5.3793526 1.5631261 -5.112968 0.916906 -4.7934389 1.399851 3.9833753 0.044899005 1.1781596 -1.2996879 -4.1131544 -5.5386295 -0.11613593
1866.KS-10.17.LAWR.txt 1.8254665 4.0239449 -7.30586 1.6097629 3.0802422 3.1463819 -4.391057 1.3550606 -5.2175374 -2.8057895 3.7264512 2.6019015 9.0830917 -3.5878196 4.5710511 4.181581 3.9906242 6.1904855 -0.032060683 -5.9601483 -2.8314168 3.004209 1.0941069 -3.4489346 1.6263795 1.839188 -1.9537892 6.9283223 -0.59245479 -2.9686623 -7.7513733 1.98998 -0.69497532 2.7721591 1.3955895 3.5301683 -4.5974112 5.1901999 2.4452963 -2.8643005 3.4246562 -5.456419 1.0749639 8.1472721 1.0299319 1.7078595 -3.7796738 -5.6888132 3.7952363 -1.0289128 -2.73525 -0.3581638 7.6062555 -1.0915343 -3.2050338 7.1490383 -0.82791567 -2.5382047 0.84674621 2.757823 -2.0455265 -3.7824712 1.4227544 1.3863783
1858.ON-05.08.CHAT.txt -8.70714 -0.3344081 -0.78696799 5.5366535 3.0448298 1.3247329 -6.9089155 -0.93967074 -1.4170281 -1.7004482 2.2758393 -2.5360594 7.6206441 -2.7170479 0.85224175 0.35892582 -6.5508995 5.6069021 -0.92464399 -0.43776003 8.380621 -2.3484149 -5.9260054 -10.584454 -6.3864937 -3.0383785 5.7639532 1.8240228 -1.320756 -2.0172622 -1.8436971 7.9265809 3.579906 1.8377109 3.3513651 -1.6431464 -5.323544 0.10688175 2.8487847 -1.323338 -5.4977512 2.5149806 0.39671525 -3.550494 -5.8707504 -2.9891939 1.9111938 -3.5981109 -2.2984138 -1.3204117 -2.7540834 -0.65382975 0.41918442 2.8780127 -0.37298861 -2.9785106 -4.5681467 2.5215571 2.4715705 -3.3201432 4.6911864 -5.2505403 1.0257467 -8.8681154
Frederick Douglass -5.1318035 -4.0818954 1.3120807 3.3310993 -0.4375532 -2.6975806 -1.0610796 0.46320286 -6.6043539 -0.42474449 0.79514199 2.616416 -0.43339232 4.3054523 1.1589028 2.4868507 -2.6032929 2.6384046 3.6140532 -0.045676786 -3.4027917 -1.6608467 -0.21499479 -3.0612237 -0.55565816 1.4833579 -0.65602434 -2.1766162 -3.2405717 2.5461431 -1.9321645 -3.2282441 -0.27669892 0.0090712151 5.465147 1.2469604 -4.0069304 -2.6698227 -0.75594699 4.3769979 5.3058352 1.6855125 1.655486 -2.8311825 -7.7178473 -3.9886684 -1.7226561 8.3383818 2.2012079 -3.9018722 -1.2826021 6.2589521 0.42182612 0.027611863 -3.4136994 0.61739677 -2.1028128 0.36999869 1.3721546 -5.2742219 -3.1701157 -2.0059056 3.4777758 3.8277423
1871.KY-01.01.FRAN.txt -4.8804507 -0.10576365 0.069504187 3.613663 -4.3153119 0.60911787 -5.87467 -0.080560237 2.9838939 2.9545097 -4.8420243 0.84482241 0.51174712 -5.1885686 0.26714897 -2.3820083 0.2801314 -2.1556447 -1.9364437 -2.9806228 3.0125573 2.1975269 -5.5820374 4.1731892 3.6115754 -6.8792338 -2.2909997 -3.6467571 -2.4260941 -1.3128089 -4.1556745 3.4996355 0.32471603 -1.2276624 -7.9934068 7.7129107 0.49226382 0.15124981 -2.9303169 3.2228189 3.3930116 -5.3063254 -2.8898325 -1.0156426 3.3870862 -7.9046226 -0.90000433 9.9350681 2.1715159 -2.7245946 -1.189756 6.8289909 -0.96308684 -2.9070568 6.0578604 5.4910717 2.6151066 -1.3215822 -6.7008128 -0.22121336 0.36189392 -3.1298404 1.0635289 -12.565415
1895.TX-05.23.HOUS.txt -7.9206901 -5.3826914 -8.7162905 -1.3673279 0.51034194 6.6349835 -0.19461562 -0.67315805 -2.4300838 3.0582221 -1.1798261 1.0146757 2.9856882 -9.5027246 -5.4932528 -6.7399049 -3.2881293 0.46714261 2.1408119 -5.4656439 3.8546793 -2.7562144 4.6574059 -1.8540249 3.6174428 2.6370094 5.1071239 0.022810498 4.9672117 -5.6745386 1.129235 4.8410153 0.97908008 -2.8541493 -1.4466321 -2.8270407 3.8055975 5.3447318 5.6256456 0.3001717 5.5684772 -5.4444695 6.2666593 -3.336591 0.71287942 -2.7256095 1.6577034 2.1368203 -7.6824965 -6.905097 -2.0966527 3.2344575 6.4348426 -3.4445736 2.9739938 -3.0640416 0.32768095 2.8494563 -3.9111457 -0.88103729 -4.4212294 2.870928 -2.209686 -6.4795551
1865.NJ-07.13.TREN.txt 5.3296552 5.4017611 2.6644034 -0.13329412 2.2105134 -0.44711229 3.2839503 3.0749941 -0.18345787 -1.7886735 -5.8451619 -6.3563352 -9.4814167 -1.3136095 7.350307 -1.9956617 -3.3048487 -1.5146164 5.0135903 2.1106372 -0.33319467 -3.9681017 -0.17448272 0.77491081 -2.0541451 9.2675352 1.988309 5.3094864 -5.9900765 0.79635793 -1.5956035 1.3537266 8.7891359 8.1755962 4.8076272 -0.089828983 2.8820713 -4.6437974 -0.80263513 0.23651847 2.9150598 0.64957696 12.813809 0.67070216 -2.2239602 -2.4814274 -0.60711008 -3.8961346 1.1129644 1.069653 0.088706911 -6.0674653 -1.0884504 2.2102509 2.6235723 -3.8576524 6.1960058 -6.330987 -0.88644207 0.62021774 -4.3571949 5.7910666 -3.3440683 -4.9214454
Johnson -0.43304819 2.3296425 -0.77306855 0.80971414 1.5216434 5.4973874 1.1878732 3.2874937 -4.4450493 5.23245 -0.51568496 -2.566838 0.90141344 4.4730868 -1.8346187 -0.54938865 1.3831247 0.78193933 1.2461811 -0.9979201 5.9477859 1.8508303 -2.6631281 1.3325123 2.813895 0.13630047 -3.4017549 -3.2066066 -2.8801544 1.2702138 2.0974545 -3.6172895 -1.7091098 -3.3870707 5.1048741 -1.5225453 4.1179533 3.6570737 2.6799366 1.5951352 -1.7338207 1.1560369 1.4401619 -3.0422406 -0.91188055 -1.4046888 1.5670382 -0.54499161 0.56554443 1.7301396 4.5231476 -0.61240709 -3.1197262 -1.5429287 1.9914978 0.69480753 -2.3199909 -4.0492415 1.7966878 0.58394486 1.1942394 4.5510197 0.97698051 1.0353717
1850.NY-08.21.CAZE.txt -1.6896907 -2.5779204 -11.669802 4.9685097 4.2655144 -0.49316001 9.4199038 0.84311652 8.0213604 -3.5270674 7.0720248 -2.2044952 7.4721732 -6.5282707 3.0346253 1.1203052 -0.9883647 0.64036107 3.4985507 2.4423625 3.0287821 -1.3604835 -0.70040506 -0.6683045 4.9819398 -6.3421335 11.55636 -4.1293654 -0.8180654 -1.6587596 -1.8567071 5.6000981 -3.3686142 -2.0302744 3.0212197 -1.4104642 6.6674757 3.0248263 1.7748532 -2.028949 4.6667709 -1.9443244 0.95000398 0.90238321 5.3406844 -0.82259887 6.267695 1.5085149 -6.1810994 -4.959619 -1.9529644 -3.2062361 2.7135193 7.1680527 3.6254706 -4.4402571 -2.6577384 -4.9251113 0.91629368 -4.1092572 1.3276454 -0.37378356 -0.70244956 0.66482043
1865.NC-11.29.RALE.txt -0.63315475 3.1532621 1.1572022 4.757648 0.97588897 2.5531008 -1.6449083 -7.5471897 -4.2964458 1.370342 8.0192957 -4.7486596 1.6100342 2.1532102 -0.7205134 4.2634487 6.5575271 3.468019 2.8659263 -2.3137844 -0.44771701 1.1496291 7.6939592 1.7574766 -6.615571 1.6793624 5.4934545 -6.170269 -3.9785488 -2.9623284 6.134872 -1.8974383 -0.58803535 -4.1607437 0.26470584 -1.8002862 0.11730043 -1.928158 2.7959166 3.4916604 -2.4291394 2.3380892 2.9963992 8.2515421 9.8823013 -3.9640605 -0.091002144 -1.5276042 -3.2850978 -0.1715042 2.9777675 2.5566385 2.5023372 -3.0413809 3.9744062 -1.9541779 -2.0051939 -2.3719413 1.0620894 -2.0525107 -4.979763 3.9731519 -0.43660405 -1.2483273
1863.NY-07.16.POUG.txt 7.0724587 -8.1721306 3.2765019 0.13153559 -7.1002007 -5.6149592 2.3801162 -0.88280874 3.3702598 3.8995578 3.2191036 -9.6566858 0.9442268 1.8146814 7.4135714 2.0390239 -2.4018331 -0.34439808 1.013149 -2.6377254 -0.81905687 6.2360864 -0.54124898 7.7140875 4.5175858 -3.429579 3.826062 -5.573349 -2.7465258 4.3452282 -2.5265272 4.1827393 0.62469226 3.1410909 5.4442968 -2.0485363 -2.4066527 -6.7154517 -4.3045678 2.2127678 -10.08772 -1.1255683 6.3189979 3.8056126 -3.6320329 1.5035441 0.84858179 0.466934 -7.8827124 3.776597 -5.594677 -2.2906475 -0.49391773 2.8499215 10.11308 -2.7289524 -3.0506794 -4.4789701 0.78029418 -8.7644053 0.5107767 -4.6973095 -2.3571403 2.0946426
Douglass -0.80937082 -4.8690376 0.081064016 3.2358296 -0.88056779 -1.8865607 1.8279653 0.59277713 -4.1524086 1.53386 -1.4104488 1.9996437 -3.0309618 5.5018559 1.7939372 5.5221825 -2.1155238 0.62825227 -1.6237878 2.7778604 2.2471979 0.42665452 2.2076139 -6.2115164 3.8705504 -3.5310891 -2.1982231 -0.38524014 -0.72446299 1.1976788 -2.2096999 -4.949851 0.23618189 -0.65240735 2.8544376 -1.0185018 0.46773136 0.11879442 2.4415209 0.38746357 1.7041682 -1.0350289 0.74366605 -3.1117725 -1.4139624 -0.32990038 0.4686051 1.638299 2.3796854 -2.7246175 -2.4143186 4.7629232 2.1338868 -2.5324581 0.57152784 -1.1554692 -1.8817277 2.8454967 0.94670105 -2.2825487 -1.7978356 -1.4182038 0.96314663 -0.72710103
1851.OH-01.15.COLU-b.txt 2.5877163 3.692776 -2.2618518 3.5613627 6.0892916 1.6031729 0.50734597 -3.8023875 -0.58664328 -2.8289943 1.8162814 3.3234584 -3.5625482 2.5898242 1.3968482 0.15269046 2.4312637 3.9280849 -4.0694489 -3.9667237 -6.7267275 0.92735356 0.56236058 2.0296056 4.6991892 -0.56891382 -2.6226478 3.728518 -0.43139639 -2.6124213 5.282763 -5.5102091 -3.6146336 2.7180452 1.1298926 0.21106803 -5.8119822 1.4442173 0.30665544 -0.12164524 3.4944408 -4.0826778 -0.79355448 -3.5507867 -5.0211477 0.18196242 1.426496 -2.6856079 4.6634665 1.0523087 6.4673605 -2.7666445 0.58230877 -5.191215 7.0240283 -5.9492397 -7.886034 -4.0352387 -5.3224969 -7.8648138 -3.5851479 -5.7937837 -4.4670773 3.4197543
Harris -3.8103302 5.8604536 4.9921255 5.1002173 -2.2234368 0.9985612 9.076767 -6.7828002 -3.7111318 1.4860269 4.2588692 3.400528 2.2672462 2.2203658 -0.97953713 -0.32808962 -1.1017258 -1.0378628 2.3315525 -2.4812098 -2.3308911 0.69034779 -3.093529 -4.641171 -7.560885 2.672585 -2.0798576 -4.2981205 0.69213372 -0.85090172 -0.40531507 -3.8333924 5.3547068 5.2310042 -1.0937986 -2.5171411 -1.4620222 -1.6635811 -5.0972314 2.8738744 5.3507609 -2.7216494 -0.18326485 -2.5236022 -3.69138 -0.64065063 3.250881 1.0486586 -4.2369728 0.47623721 1.3463129 3.3704338 -4.4292135 -0.3798365 1.8406414 -2.555804 0.9405387 -2.9178672 -0.79140872 -1.0215465 -1.1818819 -5.5105901 5.1366649 5.0969381
1844.NY-09.18.SCHE-Report.txt -1.273478 -5.6529779 -1.7708204 -2.0357378 -1.7663572 -3.0713072 -0.78518826 1.879526 0.61574918 2.1961718 1.6551518 2.2901406 5.2487168 2.5827942 6.6422672 -1.4359144 2.7178657 -3.9159868 4.2873764 -0.80339545 -2.7019455 -0.27678937 -6.3542132 -2.4114861 -0.57862347 -1.4626215 2.1344912 -4.8855343 -1.4131576 -3.6349623 -9.004961 1.7902098 0.21106984 0.58060092 -4.5277119 0.51662648 9.9228058 -8.5094366 -3.9274728 -2.1842334 -4.8470483 7.4979234 -2.9609048 1.0112312 6.1246781 -0.76785862 1.0301272 5.121305 -5.5853267 -0.58902794 -4.5923285 4.1078205 -8.9930439 5.634172 -3.3151813 8.8807659 0.24933912 1.685282 2.744314 7.9570923 -1.9084606 -1.5689389 0.37831539 3.6124794
Jackson 0.035643615 1.892024 0.75174356 2.8078952 -0.15227275 -3.8483801 -3.0490818 5.345036 3.8695674 -2.1429219 0.78562641 -0.77971417 2.1380897 -0.2547881 -7.4859076 -0.16767523 -2.0723851 -1.9960557 -0.70406187 1.3063639 0.15583313 -2.3960762 1.534027 -0.12703301 0.82566679 1.8543872 -1.1116689 -1.1245768 -1.4129709 -8.2682753 -1.0952448 -6.7854953 -3.1578066 0.16594546 0.30339968 0.42082214 3.4462345 3.1296012 -0.60649961 2.0642874 1.0325165 1.3319359 -2.0558968 -1.3881463 -2.3079271 0.32841137 -1.2379893 1.3108377 1.026325 2.5474989 -2.8465941 -6.9161687 1.8983629 2.0791845 0.26080918 1.0344541 1.6536496 4.4883099 -5.4173989 -2.0933444 -2.7311785 2.2080019 1.4974821 0.26685813
1852.MD-07.27.BALT.txt 6.4134316 -0.99060333 -7.0957403 -1.1241132 -2.7231767 -1.7316836 6.6108007 0.3873772 1.177678 3.740067 -2.6512294 1.2422793 1.7194077 -1.7165271 -9.0188379 4.4154873 1.6636791 0.32835379 -7.5601997 0.91819346 0.046451349 -0.67341399 4.037281 4.5749688 0.7118963 -7.1389761 -3.1370595 -1.9497241 -4.1623282 6.1029696 1.1127511 8.8868246 -0.76740515 0.44099009 -5.974997 -1.6102874 1.0931625 5.0773778 1.17624 -1.0816883 -0.42876685 1.7561846 -1.9479402 5.2025666 3.1554148 -6.9262652 0.12784034 3.2329099 -12.151189 -6.0755115 2.043004 -4.2068186 6.6614442 0.25333446 -2.3014848 -7.6192503 -8.3991318 2.2167273 -3.1315722 -3.1290503 -6.1696925 5.3386693 -1.9963351 5.6918087
1867.DC-01.28.WASH.txt -0.53923601 -0.11437561 -6.8766069 8.503005 -1.6653626 -1.9315536 3.362838 3.019882 -2.6216502 3.1025875 -2.0393035 -1.7669848 0.83747 -4.5783558 2.0899572 2.8370991 -1.8759456 0.60696179 0.93966168 0.35780889 3.1902733 5.6088624 3.9335155 4.6149101 -11.007487 -2.9615147 -2.420295 -0.3010219 -3.2439456 -4.3059521 9.2585716 2.4066093 -0.67715931 -7.3241053 10.527556 0.51713341 0.69625354 -8.5925484 1.155936 0.87959611 -4.8501368 2.2247057 -0.33133814 -1.7621602 -0.26709327 1.5375756 2.6077785 -0.26850596 2.7610319 2.1328917 -7.961257 -2.1259573 2.3697882 1.0411179 3.5280325 -1.4453095 0.44043711 2.9209116 2.0377111 2.0074813 -0.13410462 -13.567173 -3.2023463 6.3063426
Smith 0.51379228 0.96914274 0.5942896 1.427874 1.5918615 -0.57633281 -2.4549701 2.7980301 -4.3928828 0.63490176 -0.31647235 0.38313225 -1.1662568 2.1034205 -1.7925547 -2.8863518 0.27794233 -0.27347228 3.3193958 -2.5613422 -1.6709867 -4.6020341 -0.37533253 2.944443 -3.1290824 -1.3336341 0.52208775 1.064495 5.0625768 -1.6918128 2.1973522 -1.3676358 1.3477662 -0.76105851 2.6934323 2.3935881 -2.9777341 -0.3336727 -3.5632458 3.8682485 0.20935288 0.28827038 0.83251107 6.0220194 -4.1037993 -2.5720253 2.7447717 6.129847 -0.092486829 -3.005327 5.304245 -2.2602422 -1.8088994 5.668407 -2.0782011 6.0316343 -3.6917701 -0.15845987 0.37001902 -1.9162114 4.0964403 -1.3383614 0.075094648 3.4312391
1867.DC-01.10.WASH.txt -4.7286916 0.17712663 4.1588588 -0.63116926 -6.5869184 3.6236212 0.76292324 -0.48144853 -6.7650237 8.2158165 3.0089619 1.8721622 -3.6854887 -9.9389496 -5.6041965 3.2771139 7.5720763 -5.3443542 -2.862308 -1.4095486 -2.7610512 -0.79461104 1.5664803 10.067015 -7.9500518 2.2439702 -3.1595414 1.9044303 3.6715441 -4.1171408 1.7949383 -1.2974693 1.6090108 -5.3563232 4.4041433 -5.5940571 -3.5340333 -7.1796722 6.0267243 5.4058428 -8.7057714 -1.0139869 1.4168558 0.80638415 -1.2197875 3.0979288 -6.7190671 -2.352689 -3.9442949 -0.56297362 -4.6513014 -1.8552184 -1.7534757 -5.672574 3.7510922 -3.7645581 -7.0781426 0.93624979 8.4895172 0.60496807 -0.14876468 0.72868043 -1.022421 -3.5629494
Chas -0.32937315 1.6324515 0.55944484 2.5161998 -0.55097902 -3.7224581 -0.47572148 -3.7395184 -4.657536 -2.1326978 1.3675201 2.1068201 -3.4638908 -5.8513956 -2.7348506 2.2228777 -5.6274447 0.59791988 3.2691855 -3.8351276 2.2370083 -1.0635436 -4.1911592 1.409077 -2.8897941 2.101697 2.5941136 -3.4950743 -0.48659268 -1.0334413 -3.1687729 -3.6407268 -1.3361691 -3.0294912 -1.7222338 2.3647852 0.42855415 -1.5172862 -2.211894 -6.4572673 1.4006438 -2.620508 0.41699097 3.4392924 -3.8114641 -1.0220215 -2.4841244 0.48674437 5.2751184 -2.4735768 0.62176502 2.551908 -4.4122615 -2.3946326 -2.0832381 -1.1601747 -0.31673807 3.2484038 -3.0737824 -0.92722303 -0.8566584 0.87258196 4.8371949 6.192668
1857.IA-01.05.MUSC.txt -5.4063425 -6.1485424 -4.7341075 -6.2821555 -3.4761875 5.2852254 3.3734055 4.3195953 3.4104388 -4.1375136 3.782861 0.30290928 -2.2554331 -1.5507778 -4.0448227 -2.3667648 -1.9926691 6.3920422 5.8959866 4.2500501 -2.404577 -0.32773355 4.4795237 0.96350801 -2.5461051 -0.20240624 -6.2792988 -5.542881 -1.0629495 1.1691374 -5.6014633 -3.4478433 4.4048371 -5.6211052 -3.1287994 -4.6650095 -2.2971921 -8.0905552 -1.6774408 -4.381742 -2.000021 0.63797802 5.3239083 2.5349436 -5.6072502 3.3119748 4.6515422 5.3033514 -0.18443345 3.5640419 -4.0210533 -1.2173663 5.8102322 -0.87516892 2.5006576 -2.70717 2.7306941 -1.725662 -5.7261143 2.0230455 0.74953508 5.2059455 -0.42173809 -0.97638059
1863.KS-10.13.LEAV.txt 4.9493546 3.6572254 -0.34362343 8.2231865 1.2449204 0.80647612 1.1723107 1.6277895 0.64642614 -5.5940051 -1.9657689 0.18219642 -4.3527675 -0.37059096 -0.43510565 2.7036583 -5.0466743 3.9058299 -2.047575 0.019707525 5.6671486 -7.5049376 4.1620369 7.6391177 -5.5769248 5.9123831 2.1261468 1.6046348 -0.98701692 -3.4242749 -6.6373906 -3.8129239 5.305757 3.3696947 -0.0025036116 4.6520171 2.9263201 -2.3439209 1.4670874 -0.1621172 7.416461 -4.4489536 -2.583988 -0.60841805 -2.2840595 5.4792809 1.0796483 -0.61095107 -0.028335687 -0.11669238 2.6609235 -1.220016 7.9073901 1.2003924 -6.6017408 3.2261202 -1.7851925 -0.26114264 4.0363336 -1.4931408 0.95444095 -1.9056493 -1.4489748 -5.8354211
1855.NY-01.20.ALBA.txt -1.1201658 -7.072453 -6.2924409 2.6364293 -4.07934 -2.5504842 3.497906 3.8541634 3.5655153 8.2885056 -3.7873335 1.6426893 -1.3299038 2.3839982 -1.16335 -7.530324 -1.1172012 -3.6203687 -4.221293 0.23593113 -4.2686577 -5.8233962 -5.150887 3.851819 2.1676986 3.3182325 -5.7750545 -0.93683386 2.5297892 0.42456549 -3.5859854 5.9757266 -0.47667307 5.7487769 -0.3197217 4.9931836 3.2859352 5.3520098 -2.112386 -10.272017 -5.0935197 1.5627536 2.4608996 -6.191299 -2.5165124 7.068367 1.0497332 3.9012294 -3.374007 -8.6871967 2.2905638 1.0833157 -2.4236081 -1.5886257 4.2381577 3.332983 -0.3764956 -3.1593068 -0.47931513 -3.9569731 1.0437272 -1.927272 -0.25166857 2.591809
1854.CT-09.27.MIDD.txt -0.43968105 -0.27402237 0.91440916 -9.5165987 11.515519 -1.2467259 7.4708409 -1.5811433 3.7665727 -2.8165977 2.3505008 8.0294771 3.1290464 0.84968966 -4.3073435 0.030522892 7.6818533 6.9048924 0.89656556 -0.44215399 1.2338185 -2.1223128 5.2193522 5.5805197 -5.7679853 -1.6891578 3.8066249 3.2951009 0.97937268 4.6954231 -1.9624809 -0.79457337 -5.874845 -1.0931531 1.2974509 -4.8738232 6.435348 2.285614 1.3229735 -3.7735224 -3.7364364 4.6188073 0.40595683 -0.30117589 1.3016865 2.4655168 1.4523022 0.560498 -6.3101068 -7.4718189 0.1354212 -1.363736 1.7512728 2.1360862 -0.44765079 4.8980451 -1.0000734 4.6914821 6.1155376 -0.81122684 -3.3018026 -2.9890752 -4.2851496 5.8111911
1868.IA-02.12.DESM.txt -3.3039167 -2.89487 -2.6895843 3.4584749 -3.3873193 4.8848577 3.7343073 1.8783838 -0.32667911 -2.0633922 5.4096479 0.15865512 -7.3759651 3.3870683 -0.18058352 5.7063894 1.6666524 10.763686 -0.69116473 1.6773806 -2.4029865 1.0210243 8.2237587 0.24585436 -1.7316889 3.3208253 0.90059358 -5.3168182 -0.23328929 -3.9877465 -4.611557 -0.15593362 7.3303995 -4.5743151 2.4425871 -5.3691454 -3.1480634 -4.7484565 -2.7689192 -1.7769176 -8.947257 0.43676546 4.7441831 7.248888 -0.66866052 3.528491 3.2188342 2.8900931 -0.19148727 1.0497795 0.3107549 0.32443911 1.6027776 -4.4162874 -2.5816901 2.5620668 1.3698545 -2.1466806 -5.4331789 1.2830641 6.2437778 7.4120493 3.5805466 -0.41703361
Brown 3.0299935 4.9432487 4.1916838 -1.5566925 0.22553888 0.42465219 4.8476582 -0.977898 4.5877757 1.6721481 -3.1448593 0.60104883 3.0058963 -2.7211034 2.3132439 -0.93003619 -5.5595317 -2.4061675 -1.390322 -0.40994975 -1.3227944 -0.72463167 3.7851148 -1.6328866 4.6625915 -0.19864087 -4.4076185 3.0627837 -0.80645287 -1.4137529 -2.2995341 -6.081799 4.8019714 -4.1652651 -1.2673686 -2.0417292 0.8348254 1.8389624 -0.082053535 -0.17459859 0.17432977 -0.29665947 1.8320904 -1.2191601 0.32646295 4.7240024 -0.56277245 -1.6717869 -1.2472951 1.5916959 1.3668143 3.8950956 -0.30881286 1.6976538 1.0399861 -1.8010954 -5.1936178 4.0358777 -0.8250879 -0.84320736 -2.0930777 -6.3582129 0.31581062 -1.7917886
Sumner -5.432106 3.1595893 -0.41781428 -0.44466135 0.68843019 -2.620034 2.9062169 -4.5756693 0.040811349 -0.45320439 0.487371 6.120203 0.47021839 2.3533156 -1.2916622 -1.2441903 -6.6634998 2.5175474 0.48255363 -1.4449778 -0.85422283 -1.834358 -6.2935557 2.240979 -3.0116765 2.5774636 -4.9444737 -9.29737 -6.426374 -4.8022203 2.7519975 -1.6434826 -4.6665077 -1.717162 -1.422328 1.2747239 1.3289349 0.1774132 0.39295486 5.0294003 1.4636354 -2.636873 1.7385894 -5.9353075 1.5540863 0.11134826 -1.3050929 -2.0981848 -4.8762383 2.6568813 1.9488229 -3.4393306 -0.37687373 -5.9057746 3.4108613 2.0607531 2.3245986 -2.3550744 2.239537 -0.72933859 0.85441595 5.2162619 4.1428418 2.7154775
Charles B. Ray 2.6239953 -5.3426075 0.98720497 0.79434264 0.081777632 -0.3906914 3.5609488 -5.7083764 -8.5151119 1.5437567 -6.3130889 -2.6909161 -1.7509042 1.2501551 2.35519 -1.6202674 0.96212792 -0.89265049 3.9878957 0.98568827 -4.8342505 -1.9210242 0.72477126 -3.9833775 0.24523711 -0.16659214 1.2194448 -0.55948913 -2.6348066 0.69586217 3.7486107 -0.55035257 1.1479698 -2.0754707 0.66323078 -0.054683428 1.2109513 3.3992493 0.12590477 3.0126002 -1.5628595 -0.86101222 -1.9343199 0.26703346 -3.354049 -1.8728366 -2.0962555 4.6258087 3.7328053 -5.8479004 0.23816732 -0.92134088 0.7342037 -2.3020921 -3.8962321 4.7705007 -0.99872714 -4.5611711 0.79606944 -2.6081204 6.1175799 -0.71783501 -0.032389082 1.7749262
1845.NY-09.08.GENE.txt -4.1171522 -2.3654277 4.4877496 -0.75734895 -1.8118293 5.4898286 -11.451273 -4.4204516 -1.2428886 -8.1545057 -2.0561268 2.4897978 2.9800236 4.0820856 1.3732527 -3.6504014 -0.074284099 8.6973667 -3.4058459 -2.8379824 -3.40206 11.090517 2.1230252 3.3494687 0.79059291 -2.725266 -1.0689597 1.4218131 -1.7752911 5.7512059 -6.7605429 -0.85787833 2.943222 -1.0218349 -1.6758474 -0.29143879 -5.0415249 2.2645719 0.82967919 -3.5910416 -5.530334 -7.4865866 1.4418163 5.9838295 -6.1063542 3.4304049 3.295361 0.87738514 -8.5203543 -0.62159079 0.5503366 2.3544009 -7.1988077 -7.8492928 -0.35837358 1.6805239 1.2099293 0.24648811 -4.1007824 -3.596386 5.8726602 -1.1045982 -11.303159 0.053381383
Clark -0.99110568 4.747962 2.744673 0.51096678 -3.4962947 0.39211401 -0.52369851 9.4467983 -0.015613458 0.30986461 -0.49173325 -0.83882445 -0.2765322 1.5342325 -1.5959506 -2.2843273 -1.732481 -3.2376814 -3.8702836 -5.2476711 -1.9500848 1.1662402 0.365244 -1.6421332 0.021157075 2.7238843 -1.0591193 -5.1975541 3.8850973 -2.9739156 -1.5146773 -6.3507552 -1.3117676 4.0951324 1.9697627 1.5092651 3.767318 -0.76947719 5.6103096 3.0058763 -1.6956949 0.210907 -7.8770766 3.3424568 5.4951811 -1.641425 3.8892274 -5.1501117 1.382821 -0.29560694 3.8583915 -2.6880057 9.1819887 3.885092 2.271843 -3.8035243 2.1056614 0.58392316 -4.4707975 -3.9504249 1.4392638 -5.8144064 3.9240127 0.82709026
P. M. 4.0012994 -2.2316031 1.036009 -1.3833892 -2.0411179 0.50627482 0.19868314 -0.622343 1.5676057 -0.15270713 -2.4476728 1.975847 -0.96236408 0.024957316 2.0703273 -3.6834211 0.69187135 0.38663879 -3.8475363 2.163857 0.51076299 -2.1318507 2.5357077 -1.56929 1.5089867 -2.6878159 -3.7549376 4.7200875 -3.5363808 -1.6753355 0.40946946 -0.53194547 0.77925265 -3.1523819 1.2743419 -5.3252954 -4.3253956 2.9575849 -1.1392201 -2.3051436 4.3877358 1.079856 3.1567156 -1.3084229 3.3913116 1.6843758 6.0165176 1.7879244 -1.5607904 4.1506295 -2.6108098 0.54557562 -2.2286873 1.2454183 -3.8673515 1.873592 0.99098879 1.4523882 1.4559602 -1.6231078 0.051612571 -2.3058438 1.2580385 -0.41335347
N. Y. 0.95230854 -0.60150331 1.9249691 -0.72317916 -1.5164915 1.5130181 1.1779666 -2.8416238 -3.5212564 -2.5429554 -1.9389733 0.23125632 -1.0630633 2.1236324 4.5661287 -1.3200588 2.8659623 1.7878281 0.24649397 2.5136302 -1.2638806 -3.2099221 -3.1092052 2.7835767 -0.93486565 -2.9495988 0.36189681 0.29083881 -0.082869999 -0.29748684 3.0217488 4.1964579 4.2976208 -0.41587242 -2.3911943 0.99118727 0.73255324 2.9368296 2.5700517 1.6359943 -0.048141558 -2.3111656 1.6131536 1.7474641 -2.3108232 1.7210763 -0.96219307 3.5137608 2.4897926 -3.5439184 2.5158281 -2.9776011 -4.6454983 -1.8645293 -1.7169442 0.87154847 0.099740438 0.92589265 0.060052596 1.3573186 2.959831 -3.8307679 3.2985971 3.437633
Lewis 4.8227301 -0.49170032 -2.5860624 3.3578413 -0.5926699 0.92394662 -0.15051249 -3.7019916 2.7038839 -3.905112 2.5224609 4.1963096 0.45541707 0.39536029 0.045772374 1.4339195 -1.4629536 0.04325648 -1.4926075 2.7793522 1.8217435 -1.5647194 -5.4364233 2.4520688 1.2299973 3.0015554 -3.4870019 2.0181308 5.4094076 2.7326934 1.2358323 3.692596 0.023265146 3.4526107 0.88261116 -2.9138381 0.064462095 3.0619369 0.27848142 1.3554162 -2.4391794 -0.64591092 4.1087599 0.84539139 1.8497825 -2.6913378 0.33361053 1.2934135 1.1232973 2.8063989 -1.0268385 -1.481703 -3.9686337 -2.6186666 -3.7488928 -3.5285921 -2.2579195 3.27074 -3.7920165 7.5549593 -1.6104676 -2.3692188 -0.4553889 -2.8389978
1883.KY-09.24.LOUI.txt 2.9516535 -0.41960073 3.2140734 5.9046063 -2.1058831 -1.0426391 -2.7312267 -3.3310385 1.1318418 2.1166184 -3.9806254 -3.1672652 6.7235894 7.4999237 1.7646872 -2.2291415 6.7912898 -2.3993042 -1.1933314 -9.6117544 0.80477649 -3.3032432 4.8457203 -0.23752573 -6.7805762 -0.67948776 2.1588228 -1.1577199 -5.4552708 -1.7777498 0.41474563 3.9804502 -4.9944458 -1.8866327 4.1386361 3.4604299 6.674871 -2.8517077 -4.185554 -1.5128607 0.7998783 -2.1925869 2.7843192 3.0802433 0.60699242 4.7177796 4.5537548 0.65521634 -5.3279271 -3.0743799 -2.7945497 1.8868966 7.4762158 -1.2334057 4.4071608 -0.96939278 -0.61579353 1.6073276 -1.9457493 3.1071153 -4.4006386 3.6162641 -3.1157107 8.7917023
1879.TX-07.02.HOUS.txt -0.24461421 2.9079666 -2.0616086 -7.037518 0.90057689 1.3319792 1.8936741 0.98388016 -0.61961716 -1.348013 -0.6511904 1.7235819 4.1598468 -1.0554912 -8.4964314 -0.91328216 -2.7237811 -1.1738923 10.32869 1.4611061 1.8410888 0.59250855 5.6343179 1.3268534 -5.9452286 -14.117921 0.36879581 -1.7231514 -2.240757 6.4928188 1.5688558 1.7852989 6.3372459 -2.6754467 -3.6630511 1.2633572 -1.1173193 5.8860893 3.7844229 -0.22212432 -3.8921556 5.0653877 8.7365189 -0.94621462 7.7999787 -2.0361216 -3.9644377 4.12467 -0.64046669 0.7590282 -0.23538622 0.58131921 9.8711433 -2.759064 2.1914399 1.9819622 3.2772272 3.5644064 -4.3755646 1.5530822 -4.1057668 6.4779058 2.1093717 -0.51164001
1851.IN-08.01.INDI.2.txt -0.19828668 2.6058896 -4.6051946 -3.9386609 -4.0289598 -1.9401188 -1.9347235 0.69316959 2.2428114 -1.8422571 -0.63903856 9.1741219 -3.84501 0.25278011 1.3258696 -7.5252228 -4.8941693 7.824439 0.20599936 -0.035810765 7.0085168 -0.65220332 6.906188 -4.1835322 -4.1103406 -0.68590313 -2.3497751 -2.0822327 -0.73651618 -0.54189658 -3.8255441 3.5730772 2.1410189 -2.9802926 -0.94963908 3.0665653 -0.30004355 -1.5501214 2.9181843 7.1078053 -6.7632852 -1.7630531 3.9342289 -0.58411551 -2.6366489 4.3664098 -1.4872413 -2.0306535 0.92253762 -3.0264549 0.97562987 2.7854524 -3.3209159 -4.6614881 1.0933982 -3.4023819 -0.55310655 -0.1072043 -7.3976631 -2.8436129 1.6969901 -3.5094213 -0.10726888 -7.6821699
Anderson 8.0411797 4.6095982 2.0145144 0.33847237 -1.1635743 4.3084116 2.9847095 8.3735857 -1.8505025 -0.9043929 6.8577271 0.26671407 7.092093 -0.39583218 -3.1289489 -2.7813032 -1.9160129 -1.6339378 -1.0693933 -4.7052913 4.1149406 -2.336988 -4.4148369 -1.2002987 -0.16768868 7.2748117 -5.0926847 -2.299052 4.997283 -2.763119 2.2349918 0.52499807 -3.9650972 4.0404968 2.6820583 -2.4659719 -0.71587306 0.93873978 -5.4055834 6.7170177 -0.93983549 3.4349093 -1.480462 6.9927101 -1.8409319 -4.6766157 7.949791 2.5625327 -1.3231622 1.8056228 1.3484583 1.2564064 0.62769109 4.6451912 -1.1410362 1.6774093 1.3445755 4.5342164 -5.6628957 0.54126084 -0.41178775 -1.6170673 -3.4256673 -1.0594143
Jenkins 4.3081431 1.2316209 -1.8930134 2.1772237 -2.7381423 1.577499 3.9450536 0.28787258 -0.7273519 -1.3488179 0.75231051 3.732132 -1.7143213 5.5668564 0.49286899 2.9276621 -4.3173847 1.0609413 -3.7563326 -1.5969759 -1.0164063 -0.65616304 -1.112506 -4.0401711 3.1597502 -0.26308787 0.10410927 3.5028095 4.5086246 -0.8979196 -0.03843452 -2.1992095 -1.7709672 1.7526304 -1.15531 -1.5377115 0.25546685 0.86601448 1.7297279 3.5704808 -2.3577118 -2.0358663 -1.3328898 0.27848923 0.93948942 -1.8796442 1.8538331 1.4176443 2.9179246 -1.2287065 -2.4733617 -2.3287444 -2.6912675 1.841486 2.1281109 -2.6936045 -2.5073578 4.9285464 2.6010885 5.3438168 -2.7403936 -3.9617469 -2.2745731 -4.5317354
Horace Greeley -4.0868683 -1.9714711 -1.6335448 4.3376465 -1.6453319 0.41515788 0.48860633 -4.6134896 -1.6142036 1.3162926 3.248826 -0.24812393 -4.3834505 2.0469007 -0.43647617 3.9954214 2.7129376 -1.8828846 4.7204537 0.82422906 2.7819927 1.3431237 -5.6069679 -5.2967038 -1.1798661 -0.20273572 -6.4826355 -5.6328902 -1.6063821 1.4669654 1.8066531 0.89630556 -2.3840156 -4.1044488 0.75598872 1.0671275 2.6777658 2.408406 -7.5453668 3.4540844 -1.314623 -1.2289523 -0.58039594 -6.850204 -0.070022486 3.3617191 -2.5213718 -2.2601266 -2.8987432 -0.66587472 1.8349152 2.744642 0.69261318 -1.8498632 4.5757179 -3.639765 0.4302654 -5.9552922 -2.6788762 -0.31546205 -4.8036366 1.2678748 0.44481698 2.8544192
Langston 1.0619094 1.3983421 -0.82700342 3.769366 -0.18649381 -1.0209122 4.1726484 -1.4966013 1.1941686 -2.1255085 3.7544456 3.9093044 -2.4853213 3.0003369 3.330034 2.350821 -4.5322208 2.4686973 -5.3141761 -0.14843176 -3.0901833 -0.96722293 3.2538917 -3.7784541 1.2428936 -2.3364086 -3.2920184 0.34859288 0.59447742 -1.0908765 -1.3167371 -2.7174025 -1.9081438 4.9065599 0.81813926 0.26124284 -1.1235307 -5.7108932 1.5285997 -0.7018432 4.9738922 1.5016056 0.36402407 -2.2003582 4.4636135 2.1476507 -3.4093511 0.66228271 -4.3678327 -1.2187725 -6.4643469 4.2630944 3.3388388 0.20448072 4.5285177 0.25629672 1.0534927 1.0827317 -4.4846039 2.0994685 3.8531394 -4.0009308 2.0191457 -0.72416824
John Peck -0.15540405 -0.63828176 -1.0305345 0.10193747 -0.61657333 0.27178082 0.62873626 -0.88772702 1.2857734 -0.86939585 0.96565539 0.36333734 -1.8137578 1.1442084 0.65533048 -2.9264076 -3.0485814 -2.0400329 -1.1927621 2.3423834 -0.9811278 2.2792022 3.4839044 1.6082783 1.6077868 -2.4960759 -3.0052907 4.7002435 1.3371336 1.1888953 -2.7846463 3.4520898 -0.7361002 -1.0781825 0.98249912 -1.8362237 -7.1768727 0.50895405 -1.129028 -4.9251904 4.5823016 1.9846919 2.5088973 -0.89530534 4.8047304 -0.14045577 -0.16968213 -2.5107665 0.83518475 1.9490342 -0.653952 -2.2104316 -4.7322717 -1.5688184 -0.76442808 -2.6763542 2.1557238 0.61719549 1.6092472 2.719733 -0.058799546 -0.67472339 2.1474159 -2.4168594
William Rich 2.3911812 -4.2032356 -1.8855041 -3.6673222 -2.460753 1.6949379 -1.353794 -0.32557034 -0.49860659 -3.9571874 -2.9883854 -4.3861275 1.2860006 0.81357616 -0.37040001 -2.2460809 0.81013888 2.9375622 -2.1230798 2.9773097 -1.2252235 -4.2346053 -2.161593 0.49443802 -4.5492005 2.8783646 1.8351794 0.16666949 0.42764321 -1.7123444 1.0252569 0.56520361 -2.2046809 -3.0481336 -1.4116396 -0.47464058 0.50444609 1.7419828 -1.2850938 2.9326587 0.84608322 -4.4152522 -1.9473751 -0.23428479 3.177053 0.63728392 -1.2863294 -0.13403736 4.1329503 -2.3588407 -3.0095112 -2.9906662 -2.3941379 0.28585371 -3.0039036 4.4256234 -3.2028832 0.2483937 0.79903245 -1.9385291 4.3967071 2.6897814 2.1958563 1.9962424
Williams -5.7499709 -1.3645251 0.010988255 5.2222056 0.58707666 -4.5916944 4.1176114 1.3843129 -2.0348082 -4.7945204 -2.6135781 -1.1555817 -6.1758742 -0.14054844 -1.4893606 -1.1051581 -0.72729176 -0.9037109 4.9308081 -1.8270974 -1.8920542 3.6421864 0.79062682 1.0653846 -1.736969 -1.2901809 2.6804965 2.6498046 3.878643 3.9704177 -4.052876 -0.44655612 -6.488606 0.51800466 1.6880456 6.1379714 -4.0815716 -1.579167 -0.75573301 -0.68464679 -0.12599218 -1.3459715 3.8847086 3.0464125 -0.53502357 1.1921515 -0.90000945 -1.7931067 -2.2337241 4.3817339 1.8459413 5.0474062 0.26082239 -0.036513723 -5.645761 -2.1724451 -1.7082388 -1.4937534 0.49707708 5.0044208 -1.9451717 -4.3007913 1.8664236 -0.68902642
Wilson 4.6015201 -0.10951275 -0.1912971 2.338798 1.3161657 -3.9009445 -3.8768334 -1.9577483 -3.1871173 0.85317129 0.30127737 -0.010882016 4.9520025 -0.081772536 -1.869917 -1.2078284 -1.4167259 -0.46183971 1.0158082 1.1760759 -0.80097395 -6.179708 -1.3147531 4.3375297 -5.2604866 2.3117924 1.8349417 3.258153 6.3810992 -1.1507224 0.037042364 -0.089338101 4.2094402 -2.6342158 -2.7432849 0.53959382 -4.653892 0.17356686 -3.5605166 5.357399 -0.15980729 2.1728697 -0.4482961 3.437186 -5.06041 -2.9529009 1.3017235 5.6757083 -0.16148044 -2.2458935 1.7622728 0.21524526 -3.2404051 4.1785793 -0.67051804 1.2395337 2.9788275 -2.3247254 -0.93083286 -1.1075284 2.612555 -0.088602319 0.50230527 5.0095258
John -0.99418724 -1.0167365 1.5353302 2.131377 -3.3507798 0.37228197 -0.44317406 -4.2766676 3.44818 -0.57090896 1.3046178 3.2094879 -2.4344387 -1.9972185 2.5321054 -1.4628013 0.29106346 1.7941729 2.5724108 0.92020947 -2.5965893 -2.2410736 6.486845 -5.6901259 -0.87134522 -0.073447287 -2.0473726 1.5541655 -1.7172445 -0.16031317 0.81727225 -0.74042141 -0.69211817 3.2029355 0.988644 -0.5243293 4.9605007 1.4405829 -3.7471061 -2.2633944 0.60404539 -0.27075434 0.60389835 0.5472424 0.4391506 -2.7041416 -3.1030426 2.804141 1.1961523 1.0077155 -1.3943794 -2.4787652 -0.80090064 -1.7752188 -0.57631433 2.6048126 -3.9829121 1.2636243 -1.1047235 -1.553401 1.4889468 -3.2972314 -0.55125725 0.99194264
Gerrit Smith -1.6768255 -0.61503237 3.0024395 5.2836409 -2.6353862 -2.6761107 0.62817013 -3.7164776 -4.9056888 -0.95387274 1.0773481 0.080563858 -6.0361085 1.6703454 0.91307312 2.6064188 -2.2926297 -0.69735497 3.4834175 -1.8972148 -2.3088214 -2.2098935 -1.566111 -2.3241501 -0.59869134 -1.665357 -0.48869103 2.9314034 1.412837 1.9751183 -3.4302886 -2.6606669 1.4455835 -3.2217414 0.38105035 1.7273766 -2.1527777 0.81880075 0.50509751 3.9029524 0.52243549 3.9149835 -1.6366365 3.3236985 -0.81331915 5.7289906 -0.1023946 5.0871253 -0.006862611 -6.7360492 4.2746906 1.6594894 1.8432155 1.5349345 -1.7692908 0.72508508 -5.5653811 -2.5831649 -2.2788479 -2.0571184 1.9816537 -5.0643005 -0.057869233 1.4579991
Stephen Myers -1.707646 -1.56378 3.9702482 -1.8297116 -0.40004995 5.435751 2.7446756 1.3172381 0.54242969 -0.44150916 2.0628643 -1.4350828 -0.10404517 -1.2947994 5.1767411 -1.4301673 4.8209529 1.9869362 -0.14092739 2.2959461 -0.67334789 -2.0848475 -1.6200049 -4.0755239 -3.4582562 0.81072247 0.92358625 -0.57278597 -2.4831302 3.1014097 3.0456316 6.5901937 1.9223939 1.0865552 -1.2436668 -1.1342764 2.4209695 0.59660447 1.3979594 0.48442498 -0.36706775 -3.6647661 -3.0409348 2.166918 0.69293445 2.0696042 -2.6339357 6.1643214 2.4449582 -0.93704647 -0.38450193 -1.5053298 -1.4839915 -1.7619524 -1.6957618 1.3700094 -3.1254275 -2.1889682 -2.6444559 1.2138876 0.65529138 -2.9826603 -1.6556319 2.7314458
C. B. Ray 0.63107842 -1.5096802 -2.1978092 -1.1167275 2.18925 -0.17989539 0.34060904 -3.4827199 -2.0816276 1.3445511 -3.4188681 0.7370795 -1.0511053 -3.1913617 1.034321 -0.36590263 -0.2158765 1.488229 1.4842751 0.70465302 -3.0967441 -1.3941081 0.46114469 -2.5922165 0.0094186962 2.3897994 -0.13794649 -2.9623644 -4.8173394 4.0043063 2.4157422 -3.1793377 -2.5633092 -2.6698151 0.34387073 1.2112427 4.7655263 5.3784733 4.9147277 -0.53964227 -4.2532921 -2.3460433 -2.3315647 0.3851842 2.0569627 -0.47808319 -0.18858293 2.1239653 5.3964653 -0.62064826 -2.3874149 -5.8880401 -2.9236677 -2.7188554 -3.9731829 2.5202327 0.45212132 -2.7073851 -1.3256849 -0.21321891 4.3753338 3.5203447 1.7761281 1.0573422
J. W. Loguen 0.059792895 -2.4830854 3.6638393 1.5716528 3.2611125 -0.96601301 3.8787086 -3.2943101 -1.4805461 -6.1295519 -4.3292375 1.7907457 2.724982 -1.3376867 -0.18018703 0.80223227 -6.1288362 -3.5167866 2.2757835 -2.0814238 -1.8919824 -5.544044 -4.1653004 1.1929351 2.3699961 4.6364741 -5.7539248 -0.28548291 -5.5492086 -1.8292602 3.8523421 -0.31040144 -0.027348526 -3.2944705 -2.9824507 -3.5398395 -3.9068201 -0.08911112 -2.2143757 5.5478463 -0.17424953 1.6270857 0.76922256 1.1783785 -0.40113965 0.006941325 -4.2911172 2.6927097 -3.1435652 -3.7721457 -0.89340454 3.6471114 -0.17563239 -3.9914663 -0.65409499 2.9089513 0.57165879 -1.0760828 -5.3231826 -4.9109912 5.7158995 -1.5190289 -1.3916844 4.6527109
1849.NJ-08.21.TREN.txt -0.20357557 0.67195261 -1.1164213 -2.0048656 2.2098706 -0.021998232 1.3009375 2.5925555 -2.1027429 2.6708467 -5.2192831 -3.3018484 -1.0796471 -0.63721913 0.9812929 -2.6424618 -0.94168514 -2.21438 -0.21268079 -0.89973313 1.7886091 1.4849397 -4.6903 -0.56150925 -3.9865866 0.63389957 -0.29002982 -0.044844698 -3.023397 -3.2833023 -4.9936786 2.0031497 1.002642 3.5507395 2.5923874 -0.85522079 -1.3699795 -0.99321228 2.531249 -0.74417365 1.1631457 1.381629 0.67889571 3.8815432 0.23383316 -2.8612962 -4.0038815 2.2109494 2.8536966 6.0516429 2.3353462 0.20723562 -1.708961 -1.7773117 -2.3311529 -2.4317751 1.7281545 -1.2388728 -3.9258525 -4.6442189 -3.1846557 -1.0954686 -4.5050788 2.6282127
Geo 3.188463 -1.1917893 -5.3087707 -3.5257545 2.2505314 -2.9326532 -1.1497912 0.16715434 -5.4319897 -4.6573892 -1.9396149 -0.34796044 -1.1071312 1.2760634 0.62342507 -1.2073301 -0.90662795 -1.5682843 -4.5621409 3.2996447 4.0748224 1.1555967 -1.8052984 1.5309006 1.5424148 2.9164824 1.8588293 0.8691473 1.3653122 2.2664857 -3.6566858 -0.43788707 -0.98295921 1.1569654 4.5977535 2.3442562 -4.0439067 -2.0105155 2.8097663 -5.8415999 2.5675352 1.0314931 1.029248 0.73781759 5.3350816 -5.0415134 -2.7609575 1.657287 -0.41930044 5.6447053 -0.3173143 3.3957248 -1.0407143 -2.7609046 4.937314 -1.3044981 1.9575555 2.9586086 -1.7653925 4.4470668 3.4856477 1.2213198 1.9765066 2.4931531
Hamilton -3.4869051 2.5718334 2.2457917 1.2018013 0.23210576 -1.2935013 0.84481925 6.4365859 -0.68413502 -2.3403957 4.4065452 -4.0766106 1.2523075 -0.70276266 1.3983209 -0.25777772 3.6532171 -2.3827472 -2.2349353 -2.3253803 5.0014458 -2.4143353 2.3271391 -0.055744432 2.6376288 0.066473775 2.117723 0.48146844 -0.46144494 1.4913341 2.5910499 4.7546668 1.8087798 -1.7627103 -6.1447825 -7.1335373 -1.8125542 1.0741469 -2.4004836 -2.1195872 -0.63922358 -1.0871273 0.087320112 -3.1037514 4.9960775 2.2925673 -1.4084755 -2.052341 1.7520945 -0.88520283 -3.5330338 0.01405138 -5.3797054 -4.1394887 -3.4837294 0.48715335 1.9996773 -1.4852363 -1.0466703 0.283676 -1.059618 -1.2130907 -3.0108924 2.7823868
William Whipper -1.6369029 3.0479968 0.79963607 -3.312634 1.7098185 0.33830261 -5.0272059 0.80221671 3.0046778 2.2497809 -0.21291052 1.0617188 -0.54178786 3.7423074 0.43550047 -0.84592134 1.8903192 -1.9650633 -0.88413578 2.4635084 1.4476362 -0.61028653 2.5918479 2.1823552 3.0471575 -2.3761137 0.94970942 2.1038246 1.6807883 1.2261014 0.57042855 1.8612314 2.7434697 -2.680491 -1.8539379 1.7117831 -3.0773926 2.4979846 0.99943656 -1.3812947 2.9507654 2.4126248 1.2277141 -1.8729818 -1.3331655 -0.80692714 -0.3215408 -1.967976 1.1249037 0.11645538 -1.5458552 -3.5928872 -2.718473 3.4031 -0.93334651 -2.7746115 2.6507494 -1.6434249 0.28041106 1.842664 1.4681307 -1.5813361 0.045268271 0.98424315
Ray 4.7871757 -7.4639807 -1.8576621 -0.44270986 -1.5892953 -2.1331553 -0.45362541 -3.9564347 -3.9342594 -0.059716504 -5.3906002 -0.91010469 -1.0605706 0.57211035 2.1280868 -0.43915263 2.2121086 -0.16143699 2.824316 5.5669742 -1.0229747 1.5858235 0.097783811 -4.7917867 0.55220574 3.1638341 3.8323452 0.45218882 -1.5710647 -0.24146219 3.3905766 0.02450804 3.1944571 2.7264688 1.3419734 -0.6616196 5.1903396 1.1324621 -0.63265318 0.035386536 -0.62646556 -0.78665996 -3.6807492 1.4902363 -0.11293374 -2.8300471 -2.2340741 2.2692873 1.1697063 -1.7197556 0.27022022 1.6764505 3.5177534 -4.035975 -1.8244243 3.8096302 -0.92010945 0.64109397 -0.15964822 -1.0985922 3.6129935 1.1391858 -1.2121187 -1.5408338
William H. Topp 0.93918556 -1.6023525 1.377609 -1.6700554 -0.54003936 5.212779 5.6165915 -2.4260015 -1.1405352 0.99599665 1.6535165 -1.5225503 2.5068629 -0.12999983 1.2501749 -1.6140226 3.3856988 1.2768013 1.2293024 -0.57701057 -4.290359 -5.6032019 2.7287936 -4.8601651 -1.5470114 3.4597449 0.055908602 0.79252177 -1.9143484 6.6840181 1.0884511 2.0254793 0.2432659 -1.6059852 -0.59506667 2.8300292 -1.903026 -1.5862145 -3.3723648 1.4163067 -1.4595889 -4.5162854 -6.1539779 -0.95482886 1.2427598 -0.46227527 -1.6648424 3.3866563 3.0632975 0.53480655 -3.756016 -0.26077175 -1.5720162 4.0256143 -1.3099043 0.5412218 -0.36324611 0.20058431 0.48508644 -1.3124682 2.7295158 -2.7304966 -1.5611407 -1.2093159
Andrew Jackson -5.9414148 7.0238233 -1.135314 -1.4572797 -3.6329505 -5.0383978 -1.4350945 4.6549172 2.4686229 -0.9621796 2.8134873 0.053818185 -1.4200588 -3.3963988 0.079456508 0.6861912 1.5202675 0.35533369 0.036839247 -0.60873163 -3.0732138 0.09172187 4.0938706 -3.5689003 -0.76922774 -2.4218011 1.9199768 6.3206062 -0.014427521 -5.0854316 -0.057316657 -0.49893111 2.4928553 -1.0555483 -3.1562471 -0.84615314 2.1963532 1.4636463 -6.6798882 -4.3055353 2.3248758 0.59597909 0.8275553 -2.5719795 -1.7028308 -1.5795819 -2.398741 1.7472537 -0.73869675 1.1589279 1.9827292 -3.2758412 -3.0474775 -1.0050495 -0.63670611 0.75536484 -0.13062599 3.6502295 2.760673 -1.0696049 0.39136773 2.547334 -0.76848984 1.9767438
Jesus Christ -6.7329054 0.18117559 1.4026972 3.9223764 -0.70995337 1.6593788 2.97088 -0.30258515 -0.049381193 1.4573346 3.7394073 3.0318632 -4.226222 3.7108014 -0.0070728054 3.8839719 0.47627696 1.8955753 1.9474714 1.4524865 -3.1917715 1.7908574 -7.2977777 -1.5845773 -4.3060999 -0.44121364 3.2118702 -1.489187 3.0090897 2.4453351 -0.61689633 -1.6061734 -1.12159 2.867584 -0.50774372 4.5717125 1.0808913 -2.6759799 2.2447469 -1.373348 -2.6206059 -9.3303452 0.73017496 2.1633935 -0.60182464 0.60156566 -3.0687943 2.9000535 -1.2588067 3.0527294 -1.6731524 4.3449945 2.8159709 1.3806652 -4.5163822 -1.6369455 -2.8384821 0.20574711 -3.5917866 1.3045012 -0.3268356 -4.7174063 2.4363484 2.5146425
1866.NY-01.01.ALBA.txt 3.623719 0.93502182 0.29587883 1.9055964 1.1741072 4.3198824 3.3523407 6.6260471 2.3283165 -0.080631122 -3.4968069 2.7445843 0.94792163 0.99720454 6.7024813 -0.40587533 -1.1283826 0.32480407 1.8900205 1.7386569 -4.6953473 -1.7675673 0.31094575 -4.7603989 -1.6297539 2.4146144 2.8760102 0.63266182 0.42792565 -4.1562076 -3.2753055 -6.1819887 -0.86912626 0.73909134 1.3536639 -1.3785816 -1.8024017 -5.0959296 -0.84376121 -3.146708 -3.1283467 -1.121736 3.9856942 -0.70640582 0.61329389 0.12518857 1.3421267 -2.491431 -3.9719386 0.93454665 -0.59567308 -0.78068966 -4.0204921 -3.9765785 -0.39444512 3.7696159 -0.96941483 -2.7582841 -3.646827 1.4816725 -1.0306094 4.040062 -2.4470062 2.1017718
Troy 1.5549728 -2.8399076 -2.6374078 -2.7160928 -0.092267744 5.570889 -3.3853686 -5.8169131 -2.3023779 -3.2854893 -2.1441033 -3.5567577 0.86532831 -2.9955304 -0.54813462 -3.2282104 0.28637546 1.2363747 -1.4201645 2.8815534 2.850754 -5.7511849 -0.69217801 0.11399773 1.3807212 2.5157583 0.83835357 -2.4739351 -6.7037511 0.65266693 3.1987839 -3.9575663 -0.83202696 -1.2526265 -2.7815695 0.69240272 2.8797328 0.45244139 0.025153048 -0.15524758 -2.0714862 -0.99933022 0.47330415 -1.5478215 3.7146358 -0.036588371 -3.2453096 -1.2932192 5.1698952 -3.2475879 -4.2586484 -2.7625334 -3.1461148 0.9738937 -5.5874548 4.0458698 -5.00175 -0.038548831 0.46678367 -0.55912262 4.3961163 1.8950088 -0.91906667 2.8082283
Butler 2.0898356 1.1138179 1.0214581 -0.01348047 -0.46832672 4.4573197 -1.4603752 3.4668252 0.22602807 -0.7438457 -0.33147436 -0.90026116 3.3701098 4.2176294 -2.0903604 -0.55198461 0.88192743 -2.0654643 -3.9827559 1.68708 -1.1514614 1.4283127 -1.1405419 6.6490164 -0.55537015 -1.8786128 0.81877607 -1.801306 4.2652931 -5.1049027 -0.79968953 0.8610388 1.7893565 3.6457009 2.4065068 -5.6384773 0.68415129 1.6792942 -4.8018503 0.65742308 4.3026328 -0.82191783 2.2388527 -2.0524709 0.58587563 -3.049319 2.7076108 -7.10215 -2.2203753 0.28448659 0.97679251 -1.5391035 -1.9647937 -1.5912508 -3.0951486 1.64468 3.661587 1.0082567 -0.33802322 -1.8138967 2.3400099 0.52078527 4.4547472 -1.1990111
Myers -3.0765653 -1.1711727 1.9533517 -1.6747607 -1.6875347 -0.07834848 0.52486485 5.2735844 0.35612792 -0.29629177 3.0006094 -1.9289842 -5.6383247 -2.9372447 6.4923911 -2.5258074 1.4923285 6.6422949 3.814496 0.19004285 -2.3033388 -0.87636036 -5.8274164 -0.24615277 -0.64782149 -1.6871583 1.4705166 3.4589884 0.18810396 -0.39344475 3.3589022 5.2321358 -0.81356061 -3.2033222 -0.97388232 -0.75786495 -0.55132562 -1.7287167 0.46389693 -0.22145712 0.48618224 -3.5269353 0.0092399223 2.3334174 -1.012391 2.4285595 -2.62253 3.3820622 -1.6410605 -1.4857404 2.3551011 -1.2301248 0.23556617 -2.8197739 -3.8648059 5.1651874 -7.1475587 -0.59956217 0.090547867 0.051459126 -2.4376798 -0.52856672 3.1924679 3.2575099
Perry -0.7883063 3.4844129 -1.2834225 1.4898652 -3.8375695 3.9348555 -0.12984084 2.6742594 1.2780575 1.7034794 2.1176414 -4.5692091 6.088203 -5.2968516 -2.3420568 -3.7630258 5.0372448 -0.034482189 1.7465175 3.5386355 1.4879072 -2.7404256 4.1894078 -0.57993376 4.5426941 -0.52146995 -1.7708316 0.69192421 -5.893434 -0.17520173 4.4496179 -6.6296296 0.49520609 3.9245181 4.8550305 7.4470949 5.9198704 -0.99936962 -2.7016802 1.6394821 -2.4859929 0.64609933 1.904398 0.1936509 -2.0698092 0.37123451 -4.443377 -1.2436224 1.4492395 1.3744606 6.9419188 -1.9559549 -0.67333913 5.097064 -1.9648913 1.1921977 1.4841406 5.478178 0.5363782 -1.727255 2.096643 3.1116474 -0.97150999 -0.9385246
Christ 2.3461602 1.4379387 3.044333 3.5818946 3.183697 -2.4468694 2.5963564 -2.7976818 -3.6477053 -0.53305262 1.2221012 4.0224609 -4.4667811 -0.03528237 -2.1340454 -1.0379205 -0.99449086 -0.83811724 3.4972773 -1.2648592 -2.505059 -2.7494104 -6.1667171 2.4271748 -1.6556553 -2.9591236 -0.40358132 -4.439415 -0.27831838 -1.6959934 0.76045406 3.0266807 -1.8370111 1.176771 -1.4146916 3.4144235 4.2952104 2.4771459 2.3987985 3.8447757 -0.76768821 0.53072101 4.1551356 3.5793114 -8.1221809 0.24112004 -0.64943892 0.97779989 -3.9851184 -1.0550563 1.5961565 -2.2315078 1.7504268 -5.0882359 -3.1958883 2.9277575 3.6420834 4.2974739 -4.4168911 0.90549278 3.319711 -6.121151 4.5964155 0.42796442
Amos G. Beman 4.1264043 0.28114307 -3.5433984 0.25660238 1.8479244 -2.1708951 -0.57003456 -0.20444562 -0.92357445 2.1582217 -1.0409564 -0.037346326 -5.0639043 0.45865473 2.6756527 2.4063759 2.9466238 -0.1036991 -0.31667721 -2.4199624 -2.0821915 -0.0039615105 -1.0162336 -3.0755734 0.0049683792 1.4651734 2.0616469 2.8155568 0.24320987 1.9224626 -0.96084434 2.6605594 -2.822139 -4.6591854 1.3188257 7.8682213 3.6096749 1.1493142 3.5148168 1.2480861 -0.43861678 -3.1168787 -3.5130458 -1.1885487 -2.5158691 2.3024373 -0.90175384 1.1358707 -2.7174411 -0.20985687 -0.013273321 0.74876833 -2.4182668 -1.3130988 0.07420177 -0.076813333 2.5022833 2.7225406 3.1026242 1.2890548 4.7252412 -2.8103406 1.298933 -0.25465453
David Jenkins 1.7157835 4.021697 2.8982494 1.5748918 -1.9229342 -2.0298252 8.895834 -0.87665081 0.061890718 0.58418036 4.0052738 4.1462207 1.1190276 1.0946983 0.90433699 1.9408313 -2.3499894 -1.3892695 -1.9373206 -2.2397575 -1.3102837 -3.5909739 4.3862724 -6.3708715 1.4192231 -1.300022 0.53814381 -0.617522 0.42340878 -0.11917195 -1.5899529 -2.6998351 1.4942404 2.1252275 -0.98914903 -1.1046661 -0.52206326 -0.86643213 0.76920301 -0.047797643 -0.92791444 -2.4559286 -2.4133236 1.5063022 -0.568829 1.5084059 -0.68938375 5.0139976 3.3227711 -0.77925169 -4.1622958 -1.7870809 -0.045263842 -2.2305295 2.8541102 -1.3655314 -0.61818492 3.017009 1.408483 3.3896844 -1.3311031 -4.8475313 -2.5550177 -3.268517
William Johnson 3.0295296 -0.85787272 1.6195369 1.3658024 -0.32808259 -1.0045639 -2.6980298 -1.7588208 -2.5882146 -0.29514742 3.9037268 -0.53982419 1.8985018 -2.6667278 0.67524797 1.9701397 -1.0164266 -0.44362828 0.29372197 2.6902695 -0.56438154 5.0132303 2.8177693 4.2594857 1.9241885 1.2748313 -2.5496147 -2.3684785 1.3043027 -2.127768 -3.5950434 0.76110703 1.6010181 0.54758728 -1.6991447 0.0031581537 2.4924316 2.740675 -0.62764508 -0.39431781 -1.3724412 5.2547913 -4.0819077 -4.1021633 -4.1272392 4.1607709 -0.045547068 -1.9760367 7.8691716 -3.4953818 -2.8899248 1.4952093 2.128701 4.1179585 0.21436813 -0.76345199 -2.1559944 3.3530965 0.71850091 -1.3942794 -6.1311736 4.7150936 -1.5014135 -5.1164541
C. H. Langston 1.1771477 2.2474904 1.8473032 2.8529451 -0.39086828 -2.0727644 4.5607791 -2.3001242 0.61401099 0.24226631 2.4782028 4.060214 -1.5785789 -0.31995195 2.8543694 2.5333829 -6.3560686 -1.7732464 -4.2527342 -0.54195637 -5.3667684 0.74909031 7.3433423 -2.4346406 -0.31018844 -1.4961517 -3.3529944 -1.284427 2.8551285 -1.7583889 -4.1651282 -4.0370588 2.3090694 0.78308254 -3.8793163 -1.2049797 0.0069147605 0.23489854 2.316608 -0.30610791 -0.63137382 0.84845555 -0.2558724 -2.091758 -0.57757109 1.677513 -1.5295812 0.36648864 1.1181672 -1.4343787 -1.0688049 0.40928185 1.3923379 4.0200844 2.7033942 -1.5283835 -4.2789917 2.2743931 1.60834 0.30634812 -3.2721901 -4.3812375 0.075689912 -5.7641883
John Brown -1.9177407 1.9759207 2.1352289 -2.2540104 -0.47279194 -2.0838008 1.6130939 4.147233 0.47814718 -2.9615216 -0.63757718 0.44347906 -1.117285 -6.3589301 0.75899982 -0.96426249 -2.2090745 1.0114167 1.6605152 -3.9731221 -1.3297112 -2.4548335 2.2658334 -1.9526415 1.4893795 -0.20640634 -3.7670069 -2.7303126 -1.4638536 -5.8280063 3.9526904 -1.074918 -2.9369962 2.1514754 -2.0639985 -2.2782102 1.3025488 -0.52512217 -4.4636436 -1.9101067 -1.4245753 -1.5503832 0.16983236 0.95706207 1.1507664 0.11689319 1.6795018 -4.711657 -3.9431908 1.3623738 0.2674298 -0.16841009 -1.1804729 0.17042206 0.91959065 7.1319752 -1.5873657 4.7740188 -7.1195354 -6.0009441 -2.5394187 -3.1000664 1.5370774 1.0636491
Brooks 3.1088505 2.9421775 -2.6115413 -0.80968559 -6.6640644 -1.2526575 -1.9786119 -3.0422833 3.3779736 -0.80518287 5.4017482 0.6696257 3.5846722 -1.4646815 -3.637202 -2.2200344 0.54313505 2.2556238 -0.35912925 2.0901244 2.1818321 2.0911107 -3.1254921 -0.8977834 -5.0286756 7.6576433 -0.44777939 -6.9093866 -0.12751527 -3.0672984 1.5899743 -0.43290538 1.1704433 1.8915511 1.9081867 1.2883649 2.0446095 2.7883563 -8.0334368 3.38993 0.61306304 2.4918482 -0.63105041 -3.6542263 -3.9146166 -3.2982035 -1.5311998 0.93461889 -6.0611982 3.288378 4.5223794 0.18211807 1.7660016 -5.2650967 3.5873744 -1.8549787 0.50797063 -6.3244295 3.7809503 3.3840377 -2.8912537 3.1100612 0.40763834 -0.64791399
Roberts 1.4231443 5.5751185 -1.2688755 4.4769354 -2.2713852 5.1132555 3.3913283 -0.76230955 2.9905663 3.1975408 3.3322585 2.6035066 -3.116868 0.67766809 -3.6420109 0.69253004 -1.9314747 0.21005198 1.4507805 -1.1216406 3.3142776 0.15684681 3.4347227 -1.3863896 3.0419848 -3.4186819 -5.4666715 1.2785153 -0.14574564 0.015135257 1.1653284 -5.6430302 -1.9460485 0.72745395 1.9219551 -1.6805409 0.62238973 -2.1122115 -1.2533293 -5.5458474 1.2278507 -2.3937018 5.307353 0.56342787 -3.8676786 -1.0825207 -0.69250017 -1.0571703 1.2705307 -2.7828753 0.63243055 -0.1878763 -2.5952497 4.3537269 -0.19997776 1.9679915 -0.28495541 5.3816872 1.2946333 0.63333547 1.9293108 -0.98326075 -1.3706384 -1.8354619
Warren -3.3979466 2.1532192 -1.8439162 4.2722235 3.0303793 -5.871326 3.8158631 -4.4919887 0.03030847 1.1993967 2.1158543 1.8478805 -1.3311713 5.1612535 3.2981262 -0.69697535 1.8763168 -4.3292203 -0.76713169 -3.1645226 6.5780835 0.019484958 -2.9488432 -2.9685431 0.79172301 2.2718735 0.11090951 -4.8750486 -0.63090444 2.0969095 3.8935857 -3.7376201 2.804826 -0.052851565 -3.7175949 -2.093971 0.63221163 1.3354455 1.9566171 1.3653531 -6.2316241 -1.2118989 -1.9296764 0.53471911 4.0678449 2.3281536 0.67849225 -1.0860897 -2.5856798 1.236021 0.19045986 2.1439154 1.4579582 -7.7513981 0.5701645 -0.45865744 -2.2718158 -5.8552923 3.0238619 1.8050878 -1.917923 0.42123854 -3.9931936 -1.3072007
Wm. H. Topp 0.22396229 -3.4900916 -2.0069926 -2.563189 0.13977307 2.6568537 0.75772715 -2.8892193 -1.7263911 1.0240097 -1.2189697 -1.4685975 0.12154268 -0.3503255 2.3707981 0.23202147 2.7380869 0.33451483 0.020216865 0.3967137 -5.0008354 -3.804214 0.2026318 -2.0311856 -2.668649 0.29455623 1.4889584 1.7285089 -1.2125801 4.6014433 1.0430415 1.179103 0.13259043 -2.4154103 -1.2055146 4.8950324 -0.52709019 -1.0074419 -0.30355233 1.2046412 -2.46822 -2.8863108 -4.5194244 -1.4817971 -0.6234141 -0.48798081 0.091201581 1.4674386 1.4069405 -1.5291594 -0.84843379 -2.607111 -0.90653366 4.3456464 -0.74391907 3.0968046 1.5231192 -0.91448027 0.5879994 -2.992404 3.9252522 1.3914037 -1.5966533 1.4234661
J. W. C. Pennington -0.34994882 1.0463365 -6.6986055 -4.9816332 1.920403 -0.8199265 -2.9596488 0.069085225 -1.1880069 -1.4095608 -2.2128141 -2.3272746 3.1849968 3.3103087 -1.0310524 2.3419764 -1.4979935 -1.3641798 2.1090517 -0.76334214 -0.21938197 -5.4371629 -3.0015337 0.96348453 -1.8563281 4.2959995 1.672441 -2.2701695 -2.9528542 4.0466123 -1.0456953 -1.8954936 -0.96462071 -3.1932158 -0.97821385 1.0025678 -1.5265744 0.9628306 2.1702964 2.9525995 2.2407539 -3.3018038 -0.39538568 -0.75229704 0.47376677 -2.0469882 -0.88957959 3.075376 4.8666272 1.606809 -7.2094092 -3.9309666 -4.9852595 -3.1981869 -6.4758134 2.1324141 -1.0229361 3.9697101 2.9838126 -2.4776776 4.2358136 2.4602323 1.7344425 2.4035571
1841.ME-10.06.PORT.01.txt -0.11904912 2.1827478 -1.3027231 3.3117695 -0.58551848 2.7452106 2.0041819 0.74444598 -0.014776395 -0.75071025 -0.28423402 -0.67445421 -2.8464344 -0.63672632 0.12019341 0.1726194 1.0441115 -4.9149861 -0.19883186 3.9012575 -2.1289215 -4.7925277 -1.2661406 -1.8234576 -1.1053143 1.1829067 -3.2941687 -1.4837077 0.073184848 -2.3181558 2.2989268 1.9822626 0.78418767 -0.80119002 0.91779047 3.3090112 -0.38087034 0.98816383 2.5510411 -0.72253597 2.1286185 1.8083025 -0.95020211 -1.0865731 -2.7395573 -4.4042811 2.5239558 0.30218774 2.8703678 2.2788084 -3.5484519 2.9159579 1.9325418 -0.90044266 -1.8802588 1.536146 -2.0781412 0.92440051 -3.5959399 2.5518899 -2.8418603 1.9526355 3.7974195 4.4429812
1868.PA-08.11.WILL.txt -1.5612501 -4.0233893 0.0067296252 -0.80628818 0.95304716 -0.89163345 -0.27546406 4.1062407 -0.39458218 0.6870178 -1.3135939 2.5682886 -0.73217112 -1.0584942 1.427422 0.62413317 -1.173817 0.02381104 -3.1530626 -0.4322103 2.4026704 -2.1946006 1.6800604 -5.657033 -1.0056274 2.8952568 -2.4448478 -5.690083 2.2614377 -1.6342337 -0.95780307 1.4013151 0.1069596 -2.6055784 5.1776304 -2.824738 -2.5372012 -4.0137062 -1.4886332 -1.2783399 3.4322319 -1.3222288 -0.69076264 0.23210342 -4.1707978 3.222647 -4.2214289 -5.8831625 -3.782578 -1.3349329 2.1177254 -7.2705545 -3.6632941 2.7597339 -5.1005211 -4.16503 -0.65165031 3.3125818 1.2927463 4.9546757 1.0941432 2.3237987 2.6582103 5.5018072
1841.ME-10.06.PORT.txt -0.11171509 2.8066874 -1.3947191 3.1131918 -0.68337053 2.6614685 1.9069687 1.6110895 0.29688457 -1.6255243 -0.3579067 -0.36458513 -3.1764948 -0.47299105 0.20077835 0.61807746 1.0868535 -4.5347724 -0.32734022 3.6500869 -1.4690505 -4.0504842 -0.68622994 -1.7226826 -0.88646734 1.1878555 -2.8079169 -1.8675791 0.98300523 -3.1161637 2.4965444 2.3589332 0.5789004 -0.54511827 0.019683644 3.3955088 -0.50112253 1.0569588 2.0125608 -1.1867857 1.9922603 1.721517 -1.355612 -1.1670721 -3.1109598 -3.9036021 2.4132278 -0.84068578 2.8509285 3.0239825 -2.9616797 3.8257341 2.3343141 -0.99493527 -1.6545219 1.2562163 -2.2512131 1.1335896 -3.1197145 3.0092864 -2.7721541 1.3982025 3.4271319 3.950388
Lincoln 0.059314761 2.1333153 3.7804558 2.1698034 2.5789177 -2.9705524 -1.0441561 10.726657 -0.052726831 2.3424401 2.3074675 -0.092292622 -0.43845606 -2.3736167 1.0508074 -0.48040229 -2.7137306 0.61094546 -4.6371379 -8.1124477 0.24287118 0.13273814 -4.2125001 2.5738506 0.3534312 -0.2958127 4.6587415 -2.637289 2.0592382 -5.3830943 4.743072 2.2373669 -4.5120759 -1.0859495 -1.1868657 -3.2200809 0.66503042 -3.4391868 -0.53089875 -1.0843821 -3.164613 -2.5559108 -3.750597 -1.1748201 4.0752969 -3.1772594 2.1949677 -7.7423329 -2.6477869 -0.6039902 -0.38945574 0.53751576 -0.59380907 -3.4784415 -4.8346529 6.1568689 1.6831737 -2.0722899 -2.7325029 -0.38663995 -5.3156252 2.9841695 -0.4179548 -1.227797
Bill -0.6146124 3.8475211 -1.1811706 -1.6163912 -0.58772707 3.9826877 2.2894375 1.4851162 3.2106421 3.1898077 -3.5861545 -5.3457599 -2.6614146 2.0237761 -3.0460603 0.53101528 -0.26372978 2.7484827 -0.64425331 -0.44789693 0.35526773 4.3465753 1.2917068 -0.58032686 2.0594158 -2.5477262 -0.22168559 -0.72989023 -2.6459055 -4.6286573 0.18634976 -4.0044279 0.32562914 -1.6900908 -0.57706571 -3.0983107 1.3111018 -2.8932693 -1.1785446 -3.9549282 0.3312225 -4.7982817 1.0014783 -3.2158661 -0.1572061 3.1552649 -3.1682482 -0.96189862 2.2630727 -7.1761174 3.4245093 2.6681025 -1.0466204 1.3981276 1.0798398 0.90727746 -2.1828957 0.57545835 5.2573824 -0.76014692 -2.6778729 -0.78784066 -1.629411 2.6488867
H. H. Garnet 1.5379959 -3.1776559 3.32288 -3.4474006 -2.6037753 3.3664219 3.7382832 -0.83934969 -2.1307454 3.7223725 -5.2045231 -2.7405114 1.8244245 -3.2402096 3.6750512 -3.821363 0.61322165 2.405328 2.2334592 0.43908817 -4.0067406 1.5365893 3.3519709 -1.608344 0.24438679 -0.41619113 -0.61323267 0.98875195 -3.7706509 0.87961811 4.4182076 0.44099379 -1.2924597 -0.40594515 3.3144579 -0.1283091 1.999872 2.8260252 3.0609908 -0.22637363 -0.62588316 -1.289224 -2.9177065 2.7014198 1.9741029 0.93528062 3.0624063 -0.68794417 3.3034108 0.39914432 0.922791 -1.4071764 -1.4198116 -2.4381411 -2.1545358 4.8512111 -2.7693665 -4.1204038 -0.061203081 -1.692651 3.4025636 3.2486489 2.3194451 0.46756163
Francis 5.803638 -0.7268334 -2.0322952 2.0145853 -1.2028929 -3.0228243 3.6486261 -1.3864155 -0.36809978 -3.8313458 -1.9621769 1.2225182 2.0173488 -0.24310288 1.5750554 -2.5715632 2.9790931 1.5413346 1.0806223 0.83289146 -1.4973706 -0.73069412 2.7695577 0.80676293 -0.23491074 0.85265517 1.1025916 0.78656656 3.0945394 2.8292108 0.12858044 -0.026596019 -0.6212104 -0.17881976 1.0225447 0.79403138 3.2235143 4.2416654 -2.1842399 1.205518 -2.4491298 0.25676411 -1.5642608 1.1977818 -1.0436977 0.98510331 -1.5107368 -1.2293941 -2.2566431 4.013763 0.21785003 1.1731894 -0.73494089 -1.5897099 -1.1841478 -1.570152 3.1758249 4.834516 2.5255048 2.8470595 1.838993 -2.6621428 4.4178324 -7.7192593
Thomas Butler -3.5468619 4.142385 0.063164786 -0.57269144 -2.3321068 -1.0359775 -2.1567771 2.6347477 2.6978397 0.02350861 2.0009632 -2.7810006 1.7187785 1.6688201 -1.1481748 -2.5030992 1.5574877 -5.3514881 -1.8205787 3.5285897 2.6970613 0.016192952 3.1703255 1.4683447 4.3414383 -2.6106384 0.97535837 5.0263343 -1.6754781 -0.01288142 -0.23790376 -3.6682417 1.9504699 -2.6968317 -0.7372669 2.7349834 1.5944227 2.1210752 1.1996211 3.5758176 4.5372868 -0.16548963 0.56105506 -4.7741675 -0.72743243 0.78641474 0.62558019 -4.1466036 1.7921225 0.93908709 0.41313273 -6.8882928 2.5952652 2.4707561 -1.0057048 -2.667923 4.3056822 1.5509659 -0.02196007 -0.45646885 1.9349487 -0.70590615 2.0561886 1.2082311
Scott 1.7624021 2.2575276 -1.4116433 3.389729 -2.5075798 6.5507708 1.7557466 6.1631889 0.13279381 -0.31667659 3.1640017 1.5235612 -2.5459874 -1.4958568 -4.3737192 1.0088271 -1.3651234 4.748805 0.72753543 0.39790002 1.4171337 0.026499828 -9.2288179 1.3275435 4.5593729 -2.1816647 1.1570692 -0.35430181 -3.1394823 -1.2701732 3.7165651 -3.8102095 -1.7266458 1.4569107 3.1347163 -0.59690714 1.4246297 -3.9123971 5.0838561 2.2600501 -0.54563004 3.3486109 1.4998747 5.3899703 -8.2851524 3.3219471 -3.1189089 3.572618 0.48055172 -2.5455153 3.7798159 2.0315692 1.0381486 4.8390951 -1.6302367 4.1274648 -6.3973308 0.20755866 -1.6342342 5.697639 -4.4009299 2.4286873 -3.9838438 -2.544596
Charles Sumner -4.7361937 4.5833807 -2.1536496 -4.6846027 6.6997652 -4.5544591 -1.2067282 3.8073614 -8.8105526 -3.5587316 3.2364633 1.1696937 -0.99348938 -2.4212513 3.9898286 -3.9217355 -8.8968763 5.53369 -7.633481 -1.4516636 -0.14714108 -2.7300611 -4.1520958 2.0316911 1.0552528 2.4301682 -1.5845013 -5.758255 -3.8067939 -2.8379219 0.28267494 -5.0941129 -8.0709887 -1.5859343 -2.129957 0.33878702 1.971947 -3.4372165 -0.4147014 -0.4275319 2.9180403 -0.81590909 3.1975505 -1.8657285 5.3746843 -3.4032769 -4.6932516 -0.73201841 -2.3804531 1.2028704 -2.0655663 0.30505425 2.0122037 -2.2094018 1.6893648 4.2455153 -0.69282186 4.7078691 -6.968257 -1.7062224 5.851501 8.2483015 6.1712251 3.3372757
1842.IN-07.17.INDI.txt 1.6737181 4.1305857 -0.45403177 1.3134964 -2.6000953 0.69422174 -1.7815816 2.9060674 -3.0526235 -0.51321822 -0.13798505 5.2548952 -0.53102225 2.8896322 4.9143729 -1.0543418 -1.6838167 -2.0416591 2.3120089 1.4427292 1.8293285 -6.8418326 2.154916 -1.5000824 -0.13858871 -2.0126331 -1.4690731 -4.5827904 1.6789736 -0.61027807 -4.3600426 -1.3488964 -1.1035557 -2.8380899 1.7731006 2.8051686 -0.7748515 -0.33837762 -0.37704763 0.96080822 -1.5982555 -1.3661152 0.036238451 1.8364469 -0.1317333 0.28906047 -0.25773525 -2.9820113 -1.5866379 -0.57027358 -2.3714809 0.53442222 1.2343417 -4.0642161 0.59170723 -2.2610912 -3.8350861 0.87552881 -6.1136765 -3.9598362 -0.97166061 -0.50728643 -1.3957872 -4.9658804
Morris 4.8170314 0.82539749 -0.83107561 -0.94928348 0.33851203 -2.5452285 -0.34818506 -1.3645614 2.6996222 4.898488 0.17648114 1.0116473 2.1125741 -3.491786 0.33902836 0.67328638 -0.01509878 -0.084077798 -5.8548393 0.23509961 5.770443 -0.48780864 -5.6165123 2.5043976 3.675405 2.2450311 3.0543823 -4.4541311 -2.5255113 0.41595465 0.87388349 -2.0951889 0.57545722 -4.5264106 -3.1278296 1.3806502 -1.5480132 -0.80062658 2.5555694 -3.1574929 -4.3780837 -0.96188539 2.2878516 3.7816558 -2.8526306 1.6736995 5.1545582 -1.7208967 3.4579802 -0.71482593 -1.7100228 12.584657 2.6461422 -6.0559492 -3.0210404 1.6687614 3.7560925 -0.61377877 4.8884535 0.93781626 -3.4016776 2.8737814 -5.449214 -0.215837
Mason -0.4970454 -2.1429272 5.1372232 6.6896195 3.625586 5.8353095 2.8800714 -0.98456657 2.0064228 1.8819807 -0.65335566 4.5359592 0.71546769 4.0288243 1.676706 1.1701939 4.6201262 -0.45930764 1.2996879 -2.9042277 2.6613996 -0.61250019 0.22627123 1.4632312 -0.18257728 1.2840836 -5.4946036 -4.9300508 5.7539115 3.5085211 -4.3400874 -0.66065407 -0.42260799 5.6561122 2.7789464 -0.90373129 -0.65936589 1.482101 2.0324621 -2.4261746 2.1956081 -3.2066486 -2.2785721 -4.7145061 -1.347301 -5.6173477 0.73655552 -4.1509719 2.7594156 1.0520126 -5.073431 1.2174029 1.5668818 0.82470399 -0.23096272 -4.4525743 3.8320322 2.1764152 -1.9822211 -4.8986239 1.4802424 -2.3910899 6.9087572 -0.14669855
Jefferson 4.2108722 2.2023709 -1.931179 2.6013837 1.7119164 -5.8531094 -2.7701166 3.2732332 -0.25771526 1.7282023 2.9060931 3.7838526 4.5433455 1.9106416 -1.0269809 0.96158475 -2.2886841 0.69301552 -2.4501176 2.5265651 0.49104241 -0.94359708 1.56987 1.0914468 -2.232964 2.4174674 1.4964705 -0.71080214 10.368232 -2.2918525 -0.11852229 -3.5063488 3.6760325 5.6778793 -1.1585888 -0.50036943 -5.1639724 -2.4833946 -0.10370003 4.4701543 -0.99185127 2.4324498 -1.284292 4.9847937 -2.2213483 -1.7153834 0.74735874 5.2212105 -0.6723479 -2.0435297 -1.3907026 3.5375082 2.9475 4.8037953 3.3651962 -0.57151246 -0.96177673 -0.38481218 -0.52670872 3.5248189 -4.6370797 0.60302752 -2.0514154 -0.51691222
John B. Vashon 1.1242259 -1.3918971 -1.6003081 -1.2528814 1.9031172 0.71141618 -4.6590495 -0.9083091 1.745687 0.84663004 0.93370944 -1.000662 -0.19291365 5.0634685 -3.0479724 -0.64163476 0.24214749 -3.2411263 0.34521824 3.9306591 -1.066534 -3.1431642 1.7981058 1.487744 2.269438 -1.5050073 1.5607505 1.8265529 1.1399323 -1.3419788 0.33515418 0.50950468 0.61762798 -4.1115956 -4.6637883 0.15134627 -7.2157974 0.4353036 -0.11574238 0.013209733 0.74312145 2.9064977 0.38998917 -2.2054138 -0.28825599 -1.9270232 -1.9433191 -0.89342356 0.30579787 -3.0867739 -4.2497497 -5.118259 -2.3574736 4.8528848 -0.43844676 1.474992 1.3128954 -1.5433167 2.8473637 -1.0941068 2.884922 0.52594298 -1.9090312 1.3762537
William H. Day -0.21249153 -0.91971219 3.8676667 3.1186714 -3.9012742 -1.1620293 2.024734 -0.73622257 0.43509641 0.71518952 3.3417923 4.1624179 -2.1854973 1.9259107 2.945133 2.7993217 -4.3296423 -1.9305445 -0.30561993 -2.963865 -0.37464777 0.40820804 4.4108081 -3.442956 0.43685451 -5.6262217 -2.2993391 0.76799864 1.1138041 -0.72202665 -1.9034331 -3.5517182 0.082023911 0.052235793 0.69062465 0.1469056 -3.7823451 -1.8398908 -0.84213829 -2.0826397 0.12820625 -0.66859233 -2.8698382 -0.21753666 1.6376849 2.2824788 1.7316892 0.70993334 0.33669877 -4.275465 0.9747442 -0.24551283 0.345186 -2.7711403 0.25033808 -3.1126504 -1.1361619 2.7392268 1.0667471 -2.5778506 -3.2210622 -2.5861118 3.3489027 -3.4816775
Green -6.1312423 4.532033 -0.0093357814 -2.1802197 -4.6879249 -4.982409 -0.57527488 6.1167111 4.3174877 -3.1131325 3.8619943 0.67987758 -0.51302153 -5.5308337 3.0302143 2.1510413 -0.85221213 1.5520644 -0.96433741 -3.5920405 -3.0243599 -0.23685151 4.3356681 -5.8874035 -2.7215559 -1.7415284 0.95625293 1.8914748 -0.58247179 -6.0545897 1.5636067 -0.50343156 2.2327933 0.61527896 -1.8405899 1.1268221 0.69411922 -3.149348 -4.8813396 -4.46839 1.3394281 0.81401581 -0.66557741 -2.1356399 -1.4825487 -3.0689545 -2.8074203 1.8107805 -1.2836413 -3.5597079 3.043026 -2.1358581 -1.465899 -4.3205304 1.7747476 1.4863545 0.96687889 3.0799603 2.8811114 -0.8756603 -1.5807211 1.1776031 1.1423115 2.2313426
Garrison 2.7634678 -1.4098129 -1.8357457 0.38124129 -0.90029204 -3.0379975 -0.44932002 1.709764 -3.2465112 1.0476273 -1.5647351 -2.1809583 -4.731473 7.6255751 -1.2607323 -0.59098703 1.7655692 -1.7069848 1.4257761 4.0260139 -2.4771471 4.6813235 1.0401554 -4.4526281 3.4833102 -2.6495471 4.8903246 0.75172901 -0.90893269 -0.29211864 -1.0493171 0.76336998 -0.067721426 0.31197175 -3.1575062 1.270184 -0.55159366 4.0856028 1.842567 0.55692279 5.7996249 4.6148448 2.454124 -4.0402346 -3.8375168 -1.2334026 -1.8306154 -2.8735836 -1.4108759 -2.6492031 -2.535708 -1.8795369 0.32975167 -0.93846059 -3.6135814 -0.36512047 4.5164385 1.4040046 3.496048 -0.59469843 2.7985866 -2.9763782 0.93920475 -2.451663
Beman 3.3585639 -3.1839471 -3.2017257 -0.19365068 2.7061884 -2.3798497 2.0183203 1.8159777 -3.0209148 2.9324913 -5.8468299 -2.4854302 -4.6381922 4.5853753 0.56494105 2.0984192 2.9780087 0.70678967 3.0744817 -0.91703069 -3.7509305 2.6529763 -1.8115749 -6.5245433 0.58139038 0.54556829 3.6044819 -2.0328543 -0.46993676 2.222096 -1.0023496 1.8616027 1.3942219 -0.86833429 0.68432039 3.7153287 3.4458671 2.1201541 1.8639385 2.7707253 1.5365218 -3.3655794 -2.2029295 -0.013144652 -4.2923288 -0.51539624 -3.4242024 3.2284796 -1.1401671 -0.002490167 0.71737736 2.5645301 1.1826041 -3.0017741 -2.5990653 -0.82720804 2.9569395 1.5460882 3.0142 -0.87872827 3.0555291 -2.7758973 0.37264359 -1.1650717
Charles L. Reason -0.16588885 -2.1188471 -1.4854062 -2.1823978 0.058511186 1.8745842 0.98795682 -2.7640991 -1.3303832 2.0380449 -1.3381943 -0.53105807 -1.9834018 -0.84431076 2.9329312 0.52287418 3.3922968 1.5398759 0.34516567 1.7095252 -3.2636163 -1.3050482 1.3188583 -2.9819701 -2.1484056 -0.32287535 1.0886393 1.9174889 -0.76878351 5.0320168 0.80927837 1.0851033 -0.30641893 -0.7137447 -0.64196897 5.4526854 2.0553255 -0.37537187 1.23287 0.33718175 -2.341311 -3.7846453 -3.6470683 -0.12667491 0.047752038 1.0482302 1.5132935 1.6464919 1.676787 -0.59333342 1.4724942 -2.1163483 -2.0434914 4.1266046 0.25756782 2.2361693 2.2755163 0.097613014 -0.76067102 -0.61334753 2.3475702 0.20682847 -1.1519186 0.75333852
Stephen Smith 1.0988377 -0.35889027 -1.3781964 0.14038038 3.1814537 -3.2292006 -3.4084861 0.20796999 2.246485 3.5352275 -2.0937984 0.4552848 -0.75901306 -0.67937845 -0.43775958 0.71967149 2.9466062 -0.47558233 -0.81657755 1.181021 0.38381866 -2.991936 1.9282368 0.56782603 -1.702055 -2.9551466 1.0714815 3.0357327 1.1603926 1.0739387 -1.2646842 0.3182258 1.2192973 -1.9077369 0.69891071 2.5111628 -2.9585114 0.34417519 1.7252591 -2.2725756 1.7211578 0.032682538 0.1082272 0.39768159 0.40966403 0.83842057 1.8073028 4.2999172 0.01186255 5.0508709 1.2370865 -2.9364276 -4.9801488 2.8189254 -1.9014088 -2.3257596 2.8169093 -1.2396593 -2.2140944 1.1759344 0.42015341 -0.83954823 0.27982864 1.9939389
Abner H. Francis 2.0975351 -0.59005278 -1.2499328 0.78985506 -1.4870354 1.3256543 2.9527471 -5.5166388 -2.0487328 -1.8135519 -1.2678165 0.24574666 2.6103218 0.70481509 1.7451898 -2.3847456 1.0842776 1.0488106 2.2756097 3.722029 -1.0485049 -3.7611396 3.4879346 0.44911006 5.0358996 -0.45961636 -1.6000708 3.2314939 -0.44876522 3.448525 2.3383338 -0.81029689 1.4658177 1.6833314 0.5035603 1.0874728 1.358548 2.9835021 -0.6662274 -0.55995065 -3.5677495 -1.555829 -0.27138743 -1.388056 3.9970131 -0.17760332 0.89049619 -3.1465828 1.0198063 3.1549168 -1.871498 -1.5006329 -3.797143 -0.2576749 -1.0439228 -1.0888965 1.5813098 4.5057597 2.7610636 2.0261137 1.0425299 -1.877105 2.0291934 -4.1694188
P. A. Bell 3.4055688 -0.27483532 -2.4766271 0.12341236 2.3800159 2.7493238 -3.6942375 0.66431522 -0.16104575 -2.3616304 -2.593224 1.0900754 0.65407431 2.727437 -2.1239517 0.80450809 -0.087630302 -2.528446 1.1983217 -2.7350495 -1.9688262 -0.32469475 -4.4983759 1.4445108 3.1292408 4.8007569 2.5493076 1.5499095 -2.2126601 2.0309703 1.2776077 1.7107247 1.8043261 -4.1565166 -1.1267521 -3.7148118 -0.85526162 0.4012613 1.2020885 2.0979245 -4.0650158 1.6238203 -4.7878208 -1.6427 0.50470555 -3.8587828 -3.2852707 1.7660929 2.2669032 -1.5379674 -2.6913948 -1.4694477 1.4937963 2.1842215 -1.8821195 -1.2601023 1.8719668 -2.8383901 0.8485921 0.83409375 3.6381981 0.8042078 -2.6979384 1.842242
Benj 0.43640047 -0.22420341 -5.0310898 0.48704243 5.4992571 -1.8621827 -3.2481048 -1.412704 -3.1599934 -1.2424939 1.2751578 -2.5383036 -5.6467505 -0.90772659 -0.075592026 -1.9809074 -1.4620657 -2.3098893 -0.87233019 3.8477714 2.037868 4.2170095 -0.4839589 -0.54765123 0.42830494 2.1937408 -2.1093245 4.5317225 -2.0246186 1.4161949 -3.9162612 2.0459769 -1.7174588 1.5857697 2.6034875 -1.973456 -2.8860254 -1.8785737 -1.8734785 -5.6497064 4.3010917 2.9588559 -2.1644759 -0.85162216 8.2232552 1.6282914 -3.7033067 2.2316208 -1.6126384 5.1875305 -2.1503036 2.1543176 -0.060651273 -1.1804281 0.84820944 0.94891423 0.46848744 -2.3912053 -4.4148273 0.69648808 3.0980763 2.004833 -2.9492805 4.3739681
George T. Downing -3.6777585 -0.22599982 -2.9186246 -4.5303459 0.046607342 -0.8104158 -1.3568867 3.8957801 -1.4825116 3.6075919 0.20956907 -0.94823784 2.3060174 2.2454541 5.8630371 2.2974389 -1.9888915 -0.68659115 -2.0764995 0.58274424 -0.24082258 0.22524811 3.1200144 -3.1994762 -4.006988 0.38212866 1.1343552 0.62036264 -3.3417313 7.6740146 -0.20286573 -1.6018469 -1.7072251 -1.0009089 2.5018768 0.26595926 -1.2889428 -3.369417 5.7747917 0.083972007 4.9865208 -0.28019524 1.3096055 0.27348608 -2.1335444 -3.2583292 1.4005218 4.8379846 1.9739469 0.51312274 0.58685231 0.28547001 -4.0069284 -2.2184107 -0.242882 1.5624092 0.37693888 2.1304164 -0.30389369 -2.9694445 1.3214141 2.4085267 4.1549911 2.8867917
Jones 0.66747952 -2.2021103 2.4765794 3.9780004 1.6111109 3.0329473 3.7855453 -3.4521813 0.46750525 -0.30093297 4.3492351 1.1358337 -2.0374691 3.0503671 3.0133018 2.4339256 1.9922649 2.2774496 3.9392812 1.6863395 1.2558169 -1.15631 -5.1334772 -0.65805632 3.1813214 -3.3511381 -5.3918347 -0.38071576 1.5984454 0.81565815 -2.7909715 3.186487 -0.62977386 -2.0480936 2.3316753 0.5703845 -0.62638712 3.1533127 0.23570724 0.14723526 -3.4020796 -2.6383228 -3.2789295 -2.1862416 -4.7163057 2.8608329 -1.479373 4.7028208 2.1583288 -1.5887216 -0.9273355 -1.8839529 3.2665148 -3.8810146 -1.3997113 -3.0745749 -3.4023831 6.3699489 1.1084251 0.99288833 -5.1036415 0.22502467 3.7612913 -3.4803803
