1032 64
1832.PA-06.04.PHIL.txt -0.74647576 5.4741216 4.2859263 -2.3161294 -3.2550108 0.6952539 1.180999 3.7991745 1.7005382 -0.3471389 5.6708584 -1.4402126 -0.4074302 1.7014042 2.591595 8.101331 0.72329646 3.6133668 -1.6733795 -4.9465947 -1.3789734 -0.83133256 -0.8659281 3.2738507 0.6101691 5.959317 2.1367207 -0.7857959 3.2897954 -0.6748496 0.6647542 -0.07224747 0.9350742 -3.5689106 0.9839191 2.9954782 -1.2673354 1.1923531 -2.378959 1.2113483 2.442926 3.4340866 0.7917629 3.011415 3.1001122 -2.8103158 0.9724977 -2.9047902 -2.4105592 2.1648824 2.0438964 -1.9008385 1.1262009 3.6063652 -0.68609816 -1.6804756 5.4231396 -0.12158941 -3.4310699 3.3289342 0.9405945 -1.5555772 -0.2829706 4.569801
1864.NY-10.04.SYRA.txt 0.087495595 2.5418794 0.5465891 0.18360946 -5.2981806 0.3759933 -5.4048815 -6.0232487 0.9751211 -1.1905435 -0.9124092 -0.69833004 -6.4147997 -2.6130385 -3.370255 -0.6586621 2.175809 -2.1120765 -2.8368125 2.845027 1.9227595 4.3011413 0.6180454 -1.4516604 -0.5437726 1.2322072 -4.4673753 4.281472 3.7780533 -1.7165571 3.9317937 -3.6581123 -1.0482371 0.5559854 -1.297882 -2.5633526 0.18932411 -0.99255925 7.3646636 1.0834113 -3.2118068 5.3987584 -4.630205 -0.24495977 0.79879826 -4.4412656 5.101789 1.4678631 -1.2162594 3.439548 -2.1604335 -0.12617141 0.8804176 -3.7650855 1.8394667 -2.4107275 4.558856 -0.9843262 -0.59873813 0.46856403 -2.781511 4.1656637 -0.99399275 -0.23148303
1853.NY-07.06.ROCH.txt -2.8437772 5.42516 0.62636256 1.6646985 -2.0162401 1.1476054 1.1343231 -3.0881145 -1.2891954 -2.6049247 -2.2201824 4.784866 -4.117068 -3.7984116 -2.4112494 0.9336724 0.8161731 4.0013876 0.759993 -1.8371896 -0.8682951 3.9426873 -0.54490876 -1.0690991 -2.4357111 1.1720424 2.59711 -2.2839456 -4.237113 -3.3700562 -0.6435152 1.7803775 2.9246037 -4.1989946 -3.985816 2.718438 -2.4177003 1.8732225 -0.91302574 -4.4671016 2.1340992 -2.2311862 0.9080389 5.2983603 -3.524337 3.405371 4.332778 3.3479347 -1.0574887 2.0645385 3.3465238 -1.9620442 -0.43399912 2.8479683 1.3539307 1.3889333 -3.000386 4.367185 -2.2528622 -5.901858 1.4851751 3.8330393 1.4203825 -0.4780168
1847.NY-11.06.TROY.txt -0.90992105 -3.1435459 -0.7355831 0.15277912 -1.8889627 -3.7620943 1.2646705 -2.1299613 3.3394265 0.5349264 -2.296459 -3.4206495 -1.9735801 -1.0072562 2.5559216 -1.1189337 1.2797496 -1.7122557 3.9829497 0.6599127 0.9635756 3.7382748 -1.0484987 -0.40051368 0.35076505 2.1601672 7.080868 0.18023445 -3.1298904 0.022175077 -3.0253143 -4.5948935 -0.3345451 1.5080177 -8.405096 1.3688486 0.39254773 0.6215406 1.1062132 -5.597113 -2.2084284 -0.7635319 -2.1227815 -1.9767603 -1.2357745 5.7653065 3.891176 -1.1773331 -2.501149 3.058976 -0.76495236 -2.3053262 2.2451515 -1.4590966 5.0673075 -0.9210569 -0.23716624 -1.2793375 -0.9161847 -3.2262008 -1.1764327 -3.3477182 -4.5211105 -1.604065
1840.NY-08.18.ALBA.1.txt 8.143536 -3.2148614 -0.08281747 -7.562444 2.9647136 -2.8659668 -0.5371423 3.0302007 -1.0361357 -1.4144533 -2.5163903 -0.16766801 -0.5087441 0.8745246 -2.1833153 -2.1332548 -3.7248693 -0.3640528 -0.7751569 -5.9615793 1.5396965 0.93121344 2.7736473 -0.50427526 3.9580796 -7.030687 1.4557614 -2.1263394 -3.496832 0.9741732 -0.2921273 2.5758255 -2.2586834 0.044022582 -5.0480795 -3.505066 -1.8526952 -2.32562 0.3095486 1.359416 -3.2373273 -2.2881236 -2.2723215 -1.6633459 -1.0316291 -0.7407369 1.4055866 -3.6983755 -1.2304347 2.7875073 3.7918057 1.7521411 -0.7877458 -2.0176487 1.0506076 -0.9184882 0.3922873 -4.267556 -4.497363 -1.524043 -3.9104497 -1.9301857 -2.0199513 -3.4756365
1855.PA-10.16.PHIL.txt -2.3491385 2.1047766 -6.0909657 -1.4464772 -0.5567861 0.5736999 0.63594145 2.7124321 3.657418 0.0609337 -1.1774703 0.3353412 -3.1623316 1.1600766 0.38112313 -3.8648305 2.3385851 2.0079992 0.16192742 -0.9638196 -1.4797709 3.7586367 1.8023766 -1.6459724 -1.8090633 1.1608499 2.9982033 0.034214213 -4.651933 2.2645888 -0.844572 1.4640424 -4.5955434 3.2093527 -0.17610544 5.836629 -5.911889 -0.82414347 0.35658965 -1.4051558 0.14510532 0.6253144 3.4150198 -6.0315895 -0.2460168 2.7931314 1.8977808 6.6751075 -2.6409385 -1.3077996 -3.6954527 -1.1561116 1.977934 -0.77329624 4.115754 -1.5820997 2.862147 -1.0861952 3.4695983 -3.502187 3.2308612 6.6341686 3.9024467 -0.87064636
1834.NY-06.02.NEWY_MINUTES.txt 1.1691831 0.6647543 -0.69162333 -2.875089 -1.9796063 0.9370491 -4.356445 2.0278568 6.4934845 6.7907805 5.4929805 -3.6198106 -0.15707545 0.9680348 1.7182722 -0.078469746 3.0028796 1.8321049 1.0529507 -3.8271747 1.7908989 -2.9511368 5.0281596 1.0721037 5.666041 10.053275 -0.59240055 1.1911409 -1.9455838 3.7066832 0.38096172 3.9379032 1.2810334 -4.1623325 0.5716745 2.2247157 -1.1840153 -3.03806 -2.245968 2.689556 1.8332177 3.0886118 -1.0951635 4.4127164 0.2902147 3.0788333 2.5286481 -0.047956813 1.2214323 1.1635251 1.7521212 0.7670507 1.529454 0.73410606 -2.7657804 0.48336974 -1.8721251 1.0786446 1.292328 -3.0780036 -2.4208355 2.5856216 -3.3483038 -0.5109177
1833.PA-06.03.PHIL.txt -0.7265148 2.0312412 1.048849 -1.0826539 -3.5196471 2.896065 -3.5699294 3.6886773 1.8348798 0.19669823 0.022043955 -5.2687016 -0.15276578 2.48708 4.9089127 3.4673061 3.133168 2.2351482 0.12916568 -1.5895071 6.608936 1.0604739 -2.241979 4.0087585 0.21514958 6.510404 -0.40822324 3.817573 4.636 -1.3108776 -0.8099618 5.865131 3.7554681 -6.976414 -1.3328122 -0.015286873 -2.3928869 -2.037885 -0.8257163 5.2524447 1.9234426 0.21792355 1.4506594 -0.99786556 3.2423105 3.325792 1.6240247 -1.9552454 -1.948434 -1.9213362 3.7607749 -1.9501903 -2.4086406 1.7054867 -3.519899 -0.4694782 -0.36685437 -0.4729123 -1.5560055 0.41121018 1.9332194 -3.6899009 -1.6959451 2.1449287
1843.NY-08.15.BUFF.txt -3.7090163 -4.3735685 -2.6531951 -0.08205161 0.62401146 -0.30494848 2.1420324 2.8675685 -2.7098942 -1.4771544 -1.2573775 7.306862 -1.0532726 -0.029284336 -2.6285157 0.6969782 4.9584394 1.9747257 3.9969409 3.548313 4.2684293 -2.5289524 -1.9589341 0.5319157 1.4764667 -2.0529385 -1.673741 1.0470684 -8.940466 2.2960896 -3.8707113 4.1626105 0.22554898 -0.6205544 -2.7977502 0.046147127 3.5227263 3.0035002 0.33710295 -2.411502 -5.725652 0.7314459 -1.860031 -2.2370467 3.1849852 2.479571 0.82503027 -0.35444006 -5.5279403 -0.064337365 -2.9392624 2.82731 1.5722905 1.3308201 -1.4296851 3.9397833 1.4809103 -2.7075315 -1.2595348 4.33964 -6.994558 3.8875864 -5.4596143 0.66302544
1856.CA-12.09.SACR.txt 1.9324478 -2.8848486 3.1345704 2.1330607 4.919667 1.8131324 -5.343646 -6.382802 -2.7008474 4.111763 0.6069815 2.7459762 0.7070882 6.968318 -0.0032871377 -4.45147 -2.2562008 -2.0000732 0.5888321 1.5140468 3.9244657 -5.131918 -4.3338904 2.0375068 6.041831 -4.740383 3.0228233 0.36264423 4.7818494 3.78138 -2.49407 -1.045528 4.0250044 -2.6741052 1.2720267 2.322037 -0.93411404 4.0452642 -1.9737582 -0.45519745 0.90660626 -2.5078108 -0.0050380775 -1.9330481 0.6662119 4.191682 -2.467841 4.410723 1.2737899 -1.2193379 -4.089631 1.9766768 0.65569544 0.56388915 0.3985686 2.961635 -1.3078606 -1.8687856 -2.3432941 2.2498305 3.44075 1.4346483 -1.5170424 1.263808
1831.PA-06.06.PHIL.txt -4.11786 5.2358027 0.0063967532 2.637847 -3.8626344 1.196957 1.4274696 4.1417565 0.1341753 -0.22914131 3.3438356 -3.8707423 4.4098077 3.84923 5.4556785 7.242918 2.8170018 3.419158 -1.7385876 -6.4163685 -0.582408 -2.4985552 -0.09575767 1.3380761 -1.7816242 3.7166178 0.6791637 -3.1293242 2.192626 3.2170928 0.77449006 -0.71603024 -0.27945194 -0.03401375 -2.9501035 2.8086634 -0.5273086 0.0684693 -4.3525257 1.6337364 1.5150368 0.548359 4.1202097 -0.43854707 3.506312 -2.6184287 -0.7064028 0.9746732 0.1252412 -1.5672578 1.2718114 -1.3694341 1.4049684 3.0853941 1.9413424 2.2391586 4.0660563 -0.19359492 -1.1818788 1.5252302 0.9646877 -5.7337456 -5.622153 2.986518
1851.NY-07.22.ALBA.txt -1.2926115 -3.7317653 2.2793324 -4.7033644 -1.0444686 -1.4461061 -1.0766864 -1.1195204 -0.51678485 1.0877198 -3.6663659 -3.171296 -0.097924165 -1.3099755 -3.7570686 4.665663 -2.277094 4.358595 -1.7461495 -2.5792274 6.0424447 2.2420156 -4.642049 -0.4492861 0.97308064 -1.7757299 -3.2018495 -3.158927 -3.2985072 3.2872672 -3.6968944 -2.4750984 -1.5686829 -0.87429297 -2.0635574 3.7765718 0.7894679 -3.8780186 8.704704 -5.6448364 -1.7020668 -3.409591 -1.1278949 -0.75513184 2.2566557 0.14398259 -1.5678778 -0.69420874 -1.7205652 3.1822364 0.5628215 5.90474 0.29537985 4.4791045 5.0917177 -4.4003344 -4.860272 2.0655384 4.9476347 1.0129945 1.1507151 -1.7791431 -0.92091805 -3.5665026
1879.TN-05.06.NASH.txt -0.96616817 -3.0420282 -5.155247 -3.3217375 2.016517 2.1551213 2.7414403 -4.2155514 -2.115175 2.0141816 5.053056 -0.44340193 5.195003 -0.91877544 4.569673 -4.264449 0.32345635 -1.8881959 -1.5885113 1.5584406 0.47574002 0.07080548 0.43352038 -2.086579 0.07226328 -1.3637528 -6.415653 -4.079091 3.2439094 -7.929647 -0.33688357 -2.4812295 0.68479806 -7.01691 -5.082622 3.0409532 4.7056875 1.736831 4.364073 -4.7836885 3.7512941 6.1876383 -2.0176525 -2.8473904 -1.8126433 2.254919 -2.9020786 -4.0976253 -1.3860388 4.4464297 -1.6036819 -4.313575 0.099372104 -1.90006 -2.897706 1.1097844 -1.1961982 -3.9368727 -4.0608296 2.8897688 3.0205374 5.144943 0.5942646 -2.694766
1851.OH-01.15.COLU.txt -4.232343 -3.9996037 0.17053662 -2.847696 -2.8550591 1.488612 -0.4303982 -3.3275793 -1.6478226 -3.571166 2.3880267 -1.5437118 -3.6569927 -1.5733987 -2.1771097 2.1546557 1.6641786 -1.9927127 3.7146485 4.8706517 -1.1620827 2.2289677 -3.4592202 -3.644935 -0.06989542 -1.3613799 0.7821337 -1.4711471 -4.2094254 -4.970324 -0.7807719 -2.1933444 2.1854253 -0.46786726 2.1742096 -2.6972585 2.923386 -4.053288 -3.6704502 0.30304584 1.8313094 2.49173 -3.368545 5.0727067 -3.5698898 -3.2098594 0.57607055 6.2447977 4.541214 -2.9084828 3.7897801 -4.38871 -1.0281761 -1.1957499 -3.3884544 -5.754907 -6.5071588 3.75262 6.716698 5.9499993 -0.6025692 3.170502 -1.6469572 2.2126818
1855.CA-11.20.SACR.txt 0.03459745 -2.1717293 5.640728 4.4793234 0.8198334 1.8830291 -4.577689 -4.8741674 -6.0437727 0.6064158 -0.6149995 3.755685 -0.7040406 6.8312645 2.9273272 -1.9018846 -4.907044 0.7530029 2.001031 2.8835022 -2.2213564 -6.078018 -1.2304779 2.8042705 4.1729565 -2.7841754 -2.1790774 2.2793908 3.6307664 3.5916011 -3.4956594 0.265847 2.7477775 1.0512259 2.7644916 0.5866563 -1.2084284 1.2015426 -1.520742 -2.8777566 0.7631474 -3.5859535 -0.79453 3.7894373 0.5124413 3.3163269 -1.1459529 -2.7958243 8.035174 -3.0720625 -1.425625 -0.77870303 3.084342 -0.4740501 1.9132694 0.50373125 0.65975803 -5.9488215 -3.23131 -3.855095 0.5337272 3.0604692 -0.79632217 0.36558047
1855.NY-09.04.TROY.txt -3.183402 0.07741489 -2.7613235 -1.3589468 0.18815696 -4.6867204 4.788985 2.2442465 3.741411 4.4355726 -3.1182218 -1.2430223 0.6579115 1.8973564 -1.9588115 1.4104106 -3.4023254 -2.3594782 -2.470147 -1.8958521 3.3710032 -0.99887127 -2.0354633 -0.7460295 -4.9078155 -1.3252392 -1.7765579 -0.45800337 -0.6054453 -1.8032938 -4.90923 -5.0050993 -1.8614634 0.5805146 4.260531 -5.955731 -1.4943604 6.143632 7.094701 -0.6824136 -5.020884 0.09804484 2.8746874 -3.670115 -1.7897611 3.178229 -0.23285156 -1.6559452 -2.5650523 -1.0736687 4.4724574 0.11667307 4.610256 6.462104 3.3359253 -1.000182 -0.6141357 -4.44936 -3.8587017 -1.049651 0.7492884 7.8666444 5.574546 -2.1811295
1840.NY-08.18.ALBA.2.txt 4.0704174 0.9561541 2.8243012 -4.9551263 1.8133571 -0.23379469 3.9890375 3.5249226 1.2840229 -5.4543834 -0.14787918 2.2701175 -4.4413986 1.8169785 -2.1097841 -1.5250933 0.5581289 1.8405815 -0.2927835 -4.7342644 0.55684096 -1.6699741 2.9659863 1.2368339 2.5849035 -5.6916604 3.9017057 2.465287 -3.0459242 2.4153526 2.0509593 2.535829 -3.3663027 2.1495616 -3.5454707 -1.0064398 -2.7323792 -2.66347 0.1884994 3.2174394 -2.7081168 -2.2459054 -5.447688 -3.4091632 -2.6655343 0.32464007 3.3592489 -1.5174134 -4.8522696 0.36404654 3.9013007 0.34810716 -2.9562788 1.5423361 -1.4950477 -1.3191533 -4.30853 -6.420794 -5.282483 -4.6964536 -3.8790996 -1.3904033 -0.6454238 -2.0545948
1865.CA-10.25.SACR.txt 1.3150035 -2.1494603 0.07556499 0.9412614 0.41125423 0.5981713 -0.5736553 -6.8935056 -3.624266 1.7283306 2.1403852 0.12902795 -8.173157 5.967936 -0.016066689 -1.0552658 -7.341346 4.8313327 5.651682 5.631137 -0.46507213 -4.1013856 2.4244328 1.5236014 2.3613105 0.9518289 5.567704 -2.297806 3.7975888 0.91570425 1.9761496 1.2484821 0.535055 -1.935655 8.232712 1.7219745 2.1682818 2.5748236 1.3637824 1.1414231 2.4187875 -1.4693403 -5.418399 0.7189379 3.866586 -1.7386804 -0.27862054 0.65929246 1.774189 -4.6268554 -3.0605721 -0.37982556 2.1200802 2.3567457 4.448646 0.1493425 1.2703747 -4.572413 -3.5071845 3.6738653 3.4669876 1.4513496 -1.8814098 -0.31017995
1848.PA-12.13.HARR.txt -1.7584565 -4.2267156 1.6354426 -1.6955153 -0.8605047 5.3053946 -5.5895696 -2.299332 7.685842 -0.11670967 -2.570628 1.8126985 2.943965 1.1053882 1.1098593 3.6881979 -2.2556787 -4.2133746 0.8519042 -5.373285 -4.651283 4.158655 0.639675 -0.24844673 -3.4571419 2.1820471 -4.764386 -5.23507 -1.2175182 2.9646032 -1.5439848 7.0407014 0.74978083 0.4542587 1.7722439 3.677587 -4.7259307 -1.5643299 -2.2359498 1.7695664 1.3410612 -3.1061456 -1.6981324 4.8498764 3.3986795 4.767539 0.94082296 2.8259168 -0.6143114 -2.230584 -6.086566 -6.01225 -2.8746948 1.9255923 -4.5232315 -2.5652723 2.9239197 -3.9333222 4.2557864 -1.1493578 -2.1135185 0.8555693 1.9567591 -0.8102939
1850.OH-01.09.COLU.txt -5.7821326 -4.891794 5.215307 1.6644266 -1.3976605 -3.378114 5.312485 -3.7967083 -1.1719221 0.26496083 0.5231346 -2.489474 0.99386704 -0.75095516 -6.1796374 -2.2596343 -1.3482391 0.4826472 3.7910552 -0.7688246 -1.0857198 1.9232855 -0.52657086 -2.0653546 -1.5798887 -1.6340362 -1.9692451 -3.8987145 -4.933546 -4.9390163 0.3694822 -0.93701077 3.670339 0.34560403 1.8029603 -1.6083157 8.99161 -1.746812 -3.7672603 4.4133983 -1.6803571 5.8162513 -0.16912523 0.073784865 -3.7187324 0.9155135 -0.106344715 3.2785623 -2.666343 -8.513723 1.7428411 -3.9192142 1.377756 -6.351042 -1.8550899 1.1799586 -5.3402123 4.0190463 3.460223 -1.363433 4.437754 1.0215961 0.9142205 -1.367749
1843.MA-08.03.SALE.txt -1.3662885 1.7581909 1.2897003 0.88007843 1.2754929 -0.98466444 -3.2941759 -3.2464921 5.3869004 -1.5263091 1.772651 -6.000799 0.7098161 3.54273 -4.599617 -2.4584866 6.3514595 2.842724 2.0322452 -1.0072159 -6.5103226 -5.6014495 -1.6776872 -0.32394168 3.9677987 0.83481324 -1.6638503 0.015672699 0.059624497 0.22289655 0.1357046 1.3525912 3.539603 1.4651885 -2.2062125 7.916937 -2.6349254 -2.3633711 -1.3134165 1.4090078 -4.0691304 -5.087133 3.5360754 -4.093199 -0.19908014 -1.4137975 1.8464544 -6.3350534 -1.1160269 -3.8797443 -8.047081 -4.87262 -1.5925642 -0.40295002 -3.7357483 3.753741 -0.962012 -1.858783 -5.1989484 -4.9701743 -1.8952931 3.6377416 1.2504994 -4.0845947
1844.NY-09.18.SCHE-Minutes.txt 2.5119896 -0.2410961 3.4402711 -5.6042805 0.84562 -10.856329 -1.3612854 -2.0501108 1.792778 -4.124825 2.3305073 -2.099297 -0.8602745 1.7332766 -3.7581272 -3.2305539 1.6922039 -7.978853 0.30785748 -4.3278165 0.13742402 1.0262388 3.3165932 3.8890266 1.557041 -3.985097 3.5074618 -2.9269588 -2.648482 -1.3959928 -4.648655 0.08930329 1.2700255 -3.1270957 0.5410446 -5.71417 0.2636987 -0.72748274 0.14334157 -1.0959125 -1.083411 -3.1487997 4.9631805 -4.79058 0.45749006 -3.0352132 3.6357272 2.742634 -4.2479773 7.191584 4.24977 0.36642912 3.2783487 -3.65901 -0.49845704 -2.8616798 -1.4850751 -0.20471638 -2.2419224 -1.7399575 0.38092998 -0.79570985 -3.1350513 0.8636816
1853.IL-10.06.CHIC.txt -11.037602 -0.9600157 3.8821678 1.9421551 -0.28971434 4.0408278 -1.8316178 2.503048 1.2007324 -2.0025115 -1.0773191 0.01642347 2.0125895 4.7945414 -0.051576864 -0.97137463 -2.7167337 3.4284081 -0.0067517464 2.6776533 -1.6093874 2.3554494 -0.8625206 -5.093037 0.45588502 -2.308712 0.11208102 -2.0378447 2.7722921 0.59632945 3.584914 5.8970065 2.0913126 0.476381 -3.1022425 -7.6741242 0.18535183 0.06252107 0.99997956 -3.1191356 -0.57005817 0.5458299 -1.9322695 3.998155 -5.1925826 -4.2149234 2.4427338 -2.5016367 4.1930785 3.9639158 2.6540294 3.2811975 -4.147494 1.1487573 3.2501447 5.8746796 -3.5669408 3.5707808 -3.739691 4.985647 -0.7726296 3.2674797 6.548702 -0.57122064
1857.OH-01.21.COLU.txt -1.6670593 -3.1512268 1.4879793 -3.385541 -2.219055 5.413996 2.7498844 -0.5502672 1.5834929 -1.8702579 -7.291417 4.1450424 -3.5457294 -0.35304958 -3.815649 -1.7565322 -1.0987076 1.0081993 5.6234837 0.5561262 3.792741 -4.782124 1.9548026 -4.3743386 -1.8231051 -5.2560945 -0.03533524 -0.38078094 -1.5875015 -2.8843799 -0.71785235 -1.257107 6.5802236 -4.8115683 -4.6584835 -1.1378306 7.078669 -1.0343823 -0.10640063 3.3816895 2.5216901 -1.516913 -2.4444656 2.8671339 -5.3941717 -8.811521 -0.82275695 3.072764 1.406109 -9.4250345 -0.38354877 -2.3025663 4.1436176 4.638402 0.1037028 -1.3589281 2.582254 3.7472963 4.330972 2.7771585 0.68978906 -0.5571977 2.550607 2.1324992
1865.NC-09.29.RALE.txt 1.8026681 -4.2237706 -3.1718473 3.906708 -0.75292414 1.7133999 2.3158076 0.8675459 -0.54787093 2.8570044 -0.7971841 2.2854018 -1.3941212 -4.354081 0.6740696 1.6228697 -1.6337527 -5.855543 0.4093416 6.7515407 -0.92491823 -4.329017 1.6075929 0.24266382 -5.579104 2.6825995 -3.9088118 1.8764769 3.1455264 -2.0932672 2.5387006 -1.7759348 -1.2538534 3.8557997 5.881758 -0.2193503 0.11453675 -1.4056859 0.35922846 -0.39728242 -4.2212267 0.9965463 2.664328 -0.64845157 -0.5632165 -2.6639106 0.31185222 -3.2077396 -0.19827037 2.7570422 -1.4957308 4.647674 -2.6139915 1.0795215 -2.3326468 0.32966074 -5.4786177 1.3098744 3.985468 -0.6222915 0.20330583 0.29401377 2.4238412 -0.07756337
1865.NC-09.29.RALE.01.txt 2.395382 -4.356054 -2.9964418 3.7023032 -0.836898 1.9937905 2.4292471 0.6732 -1.250705 2.6792233 -1.1933692 2.417222 -1.0012988 -4.5753846 0.2603726 1.4686785 -1.9508094 -5.6990914 0.4859288 6.474901 -0.90823877 -4.7530575 1.9673644 0.3129663 -5.1693864 2.6240106 -3.3985837 1.4035232 2.7846313 -2.1347542 3.1024435 -2.071745 -1.5976413 3.9926865 5.857635 -0.07992062 0.12727025 -2.0201445 0.60646135 -0.3396875 -4.362434 0.7420535 2.6737473 -0.43399018 0.02355785 -2.6589744 -0.015524307 -3.2045858 -0.32112765 3.1853895 -1.3454224 4.574668 -3.0376823 1.299294 -1.9597793 -0.36614698 -5.612423 1.6189959 3.7422488 -1.1839669 -0.10118815 0.4317958 2.4436905 0.018991427
1848.OH-09.06.CLEV.txt -2.1456566 0.27079126 5.365477 -1.1469316 -5.7628484 0.45222774 8.091617 -2.220728 -5.510525 2.2178557 -0.9343514 -3.6395528 -0.6841383 -4.0310917 -1.7355045 -6.744931 1.3778747 4.894737 -1.1398932 3.426913 3.227119 3.5892766 -2.6255753 -3.7729568 1.1117644 2.370768 -5.1254907 -6.907426 -0.046309553 -0.65852755 -4.9477053 2.5826113 3.0643775 0.27056712 -2.5161443 1.5659733 8.017178 1.6926528 -3.6414294 -1.7125827 -5.028401 0.50370705 -0.6540208 1.9191551 -2.221278 0.14247192 8.634634 -0.1804906 -4.7256346 -2.9344504 -0.5396356 0.38395786 0.21191281 -0.9729825 -6.1438246 -0.34525675 -0.55955255 -4.853156 -0.7078966 1.2644385 -3.5781536 -2.4707358 4.0159254 2.9498188
1856.IL-11.13.ALTO.txt -5.6232405 -5.429521 -0.21832599 1.5402875 -2.5597878 0.2905558 2.2679107 0.72416234 4.8290915 0.85057586 -0.33985496 1.0326425 3.153894 5.5933285 -0.82985747 -4.651139 -1.4161102 3.3898983 3.932836 4.3076377 0.8107338 2.1746993 -4.4447956 -1.8815916 -0.3757547 -1.4724355 1.7150416 -2.094436 4.9057293 -1.92065 -5.971212 6.6022434 3.4772308 0.24799554 -1.5367243 -8.244635 3.6546302 0.42948014 0.24199253 -0.5144474 1.8150733 1.9525505 -1.6480372 -2.591683 2.76029 -6.240854 -0.9872314 -2.2831101 2.1189947 4.4599795 2.2285907 -2.0537977 -5.5204797 0.35616943 6.117248 -0.63695693 0.9424005 4.0239186 -1.884095 2.6054142 0.08185951 7.7537465 5.3047247 -1.1291384
1865.NC-09.29.RALE.02.txt 2.3218663 -6.786294 -5.392624 3.3372765 1.1453416 2.706652 2.5380316 -1.1479459 0.19567853 3.2820961 -0.779009 1.6226639 -0.4719507 -2.3952746 -1.7723385 1.5833942 -1.7855232 -6.876163 1.0001577 4.7909594 -1.5706736 -4.651682 2.3978977 1.155633 -5.3767834 1.6410975 -4.409907 1.0163909 3.4689996 -4.358159 2.4962344 -2.596201 -2.1870916 1.426597 4.595998 0.61116064 0.30588812 -1.1149206 -0.85621125 -1.6694502 -3.8657365 1.5267612 2.4675293 -0.6618933 -0.48477635 -1.2915472 0.027654255 -1.8662761 -0.98441976 5.193503 -1.6732242 4.361677 -2.9614468 0.37542558 -2.8899639 -1.4766408 -4.0596843 2.0755107 3.1006074 -0.47282872 -0.01759689 2.5497892 1.2595712 0.45417917
1830.PA-09.24.PHIL.txt 0.2967233 2.1662939 2.2968209 1.806699 1.2196311 -1.155735 3.3666718 3.2105293 7.682037 0.5448406 7.655482 -5.9726753 6.922206 6.15876 0.35945502 4.976978 5.8204145 4.832845 -3.632614 -0.08703813 -1.5034071 -1.6582435 1.5249351 1.1528041 -1.8776498 3.9401882 -2.7068467 0.80266654 -3.0218916 -0.4948287 -1.1330619 2.4740846 -5.5899844 -2.6601958 2.8632553 -0.9521306 -0.7033848 2.7602694 -0.7781659 0.48050195 -0.8280753 -0.8407511 3.2282054 4.862806 -0.68522096 -1.7308419 3.267559 6.1043935 0.25598606 -0.37015912 4.202533 -0.16334304 0.8418581 2.2722268 0.031389136 -2.3071642 0.7456366 -4.934363 -3.1929612 -3.1126833 6.300494 -6.565818 -0.6822097 2.0374224
1866.PA-08.08.PITT.txt -3.808768 3.3693662 0.67587507 -2.942541 -1.9806349 0.04005811 -7.234234 1.8976536 0.59724957 -0.25222477 -2.3340254 0.17311987 3.3736417 -2.0597172 -7.710542 1.2690609 2.5711782 0.3228379 -4.7693844 5.422168 -1.3106449 1.484684 -0.5431465 5.45493 -2.0591264 0.13544413 -7.111968 0.8839327 2.4829876 -2.9752908 1.3086919 -3.8486571 -0.81701624 2.2274518 -0.100572236 -1.9034423 -4.967819 3.0964754 -3.026962 3.910503 0.19975516 -3.5676599 -6.0309834 -3.716424 -1.8311967 2.9584634 0.20043302 0.69881415 7.6939797 3.4914174 -7.474782 -6.789357 8.55951 -0.8871127 -3.2395487 -1.6126072 -3.8442845 -5.760817 0.5136745 -2.914665 1.5622085 0.40481183 1.4330481 3.6648133
1871.TN-02.22.NASH.txt -0.54951066 4.3995514 2.279066 4.1172185 4.1141634 3.8419957 -0.49186927 1.2564158 -2.1001165 -2.4866176 6.8608212 6.516402 0.61019033 -1.8204594 -3.9022005 -3.5762386 5.7790956 -6.571888 2.1824799 3.755357 -1.786948 -0.9155227 7.8128242 -6.0840054 4.33502 -0.6708876 0.9514678 -0.9989435 1.6455572 2.8355076 1.2448858 -7.1008525 -1.5954374 -3.7658057 5.321015 -1.0854671 -1.9870918 1.7989539 4.9971724 -1.5450962 7.597976 3.2578266 -4.296881 -3.2108386 -0.8733225 1.7947503 -0.23888575 -1.3918288 2.2652812 3.0207396 3.4437985 -4.491487 -4.804011 2.4312599 1.8745848 0.1575771 -5.1361814 -0.7919385 -3.9191556 9.1405945 4.4878454 0.69699615 -3.6819067 3.5639853
1849.CT-09.12.NEWH.txt -1.0639371 4.2663836 6.0109334 -4.9125795 9.153792 -3.2115388 -4.8158574 2.6296315 -3.341629 2.7130935 -0.58033735 2.727731 -2.744922 -2.78789 -3.0762672 -2.6478837 -2.9499087 0.05187647 3.6824875 -1.494072 -2.114819 6.022046 -2.0423303 -4.853526 6.2052813 4.540492 -5.930315 3.9264932 -1.0931159 2.141479 4.613759 1.6900336 -2.522043 0.8687656 -6.7830453 3.9394245 -5.977546 5.023431 -3.025079 -6.2957106 1.4151361 3.3253207 4.69287 0.17072147 3.571945 5.960604 -3.7419643 -0.89135486 -3.8808172 -2.0642736 2.2609906 1.7496748 4.78586 1.2606066 0.5988626 -0.77146417 -2.4271522 4.3454547 0.15368012 0.21510303 -0.2985373 -3.328932 0.75802547 -1.8462648
1856.OH-01.16.COLU.txt -1.9524095 -0.44775355 5.44906 0.76151794 3.5650804 1.5256646 1.8303401 1.2705997 -0.9312589 -1.7562807 1.0393673 -1.3798612 -4.514671 -3.9689987 -2.4704316 1.2510811 -2.404946 -2.4202776 0.40669328 -1.487364 1.5446593 0.035569124 1.6023498 -8.478048 -1.1797441 1.0884838 -1.1309326 -2.3380105 -6.2914934 -2.8541267 4.252472 -3.7609966 3.109422 -0.68691 -3.778383 5.307392 4.0686245 2.5090744 1.9382123 4.1351824 -4.17138 2.8712018 -3.1773558 2.82754 -7.4669595 -6.4977274 0.92077905 3.461107 1.8437331 -5.0934205 -5.7785163 -3.5866885 2.2136118 -4.7572417 -7.1139607 -1.0615125 -0.5863383 7.8637447 2.532868 -0.75175726 0.24828213 0.5123771 0.79949594 5.5382113
1854.NY-01.02.ALBA.txt 4.1106157 6.486998 2.3455822 3.224569 -3.3836043 -2.1089485 1.796269 3.1611857 -2.0689962 6.72137 -4.2837543 -2.491338 -5.9116354 -4.0181627 2.804027 3.1683104 1.8945298 -0.31625596 1.9233447 -5.21043 6.05923 -1.8268039 -4.5717597 1.798661 -0.97195876 -2.1540496 2.1691103 -4.2362695 0.3534958 3.2702775 -2.5440564 2.8163288 -2.3439195 1.6581748 5.0682683 0.49454233 -3.3334877 3.7482464 3.7884583 -0.76308507 -0.6449454 -9.989822 -7.3965898 -4.296193 -5.9316945 2.2995994 -4.6887856 4.5215425 -5.2981763 3.4152422 -0.019207902 0.16698654 3.8969274 0.41424692 2.8857777 -5.701782 -3.4982228 0.75171465 -1.6647562 0.41442263 3.5285738 6.192084 -0.62118554 -0.39326
1858.MA-08.01.NEWB.txt -5.602816 -3.044742 -6.082353 7.6725655 -0.19663906 -3.6131678 -2.7036915 -0.015334783 -6.0040364 -2.6095476 -1.0515308 -0.8458979 0.8485703 1.1188931 -1.8045821 0.038013186 2.3775394 -1.8005065 6.2710843 -1.3023801 -2.567647 -3.2689714 -0.38529298 -4.065903 -1.1762552 1.9754827 -1.6211411 9.917195 -4.478495 -0.08719961 -1.469782 7.155663 -3.9158802 -1.1742969 -1.9215568 -2.2100081 -5.6102138 -8.099709 0.79496044 -7.2503076 -3.118583 1.9221994 -6.913876 3.572542 -2.2077208 1.7336572 6.3892827 -2.5851154 1.8832997 2.7142034 1.3356578 1.4591019 3.5862706 3.7645717 -6.035156 -4.781804 7.015534 -2.8166595 1.6407613 1.6100525 6.389195 0.06410034 -0.54858583 1.6955291
1867.PA-01.08.PHIL.02.txt 2.7912982 1.7919662 -2.8712103 -0.34077626 -3.4247575 -1.2260584 -8.916186 -0.5255159 -1.3244394 3.7468626 0.8307143 2.394239 2.802444 0.021947155 2.8093026 0.7242097 6.6442533 -5.441385 -6.968412 8.598163 -5.170603 2.396644 -2.8532517 2.7856846 9.475228 -1.8173288 0.32977438 -0.33000097 -3.28802 -6.9747276 0.52447116 -3.8623335 -2.5872269 -2.4532652 3.0069373 -0.97224075 1.8762183 -3.1984909 -2.5527909 1.2112062 0.5185759 4.134559 -4.4011545 0.82951677 -4.8579783 -0.78663355 -3.2184267 -1.9475805 0.7757153 0.49941927 6.155267 -3.3842459 1.7409092 -5.3712926 3.3842597 4.368638 8.808106 1.2738992 0.39182052 0.5639994 -0.07559489 3.4126675 1.9544371 -3.6981292
1843.MI-10.26.DETR.txt 2.7436023 3.1908865 -6.592918 -2.3691716 4.9539905 2.0112407 4.4041233 -4.92161 -4.880723 3.5828714 0.23334613 -2.1102986 -2.031087 0.22570202 4.440153 -6.836083 5.723474 -6.7671356 2.3096611 -0.37326062 -1.2385695 3.9193935 -3.370566 -5.777227 0.15201393 0.45857114 -1.8020803 -1.7198005 -2.0864632 -2.5625196 -2.5762668 0.91576874 -7.0176897 -1.5538671 1.3785892 -5.6847897 1.5779653 3.159255 -6.100543 -6.9482684 5.057592 -1.6724994 3.4125364 6.1660748 3.7518997 -1.6042469 0.8939984 -0.9730225 1.6797435 0.21726628 3.3425379 -0.68299896 -0.32385892 6.631585 -4.1901274 1.0640643 -0.51778466 -3.9145522 -4.092723 3.7445898 -6.5930657 0.60575825 2.679937 -1.4684138
1841.ME-10.06.PORT.02.txt 0.40075493 2.486228 -3.428634 -1.3742157 1.8639588 -5.471627 -2.728679 -2.8826175 6.9635205 -9.878214 0.44861042 2.9205363 -0.8717972 -3.7477484 4.3783855 -2.686345 0.9293944 6.247818 -6.9172096 5.072243 1.1538564 -3.8762593 0.90924037 -3.00633 2.0639365 -3.0066211 2.415957 -2.5279374 -5.3878894 2.0437403 -2.8994422 4.7409105 0.0505208 -10.844318 -0.45507854 1.5825499 4.939274 2.5833843 5.4696097 -4.5745625 -3.144645 4.674768 -1.8388482 -3.5761557 -0.6338323 1.1634506 -3.7673764 3.1345043 5.3061595 -3.8407469 -0.31140727 1.8205519 1.9670253 5.347062 1.073515 4.3602533 -2.7552629 -1.1228881 4.108772 -2.5579348 -0.7689383 -2.713458 6.0884175 0.4981643
1858.NY-09.14.TROY.txt -5.96203 -1.2197938 4.0637097 -2.5743833 3.2242029 -12.281404 -1.854044 2.6935303 -4.2253575 -1.390549 -5.2204967 1.3369718 -1.7240553 5.739402 5.495383 -0.9533414 0.8765498 -1.236543 1.4744751 -1.1747222 -2.4366865 -2.1810715 3.3868825 -5.330288 0.5060547 3.0231206 -5.054917 -3.6770093 -6.349814 1.4961138 1.610648 -3.7865942 -0.90826076 -3.472676 7.527326 -2.7961273 2.2151506 -3.8847163 10.430286 0.15262806 5.2812185 -2.7897546 -6.7610517 -1.9594395 1.5615294 -1.2582738 -2.700003 -4.6509347 -2.7424588 1.421602 -2.9207015 3.3518667 8.462115 -1.9874434 -0.6869484 1.4812566 -3.153724 1.1361256 3.4028633 0.5160844 -3.95029 -0.20456396 -1.314871 -2.878483
1854.MA-01.02.BOST.txt -6.347927 -1.468684 -2.134933 6.400337 0.22621617 1.4437791 2.1752522 -1.002407 -3.2224157 -6.8860626 -0.8658217 1.9131444 4.8009553 2.0319629 -0.014544291 -11.71389 3.9679258 -0.16459616 5.16391 -0.24793813 -0.09509106 -4.347736 2.6535628 1.9414406 -4.6176276 -2.6812503 3.3144975 -3.061472 -0.96356297 0.68597454 6.5938168 1.8962258 -1.4453708 0.21762392 -2.0294468 -2.0076053 -2.0760312 -3.8532648 -0.43051833 -6.312855 3.6690443 -5.2555223 -0.9153467 4.4775186 -5.3445206 3.183634 7.1402936 3.5483263 -0.36734527 -2.4859216 4.5194907 7.6655436 4.2813225 1.8660107 -0.6338133 1.5450834 9.223942 -1.1212238 -1.4181744 -4.5007586 6.7300906 -1.9154775 -0.09892643 -5.06237
1865.MA-12.20.BOST.txt -5.748098 4.751301 -5.094109 3.862236 4.603742 1.6640432 0.82642734 1.3969302 6.0590954 -2.9699073 0.3147781 5.5924606 -1.7711791 3.0148416 -4.753122 -5.7350507 3.403765 -1.3142984 -0.66263217 5.667953 1.1267396 -2.7796285 -3.2421556 2.3968656 -4.358101 5.560036 4.0636654 7.6893144 6.0007477 0.13058612 -3.6125464 2.209707 -2.61532 1.2897499 -2.8406096 3.7123897 4.6966977 -8.380368 1.3171773 -1.1774154 3.4618511 0.9940093 -7.2422323 0.9962915 1.2880186 -3.2231688 7.0796866 2.946267 -5.6639867 5.246844 2.7504563 2.2359579 4.122343 -1.5311689 -1.8098168 -1.2377791 3.0531065 2.66795 -1.0570722 -2.8431928 8.424374 1.200151 -0.24798712 -8.132422
1851.ON-09.11.TORO.txt 6.3081183 2.1000226 -0.21643522 -0.35015044 -3.9203322 1.1532302 7.0131826 -10.1765175 -2.2968478 10.683125 -7.0007467 -0.34691912 -3.2316873 -4.7383137 6.6651344 0.8514631 2.4525638 3.6782997 2.964764 7.3829317 -3.8477583 1.0595398 -3.5100226 -2.4962726 -0.83511746 -1.5834305 -2.4658475 1.9482939 -3.194891 2.1470323 -5.4260964 3.1464286 -7.1600146 -6.7331557 -0.09689991 3.915119 -2.4565246 -2.1174314 -4.524663 2.7688322 -0.05841861 -1.6339396 3.3727224 -6.104518 0.23353474 -0.71400464 5.3546534 -1.5013326 2.0678897 0.5085319 2.0459132 -4.5225415 3.2285938 -0.9564558 -1.0936801 -0.3633299 -0.62209296 -2.521927 1.0699795 7.7823257 -1.168503 -3.779635 0.57108414 -2.5688713
1866.KS-10.17.LAWR.txt 1.3916066 -0.8329738 3.143467 1.3573672 -6.3103075 2.135777 1.8418666 5.7420073 -4.5515156 3.8083315 1.8107158 1.1254996 7.668764 -0.9407713 -6.1097126 2.1960554 -4.102854 -1.9044144 -4.1338043 3.639087 -2.5653512 -0.3042226 -0.49685016 -0.54778093 3.691608 -1.0325125 -1.1872839 3.2221313 -4.1479206 2.826715 -5.312692 -1.9282941 -1.6440384 2.3435564 -2.3133614 -2.0468085 -1.4920946 2.771047 -1.4384556 5.5496774 -4.4670444 -1.2959657 -10.227656 7.0314484 -3.353064 -1.8467884 1.7145804 1.8905016 8.474227 -6.6773653 3.927678 6.685334 3.2719707 1.3312358 -0.099883296 -4.2582755 7.457563 1.5210983 1.6351886 -1.7410696 -7.031159 -2.1722717 -0.9641372 3.014396
1871.KY-01.01.FRAN.txt 3.887584 -3.9924266 -1.0597051 3.1139784 4.986698 -4.633974 7.2317657 -1.4875851 2.319745 0.195821 -1.5200881 5.853893 5.821223 1.3410577 2.1757855 -4.401799 -1.5959135 4.9559946 4.3497567 -1.9790859 -3.7786252 -1.2913034 1.8673255 -9.206673 4.382584 2.5192492 -1.6462744 -1.8919027 -0.6759143 2.6599042 2.3001933 -0.46455026 2.227851 -1.8610032 1.7302787 -3.3204112 -0.93622047 -10.250662 4.848954 -0.69366497 3.823286 -2.3623881 -4.0896435 3.0150645 2.5189703 5.2062864 0.5485891 1.1697216 0.61406904 4.3219194 -7.3396726 -2.9650059 -5.8945565 4.9701085 0.46113917 -5.376937 -2.93996 -3.2658699 0.28659144 5.3789005 10.056567 1.3897097 6.380668 6.8408732
Frederick Douglass -7.285852 0.98972446 -4.1194687 -0.76179296 10.964769 1.3008949 1.9843321 -6.9055953 -3.580447 1.8996305 -1.9193134 -2.9239314 1.3917645 -5.042472 -1.4300685 1.5372314 3.2766643 0.18484525 -0.023650752 -2.5624416 0.46166953 -1.5562773 4.360237 2.352955 2.703168 3.3902018 0.6252567 -1.1854587 -0.22484568 0.7786641 -5.3124847 1.3185426 1.1340011 2.9093044 -4.264134 -2.6032307 -2.983423 2.6369815 1.0809726 3.3578587 -0.35975388 -1.2999566 -3.3111947 -2.88663 0.3357837 -2.808635 -1.9489338 0.3213495 1.4365425 -0.47188422 2.0830388 0.98675877 -2.3692448 -2.592001 3.9847412 -0.3859746 0.81667084 2.0759363 1.6526533 2.331966 -3.0563385 0.0015944596 9.309221 0.55623066
1858.ON-05.08.CHAT.txt -0.5754729 2.7916322 2.3405316 3.533837 4.451666 0.1090469 2.207467 0.17440474 -0.59098154 7.417872 1.2182105 -2.5738964 -4.6271067 0.73414755 3.6988034 0.8173872 -3.414454 -7.4431095 1.8959826 5.5931387 -2.7513373 3.2946193 -4.4630437 -2.1585257 -0.20587608 1.6982462 -1.3447983 -5.5381327 1.5296919 3.7698967 -0.3214181 6.3991327 -2.6807952 -4.8213296 -1.5172601 -0.40396634 0.7811039 3.7434032 1.9706763 4.2313914 -9.88319 -1.5139403 -9.1835575 3.1511774 -6.7748494 1.3567892 1.8058373 3.0487924 1.8352453 1.5297308 2.713148 -7.8469653 -6.3614507 0.5290133 -4.683536 -1.551279 3.3739347 -1.4573001 -10.249302 11.044849 -0.3799267 -1.6865317 4.3690243 -2.940867
1895.TX-05.23.HOUS.txt 0.779438 -1.4326755 8.343543 2.6269057 -1.3977568 3.5251489 7.9364834 -2.8853445 2.5729618 11.261797 -0.34995362 6.0305257 4.1838784 3.0736654 8.913767 -3.4013402 -3.900336 -5.33773 -5.566813 0.4159688 -4.607237 -3.1039338 4.5043035 -1.1702989 1.1441159 1.0071318 2.3935585 1.1606901 4.175735 0.4625702 3.279904 -6.081037 -2.1927178 -0.84773356 -0.48850763 5.715022 0.59318304 -4.0760713 6.5937037 2.2753925 4.537991 -9.012585 -4.494517 7.073189 -7.612148 -0.9284186 1.9159755 1.302961 -4.4597597 -1.2523462 2.4331534 -4.42283 -0.39597994 -4.123113 -2.3964791 -1.436671 -0.5236227 -0.12264295 -0.63588536 0.7614184 3.9388463 1.0682367 2.021646 -4.2688975
Johnson 1.394779 -3.5623941 -0.70397264 -0.40129918 -3.9984548 3.0519142 1.9988242 -0.096105605 0.17929801 1.0633403 0.19376148 0.44094357 -2.5983891 0.7632301 -0.3966313 1.6063721 -3.4771242 -3.021448 -0.46892843 1.4968091 3.8686075 -1.7372725 1.4067954 3.7182875 -1.8741537 5.0119786 -0.86871314 3.451568 -4.733635 2.67559 3.4859571 -2.502205 -1.2176572 3.8975966 0.49212933 -1.204748 2.6746786 -0.2693232 -0.28356853 -2.76534 2.5610704 -2.9919286 3.8542507 -1.9849249 -0.89097524 2.6006184 -4.277508 0.041960485 2.7097504 5.161042 2.0732126 -1.1333324 -2.4809651 0.14142212 0.24784982 5.2296405 2.8517225 0.85607517 0.003510119 0.15075932 -0.08052814 -2.931234 5.5757847 2.0731668
1865.NJ-07.13.TREN.txt 2.5725172 0.82475394 -4.4221954 -0.42381546 -0.51441276 -1.0406475 -1.3666108 -5.8818493 5.766608 0.7240132 2.001088 4.5748076 5.5549636 -2.8076596 -1.3462253 4.286305 6.494565 3.2523243 7.8567777 6.6597233 -4.1623306 -3.1858103 8.696963 7.007099 5.8661704 -4.730051 -5.332382 2.2015393 2.07488 0.5056502 3.0154583 -3.5279856 4.5852547 -8.488981 -1.6579876 -2.863741 -4.700059 -4.0582204 -0.2877758 4.0120335 -10.261437 3.2389965 7.38907 -1.3158145 -4.5121903 2.492742 -3.6636195 -6.220632 -7.93719 -2.7067595 3.2168744 -0.68683463 3.687573 4.500015 0.5447754 5.4707656 4.751157 4.0717683 -3.2398148 -0.68652785 4.186101 -1.5407009 -0.44405615 0.30853567
1850.NY-08.21.CAZE.txt 0.25577632 2.9844728 5.359943 -1.7115265 -1.9217147 0.6563801 -1.1334902 1.2946843 -0.10374704 9.822641 1.9497476 8.775258 -1.1917142 0.5456565 10.646531 2.6722503 -2.4307716 -4.4881988 2.3469923 -3.028882 -6.4381623 -4.6281056 -0.1118369 -1.7601899 -3.904195 -1.5340208 -3.356989 -3.1217194 -5.503722 7.6163473 -0.41415545 -4.4349194 -0.8008226 -4.33532 -5.370644 -4.1993794 2.8967862 1.6447343 2.9397988 -4.7502713 -5.2285147 1.0395206 -2.46038 1.7643075 -8.560286 -2.4576714 1.6825248 7.8395934 -4.1905003 8.245975 2.314389 -0.3896457 5.3112726 1.7762479 2.456297 3.56061 -7.4250774 1.6984859 2.5123396 3.7999446 -0.45502952 6.290616 -5.571426 -3.206736
Douglass -4.526388 -1.8619895 0.090049535 1.2398486 5.811458 3.5723045 3.719916 -3.026698 0.55464125 2.1406841 -2.6487863 -3.569585 -0.6896189 -2.2656326 -1.8940355 -0.69517124 1.3428415 1.1391094 -5.0648265 0.37980765 0.5519858 -0.109770484 0.5740894 -0.40775034 -0.7618511 1.1990407 0.6051898 -2.4149072 -4.5048156 0.6213378 2.0582826 -1.5187179 2.533288 -3.0280955 -1.8230412 -4.510047 -3.4032922 1.3491154 -1.537225 -1.0996215 -0.44240573 -2.3666003 -3.9506397 -1.4411789 3.3446674 -1.8567524 -3.0431633 -1.9176404 0.42466992 -1.04234 4.4269795 -2.546388 -1.9862245 -2.5416262 1.002985 -0.8532574 0.9467618 2.4685645 5.0058236 2.2661653 -0.37289298 1.9513731 1.0214491 1.820899
1865.NC-11.29.RALE.txt 2.488797 -4.9287043 3.0393355 0.50378484 0.8376473 4.7693634 -0.62547946 -3.4223704 -3.8375096 3.7770612 0.21916483 4.4294996 -1.7850986 -3.7046711 -7.096547 1.0678457 -4.44308 -7.8913097 -3.9509609 -2.2620482 -4.6202726 -5.179501 3.8751154 -3.9312868 -6.9670854 -0.37859544 -3.6635487 3.191918 2.7478857 -2.7802093 4.2703567 -2.9637249 -3.8284376 3.436723 1.4878403 5.917207 0.037476886 2.9314876 -1.7709471 -6.2742352 -1.4638492 2.808309 3.3716118 -2.60952 -4.894054 -3.7159624 2.9800208 -7.675115 -0.83853215 2.5166667 -0.11633192 4.7548695 -5.1123986 0.90196055 -0.668507 4.755394 -4.7545652 -1.2496818 0.29312617 3.7163825 -2.1930985 0.9205068 -0.36661956 0.5680245
1851.OH-01.15.COLU-b.txt 1.3908007 1.8497813 -2.1199207 -4.327516 1.2689191 7.6607695 -0.5988061 -3.4320426 3.8784926 -1.4236411 -1.8851953 -2.9839919 -3.5134308 -2.1591122 2.8779743 0.87026185 3.5063038 -0.44308615 0.48609844 4.8924627 -1.0611193 4.1946583 -3.762525 3.3576717 2.2801125 -2.6062434 4.3634777 3.98569 -5.442126 -4.5492773 1.36897 -5.5223293 -3.371436 2.3581405 5.5725136 -4.5630035 2.0932899 -4.8036294 -3.7541943 -0.7752989 4.7975593 1.1735935 -0.14252193 9.128646 -0.7216172 -4.390691 -1.8984721 6.0195274 7.297406 -1.4542912 2.1169193 6.6924615 1.1518167 1.982961 0.9877097 -2.105028 -4.9413385 5.172407 7.6084523 2.0736666 -6.1831903 4.3263173 -1.0157688 -0.25815347
Harris 1.3580022 -1.132123 -2.7255268 2.188156 7.8911033 -2.1775513 0.19398202 -0.12425492 -4.511901 -2.17139 -3.9362898 0.046339586 -1.2690688 -4.569174 3.1814158 3.379382 5.6816387 -0.201327 0.13347697 4.2215457 3.1764402 -3.4073858 4.568952 1.407452 -4.3392916 -2.1704588 0.24279235 0.4914117 -0.31108293 -1.2263412 -3.4331834 -2.261899 2.322939 3.1241431 1.7786143 -2.8953393 2.517604 5.780589 -3.1557512 2.9721854 0.8236466 6.5932035 2.573691 5.0853004 -4.889999 1.1162027 2.1853113 0.9458489 -0.2950517 2.687517 -3.9738495 4.3831964 -9.716204 -2.86777 -0.3873926 -6.155137 0.17621669 1.5862023 3.0144734 -0.3095657 -2.0595703 -2.352415 7.7639327 -3.5634995
Jackson -2.6774411 -0.35705978 -0.5169029 -0.14254598 -1.2583398 4.1998396 -2.3160825 -2.7490814 1.8589993 -5.5611963 -1.4486151 -2.0174778 4.827013 -0.19501251 2.1359727 -2.559333 -4.23718 3.680737 2.3666558 0.25378543 -1.3707739 -0.3687323 0.77558386 -7.5665135 1.8145013 3.7685792 0.63286066 2.5483012 1.8436013 1.9852903 -2.920747 -0.98140544 -0.4121732 -1.3837272 5.372528 2.082552 3.8439863 5.111991 -3.1235745 3.3304074 1.9495122 -5.604877 1.8159842 1.7767363 -2.1652796 0.7683147 -4.126574 -2.4131727 -0.9592294 1.1497774 0.8315153 0.044940725 4.6098485 -0.6778663 -2.0718324 -1.6884911 0.027033046 5.5647283 -2.4298573 1.8518043 -0.4120315 -0.58688873 -2.7898133 -1.6333948
1863.NY-07.16.POUG.txt 0.22708805 -3.0817027 -7.759706 5.5360184 -5.004961 6.540453 -10.031774 3.9741426 -10.121899 1.8050448 6.5116425 3.510501 -4.754668 -1.0756748 2.7178109 2.9726045 4.2098694 -3.856632 3.1841054 -3.1703565 6.1751275 1.6334736 6.898803 2.6929793 -5.5216746 -8.221323 2.3885694 -1.9852761 1.0411317 2.4605212 -4.77094 -0.18583947 1.238132 -5.941303 -7.0239925 -2.3753679 -0.7771384 4.8247204 4.914953 -5.935336 -9.000448 -3.2866588 -2.7992802 -8.456341 -1.4129025 -5.6555686 -2.106762 -4.7762227 3.2993772 1.5271459 1.0863312 -7.6865244 -2.3213632 1.8263128 -2.0746455 -0.4008539 -3.1896348 -0.9267516 -1.0754628 -4.3924885 1.7355869 4.947617 -2.6968653 2.4287665
1852.MD-07.27.BALT.txt -8.018238 -0.9041815 -2.8393207 -2.2223926 -4.338701 2.3808894 -1.4486535 -0.9048666 -1.7148165 4.201612 -0.50214565 2.980853 -2.1881864 9.489495 4.557583 0.36956844 -6.492579 4.166583 -4.2565684 3.5259843 -7.1873035 -7.0523753 -3.54654 -6.099557 -5.486737 -0.39919582 -3.9807303 0.950328 3.5447686 -1.7960941 0.81992906 -0.5448891 -4.276699 0.163679 -8.729328 4.8609624 3.3136168 -0.6498128 -1.3374453 -7.8425193 5.5646343 4.551117 -4.85626 -8.019532 -4.9570475 -4.349937 -3.8505576 4.176336 0.8073504 -1.0242983 -1.2648048 -0.29749304 3.8603554 -0.59726834 -4.006577 4.509614 -9.152349 -4.434484 7.9756618 -4.028548 -0.9324831 0.64526343 0.8292949 -5.5575175
Smith -0.09731189 -0.11384099 -1.1821275 1.1098974 -1.0951073 -1.0417099 -7.0239186 -3.2084696 -0.25852534 -1.4625021 -0.0055838698 3.6882157 3.9308743 -1.6974249 -1.2179327 2.7816794 1.0773343 -1.7799246 3.8197138 -0.30903843 5.2347245 0.29262546 -0.99275684 1.0003309 0.49748683 4.9260936 1.9452486 -2.7381365 -2.7805312 0.49614775 -4.0050993 -0.71472204 -2.1528964 1.6501719 -1.9215758 2.5298269 0.39730775 -0.8422395 0.14420423 0.67392737 3.5941055 -0.10636228 1.6022866 -2.3521156 -0.1645079 -3.055821 0.010962246 3.393517 1.120685 -3.8879895 0.39727247 3.3997338 -1.1176817 -3.7925334 1.3278862 -3.5581703 -4.496798 -2.4485877 -6.7045016 1.2948908 -1.5104196 -2.1500576 6.3647075 -1.662445
1844.NY-09.18.SCHE-Report.txt 4.9001384 0.44828716 -4.0577607 3.5521731 1.9314194 -11.864269 0.7712703 3.1300251 -4.119291 -1.5697502 2.806039 4.3959837 -2.5956192 3.9201312 -8.147107 2.7039654 -1.5755981 1.1630412 0.4876395 3.3178008 -4.0762134 1.2619762 4.4880414 -6.703815 -4.3633695 6.916985 0.098362334 -5.9598365 -1.174052 4.51737 -6.7573028 1.4126351 -0.33813736 -1.2772176 -0.537176 -0.97111964 -2.3666165 1.752755 5.6693263 3.9992642 -2.7664802 1.320499 -3.7548826 -7.520319 7.148431 -1.1489362 -3.2223265 -2.8490317 -5.946333 7.450128 1.6836051 3.8773959 1.1516937 -2.3422053 -2.670114 -5.5760293 1.8225856 2.503781 -1.7481772 -6.2714 -3.0201726 0.59497976 -2.0101192 4.716894
1867.DC-01.28.WASH.txt 6.316017 10.325778 -1.884829 2.1108444 3.6733458 3.8774443 -2.9534047 2.5988832 -2.0452294 -1.3023899 -1.7685434 3.3370373 -4.711092 -7.810245 -2.2531192 -2.334522 2.704976 -0.9561823 -1.870396 1.9806224 3.8844538 -7.159913 -3.8764603 1.0385134 -9.19281 1.8234922 -5.3841815 -7.1511493 0.52366316 -1.470249 11.259252 -4.4192185 -4.03497 1.5984049 -1.1268761 -0.17582215 1.9688445 4.529274 -3.2052572 -2.3132925 1.5303677 2.4446251 -9.800596 -4.688437 -1.0770042 -0.24696587 -2.9248257 -0.38088658 2.5294955 0.83679533 0.9526111 2.561963 4.3570333 -2.8364897 0.6064445 -3.0430877 6.056061 -2.9266326 -5.8497167 3.0915997 0.022908153 6.381603 -4.082539 0.6457966
1867.DC-01.10.WASH.txt 0.28584123 3.2221937 3.92574 -0.18449214 2.7265177 5.279818 -1.9001645 4.6545477 8.22673 3.592155 -9.595813 7.859263 -4.4838214 -6.989318 -7.904817 0.11590957 4.278555 -9.594981 -0.81058794 -0.28687724 1.1440367 -4.8275 -7.379538 -1.0666837 0.38059714 -0.51573074 -3.258073 3.0519567 0.66254044 -8.724164 -2.8066432 -3.0984745 -0.10808331 4.6128106 3.2303617 2.4262261 4.2702327 3.109253 -3.3467832 4.986335 4.126636 6.8913584 -5.096419 -7.095401 -4.619247 -2.224686 1.2022377 -5.3120613 -1.3682364 -0.86271185 -5.3067813 -4.6443267 1.5008421 1.7348001 1.4865474 6.9786816 5.0420403 -0.09480011 -2.7420528 0.7931297 9.125516 -1.2802392 -0.40424508 1.9447592
Chas -0.8652432 -1.4785316 -2.151779 -3.9697692 1.7764932 -7.112538 -1.3348305 -3.133047 -2.3167665 -2.674515 1.5552726 0.65486413 3.5462415 -1.3119165 2.555435 -4.125214 2.0282853 1.5337646 -0.12079534 3.057061 0.58097816 0.61664295 -1.3902954 -0.92950773 -4.724479 -1.6343794 -0.06373173 2.5961418 -1.8264493 1.8948143 -1.507286 -0.1754714 2.6130033 5.7203445 -2.1555893 3.1034956 -3.440286 5.1829734 -5.2847633 8.250945 1.9448006 -2.0724719 -4.0749054 5.748591 0.0626242 -0.2940433 -0.5659382 -3.131899 -0.9209543 -0.89249855 -1.0203843 1.353559 -0.664804 -0.008781524 5.5660677 0.42211443 -0.8497996 2.71032 -1.0422146 3.8918765 2.3290997 4.147575 3.8285644 0.1554465
1863.KS-10.13.LEAV.txt 0.037915245 -1.539538 -0.37252113 3.5914366 4.4042892 0.9212866 2.4738538 -5.6718435 -1.659839 1.7896225 1.3822126 4.638664 11.483473 4.566563 -2.3866742 -6.03896 -1.3758516 3.0047069 8.498263 3.7348013 0.6893819 2.4409091 -0.23656741 2.634727 -1.022392 1.8795819 -5.723413 4.903485 -2.0844085 -0.8437964 0.9379428 -0.6702305 -1.9037439 -2.813667 -2.8009686 -4.434623 1.3529415 1.4062808 -6.4846873 -3.2457619 -3.5526454 -0.2780703 0.161197 -4.0897856 0.6912393 0.6182831 -6.362286 -1.0467839 3.061165 -13.246427 1.3959078 3.3368456 5.1418753 -0.079778515 -0.5786705 -2.1317434 -1.5411186 2.399728 -0.09467357 -8.579544 1.1170362 2.1045372 -2.2013438 2.5563195
1857.IA-01.05.MUSC.txt -1.7760915 -2.070967 5.0560946 1.3727741 2.4031525 8.803719 -0.9501304 0.8191491 -6.7127743 -2.5918214 6.859036 2.6719468 9.880769 -2.47232 1.2564149 -10.066982 4.24118 0.20393474 -5.7322674 -3.0605834 -3.5544195 1.5821768 -2.2120233 -0.22623155 -6.0416183 2.4068482 9.240914 1.7343326 1.867815 -2.6747713 -2.3751929 -2.0144038 -2.1842413 -4.9122515 2.783532 1.4543482 1.2625192 0.37521014 7.0067067 7.5263143 -0.5099588 1.9002 -4.158331 -4.8580394 4.1164627 -2.9679816 4.294704 -0.38607287 2.383674 3.5060961 -3.334455 1.5764847 2.218839 -3.594183 -2.043933 -2.7507095 -0.77460164 0.21641035 3.914303 -2.0770285 3.6882432 2.411336 2.359898 0.87227917
1855.NY-01.20.ALBA.txt 0.29301837 3.2729971 -6.06403 -0.3795524 -1.6994795 0.2266958 3.695029 2.5373938 4.530613 -0.62287164 -3.4785626 3.6923406 -2.1022236 2.2856915 11.756646 -1.6597128 1.1436958 -0.16375756 1.2586924 1.6376711 7.4009295 2.1920195 -4.0758123 -0.1103137 1.0217036 2.1523933 -2.216 -6.165489 2.616609 -0.76039964 -1.9700583 -4.938171 -0.059643812 -0.41222143 -5.796279 -1.7718071 -0.47680396 -6.047316 6.182666 -0.9006712 2.0163872 -5.350275 -5.1285653 2.7512307 4.27394 -5.282594 -4.4182286 -2.4301372 -6.1724777 3.5802388 -3.9245796 1.9781144 -0.18825944 0.75202733 -0.29014176 -3.2204006 4.9368997 6.0418334 -0.5592953 -13.152537 0.2637646 3.508113 0.3080754 1.7938418
1854.CT-09.27.MIDD.txt -2.3921373 2.4875593 6.2016144 -2.1668942 -3.7135503 -0.75910217 3.1643977 2.3212507 0.9795962 1.0088097 -0.6083328 4.2385435 1.8346562 0.0299751 -2.742575 -4.6064205 -2.5151615 -1.7077876 0.5836754 0.11400903 3.6741905 -0.990836 -9.112328 -2.8234358 -2.3887537 -0.6099184 -2.1533535 2.6877198 3.8046196 -2.3747087 -0.5968319 -0.12971249 0.9568164 2.115958 -13.835854 -1.5986944 -2.3259459 1.2321587 3.3594086 -1.4742495 5.1184826 0.57424444 5.1634445 -1.2905095 -2.8534164 2.695012 -2.8158803 7.861373 -13.979811 0.7013537 5.6222086 8.071488 3.5667484 5.563873 -1.3045264 -1.0937241 -0.9896092 2.4826257 2.0249085 2.8807826 -3.3437567 -3.849298 -1.2841209 -4.390164
Brown -2.5380735 0.18458423 2.6373134 1.3550816 1.4654948 -2.2819479 1.2025607 -1.3238695 4.5573654 1.3422648 4.166595 -0.6762475 -1.0999467 -1.4224439 0.52679235 3.6398554 0.86412275 1.0321937 -1.6516768 2.1632526 8.104546 2.4038243 -0.24836722 -5.095664 -1.509844 -3.058744 0.9645085 1.0674669 -1.205068 2.320924 1.1882404 0.6495448 -2.2342393 -0.9674266 0.89616585 -2.332914 4.1283035 -1.8092096 -4.2648287 -2.29228 2.0402052 2.0546627 1.8525466 4.471385 -1.710539 -2.4010868 -2.5216286 -7.497474 -1.3380861 -3.7802439 -1.864839 -3.2829797 0.36137602 -3.699898 -0.4057032 -3.0681953 3.1983714 1.2836457 3.6140316 -3.1247463 1.1914417 -0.43971556 -4.679767 -2.3672972
Sumner 2.2269921 -5.2582273 -2.864629 1.4067773 1.6071109 0.6748704 4.331846 -3.266623 -0.4930907 -3.297 0.80014753 0.039201856 0.85510427 -3.6704767 5.23339 -3.1440485 3.501198 -2.711823 0.5019682 4.6839147 1.5854996 -0.78031814 4.521417 -1.1734668 -0.568247 -1.1992135 -5.8454328 2.3428252 0.7244631 -4.195308 0.38146308 2.429708 1.5100292 9.346389 5.6651697 3.9054847 3.7749133 4.323542 2.714172 4.9340377 -0.5191521 1.2276158 -0.3372232 1.563111 0.8431568 3.828926 0.87150735 3.4314635 1.9865974 9.2208 4.065064 0.37421668 -1.2268966 2.133386 2.3359225 4.4703093 -1.0069727 3.6385932 2.9024522 -1.9520377 -4.124362 -2.943529 1.6942853 -1.6555095
1868.IA-02.12.DESM.txt 4.9118195 -3.0501454 3.383284 4.3540497 0.5743014 4.40227 0.3368014 0.95033354 -9.203358 -3.8562531 7.230445 1.6609241 3.8535635 -0.2774695 -5.730298 -0.7083868 0.8710527 -3.2348197 -8.3966875 -4.1505885 -0.5951396 4.309628 -5.5872307 -5.2487135 -2.0552669 -2.855445 6.603413 1.3339931 -3.6242652 -2.056584 -2.3886817 -3.4536085 -5.047568 0.460974 1.8463811 1.7389216 2.8947656 5.116199 9.28143 5.3618264 6.2720456 2.9995196 1.393788 -7.2777014 -0.36564875 -4.936334 1.8664727 -0.9474643 4.836243 -2.3039186 -1.8201632 1.4310457 -0.61134577 -2.6312025 3.2811265 4.8701 3.2513258 -1.4470601 0.5137117 1.872577 1.2379584 2.7793298 -0.19691142 -3.5168984
1845.NY-09.08.GENE.txt 3.2470083 -3.3815374 -4.795341 -5.4546633 5.8903356 7.4655476 6.861129 0.5405871 3.7577207 2.439292 10.477415 4.101165 -1.6283693 1.7727559 -4.168225 -0.21947649 -3.2654684 -3.0259266 5.123157 -6.418364 -0.90508854 11.122091 -3.1408875 -0.5153991 -4.1199193 1.7301062 9.756237 5.5616336 1.1024216 0.9141839 2.5744414 -0.042292718 -2.8076978 -1.5627346 -4.4199867 -2.4572084 0.8752065 -1.3998129 0.9056223 2.4698756 -4.4353666 9.746217 -2.7402606 5.324863 4.0839996 -4.1709805 6.150739 4.8460484 7.772979 -1.2526028 -1.1234671 -1.3083799 -6.7203107 7.908125 1.4827003 -0.6665277 -0.49313837 -5.214739 -4.4105406 1.3752564 1.5548004 3.685056 -3.727626 3.3542418
Lewis 0.23021033 1.4932615 1.8718439 1.6870316 -1.2825375 -0.33025998 -0.20069022 2.394826 -1.6950186 1.7198732 -2.9283545 -2.769424 0.8741109 4.9826217 2.510806 -5.456766 -1.075761 -3.0000105 -3.6584752 2.6957762 0.7590505 -0.6096549 1.7410152 3.6446013 1.7933784 -0.4770466 3.0349107 0.12426564 -2.4349334 3.6446881 -2.6049333 0.08756348 5.3761 1.3044424 -0.7378547 0.34583157 -2.313047 1.6045226 2.080198 -2.7523856 3.1732378 6.774768 2.149388 1.975189 3.1545026 0.06386734 -1.9868933 -0.9202746 1.4287016 -3.2675195 -2.7102225 -1.3641049 -0.60349154 3.3137155 -8.266959 0.87314194 -0.07956293 -0.3066999 -1.1123989 0.6844987 1.4222828 2.926305 -4.7719812 -1.006085
Clark -2.524553 3.710472 -1.3490864 0.87796396 0.4476546 3.1322083 -2.811872 -1.9837246 -1.4845716 -5.3930187 -1.7964615 5.3185096 -5.8293858 1.8890809 -0.29352063 -3.256148 -3.0766537 4.171909 6.342995 -1.3281361 1.3492082 4.8051195 -1.4148544 -3.454439 1.856053 -1.8593847 -3.4334502 -1.5943993 -0.19310388 0.46610206 0.7737519 -7.228026 -0.7577059 -0.46751294 4.3360486 3.21651 6.126285 -0.029898366 -4.1060348 2.989625 -4.9280725 -3.1181157 4.0023265 2.8946338 -1.5670327 1.6209387 -6.2365665 -1.2173333 -0.92095643 1.3486067 2.2522767 0.8980302 -1.3970777 -9.679748 -4.723682 -1.6846421 3.3909476 -2.2785456 4.8034573 1.387825 4.4369497 -0.075972214 -0.6274532 -2.6142569
Charles B. Ray 1.1462771 -3.894227 -1.9199868 -1.5274147 5.1362767 -5.144965 1.4256208 -2.5295563 -1.6490147 -3.4174504 -6.386946 1.44098 3.9708395 -3.2434056 -1.29435 4.4670286 1.7219211 0.39503324 -0.29879346 -3.0643475 3.2313886 -1.6759162 -0.7307918 1.9796137 3.6580775 2.5922093 3.277765 -2.316116 -1.3505417 0.76682603 0.9303841 1.6675469 -2.03769 2.9337757 -1.7818061 -0.35800138 -5.6251693 1.1616111 0.51101357 -1.1324849 0.08838888 -0.17679775 -2.478195 -3.2765267 2.9660797 -8.247503 3.392669 -0.5313703 -0.67699844 -1.2608842 5.1681848 -3.0485213 1.3089432 -1.1238664 1.9455073 0.21277426 -3.716066 -2.6582527 -0.26574647 -1.5915133 -3.0236151 1.7959358 1.5155832 -1.2126452
1879.TX-07.02.HOUS.txt 3.780682 3.4016771 4.675529 2.2540555 -6.4224687 1.6385115 2.0180552 -6.503805 1.189403 0.58945423 6.9657497 -3.5455637 6.6745214 -0.55008024 2.183448 -7.4071817 -6.142675 2.4006045 -8.196714 3.2074149 0.594774 -1.3746864 0.56731236 -1.7512082 -2.2204628 5.5212636 3.3268425 -1.2795504 10.668403 -1.7520447 2.5496917 2.497491 -3.7179286 -5.468671 -6.8905582 2.5526137 -3.715037 -2.820642 1.4675899 -1.4743034 2.9995837 5.4855742 2.4503746 -1.7408856 -6.885916 -2.0680223 -3.7297614 3.2288184 -2.5170898 4.8890653 4.6477966 -4.241252 -4.010066 -5.4104977 -7.0704155 0.99080986 -8.826101 -0.3066931 2.7485123 -5.9534087 1.3510574 2.478273 4.327436 6.06057
Anderson -4.9632726 0.13625473 3.0825582 -0.12513441 2.511928 5.4918184 -7.654059 -3.7519717 -7.5265183 -1.6306558 -3.1488972 2.6619442 0.62487376 5.976613 4.3940043 -1.5363849 -3.8683486 -1.5574895 2.7500544 7.3385634 0.8376494 1.5164286 2.0987124 0.18783988 4.644118 1.5242141 4.0004716 -1.40651 -5.093947 4.395817 0.3731723 -4.6577597 -0.06855242 3.8438706 -0.9674842 -1.096858 7.842938 1.3428394 -0.04801938 3.1910987 3.435782 2.172551 9.104362 -0.8215807 -0.5795539 -0.8659498 -2.6138372 1.2061107 0.9208384 1.2743869 -5.2703166 3.275014 -2.3517306 2.1794827 -5.081663 -6.861088 2.408462 -2.4467883 -8.592673 -3.9199111 2.9624832 -0.5620158 -2.2113655 -1.0806314
1851.IN-08.01.INDI.2.txt 1.6011184 -2.6743016 4.138472 4.8856034 2.5810163 -0.095606074 4.2372217 0.028706476 -7.784747 6.3912005 2.65606 -0.86915994 1.836435 -5.1132383 0.9845208 -6.2986827 -4.6373878 0.67002916 2.109045 -0.81871086 -1.1995537 6.1319275 -0.55271626 -5.759112 2.057818 -0.8342622 1.600189 4.5260444 3.8303635 -1.7757306 3.832546 1.5615449 -2.5550601 3.289373 0.7935909 -0.8036812 -3.7024233 -2.8892643 3.7411885 4.6266255 -1.8265054 3.4784927 -0.96474046 -5.4785075 3.6215248 0.93816775 0.43937534 0.9930373 4.325621 -5.582252 0.62366474 -5.094269 -1.7362859 -7.226692 0.70786417 -3.8261826 -5.642879 -1.3265933 1.1544442 7.822923 3.450805 -3.068853 -4.40875 -3.2445002
Jenkins 0.3758539 -2.5263314 3.483523 -0.49715942 2.8734283 2.5269647 -1.4362648 -0.71220434 -4.1486664 0.8246956 -4.284701 0.33297104 -1.8539616 5.1993732 -1.5754052 -2.0338624 2.2685547 2.905139 -4.674641 2.3216517 1.5602721 1.757312 -0.07994571 -1.1745301 -1.3925124 1.8217909 4.3506002 -3.6156833 -4.444052 0.02530482 -0.9413619 -1.3309261 1.780232 -0.3459368 2.2505262 -2.6602569 -0.2617037 0.609588 0.55988324 -3.52577 -0.26147872 4.8783846 0.28699693 3.6893518 1.3598602 -0.3251986 -5.1017733 1.2543958 -2.4053233 -4.926452 1.4839605 -4.4243703 0.22501792 0.77459455 -4.528144 -3.3223941 1.4466922 4.5920954 0.5015033 -0.41031423 1.390785 -3.5859375 -2.8811843 -0.4769306
Wilson 0.0043642786 -1.6890401 0.04542073 5.048938 4.7838583 -3.4416196 -8.033291 -4.6741652 -1.2584662 0.22352019 0.31151763 4.139416 4.2711067 -3.1977396 1.4283578 2.89587 -0.2691911 2.042815 1.9675797 -0.12802643 2.3409157 0.31060603 -0.37168777 3.5309584 -0.036210544 5.6781707 4.7217536 -1.2517241 1.9966187 1.3042732 -4.908335 2.7383654 2.4999094 1.7711333 -0.15204282 1.0606481 -0.5665576 2.5091717 -0.9181101 2.629712 4.6472173 1.1387805 0.824186 -0.64198124 -2.1987636 -0.6724415 2.8721054 2.211304 0.051209945 -3.2662027 -4.227732 2.4969425 0.8904773 1.129666 2.2335334 -1.3347152 -2.5523918 -4.4741096 -4.438866 -0.17302175 -2.8176122 0.30046463 1.3671159 -2.6421475
John Peck 0.42211655 4.8903036 1.8571938 1.1900067 -4.063263 -0.30829293 1.8682169 1.9844449 2.1274755 2.9956124 2.7722156 -0.48454118 0.4132746 2.7419655 0.10067571 1.8131828 5.4448013 1.6052359 -3.8026984 -2.5916736 -1.1422044 1.6348734 -0.7981508 1.5196053 -0.7953257 -0.7871073 0.6523106 -0.5586607 1.0933318 0.889631 3.0299654 0.6249573 5.0454707 -0.79251873 1.2170738 -2.0258806 -2.3244183 -0.94065523 -3.8556268 0.5151291 -0.91888607 4.2554164 -0.86926955 -0.54615784 2.9721582 2.2435293 2.0996854 -0.91484237 1.3511676 0.9538466 -3.9413474 -0.32842362 1.2104648 2.5352085 -2.031016 -0.51650864 1.4992158 1.8324032 1.596443 0.27540186 -0.9532318 -3.9198468 -2.616571 -4.9404473
Gerrit Smith -2.0681288 4.3200855 -0.3123693 0.6617693 4.3900013 -4.145012 -1.054703 -1.8936058 -1.0831424 0.8583839 -5.0805597 1.6444066 4.716119 -2.344474 -1.8609824 2.0006588 -0.7226764 3.066575 5.721613 -1.7917143 6.6829085 -1.5599036 -3.4473107 -1.2606882 -3.4976604 1.1439965 3.934944 -5.000234 -1.773881 -2.1313977 -2.8080575 -2.7693796 -2.2744036 1.775547 -3.6923015 -1.964802 -0.15569666 -0.0487747 0.7870164 0.67920464 -1.7481225 1.2129176 -1.7779626 1.6551008 1.8970199 -1.8968021 2.8730721 -2.559871 2.7864656 -4.376608 2.8380566 -1.0288858 -4.0199885 -4.710167 0.55210763 0.83275896 -2.5592096 3.1391757 2.8738916 0.22927827 -0.019216489 1.0823159 5.757809 -1.4388266
C. B. Ray 2.7616072 0.6948671 -2.5537481 -5.1829524 1.1879139 -3.589262 4.8910737 1.8308394 -0.26801023 -4.4664555 -5.5861363 -0.107720084 1.7039019 2.0977547 -1.0093815 0.040091757 -3.8156886 0.61774784 2.5168676 -0.12322085 1.9918776 4.304873 2.9530168 1.8653464 -1.273747 -0.08877139 -1.3382071 5.6568766 -2.1883788 1.0506059 -1.625984 -0.44857442 1.0122106 5.704198 2.349256 2.2324715 -3.091669 -1.9714078 -1.7708846 -1.5472971 2.4919727 -1.7592628 -0.90083164 -1.0955867 -2.3030202 -1.3455247 2.900406 0.5390011 -1.9848801 0.39892796 4.2283397 -3.438691 3.303044 -1.0153686 1.876331 5.834063 -2.7424457 -0.5620195 -1.9938822 1.4031527 -3.369267 3.0566478 -1.6830168 -0.6846122
Williams 3.7059693 2.4341614 -0.8503455 -0.55913 -0.64405984 -1.643616 1.7520226 2.709122 -1.8566824 1.5174394 3.3179321 -3.3791611 -1.797272 -1.5423508 -2.9338574 -1.2450562 4.387203 0.23716792 5.283333 -0.17021687 -1.0363548 -0.83764 -2.0187078 7.2763734 0.40687555 -1.4397639 -3.0017836 -6.0827837 -0.9397786 0.67743134 -0.85057 -3.1043894 -0.4900408 -1.453075 -6.137944 -0.89974713 -3.5971007 0.87220055 2.003575 5.605668 0.7503129 3.7800097 -1.2557085 6.6654954 3.846262 0.50621504 -1.8045647 -3.2393155 2.8034728 -3.4933712 -3.0333014 2.1879945 -0.05463532 -0.7438575 1.4115815 0.6331564 -4.1389327 1.875917 1.1740623 0.9161815 3.9539254 -0.35359702 5.766529 -6.073678
Langston 2.3406537 5.6988916 -0.32583088 4.322653 2.9292977 3.6456451 1.443184 -1.2359804 -3.8292208 0.3645943 -4.1450806 -4.889539 1.7658235 2.0163038 -2.327101 -0.701111 0.82117957 -0.084865294 -4.206551 -1.4213337 1.9491621 1.5875523 5.51728 -5.286637 -0.83068246 -3.6259675 -2.5777397 -2.454459 -0.5926281 -2.2801278 2.4603617 1.6838448 4.509855 -2.0047066 0.804241 -1.9833814 6.4368753 1.5401454 -2.9810185 -2.5759418 -3.4063458 3.6220753 -2.4491067 4.3798833 3.2356884 -0.42327484 -0.8136389 1.4836547 0.8720487 -0.032857884 0.49256065 -1.0903839 1.6078389 -2.663082 3.1832168 -5.3893676 -2.5375454 1.9009647 5.807405 -1.1988425 2.1278355 3.1772919 0.0411045 -2.4382613
William Rich 5.034313 -4.1186976 0.13350649 -2.0584717 1.983522 -5.6222677 -0.6011333 -3.0883522 1.9165071 -2.9757512 -3.0122416 -1.3282437 1.3687084 1.4813296 3.154007 -0.9974773 -0.67615527 -0.2433649 0.014603017 -3.849599 1.810291 3.7908905 -1.7560152 1.9857275 0.9282964 1.7552181 -2.7057562 2.3932815 2.2070484 3.4133642 -0.073664814 -1.5272532 -0.9247213 2.3416617 3.3945699 2.2136743 -0.21150689 0.68554986 -0.11759623 -0.110692024 1.6882768 0.048110574 -4.7539506 -4.6270776 -0.5422921 -3.997133 4.5506043 2.0631082 -0.5993829 -2.3437202 1.7652912 3.9819345 3.0185864 1.2563479 0.68921196 2.9169252 -0.8761654 1.3935816 -4.030024 0.070425875 0.58348274 -3.2761633 -3.3582277 0.8618819
Horace Greeley 1.0931518 -3.1798003 -6.890593 0.93910444 -0.19240578 2.0059676 1.3295673 2.656997 -0.64456505 1.3222643 -4.3258343 -2.4070947 -0.12994675 -3.8355572 3.299566 0.18311934 -2.431857 0.2794142 -4.2040176 4.078311 2.890959 -3.5267615 0.9185538 0.28242123 -1.4807161 -2.4943435 -0.94782084 -5.7699804 -0.33850694 -2.491174 -0.69949436 -5.312273 -2.5431633 6.526521 -0.04791623 -3.195026 -0.95343155 1.9547516 4.177433 0.14839391 -0.018361662 0.37253118 0.28807017 0.34152108 -0.62332755 2.2173462 3.4350717 -0.80942976 3.1480446 5.9127812 1.1551582 2.5986476 -3.3766315 4.1156025 -1.5931675 5.972379 -2.247419 5.9951286 2.3872461 2.45836 3.120303 -0.38799098 6.460202 1.357727
1883.KY-09.24.LOUI.txt 5.251612 -0.26066145 -3.2101607 0.800409 -4.602806 3.7500436 1.6070247 -3.7163417 -5.9443336 -0.21967763 0.44940266 5.069571 -3.2479181 -2.7645378 3.7548175 -2.1308289 -0.22517511 -2.364564 3.313282 -1.7755834 -0.5879921 -3.439674 2.5071263 -4.919511 -5.1845636 1.0347823 -0.63526577 -4.1957736 8.469585 -0.010398366 2.80854 -2.31632 2.7339272 1.4124988 -4.45595 -1.3315004 4.801681 -1.0879852 1.6680733 -9.38347 9.8035345 0.24037024 1.6085712 -1.2116405 0.5258638 -4.823783 -4.066747 -9.439056 -5.9633346 1.2174098 -0.12004852 5.063074 -3.1400678 1.239646 3.5926855 1.6920092 2.8452392 0.48294422 2.1542683 3.1440902 -4.9160852 4.735772 0.6299197 -3.5522213
Jesus Christ 0.92945886 1.0189013 -1.706858 -1.5133668 0.54617816 -1.3723482 2.8368416 1.4104089 -1.4623144 -4.3112135 -5.5599008 -4.2997026 -0.662661 -2.8044002 -0.0974508 -3.4077847 1.6773543 -3.885147 2.3603458 -1.743772 -2.5771427 1.0688639 1.5370971 3.3355124 -2.2634988 -0.41398865 -1.8484567 -4.712132 -1.6133429 5.102921 -5.4602094 -2.0621073 0.83367485 0.06347323 -3.5101538 5.583073 -1.8193682 2.4895947 1.6488472 -0.2256201 -3.107575 4.756303 -2.2589579 5.834681 -0.37691376 0.08211966 -3.7160707 -3.5819118 -1.4782892 -4.030055 1.9279184 2.2444198 -6.110739 -3.7836647 3.816056 -0.21038258 0.36335927 -0.5748777 2.2383122 2.2840388 7.3479533 0.6584889 2.416065 -1.365713
William Whipper -1.9157275 1.8480934 0.845948 0.4987386 -3.1536026 1.5720642 -0.038159944 3.410235 2.997445 -0.38337037 5.04438 0.13401677 0.6330939 0.85303384 0.61803293 4.6550183 0.21456102 0.63237524 -2.4050994 -3.14562 -1.3841271 0.86711293 0.665836 1.4371194 -2.0746515 4.238881 0.116530016 -1.0279422 1.677868 0.55900854 -0.62830025 3.4750988 -0.79118574 -3.6064658 2.9399822 2.463015 -3.2634022 -1.3698207 -0.2196282 0.06508117 1.5178823 0.78061074 4.0358744 -1.1073495 -1.6858864 4.2763815 1.3376005 1.9728938 -0.9288173 -1.4766562 0.37505078 -0.82322073 -0.24067464 -0.48199803 1.4690751 0.5042554 2.9471085 1.8665558 -0.23802848 0.1218088 -0.8713315 -2.3063602 -2.1158168 -3.1278489
Hamilton -2.2487056 1.7374144 0.12858832 -2.3864224 -3.497909 -3.4509492 -3.0935426 3.9679081 -2.0711405 6.399721 -2.3693953 -4.405249 2.468014 1.4834403 -0.6205109 2.982698 1.5781122 0.07057288 -3.5227044 -2.3312044 -2.25737 1.577725 1.1515981 2.126828 -5.1251154 -1.8819083 4.1373982 5.376354 3.3565872 3.2807457 7.4464293 -0.035480388 -2.542229 -2.819001 0.4181133 2.0328162 5.731529 -1.4021639 -0.22225386 2.1050944 2.2436066 1.4478437 0.8286059 -0.20161855 2.1292663 2.2388315 1.5698509 1.7417699 0.6218853 -0.62665606 0.40664837 1.2945521 -1.8980789 5.366197 -4.5005584 -0.6990086 2.8719134 0.5140953 -2.26965 -1.652929 -2.920359 4.3600216 1.2770648 2.1082165
John -1.141368 2.0481994 -3.0705647 -4.368106 1.0233153 -0.45561427 5.800264 0.52919257 -1.9761566 -1.7722956 -2.3590791 -2.9896698 1.972754 -4.6147704 -0.89613354 1.3747075 -2.9508488 -4.533923 -1.694802 -0.9422138 0.006595531 -1.5198171 2.4595115 -3.6365075 3.2592363 -3.6400082 3.0798252 0.0029922184 1.6679027 3.0714867 -3.0534973 -0.43457258 1.4928505 -1.3110265 -0.17298892 -1.7244067 -0.84102124 1.4015741 -1.5704653 -3.9675698 1.2735441 0.90973896 -3.863364 -3.3437314 2.7372375 -0.33416837 4.1445756 -1.5799717 -2.4516604 -0.53555036 1.4425857 -0.062948 1.416082 -2.0630631 -2.4894156 -0.026110422 -2.5934043 2.0862842 -1.2577277 -1.8662359 -1.6665488 0.82630885 0.457496 -2.172594
1849.NJ-08.21.TREN.txt -1.152085 2.3425486 2.1642003 1.061918 -1.66832 -2.2038138 -0.7298799 -1.8492348 2.2935529 -3.6320815 1.0763217 -2.6397793 -1.2602471 -3.8925273 -0.9102061 -1.1172851 5.8148146 0.47485584 0.59653974 2.4662442 -4.0124197 1.5483714 3.4556184 2.6372416 1.1919099 -2.8940616 3.5024292 2.9141674 2.137681 3.9904177 1.3179057 -5.278957 1.4272221 3.6436028 -4.2070723 1.8017478 -5.4651885 -1.4220471 3.2215319 -0.8867121 1.983672 -2.6523557 2.3297281 -3.4457052 -5.3118525 0.13583337 -1.8650719 -2.9714642 1.0950638 -1.3631076 -3.998166 -2.3061182 2.7226317 0.68928707 -1.9917957 -0.683741 -0.2281418 2.5856397 -1.773697 1.145901 -0.8910158 -1.7347146 2.2502964 -1.2444288
Geo 5.7375994 -0.0059464485 0.7888235 3.7579157 -0.88606656 2.5838442 1.1384232 0.4515847 -1.1316851 -1.4411237 1.4039475 -1.2692348 -1.5881456 6.2284837 0.61412084 -0.9216386 5.0745044 -3.2811577 -5.6159806 1.3231498 -3.080687 4.534542 -0.78179884 2.6807735 0.22385623 1.2209165 -0.8846741 0.88066095 -1.7973614 5.2085214 4.6868744 4.3315496 6.5909014 -0.98805624 -3.9911315 0.6767464 -1.3173736 -0.49877965 0.21886459 1.3654268 -1.3249714 -4.124148 3.9906182 1.037223 2.735768 1.1488515 -2.73207 -0.701956 3.1525123 1.4733245 -2.897668 2.5887601 6.4818397 2.0079885 2.226751 2.0720568 -1.5656235 -4.287064 3.4320402 1.7593842 2.3596969 2.2804694 0.02687525 -0.65183955
Andrew Jackson -5.126932 -0.47389984 -3.4449356 -2.6870935 -3.5820193 -2.9123328 -2.1437302 4.2232537 -2.332883 1.304861 3.1553943 -0.9476839 1.8812151 -5.185888 -3.7416162 2.7216241 4.2041726 -1.3920826 -2.0680387 -3.4134903 -4.005992 -1.8625572 -2.8268263 -4.8209577 0.549493 1.7161322 4.1660733 3.4816403 4.455122 -1.7214506 -1.3103648 -1.6216872 1.137147 -4.6109324 1.5182031 1.2479475 2.8131323 0.0362127 -3.8779597 0.45027462 0.14321664 -4.966569 -1.3726208 3.6427114 -1.341444 1.5395707 -2.295108 0.23200195 -4.5780683 -2.1489034 -0.46548876 -1.3256398 -3.8266284 1.6284472 0.0784071 -1.8593961 -1.7383369 1.9146144 -1.5326884 -0.30357736 -1.6566131 -0.71724707 -0.4433232 0.71454895
Stephen Myers 1.0670078 2.0282538 -1.8696731 -4.500196 -1.8220904 -5.9937525 1.1257567 1.0676687 1.7755929 -2.7560334 -6.0115023 0.10857873 0.27084628 -1.618073 -1.1647179 -2.3479385 -3.0798817 -4.955423 -0.77028865 -2.8548691 0.57607436 0.34063888 0.6791791 2.353532 -0.53252685 -0.42321736 0.11817068 1.3756114 1.0599688 3.4673045 -0.8983137 -2.3259268 -2.1879873 1.092063 -1.8894435 2.0345545 -1.969334 -2.3955576 3.0590763 -4.812654 -2.6254325 -0.54529554 -1.8842661 -3.3322718 2.147852 -2.993385 2.160704 0.93338895 0.97115475 -3.4072793 2.4678965 -1.6954519 -2.3056114 -0.8320698 0.45186943 -0.12705864 0.7127883 -0.9776427 0.84839076 0.50051856 0.2784122 0.15582833 -0.7762309 -0.6090565
N. Y. 3.7166407 -2.5357106 -1.0528725 -3.1275647 0.1730598 -6.5209937 -2.5091093 1.2481772 0.4292951 -0.83472455 -2.3948352 2.3894045 2.8211775 -2.9420102 -2.4229279 -0.15193945 3.1049645 2.9352903 -1.1105689 -3.0219789 5.3378963 -2.0843854 1.0165361 0.846943 -0.2040565 0.5660087 -1.1506358 0.888934 0.127259 4.95816 -1.4122 1.2908539 -3.8777103 2.9975555 -1.5122418 0.3902438 -1.348475 -0.84557223 1.8601724 -1.2214123 1.3797472 -0.69892776 1.1955458 -0.84605825 3.1716788 -4.7949343 3.9176939 1.3649801 -0.02053749 -2.4996898 1.1945914 -3.5118396 -1.3412136 -4.5063243 0.48782578 -0.18668817 1.4270391 -0.85612303 -0.8187274 0.2405021 -0.7415507 0.43849832 1.3792458 -2.3825567
Ray 2.6117983 -4.8985767 -0.48593906 1.0974649 3.1427376 -2.1698623 2.4810534 -0.45345485 0.36174032 -3.608559 -5.452078 -1.0683289 0.27559155 0.78787255 -0.3730839 1.2906475 -2.336435 -2.1313257 -0.8807292 -0.08725418 0.26206094 -2.896064 0.06711579 1.6793224 6.6749144 -0.73346204 3.2149255 -0.58223814 -0.24555275 1.041958 0.46245006 -0.549993 -1.5305223 -0.5803021 -1.6803969 -2.011765 -6.839342 2.1425867 0.8115706 -1.9794729 -0.6278326 -2.3735266 -1.2065965 -2.8587215 4.9441266 -6.2558513 3.1467862 -1.2335118 -1.0655804 -1.5150882 3.1441107 -0.5698431 4.242862 -2.2157466 0.77380407 2.061809 -3.603161 -5.5428896 0.4783624 -1.0628437 -2.5707433 2.9375775 -2.338572 3.2343013
William H. Topp 2.0201435 0.47034335 1.6680998 -8.025273 4.0253806 -0.57432973 2.235929 -0.32370365 -3.9693716 -1.3801407 -4.3535504 -0.34228942 3.1035247 -0.124720946 -1.8842531 1.7909714 2.7224517 0.2998808 1.0232054 -1.4700307 -0.27695328 4.3987184 1.1345181 2.544444 0.6658405 -0.41627425 2.548433 -1.0728332 0.79320186 4.995104 -1.3634164 2.116821 -3.6535423 1.6508334 0.25182408 -1.7926943 -0.05541178 -3.8322067 -0.41580912 -4.4918475 -1.2295207 3.9524295 -1.0074176 -5.102225 -5.6096396 -1.8443196 2.308348 -1.3723631 -3.8754623 -1.2814856 -1.5594665 2.0696437 -0.8756999 0.8757497 0.7746655 -2.4372637 -1.7456362 -2.0206962 0.94150007 -3.4311423 0.38119742 -0.21826272 -0.51523525 -0.32996917
1866.NY-01.01.ALBA.txt 0.31342474 5.3491325 0.71768826 3.7899837 -3.0571353 -4.8074327 -2.8578038 -6.4931874 -2.0531847 -4.1378703 0.8613084 -1.59729 -5.054291 -1.8225943 -4.964022 7.3481035 0.21023676 0.674163 2.263708 6.3586397 -2.1346114 2.394031 2.5426605 -1.3099173 1.1347641 -2.9403746 -0.6957141 1.753619 1.6652019 2.6987877 1.5458138 -2.219926 3.2109208 1.3968456 1.0075645 -2.9128964 1.1254561 -1.3417288 0.7415396 2.25476 -0.33114567 4.185314 -0.34037864 -0.36560705 0.7539805 2.6466243 -4.82995 -0.9355082 -3.6286244 -0.9326057 3.9839277 -0.8629877 -3.738543 -3.8666594 5.4700294 0.057419103 -0.70853585 1.6110749 0.85000604 1.7942777 -0.25016412 0.49075678 -1.4121934 -1.8820161
J. W. Loguen -1.618516 -0.4754686 -2.4323025 -0.3477505 2.339573 -4.7396536 2.1384 -7.021657 -2.5821726 -2.2427068 -2.6624157 -0.26739132 8.615123 -4.5644836 3.1216598 4.3566704 2.2567644 -0.33939663 0.533344 -0.31623963 7.217593 -0.16461979 2.074612 0.5240914 4.3006387 0.22167578 0.46874115 1.5058103 0.702299 1.7534041 3.0398521 4.130399 -0.69678646 8.632569 -1.2230482 -0.24128284 4.2024145 4.8817496 5.1257887 3.2478487 2.4070125 0.0883338 0.99079037 -1.3319234 -0.6742488 -2.9684823 1.4083741 -0.5287551 1.3960513 1.3702337 0.2199945 -4.879699 0.30575868 2.8589668 -2.087471 -0.4792422 0.66871786 -1.343945 3.3303459 -1.0470088 0.45188987 6.3243175 0.2636058 -4.776695
C. H. Langston -1.2764466 2.0720131 0.6557146 1.791464 5.5674973 -0.43527916 2.6463315 -1.0970379 0.23109716 1.731369 -1.1059672 2.3371997 -1.8973135 0.5060055 -3.1428366 -0.089562975 -0.05007603 1.8781424 -3.1057384 2.0538528 3.4704776 3.2520063 0.26067466 -5.924501 -1.8053224 -3.2515283 0.6771154 -4.6136103 0.6337857 -5.1703186 -1.9383963 0.34179726 2.6273518 -2.7492309 0.9575215 0.12276403 1.8039807 -3.7851455 -6.4612074 -1.9225281 -1.6072185 3.415824 -0.57366604 3.9276881 -2.1017694 -1.6926869 -1.8957176 -3.4172707 0.40842882 -4.926596 -0.6209947 -1.2152015 0.17093548 -2.3392909 1.29937 -6.9817147 -1.0507237 4.1132493 3.4521334 -0.9406435 -1.2177293 0.15704699 -2.8539875 -0.5382315
Christ -2.5892386 1.5362719 -0.69948 0.2559768 0.1076166 -3.0720851 0.57483697 2.01857 -5.3607 -3.1861818 -4.6040535 1.9597139 6.976663 -4.0031905 1.397681 -4.8570905 -0.2617652 -1.1214509 3.6784816 3.6655905 5.1007137 -1.3876635 2.1655505 1.1327767 1.822217 0.62470853 -0.3884184 0.31511083 -2.7920384 0.15408377 -0.98038083 2.811632 -1.268629 -0.85620064 -2.940854 8.196497 -0.031144785 6.0397687 1.7469825 2.9421299 1.5951376 1.533233 2.0923042 3.8385704 6.937964 -3.1815782 -2.7209587 1.7770898 1.2827333 2.6206493 1.9715186 -5.4885774 -4.4046307 -2.1655364 2.020063 -0.44021368 -4.9360585 -0.23623933 -2.085013 0.42090076 -0.22684295 0.35248417 1.5032511 -5.0073414
Butler -0.2791415 -1.3599898 0.8803532 2.5236735 -5.1866503 0.1823011 -2.1899457 0.3944062 1.509493 1.6915002 -1.7339431 2.4144354 0.16094403 3.9837942 3.548178 0.2879817 4.174225 -0.68429524 1.5914873 -5.196313 2.441837 -0.90353686 0.65949285 -0.4199352 4.0551014 1.01673 -3.3501709 3.1035903 -0.21232247 0.8038735 2.9624193 -2.7831717 1.0109025 -5.2939386 3.6669042 1.061888 0.35452446 5.727794 -1.9544289 4.1010804 4.168314 2.7089076 1.8505007 -0.1061939 1.0627018 0.82659066 -1.0036484 2.0723019 4.6011925 1.8740301 -1.9297329 5.4187837 -4.391923 0.8194232 -1.9556698 -0.8444496 3.348695 -3.2517855 -1.0379645 -0.011704903 -0.38226587 -3.6824565 -1.7428958 1.0867378
William Johnson -1.8744571 -0.7139522 2.303412 -0.44142538 3.4418778 -1.5664388 0.4631145 -0.66436064 3.142169 1.8521024 0.6848594 0.72208387 -0.37613088 4.6681657 0.13439605 -3.997578 -5.5490317 6.131085 -2.6311357 -0.29276547 0.659045 -3.3006291 1.6347866 -1.3002287 2.18486 -1.0705441 0.7908345 -2.7622693 2.988322 -6.313447 -1.3275107 2.1391008 -1.3606076 0.903971 -2.9790063 -2.0721095 0.07761814 -1.0058438 -5.271207 0.6516435 -1.2668356 -3.2412293 2.4525268 -1.4442929 -3.0796716 -0.7815311 -0.57624733 -5.193211 4.3375916 -0.38900104 0.71916896 0.5840246 -0.014225675 3.10078 2.4566512 -2.3620615 2.1316116 4.5944424 -1.9862505 2.1975574 -1.3205869 1.1123612 -5.0382223 8.220185
Amos G. Beman 1.567811 -1.0390247 2.736556 0.56242573 0.18758479 0.38818648 2.0458136 5.430425 -2.01437 -2.8301077 -2.0206263 1.0898359 0.90503263 -3.9302335 -1.3629445 -0.62046915 2.7314873 0.28553325 2.924786 1.8450766 1.4225764 3.9777956 -1.6565542 2.345327 1.7522655 0.59082043 0.87761986 0.80079067 -2.270105 2.5539181 -0.66035354 0.32639936 -2.7032826 -1.1954089 0.77525854 2.7853916 -0.8753603 0.39282605 3.9028134 -3.4392228 -1.4898821 -1.8332397 0.09187444 2.0837574 2.1816826 -0.10052146 1.8724817 0.48786575 -1.6530343 -1.004528 -0.32955676 -3.9718025 1.2146679 1.0531708 9.388487 2.0739074 -0.38270658 2.506367 1.2527181 -2.1545317 -0.11783578 -0.27823192 3.905695 -3.343441
Troy 3.630877 -0.74539727 -0.7237749 -4.8224564 -0.02762917 -5.182982 2.3730555 0.44296297 2.6444018 -4.5743814 -0.41522858 -3.497324 -0.14700188 1.208146 5.086738 -1.7911041 -6.070726 -1.164602 -2.0520103 -3.7391875 2.8452609 0.37362236 0.21568783 -0.5174141 -2.5099533 -0.8242132 -1.8121939 6.701376 -3.694628 2.5496778 0.14122936 0.41471997 0.554769 3.093897 3.1964176 -0.9588157 -2.4563386 -3.6796644 -3.2967916 3.554354 2.6119225 0.5924244 -2.152982 -4.541015 2.3824356 -2.8259876 3.1322043 -2.5414798 -2.7216485 -0.09529013 7.0091543 1.0404086 4.9630585 2.0660245 -0.41846097 3.6366537 -0.9769359 -0.7106926 -3.3972907 -0.5241201 -0.61056197 -0.14359456 -0.5808654 1.2811453
John Brown 0.31009445 -0.074259415 -3.5039086 -4.0962005 -2.1430354 -0.64327186 -3.4384153 -0.73988473 0.075279295 -1.8510495 0.36316794 0.010743523 4.069146 -3.4038165 1.5282466 0.17291601 0.81371635 0.70223796 0.16314521 3.4356744 -1.120654 2.8097997 1.4564958 -8.180369 3.872085 -5.6042533 -2.4314647 2.2180662 -1.5577303 -0.08544907 3.7163334 -3.663221 -3.2177672 1.8935053 -0.68098134 -0.40512642 8.204652 2.3417075 -0.50759387 4.3489037 2.8086677 -4.816019 -1.5692445 -0.1878598 0.9672935 -2.562809 -0.19322988 -0.68210214 -1.5084893 -0.24240631 3.2081664 0.98531854 -4.189038 0.62559056 -2.625573 -5.875391 -0.8790601 -1.1728151 -0.4247738 -2.0313094 2.8865688 3.0491178 -2.8830535 -1.9272441
Myers -0.7837877 3.6598916 -1.1598783 -3.1941025 -4.1558175 -9.143008 -2.6789167 -1.3200876 -0.116350435 1.972667 -3.114224 0.81223196 0.55974025 -2.638669 -3.195587 -1.192505 0.75810784 -6.7609105 0.666896 -1.9578626 -0.42734927 1.5364754 0.76782984 4.5609984 -1.152362 -1.3422982 0.36599627 2.0546305 -1.0570428 -1.601867 -0.7346511 -2.2138464 -4.3543935 0.16766065 -4.370304 2.6697447 2.256389 -0.4487844 2.849212 -2.834548 -1.2210407 -3.1018872 -5.933648 -0.17156091 5.068092 -3.5903182 0.8839128 1.0327795 -0.49534544 -6.040922 0.5079885 2.1445348 -5.756704 -0.8769434 1.7966746 2.1139293 -2.2468307 -0.6910148 0.08885726 1.4267707 2.2668512 -2.1097796 0.8747087 3.3291144
Warren 1.7413757 -6.5558124 -0.17851152 2.659303 1.7317791 -0.7657139 3.5239894 5.5661063 -0.14955853 3.0625522 -3.9356203 -0.15679555 -2.9077587 -4.201953 -0.9440429 1.6568744 -1.2574447 -1.1945537 -1.2084868 5.093865 0.42545494 0.34068727 -0.70111215 0.04822455 -7.4276996 -5.5633235 2.6726966 -2.0827641 0.20248765 -0.117710374 4.160398 -0.10130526 0.40716746 5.0247426 2.3709042 1.3245682 3.5990725 -1.3672429 2.0412033 -1.6182349 -1.9950005 4.4822545 2.9846811 2.872457 3.9099417 1.0799218 -2.222483 -0.1815328 1.6019518 0.90747726 3.8066573 0.2650144 3.064147 -2.1595404 -6.0487943 4.305271 -2.262488 0.42301077 -0.053855866 -2.1929471 -4.14297 2.913933 5.4224405 2.5701773
David Jenkins -1.6282623 0.8502801 3.9561436 -3.036029 4.8590527 2.838562 2.0641358 -1.1220828 -5.0283413 1.2543887 -4.3942046 1.0074018 1.1910793 0.9645912 -3.6000357 -0.010973587 5.4409456 0.88595206 -1.9574684 3.5312574 0.20363759 1.1671215 1.0782104 -3.069532 -5.3983707 -1.6809046 3.6963022 -1.680849 -2.575805 1.1083859 -0.43058598 1.891206 1.1034478 -2.5005972 0.0910328 -2.8701391 2.4289725 -0.99102896 -2.34839 -2.4259381 -1.9552372 4.0321035 1.0476445 3.818102 -0.5847391 0.30999616 -2.9161549 0.07411698 -2.1783984 -3.382901 -1.1487106 -1.6272547 0.44775417 -3.1068983 -0.8435464 -5.603333 -2.138545 4.9297514 0.4046003 -0.13181339 -1.6385632 1.7849995 -1.6970935 0.54307926
Roberts -3.0499604 2.507789 0.7540906 -1.9471487 -4.0228734 5.5385065 2.698995 -1.380301 -2.0104852 0.15465306 4.6907825 -2.588431 2.0492535 -1.7931473 2.0541618 0.98957074 -1.1971365 0.31780583 -2.9784248 0.28279865 4.499945 -1.904684 -0.64426416 -2.0705407 -0.881889 -2.2604299 0.770231 2.0598824 -7.4687777 -1.5371648 -0.2172389 -0.61106056 2.8412414 -0.20078397 1.6684473 0.39995062 -0.32026783 -1.1819915 -6.8757195 -3.2159169 1.5683012 3.7124233 -2.6992657 1.213837 0.9967133 -0.14769043 -4.2716594 0.03224968 -3.2211587 0.97161627 -1.400369 -0.8369613 0.25384057 -1.2004389 -0.35998142 -5.0409307 0.44989392 4.044681 -4.2541347 0.7468671 2.229975 -1.8288356 4.0063505 -1.0345118
Perry -0.64230907 1.6381099 -2.5985153 -1.3340677 -6.463151 3.1230457 -0.45020083 -0.09049239 -0.5915317 -3.598692 0.6845819 -3.8476562 -0.6567487 -4.7246256 0.098392434 -3.3338027 -4.704907 0.40461645 -0.41535506 -4.418563 1.0364227 -3.870531 0.25601152 -3.4773266 5.13795 1.2087104 -0.5797278 5.776456 -4.744881 3.588745 -3.2288303 1.6057805 -5.1845384 -1.7683789 2.3926213 -3.9248261 -0.8848508 -6.142817 -5.1050773 2.4516268 -0.24532527 -1.0603105 2.7144394 -0.7647129 -2.857747 -2.82968 -5.081067 -4.951566 -3.6751091 4.516963 -2.28174 0.8451348 4.2261243 -3.3749373 0.7034096 1.6913973 -2.1356936 -1.6482878 -8.313634 -1.0137484 -1.5403073 -2.37454 0.10454059 -2.3980467
Brooks 1.7970788 -5.249572 -2.9464178 4.157016 2.6606104 2.2482402 -0.11261196 -1.1278478 -5.872785 0.09127689 -0.20089401 1.1190751 -4.615141 -2.4532158 4.3093405 -1.2714002 -1.4749762 -5.3098445 -0.21537301 6.32877 -1.9456911 -7.3705745 -1.0267937 -2.2156732 2.2645495 -3.8148143 -0.014666061 -0.1521153 6.921587 1.1927849 -6.631364 -0.16693099 -0.52265835 3.0823672 5.8502264 -2.4846735 1.437779 1.8786314 -0.13833767 3.0199904 1.7405379 -0.17891034 5.253498 2.0522506 -0.70160294 2.9184468 0.6468427 0.9104999 2.1711082 4.2919736 -4.8557143 2.9741042 -0.08869857 3.259653 -1.9444171 6.863433 -2.2506068 1.9061799 -1.5715041 -4.052839 0.060447294 -2.443214 2.2572167 4.9136653
J. W. C. Pennington 2.0681453 -4.0142126 0.2416546 -1.2634804 5.4854436 -2.568822 2.446363 -1.0474656 0.23941177 -3.7725427 -1.3810632 -1.3559878 3.1618276 3.4516804 2.7927158 1.3236216 4.4492636 1.6211697 -0.35891753 -4.152347 -0.016531099 8.306821 0.016179573 2.3425105 -1.4071825 5.5520983 -2.6749778 4.914192 0.033948433 3.900602 -2.4195125 3.0594058 2.5437267 4.2348676 1.9683669 4.749214 0.3475138 -0.19472924 0.8873197 -0.42412767 1.5734347 1.8598964 -2.8798625 -3.6868873 -3.8347554 1.7711363 -1.1419834 3.2916424 -0.91651976 0.067270435 2.7524002 -0.05369193 5.417075 -1.2271651 0.8128589 5.497994 0.7986257 1.6139022 -2.6890059 2.7109673 -4.7360606 -1.3926865 2.0500968 1.9675955
Wm. H. Topp 2.8194053 -1.0006225 -0.9689741 -5.2103887 1.889002 -1.294594 1.0574025 -0.46553072 -0.7677572 -2.910384 -3.4549365 2.2195368 2.5923738 -2.2104516 -1.4443038 1.7878516 0.32098007 1.7452527 2.5668254 -3.913602 -0.853298 3.9482543 -1.5221702 1.2765452 1.4307417 1.947461 1.5986497 -0.66130555 -0.25233862 0.3734151 -1.0536687 1.4554611 -2.0044146 1.6194853 0.67672336 1.0717816 -3.2219307 -3.4543548 1.3199121 -3.4228795 -0.981446 0.29019308 -2.7253428 -4.834601 -4.663002 -3.0056808 1.4749082 0.48824844 -1.7329264 -0.5656267 1.7510483 0.53773296 0.2909898 0.6592225 4.008189 1.2101804 -2.5688205 -2.254591 -0.16239738 -2.6106896 -0.11119255 -0.95551616 -1.141263 -1.7681447
1868.PA-08.11.WILL.txt -1.255767 -2.7143283 -3.2052782 0.76755327 -4.5362263 -0.071649164 -4.0028787 0.03703336 -0.83872366 0.62695414 -3.170303 -2.5042684 5.4128666 2.3660588 -4.0120063 -1.1952658 1.2035022 -2.908357 -1.4805593 2.395093 -2.4465292 5.9719634 1.7072372 3.2811987 -2.964185 1.4259752 -3.6661012 -1.951676 -0.14494604 -0.9640487 1.2729124 -1.903223 -1.904888 2.1045673 2.9791906 -1.405092 -4.301025 -0.3365882 -1.7081486 6.4884624 0.2128284 -1.9482288 -0.18869945 -0.056697085 -2.293377 -6.6211133 -3.6642597 1.5899655 -1.1936162 2.389943 -8.160507 -5.8492346 1.9375671 -2.029761 -0.72133225 1.1921345 3.821015 -4.5019264 1.3067278 -3.500568 -0.2440356 0.8738684 -0.3320196 -0.8045502
1841.ME-10.06.PORT.01.txt 1.1710578 5.0359497 -1.986402 -2.8212423 2.057096 -0.8589367 1.6567212 1.6394522 0.9038829 -1.8350004 1.3087937 0.42128053 3.8441365 -3.9421587 3.8913941 -1.9841051 -0.5612246 0.5436538 -2.81611 1.9069438 0.9980009 2.3219068 1.6153603 -0.10813493 -1.5500922 -3.817996 0.55016184 0.28368357 0.7357964 -0.0133249415 -1.4485109 1.7425144 0.38203803 -0.01080386 -0.98291874 -1.5849305 4.191935 0.8769102 2.5424135 1.1151834 3.4897108 -0.36298767 0.20419446 -1.1978722 -0.43994138 1.7190541 -7.754972 1.7587166 3.1313055 -2.6363857 -2.7026324 1.374874 -0.69573945 -1.275672 0.24099396 1.4335687 -0.46752325 0.91355187 -1.2616613 2.052131 1.2525305 -2.9633706 -0.20986307 -1.4341717
1841.ME-10.06.PORT.txt 1.5152811 4.5205126 -3.099496 -2.2880948 2.4624166 -0.8843721 1.8653764 1.6187855 1.0742649 -1.828477 0.7769515 1.0561038 3.8759458 -4.004045 4.3949466 -2.44056 -0.74236655 0.7594654 -2.8469002 1.3821446 1.1987305 2.1610842 1.6816691 0.891549 -2.0988154 -3.8304143 0.9947322 0.19862519 1.3190167 -0.32338628 -1.5806178 1.5127338 0.40916243 -0.039419837 -1.2181058 -1.2849629 3.3330162 0.51080203 1.9145468 0.71893114 2.7649176 -0.10184543 -0.15812339 -0.89662683 -0.2623084 1.9599928 -7.4549804 1.8509656 3.3731303 -3.2225232 -2.7954352 2.2744036 0.19940673 -1.2493533 0.40478823 1.5263602 -0.38943693 0.37295288 -0.8094742 1.7575474 1.2049644 -3.2308905 -0.21751471 -1.5365657
J. M. Langston -0.39881164 5.092752 1.4447483 2.3180904 3.8471923 1.2154878 1.0186327 -1.7134982 -0.8921754 2.5184865 -3.175023 1.1302013 -0.72857964 0.21846934 -2.8317657 -2.0346708 1.7997504 2.8272583 -0.86482716 -0.35499144 2.1251862 1.6749939 2.77953 -4.844335 -3.0873451 -3.2073283 -0.02597047 -1.9366746 -0.24308757 -3.2389202 -0.76987267 -0.3157161 2.811295 -2.4717176 2.093098 -2.9905157 1.6043905 -0.30685255 -2.766572 -1.7055924 -4.0462427 4.8787413 -1.9195694 1.9285961 1.458991 -1.5623523 0.68296874 1.3873194 -0.08650039 -2.6939762 -0.4902814 -2.7926326 0.2791767 -3.9417062 0.41359228 -3.7952242 1.1411968 3.8301275 5.6725874 -1.0845981 -0.99157643 -1.1194187 -1.1803471 -2.352833
S. Myers 0.30768576 2.049424 -0.46640387 -4.1406727 -1.0444323 -3.8864725 1.3342729 1.6267933 0.3456059 -3.550901 -8.274341 -1.2117888 1.3715214 -3.34975 -0.8255592 -2.753474 -5.774732 -2.5116105 0.28533164 -2.3513 -1.0181317 -0.22794755 0.26516002 5.017414 0.82931024 -0.09224121 2.9193268 0.6798409 -0.10401282 1.3238084 -3.0577402 -1.1170198 -2.1614716 1.1213847 -1.4194819 0.7099523 -1.7877455 -2.9931586 3.7171998 -3.8620048 -3.7017896 0.6177526 -2.27136 -1.5646104 0.66965324 -2.849537 -1.4583734 -2.7081904 -0.5269674 -1.2143734 3.984385 -0.9485338 -2.4082372 2.3332894 0.09806192 0.57634795 -3.4578032 -2.877044 0.2821673 -0.33284256 -0.8760517 0.32927302 -3.4797978 -0.950312
Bill -0.64925843 -3.0368066 1.8294804 -1.005672 -2.7497203 0.27386728 -2.4544182 -4.963127 1.427891 0.17399664 6.4582677 -0.8772369 -2.3045871 -1.4893129 2.7474792 1.5577322 2.0379493 1.7133274 -1.4393204 -4.4107456 4.8634477 -1.6409473 -6.1850443 -1.9285306 -2.598574 -2.863335 -0.7668733 2.7429266 -3.2357087 -1.0663707 2.301781 -4.581971 -3.505682 0.8134575 0.94310987 -0.6374823 -0.53609955 -3.280303 -1.9602605 0.11464542 -2.3479722 0.79439527 -1.5280265 2.221252 1.9184072 -2.282325 -2.1397185 0.15430751 -3.9424267 -0.35311267 1.7000479 -1.2215787 -1.5700128 3.5235767 1.2148335 -1.5178084 3.6831956 3.3827126 3.619752 0.07760081 1.4885205 -5.23945 4.2257543 0.7089411
Jefferson -1.5571487 -0.88280624 3.4345558 8.669794 5.4192114 3.372328 -7.8092256 -3.553089 0.5881155 0.593191 -1.0299581 1.7965486 -1.2478037 0.42452693 0.045262057 -1.24842 -3.2452066 1.2122263 0.73927414 2.8248343 -2.40636 -0.8141191 2.408518 1.1613587 -1.5992798 -0.45058954 0.69063914 -5.483441 -0.20091484 -2.582488 -6.469977 -0.40196303 2.024064 -0.7552926 -0.26840958 -2.1290808 3.077088 -0.06566886 -1.8568733 3.0817602 0.5610362 2.536007 2.6741827 1.4368012 0.53327936 -0.55811125 -0.21995361 2.3508089 -0.82211095 -8.12925 -3.3388531 2.9147973 3.910144 -0.578083 0.49621567 -5.7722487 -1.6812679 -3.0523605 -1.5603244 1.3927786 -0.006319242 1.4028418 -0.3562043 3.019597
Garrison -3.3044863 -1.5820591 0.6114164 4.4903545 1.815152 0.45646635 2.8940163 4.415965 -1.9443318 -0.7370338 1.3818616 -2.3680375 -1.1391989 1.5257305 1.6476125 5.0840898 0.3944345 2.4762506 -1.7328817 -2.3141975 -1.366278 -1.2011569 -1.4110444 3.6226945 5.2961445 4.707726 0.40602195 -1.6396593 -0.7850236 -3.2411788 4.347921 0.6735494 -0.94183344 -6.9005437 0.24858604 1.4107908 -6.79732 2.2150388 -3.0527537 1.4646153 0.20250544 1.3197677 1.6976277 -1.022441 5.2687387 -2.2841148 2.0232673 3.236638 -2.260001 1.2023975 1.7441366 -3.7729099 -0.06180524 2.2687118 3.5626118 0.8012279 -0.12055858 2.8129234 2.5325427 -1.786331 -1.4590914 -3.6795905 0.40187174 -0.8628198
D. Jenkins 0.5353491 1.334424 3.4010448 0.4231744 5.3528533 2.2759538 1.9202507 0.45933345 -0.32944322 0.67465067 -1.4281218 0.85402036 -0.9094816 2.0188255 -2.1880653 -1.6381838 3.4677007 1.7073408 -1.0494615 2.7712562 3.75265 -0.16001841 0.3595492 -4.752264 -2.104586 -3.9309855 1.0939378 -2.6806612 -1.3582202 -2.3003867 -2.7848833 2.1499116 1.1275355 -0.16544734 0.59370136 -1.9732469 3.0365605 -0.11651664 -3.0285623 -3.0254295 -3.9060454 3.8705807 -0.97221076 4.3814473 1.3655769 -1.6687409 -3.1314933 -1.115762 -3.029625 -4.1205144 0.5757514 -3.2943373 1.3711351 -4.921927 -2.712898 -3.900949 -1.534884 3.4344227 5.2735906 2.2927682 -1.0444626 0.80770206 -2.284043 0.85709214
William H. Seward -7.4130864 -1.1088811 -4.915835 2.914825 -2.7152653 -3.7113662 0.57045674 -1.794806 2.409822 -3.9288964 1.5648301 2.3389368 -1.8295925 -1.6398386 -2.4128573 -3.305722 -0.49836642 5.734121 -4.7129526 -0.73248214 3.6653624 0.06606761 -3.826768 -5.104829 1.7409525 0.09838671 -4.695373 0.8107049 4.425841 -2.656262 2.9981968 -4.9635434 -3.0918283 -1.3368834 2.1043553 -3.9147232 1.4085859 -3.0663717 -5.8690534 0.8142855 -5.4466724 -7.591883 0.87394154 1.9944626 -6.2898655 -2.7568974 -5.9174056 -3.8638136 1.1821783 -2.1846547 -2.73078 0.11231489 -4.74121 -4.887003 1.9044813 -2.7803435 0.58946264 3.6363456 -2.837414 2.559206 -2.12633 1.6473733 -2.637587 0.93773097
Thomas Butler -3.4575043 1.6006624 0.5321808 2.3576624 -3.7520401 1.8678808 1.0882698 3.1600056 2.2303698 -2.5506337 1.1527879 -1.31652 -1.4774696 -0.13289404 0.9021653 2.7241287 -0.1326001 4.1128707 -1.4966573 -5.3848896 0.52445424 -0.61726445 -0.9285005 0.6390765 -0.94052607 5.219508 -1.1902994 2.8044784 0.9808349 -0.03886547 1.2841588 1.0805653 -1.4283036 -7.784363 5.376259 1.7674319 -1.6705812 0.47884473 -3.306518 0.7850996 -0.5553447 -2.1352403 4.6202707 1.2608008 -3.1903446 -0.0163679 -2.7461474 -3.1951437 -0.06358476 0.19154255 1.8487791 0.9376878 2.7375069 -4.7774596 -0.5012932 0.36749387 0.36611298 3.0010986 -5.1551824 -0.15998109 -1.041745 -2.1755016 -4.8398943 -4.693423
J. W. Duffin 0.42482072 1.2139664 -2.4085598 -2.0628917 -1.9198127 0.03632407 3.9647043 3.0164049 -0.14318067 -7.8208585 -4.9474587 1.1875674 0.07221318 -1.0702813 -0.321589 -1.6687082 -2.803982 2.8245497 -1.3611172 -2.6289253 1.4579254 -0.61190134 -0.4093539 0.41433236 3.1281877 0.23448953 -0.6167289 2.4022274 -0.84959745 2.6694539 -0.16449383 0.21558799 -4.278053 0.79964364 1.9646306 -0.400569 -2.78513 -2.75449 1.1082759 0.0034788325 -5.3967857 -2.9135606 4.2621107 -1.5050415 -2.2108004 -1.8567624 -2.3106341 -3.697115 -1.8892506 -0.0017110255 3.2331972 -1.3488002 6.2418365 -5.3806624 -0.53404725 1.8464278 -1.5198373 -3.9489043 -1.0115571 0.52613705 -2.5954154 5.85875 -1.3167291 -1.7556365
Francis 2.9982932 -2.149602 2.5972862 0.48414326 1.0917072 -0.17786227 1.1901376 5.855134 -3.2139602 3.071263 0.36160025 -0.76697963 0.26994413 -1.8679156 -1.8540123 -4.715076 -1.3014907 2.8676217 -0.8011721 2.0446744 3.5049903 0.4106238 1.7416337 3.0238378 6.847858 -1.6668655 0.4730691 -0.6720792 0.98691636 4.82244 -1.8911611 3.5259233 -1.5109985 -3.3593004 -0.079431735 -2.3010771 -1.7969027 1.6402655 -1.597988 -2.4769657 1.3167757 1.7165786 1.4992089 1.6865448 2.9068065 -2.9140394 2.1781216 1.2667418 -2.3191516 -0.7733314 -4.543953 -0.7892149 3.0229626 -0.95642745 -1.1261417 1.964274 -3.692489 -0.4164598 -0.428952 -1.6293479 -1.334066 -0.09388048 -3.3343234 -1.1803308
Lincoln -0.5149104 -0.25883883 -2.2552803 0.88294977 -5.3581114 -1.5600613 -5.841809 -2.811463 -1.002888 5.7149363 -1.2207797 1.412924 0.09709199 1.751936 -3.8855278 -0.7234876 -1.2408706 0.37631804 1.2464223 3.8224692 -3.7172468 4.212131 2.659641 -6.9377666 0.065446466 -4.4728365 2.3230844 3.2248015 2.397686 -0.05963261 7.851171 -1.8945101 -2.0932362 4.4169354 1.200392 4.2814965 6.169735 3.7675056 1.8857491 2.555605 2.997011 -1.6404095 -4.7994304 1.9237827 5.380368 0.6742206 -5.6122794 5.8228774 0.19254573 0.13901234 2.7141826 1.5466207 -2.7022731 1.7892798 -2.1423235 2.5675385 2.522822 -4.347418 -3.8597631 -3.441118 0.4129123 -2.171132 -0.15896018 3.4929435
William H. Day -4.202963 1.9840353 0.46021694 -0.97805077 0.18145199 1.4769047 1.2569556 -2.6402276 0.055707145 3.0593805 -0.8447462 2.1942887 -0.39212224 -1.2467477 -1.225152 -2.274815 2.472033 3.890875 -2.839337 1.2934425 1.0205482 2.573296 -1.2948933 -5.0872264 -2.5340495 -2.3784854 -0.64333886 -2.702476 -1.5194277 -0.6503577 1.5931644 -1.7613511 2.8688078 -0.30875632 1.9712828 -7.1978784 -0.9249095 1.1540513 -4.783115 -1.7719251 -2.9738278 0.6532584 -3.719318 0.47769135 1.7529148 -1.602154 0.17986812 -0.63455826 0.12088957 -2.9149954 -0.374005 -0.6797541 -5.0834785 -4.2177634 -1.0214474 -1.6857082 -0.5511802 5.059839 2.0901182 0.20237553 1.3224053 -0.02874639 0.61156213 -0.89063823
Robert Purvis -1.2053459 2.9828582 -0.29831815 1.4020952 -2.567682 1.985362 0.10453848 2.7978015 0.8406122 -2.8045387 2.331458 0.49248767 1.9396516 1.808969 2.7449827 3.8140519 -0.24729645 1.6560997 -2.5827396 -2.6491365 -2.344008 1.622895 -0.67871165 0.7126051 -1.7313248 4.0275373 0.59198964 -1.0144951 0.9049313 -0.79446393 0.20922911 2.889852 0.61012596 -3.1452553 2.9751058 2.7564638 -3.8829534 -2.5629048 -1.4073106 0.0589697 -0.699326 0.40973243 2.970128 -2.153216 0.01334554 5.1244826 2.511155 3.8261647 -2.011894 -1.8964088 -0.6806932 -1.049801 -0.22122173 0.9239138 1.6154191 0.23667721 2.5133226 2.380837 1.454414 1.6673074 -0.84812444 -1.7287533 0.15703736 -0.830531
Benj 3.881817 4.9835525 0.60941476 3.1663268 -2.9399762 -1.9039948 0.11273324 1.0594599 1.6787914 -1.1618532 -0.14681134 -5.8996315 2.7062316 5.8054047 -0.13477154 3.2626464 1.3269328 -3.3484755 -1.2124116 -2.3222716 -1.931848 2.4454489 -0.49499223 2.1506906 0.6338042 -0.42671287 4.3494544 -1.3095924 1.4452568 0.8643534 4.8478355 -2.6570039 4.6155167 1.9137248 -3.6269488 1.6120288 1.065213 -0.5138907 -1.565982 -0.6831815 -4.6146116 -1.6349099 1.5042628 1.0085123 1.8773663 2.1296706 0.39794633 -4.7050943 3.4929957 3.2466502 -0.13569508 0.7185294 7.2299304 5.1621213 1.0806481 -1.2218223 -2.7167406 -3.3405612 4.9737186 1.0837741 -1.39733 1.4958466 4.1872334 -2.5894377
Scott -1.8200183 4.702977 2.0712092 -0.7886427 -3.56272 0.6637649 -3.4890468 -6.2781835 -3.4111094 1.3169538 -1.276597 -0.9234288 -1.8240349 2.7448647 -2.3506613 -6.182825 -7.1243005 -4.503837 3.3087394 0.026100945 4.0280204 -5.0596404 2.341788 1.3986768 -2.0936468 2.1659636 3.6735368 2.1293344 -6.8414993 -5.16445 -3.094414 3.451561 -1.483296 1.9165361 -2.3024151 0.12615168 2.2445128 -4.2296286 2.7394822 -0.6902642 -2.3158393 2.6877825 -0.43372238 3.91908 0.73508704 -1.9699426 -10.720748 1.2556076 1.218586 -1.9542902 -2.2314742 -0.6783065 1.2469051 -1.4426478 2.1001444 0.18438208 1.3771808 0.7646257 -4.8267274 2.6343715 2.4272652 -4.8275843 3.3467045 3.0701816
Mason -4.158637 1.8461424 0.1928629 -0.7434023 -0.36359462 2.717199 7.25954 2.001232 2.7025473 0.6123522 -2.202826 1.8936883 -1.792606 -0.53584194 1.6991004 -3.0509522 0.884837 1.9261281 2.4136565 -1.1948235 -1.8896533 3.3209684 4.7685995 3.1984806 4.6806126 -5.088114 -3.5477045 -0.010473728 -2.451861 0.84922266 -3.637198 2.320494 2.8058562 0.02503508 1.394438 0.00026917757 -2.899529 6.808025 -3.9765851 -3.6992283 3.376368 1.6507047 -1.804967 -3.8793573 -3.4311993 2.5975115 -2.2778492 -2.4793012 1.8112122 2.7137613 -0.5668413 6.0599914 -4.555953 -4.77755 -5.179369 -3.4531593 6.0619416 2.0186052 5.7471404 5.170965 2.2867095 2.9380734 4.3682294 -1.6653571
Garnet 3.5970774 3.3775046 -2.4892895 -3.1211243 -1.038117 -4.6198583 1.9745327 -0.24162108 0.5815626 0.38223574 -1.8181937 -0.19573264 -1.4679936 1.9405216 -3.35178 3.303946 -1.411402 -3.262774 3.1764104 -2.6232338 4.481715 0.081618264 3.0751941 2.8502605 0.48057216 -2.2489161 -2.145325 4.238573 0.09185311 -2.3781028 0.6089278 -2.7375267 -4.490739 2.153242 -4.6542673 -3.8897598 1.395391 -2.6992798 0.77730846 -3.997064 2.762582 -4.5499954 -2.9413817 -2.3452458 0.9784624 -0.71905726 5.4829955 2.0533657 0.83592016 -2.576536 -0.6049581 -0.33556527 -1.5931486 -6.0625086 1.8478624 4.4089093 -2.6652253 -1.2044418 -2.05887 0.45052958 -1.3430234 -1.6681974 -0.22167262 1.6798187
Stephen Smith 3.4102178 2.7934165 -0.5939561 0.6339964 -2.6134107 0.51270825 -2.5238376 2.5908425 3.150251 -0.20772602 2.8049812 -0.72314674 2.8408017 -1.0267638 -2.735474 0.5670429 0.6626689 0.775268 2.6225848 0.19711797 -2.5147057 2.5024722 -0.31058 -1.1158531 -3.1644752 3.135189 1.3008982 -0.6667199 -1.0726118 1.3448156 -2.0471191 1.3119023 3.369093 -2.2268486 0.2865942 1.8250504 -4.00121 -1.6813031 0.53794473 -1.997441 1.4291322 -0.69450307 0.8180062 -0.53386176 -2.0947404 3.2694683 2.2841048 0.020547584 -0.9629873 -2.136329 -3.617881 -0.7798599 0.12163174 0.054952756 1.5026621 2.2122629 0.28172782 -1.0987426 1.4298433 0.60857975 -3.1336422 0.09571987 1.0741056 -5.767784
Jones -5.0952673 1.0322114 3.1800137 -2.9946117 -0.51945436 -0.46463147 4.1289086 -0.17554298 0.7653678 2.1261916 -5.427603 0.4460318 2.0658617 -0.35663238 -0.19356866 -7.3489857 -0.643421 0.29166728 -2.1013756 2.5473711 1.7104148 0.41736782 1.2622465 4.2539034 0.25604668 -0.024128245 1.2846249 -3.2220645 -3.257573 2.992101 -3.1298373 4.3942337 -1.9194989 2.33849 -1.5367577 -1.5630299 -1.4205697 2.121088 0.14951596 -7.4008155 -3.7126012 -0.5951309 -3.1164954 -0.021601785 1.5454493 -3.1500125 -3.073978 -3.6445298 0.91659415 -0.7494212 -0.43427908 -0.51164675 -7.1976857 0.4930884 -1.4391661 1.4518521 -1.1540067 8.096013 1.7959323 4.9052534 1.5273911 0.68266547 -2.37332 1.7087562
Morris -4.308332 -2.5392334 6.9043097 2.7544699 4.0005507 -2.4103668 1.0106398 -2.1421356 -1.3394364 4.1538534 3.7378502 -1.8984551 -2.9231625 -3.8741467 0.9113184 -2.616475 -3.7293518 0.42646396 1.0544482 4.3062906 0.6726317 -3.0418384 -3.7587602 0.14864181 -5.846925 -8.211224 2.8910217 2.5571551 -2.8681242 4.614463 2.3922606 5.1567063 1.3271503 0.8127042 -0.4711408 3.406716 -1.6833066 -5.544808 0.22223237 1.9944454 4.258773 -0.6004923 -2.5238287 2.5734012 5.6912556 -0.39066786 -5.782068 1.6556313 -0.25002062 3.2479763 -0.15934013 -2.267062 2.5717306 0.2885793 0.62887627 4.098173 3.7732716 -3.7520225 -2.9218643 -3.6658683 -3.9118237 3.058391 -0.20405512 6.83836
Green -5.9724507 0.045401383 -5.1227956 -2.0788553 -2.6978965 -2.780048 -1.7798287 -0.51485825 -5.5411334 0.42579347 1.0878301 1.6362513 -0.8072057 -5.789206 -4.759773 0.13666825 5.489401 -2.6537263 -3.1821725 -1.7705303 -3.9512649 0.021010369 -2.6148665 -7.2648373 0.35807416 -2.4897037 -0.2717101 4.0871 4.959402 -2.3673425 -0.30754122 -2.3985682 0.5902348 -1.8429023 2.4072263 -0.39576963 3.52886 0.07348746 -1.8678516 2.8092241 -2.0036497 -5.7169547 -2.6316519 2.9034173 0.0174581 -0.42589784 -1.489204 2.7572908 -4.625285 -2.5479133 -1.7039518 -2.4107256 -4.9114184 1.0548586 0.31354347 -2.0605927 -0.30120715 3.8309848 -1.2208163 -1.3583341 -0.9026494 1.54141 -0.1800234 0.29518387
Henry Johnson 2.000411 -2.230714 0.3865806 -0.5183348 0.54298645 -2.6145983 -0.7330004 -2.6339073 1.692371 -3.391113 3.9811633 0.9226562 0.34619576 -1.8379104 -1.2272667 -0.82851267 -5.145463 0.76873 -4.4580793 1.2970392 6.248537 1.8431344 -0.1639753 1.7461697 -0.66104263 -2.395489 -2.1294827 -3.014693 -4.6260047 1.1582514 -2.144852 2.9137442 -8.176589 -0.24435842 -1.3386985 0.6474183 -1.698835 -9.184944 -0.88491046 -1.1289366 0.82148314 -1.1670917 -0.6575524 1.8220253 -1.9350768 -0.17145418 -0.16018112 -5.7646847 -3.93953 -2.028809 -3.5714972 -2.6109798 2.0683022 2.8942094 3.706816 1.2762437 0.84729713 1.1395812 -0.8499697 0.6771072 -2.161003 1.4155012 -2.646998 1.8866162
J.W. Loguen 3.7879934 -0.6169558 -0.42449448 -5.0981064 -1.316714 -4.72612 2.2089655 -5.073309 -0.70961165 -3.3246472 -0.66820204 3.3362799 1.6678593 -1.1209663 -0.57022357 0.22317839 2.6368415 -1.9504743 0.16497071 -5.286699 -0.28473115 2.6807115 1.3659246 3.069508 3.9562998 -2.7295878 -2.5168939 0.016504511 4.6414313 -1.7784021 4.8560658 5.563427 -1.1680057 6.6712284 -1.0923746 -3.8634799 0.39439186 -1.871296 2.0534067 4.9270587 -3.1617684 -0.113592364 -3.3831544 -3.6332903 -2.6110034 -1.374469 1.8694869 -1.1010607 2.3296633 3.9907377 -1.2411978 -0.30817688 2.617134 3.966574 2.0339098 -1.15043 -3.4790456 -4.164369 2.944507 -2.6332304 0.79163694 -0.6548806 -5.0395885 -3.8152812
John B. Vashon -0.3944648 2.2033286 -0.33651707 1.3841264 -0.38833317 0.6064591 -0.8180346 -1.0597676 0.35950077 -1.3857229 2.3788958 1.5213624 3.6289394 1.0913174 3.6467805 7.4851284 0.6341393 0.7129804 -2.2116787 -4.5799017 0.5587489 2.8115072 -2.1837795 1.570363 -0.7014322 5.887599 1.7655145 -3.9826639 1.8337111 -2.6511655 1.5493485 5.349074 0.49108776 -1.0039557 3.55381 1.415975 -1.3883884 -1.8912127 -1.2884514 0.63239247 0.08488336 1.5138816 -0.1961535 -4.2924137 -2.4517126 2.5556943 1.7952126 3.4882243 -1.57736 -1.5451397 -0.45126522 0.0962001 1.8894405 2.9649005 -0.4004725 1.1254961 -0.6503431 2.4395728 -1.0932492 1.3926266 -1.3404627 -2.5220523 -1.1369349 -0.47283876
Stevens 2.2967594 -7.642732 -1.937166 4.0167994 2.716834 2.5048127 -0.8405929 -1.8116086 0.28532898 0.84684557 2.8752406 -1.951068 -4.335228 -5.9030366 6.483987 -1.1266297 2.4573543 -2.1593766 0.7474506 2.2853367 0.064650305 -5.467695 -1.8290107 -2.0103009 0.1308066 -2.537843 -0.902191 -0.8951181 2.877332 -5.433004 -0.5182936 0.88273644 -1.6183306 7.4741063 2.4190273 -0.77552396 0.15100633 1.1115537 1.7137833 3.5438702 -3.6091928 2.5517452 2.486896 -0.36427554 1.8037442 1.5946143 -0.2790232 2.7573733 -1.7774822 5.1904263 3.612215 3.7897944 -0.35257685 1.5722702 0.8933015 1.9383414 1.7439039 3.265964 4.533864 -0.37765622 -1.5165277 -6.924979 8.636882 0.15884906
1842.IN-07.17.INDI.txt -4.640889 1.3330113 2.3337383 4.822201 -0.24698858 1.4526925 1.0819566 3.4335887 -4.7423725 0.05162416 -0.7873232 0.3709522 2.9677029 -1.705377 1.553364 -5.118112 0.31769723 -1.5400903 3.818227 1.1516615 0.8498913 4.431197 2.7862284 -4.9191585 1.683555 -0.09143782 -0.52688557 -3.5381458 1.2090844 0.3075192 1.8989654 -1.3766248 2.2489734 2.6118681 0.23864597 -3.7265947 0.5093019 -0.72902876 -1.6048763 2.5619223 -0.8295894 2.4978435 0.4723875 -2.9084249 -1.5883565 -0.77015024 -2.8941634 -3.8708696 1.2709718 -3.9854336 2.875296 0.5543394 -3.9197206 -2.2777615 1.9117016 1.9563228 -2.6804786 0.6515726 1.1747655 3.6101356 0.07349339 -2.6803398 -1.5585444 1.364022
Abner H. Francis 3.8757646 -1.2981203 2.5527496 -1.937424 -0.5427298 0.78918105 2.458755 4.9047885 0.017570268 1.2940056 -1.072504 -1.0718089 -0.1483381 -0.017776834 0.6086525 -1.1952304 1.9544973 3.5334709 -5.0077395 -2.0564861 2.042655 0.30037564 3.5416868 2.555135 1.946449 0.05402802 0.6496404 1.5070093 -1.4254161 2.690743 -0.7424255 5.562086 -0.3844498 -1.010015 1.267672 -5.229969 -1.4413043 -2.1761065 -2.3842049 -2.2295063 0.9607514 3.3158927 -0.24088418 -0.5759937 0.75897354 -0.7798815 1.048525 -3.0263982 -4.318992 -0.41551667 0.52971065 -1.7195305 0.5563932 -0.8546549 -3.4781802 1.4264976 -2.962433 -2.2078245 -0.51030356 -0.26928198 -2.6574614 -0.89963895 -5.6533394 -0.22845306
