1032 64
1832.PA-06.04.PHIL.txt 1.50295 -2.0951033 -3.5914636 -0.69447464 -3.1212142 -1.5802349 -4.477955 2.618806 1.9971656 2.6910055 3.1059966 -6.308316 1.3101078 1.1688752 2.3687313 3.4157004 -0.41209623 -2.8850422 0.6388766 -0.9395802 3.020481 0.07788005 -3.978922 -2.2712781 -2.0340586 -0.7203274 -0.9699977 4.4512973 -2.2660828 -0.12049046 3.7097347 4.4351707 0.72866505 -3.6738126 1.9288731 0.04091068 1.4228773 2.3931768 -4.2923584 1.5078759 -3.1990979 -5.01498 -1.3601751 -2.9784248 -1.0632138 -2.388718 -3.3282578 -2.1120927 -0.37493086 0.57687706 -5.481257 -2.3289106 -3.5671313 -0.12707914 0.8858508 -1.7367201 -4.4558043 -2.6003444 1.8782823 5.503909 -2.9881861 -1.8461198 0.9971037 2.525866
1864.NY-10.04.SYRA.txt 1.0172862 6.543441 5.0775337 1.9164629 -3.7941585 -0.63843215 2.8378463 -0.26259762 0.8142669 -0.84503555 2.0207682 -3.6236434 0.5858199 3.2280605 -0.25023627 -1.3304071 -6.4453435 5.2501097 0.10950956 1.2283262 2.500808 -3.227703 -0.64003354 -0.73960334 6.745016 -3.348525 2.8171508 -1.7661575 -0.84645814 1.2064981 -4.1358576 1.8112149 -4.4113584 -1.2090869 0.6087526 1.4770731 2.2240844 0.021399973 -1.1688032 0.04778612 1.1639817 -0.38950098 3.0714376 1.4196427 4.9214773 -3.2019699 -0.3263882 5.127705 0.6929729 3.4449003 2.1748056 1.8193938 5.157459 3.521462 -2.8982642 -2.4466712 4.55789 -2.765233 -2.6399193 -2.8903546 -4.972853 4.10094 1.3357137 -1.2607584
1853.NY-07.06.ROCH.txt -4.7546177 1.519584 1.8468604 -1.4445964 -0.26419505 6.9758863 -0.38730773 6.6762943 4.315143 0.06484905 -5.0900865 -4.576659 1.7008748 -4.2003417 -2.3305395 -2.4892538 0.15136154 -1.2873144 -3.28631 -2.8629842 0.96747166 -2.7478647 1.6938788 1.431245 -3.624235 -1.8650614 -0.37963855 2.0808122 1.9158789 -3.0725756 3.1282167 1.7685736 -4.9399986 0.5710045 -2.8851478 -3.3045576 2.646198 -0.7976403 -0.2101068 -2.5919323 1.0003223 1.0718818 4.5244646 0.5458307 -0.72709846 -5.050436 -3.7234528 -0.43793216 -0.9793953 0.8473381 -0.8323407 -0.38488787 -0.865134 0.75558144 0.95514214 5.0591125 0.878521 -0.58847404 2.614393 1.4101256 4.306304 -1.4329607 0.36514065 3.3072214
1847.NY-11.06.TROY.txt 0.31824604 -1.0390308 3.1041205 0.067347616 2.9539413 -0.679478 5.0944943 2.578587 -1.7011707 -1.5985286 -0.9075081 -2.0621827 -5.485646 -3.1397805 -2.4827542 -3.395211 -2.8952355 -0.64438 3.0926325 2.8977141 -3.6484697 2.2991514 6.145936 5.0915985 -1.8601578 -2.8366036 -0.29557812 1.7002798 -2.4248836 -4.946453 3.3517468 -4.812172 -0.8486177 -3.328578 2.3704953 -3.8365347 -2.0284562 0.71204454 1.6460918 -1.4421462 0.6898067 0.85430044 3.5993469 -2.1911576 2.820087 -4.1722794 -2.5733848 1.6081448 0.7859766 2.0083578 2.3946836 -1.3243599 -4.0855703 2.3765345 2.998061 -0.910217 0.7718917 -0.8121659 0.34900707 2.1837544 -0.70198923 -0.57651937 3.3328767 -5.6609173
1840.NY-08.18.ALBA.1.txt -0.1420084 -1.7927679 -1.1570129 3.2804143 -2.1431687 1.8622558 4.0414233 -5.2735066 -2.4558473 -1.0246847 1.538909 2.721946 -5.613537 0.35717133 -2.3052514 -1.738367 4.5913897 4.6294193 -0.27654484 -0.7171215 -2.900342 0.30194044 2.272841 -1.6032351 1.1093829 2.3905134 0.51968175 -1.8829554 4.1138678 0.24342294 -4.321089 -4.6429987 -0.4749312 -2.9439993 2.173671 2.1448622 -6.2615967 1.1607412 -0.32865083 2.4865627 -2.9574676 -1.9906687 1.7971482 -6.1809206 8.599027 -2.4105258 -1.8706551 1.9458432 0.4315266 -2.472287 -0.71919405 0.9875038 -0.931058 -0.8475112 -0.7892277 5.957989 -0.96715826 -0.14090934 -0.6294875 1.6574694 3.288249 -2.9514906 0.1629445 3.1222682
1855.PA-10.16.PHIL.txt 0.72138256 -0.78585184 -2.1448755 -0.633106 -3.143713 7.2937403 3.9893575 1.8606263 1.2731001 2.4422774 3.859134 1.59035 1.2616631 -1.0909662 -2.3305848 -1.0394983 0.7388349 -0.9655976 2.545631 -0.7733367 -5.689784 -2.6735122 -0.52636504 0.4411872 -3.1682835 0.25643876 -3.2954733 2.5694122 3.1120703 -4.446197 1.6022984 1.2419227 -2.3007743 -0.3960688 0.2797469 -1.3887166 3.8936937 -1.9842628 -3.175644 -3.2177486 -1.2376295 0.5059452 -1.3269067 7.276311 2.1653101 -2.593431 3.1342525 2.9037232 0.5807636 0.14347798 2.1277692 2.2900963 -2.660834 1.6510563 6.6435847 -0.9067988 3.4694345 -6.579031 -1.115652 -6.7685513 1.4441007 -0.81375134 -0.02742585 -3.3955147
1834.NY-06.02.NEWY_MINUTES.txt 3.984988 -3.2169707 -1.5036609 -0.9347174 -1.9488631 2.0305 -4.5182514 0.13136756 -2.608455 3.425956 -1.5794826 5.190009 1.9480126 2.1334918 0.48119417 1.6788985 -1.4864327 -4.3611774 -2.5382085 1.9004222 0.5844613 -1.3130983 -2.4024754 -2.9459388 7.321472 -0.9874196 5.444544 1.422806 0.8385013 -3.2349188 4.3693805 1.7821996 -1.6127979 -1.6335481 -1.7491122 6.307 0.3312037 0.43493837 0.30350974 0.039901294 0.1367876 -3.5277402 1.2577375 -0.49839982 -0.8374715 -6.8183436 -1.5488349 -0.7926362 -0.24005312 0.9555528 -6.8680015 2.7051678 -0.10601228 5.536286 5.2450857 -0.8304455 -2.8381546 0.3799401 5.758536 2.919454 0.84361434 0.90066296 0.7596217 -2.265793
1833.PA-06.03.PHIL.txt 1.3993748 -0.70424163 -2.7870054 4.619149 -1.598585 3.175498 -3.6061552 -1.3973603 1.8884321 1.287833 -1.92171 -3.4976146 -4.7129283 -1.1330897 1.374931 5.470791 -1.0470843 -0.5687136 -3.5734735 2.613245 3.8564973 0.5293032 -2.3735485 -1.7308917 1.9334136 -1.9518158 3.3924065 2.7894022 -3.2111154 -0.9600534 6.56248 2.1843188 3.6479974 0.30633828 -1.5378406 3.5790012 -3.188588 5.3319945 -2.757246 -2.149273 -2.2527747 -4.2335024 -0.33895308 1.3774037 -2.9948606 -5.601608 3.804692 -1.1374645 4.4385104 -2.7916133 -3.9022398 -2.0231733 -1.1185552 2.4366443 -0.8911467 -1.4302719 -0.66241425 -0.98327094 3.483826 4.1771874 -1.7080486 0.05530797 2.3135033 -2.0985785
1843.NY-08.15.BUFF.txt -1.004656 4.1675353 -2.7429476 6.069612 3.9875126 0.56530505 0.490314 5.259447 -0.80847615 -3.993101 -3.805946 0.6878796 -0.69110376 6.750015 -1.7577152 -2.4610283 2.3361957 0.9031755 0.167676 -1.364047 -1.9354373 0.15948726 2.2218301 4.0379705 1.375783 5.635301 -4.392536 -0.5174085 -0.96272486 -4.074895 -3.770911 1.4498917 -0.1802571 1.4798564 2.9957955 0.9419687 -3.2203565 -0.08337727 0.009568275 1.5058942 -2.2946835 5.7106085 1.9114087 1.1257493 2.860434 -3.239658 -2.4154437 -0.04356901 -7.328238 -3.3183665 -6.2851343 -2.8995757 2.5271516 3.1486914 -0.7280598 -1.1847975 -0.08284315 -1.5119417 3.257619 -2.3926363 4.815321 0.370975 -3.551651 -5.9216824
1856.CA-12.09.SACR.txt 4.5383005 6.093794 -0.36925843 0.5406509 2.9812748 -0.6693011 -2.2513711 -1.3122795 -0.16290995 2.2017503 -4.801238 5.0560355 -0.53504217 0.7563979 3.876956 2.6789343 -1.6365187 -1.7717222 -1.6321235 -1.4312754 -3.497975 3.2266412 2.338239 2.7937489 -1.2677453 0.4077168 -7.2770104 0.9513603 -3.5731823 -2.2024815 3.9330537 -1.8162856 -3.2111099 2.9441614 -1.737255 0.33232096 -1.8591759 2.9079716 1.1247747 -1.1831534 5.0407257 -3.1759229 -3.3555589 -5.8568664 -2.8376389 2.2183094 -0.7994527 -1.9500555 -1.6173173 -6.3842897 1.0575724 4.9067955 4.4340463 0.69245756 -0.29367992 0.5427129 -2.214517 2.5344434 -0.9756046 -6.656586 -3.0753872 1.3942118 1.9440345 0.63657445
1831.PA-06.06.PHIL.txt 3.0774314 -2.8727713 -7.0368237 0.41949654 1.1889434 -2.714169 -0.38070044 1.813789 1.0104136 0.8446006 5.4622297 -1.5233625 2.5220735 -0.7253764 0.8205386 4.052817 0.08414259 -1.9439144 1.4549292 -1.1178467 3.5690272 3.6182091 -2.743222 -3.8375845 -5.158628 2.1743703 3.2877645 1.5584922 -4.509892 -1.9563555 3.9338324 1.8544079 2.2108097 -2.8264241 2.6842759 -1.47318 1.803144 -0.17557578 -3.7332332 -2.0289836 0.016609438 -5.3429565 3.4896102 0.79460144 -1.6055117 -3.4514418 0.49248204 -2.0597336 1.362523 -2.9361217 -0.48261404 -1.0752177 -2.0523026 0.7017075 1.0526242 -3.9269063 -4.903524 2.462784 1.0729514 8.653741 -3.614317 0.77074933 -2.2830749 0.2103222
1851.NY-07.22.ALBA.txt 3.7630105 3.7822754 -6.294361 -4.1047177 1.8960204 -1.7901028 -2.4837263 -2.235574 -1.2273227 -2.2891066 0.8412457 0.43339694 -4.13366 1.8327507 -7.8072324 -6.1970572 6.220019 2.4436302 2.5760295 -1.0664656 0.42456394 -1.2823514 -2.3879068 2.0935667 -2.0121891 -2.981828 -5.5369925 0.31583872 1.9612231 -1.7179984 -1.3477969 1.5714507 -3.324677 -1.0543847 4.205067 -0.5401384 -6.3223634 -1.948022 1.1920242 1.3736371 1.7256496 -1.142589 3.414022 4.265961 2.0108314 -2.86023 -0.34424376 -0.62819445 -0.12390501 -1.9214954 3.6227725 0.59406525 -2.3049452 4.046433 -1.2965835 -0.259667 8.606275 3.4916835 -0.95734257 3.529136 -0.6305158 -3.2509987 3.3042257 -1.596906
1879.TN-05.06.NASH.txt -1.6720437 -2.8355086 8.079461 -1.5857614 2.4985373 2.116791 1.5555034 -8.059494 0.4313513 0.58404404 -4.746244 -0.6025122 -0.58513314 -3.2098699 -4.277045 3.3742595 0.0909678 -1.3913147 1.0530088 0.17245594 0.62743604 -4.7623982 2.4043875 0.18549356 -0.41389343 -1.3330836 -1.4468042 -4.007334 -3.567082 3.534044 -3.5897863 -2.5382066 -3.453026 -3.432169 3.168235 0.444668 -1.2082363 -1.3746265 1.4761419 -0.42817596 -3.2620695 -4.3634467 3.1160996 0.20100555 -5.0537386 5.292322 -0.48388636 -1.1346904 -4.4612556 -4.1880717 -6.7073636 -3.319357 9.568862 -5.259128 0.8016483 -6.8663793 0.29319316 0.73302084 2.996163 0.16084975 -0.14328627 -0.47282323 1.3287138 -1.1795435
1851.OH-01.15.COLU.txt -4.717642 -0.42529845 -1.5348872 -0.04535969 0.16787283 -6.1283116 -3.2206986 3.144025 0.5661831 -5.1722836 -3.550353 0.9272279 -3.6685886 -0.8248212 0.47948396 4.988079 -0.9395009 -1.1694779 -5.3493443 -3.2280338 1.3176283 -5.795172 1.5796309 2.6594718 -1.9024146 -0.7784309 1.8452715 1.6882427 6.6855955 4.0482736 -2.6323173 5.372349 -0.825053 -2.4613938 -5.2611027 -4.375345 0.85363543 0.7899041 0.5802076 2.7908757 -1.4369015 4.7795687 4.7478237 2.871101 -4.4450393 0.7134923 -5.4328604 -1.8447448 1.5501283 5.784702 3.874875 -2.122781 -0.6320132 -3.3615918 0.6629821 -1.3240405 3.103909 2.5452158 -2.3846672 -4.3354926 -3.5172741 -2.8357406 3.0585513 -0.7694341
1855.CA-11.20.SACR.txt 4.376662 7.303931 3.6346388 -0.42629465 4.163243 -3.4602687 0.791777 0.20039299 -2.002893 2.5747204 -2.76777 2.049293 -2.0741324 -3.8544421 8.67925 -1.1457703 3.751756 -4.6482005 1.1131839 -1.6892216 -1.8279749 2.4537811 -0.7503763 1.8599846 0.18221268 3.9998653 -2.1750145 2.144975 -3.697708 -3.4728508 1.7639613 -2.6185036 -0.4105999 5.926562 0.19558622 -0.2436659 0.46067584 3.0564642 -0.29028153 0.53967804 -2.5313647 2.781396 -4.4437714 -2.6259983 -0.17511827 0.5290753 -2.6919274 -3.1575284 2.9808214 -4.1730776 0.74371916 4.6523013 6.057349 -3.391693 -1.5713407 4.1591935 -2.2530327 3.0255108 -1.8109976 -5.2972355 0.33997756 2.2888443 1.3413072 0.8313266
1855.NY-09.04.TROY.txt -4.781582 3.2786303 1.8691152 -4.437544 1.6154441 0.95561516 0.28705314 0.084827565 -3.6679246 3.5083988 0.5832185 -8.166987 -4.1378217 1.4211719 1.9295727 -1.9167991 0.16528213 0.28411666 1.2955991 -2.8081613 -1.2913277 -3.6026843 -0.39651477 -1.9894499 -1.5814561 -1.670147 -6.4527965 -4.9642797 -7.996324 1.7685226 1.9832245 -6.0551615 -1.6822716 -4.816964 -3.5161285 1.8747956 -7.419483 -7.135331 -1.8395255 0.33790195 -4.021641 -1.2392521 -2.751469 2.69027 2.8737292 -1.7743487 3.5423806 -1.8416061 2.104185 0.7349641 1.6142162 0.5990953 -0.47885358 -0.96340173 0.8514895 0.94408816 4.7020936 -3.000219 1.0269531 0.11055568 7.0360403 -1.4600406 -1.8730849 -1.9139152
1840.NY-08.18.ALBA.2.txt -0.05917372 -3.7286391 -0.10387018 4.812016 -0.18186454 2.5735714 4.3990355 -0.46126083 -0.45492995 -3.549775 0.66855496 -1.0612473 -2.0532367 -1.7418922 2.1595442 -0.66514236 5.482813 2.822029 -2.177252 0.84483266 -3.2090998 -1.4899595 1.7976425 -1.5736445 2.4276347 -0.106653966 1.3505715 0.35252577 4.877423 0.84751403 -5.2676225 -5.5334873 0.5675875 -2.3298445 2.2283592 -1.0681939 -3.7522445 -0.9118857 -5.373414 -2.0950775 -4.133488 -0.57673156 -2.8304927 -2.3580723 10.90544 -3.681353 -3.5336952 0.78986335 1.9875847 -1.1512679 -4.26269 -2.8167446 -3.51633 0.27260423 0.38489038 7.0082564 -0.7199783 0.023969011 -1.4689906 0.97738475 0.46840963 -1.3817929 1.0020725 1.1179236
1848.PA-12.13.HARR.txt -1.5280468 -1.0875243 1.0244443 -4.2601137 -2.5079727 -0.65190035 -3.456605 2.9710362 -0.055213377 8.736456 0.33216408 0.6908133 -0.105512924 -1.0063312 -3.6251185 -0.26117593 5.5207953 -1.9031733 -3.3836567 4.4238296 -2.5708659 -1.1641314 1.4538813 -3.4554696 -4.189426 -2.0214248 3.442599 1.937782 1.0847223 -0.6486733 2.5809987 2.9652543 4.646698 -2.8425596 -0.7879317 3.2979155 3.152241 2.7241898 1.0998603 -0.5438506 -2.145956 4.825331 -0.52203304 0.23557429 -5.8998966 -5.078897 -4.430964 5.196698 1.6961924 -6.245115 3.741552 7.474036 -1.3786048 0.47709748 0.46082774 -0.15111499 -0.7504066 -0.44796067 2.1527705 -3.4193304 -5.204677 1.178953 -5.8977776 -4.617174
1865.CA-10.25.SACR.txt -1.1729102 3.0871878 -0.8175237 2.3239405 5.0875306 -0.70336276 -2.3658242 -1.483841 -6.4891267 0.77714187 1.7794471 -2.6635263 2.13885 -1.7739257 4.7834835 -1.3954377 -0.0029923385 -4.0490875 -0.45205283 1.4047487 2.147406 0.1349605 -5.6429243 1.3709677 3.0211322 -3.4019363 -3.2875113 2.4409018 1.3126987 -0.8440824 -1.1752535 0.26345727 -5.8649154 2.281158 -0.8401649 -2.1413064 -3.3365345 4.9081426 3.2219512 -0.12368277 3.377206 -2.0246139 -8.955772 -0.34100458 0.38330558 -0.47819772 -8.132696 -6.9282904 -1.3768771 -2.2890701 2.6915467 6.9226837 5.88239 -2.9731221 -2.7771833 -0.34772015 -2.5938702 0.5368504 -3.5758379 -2.7563918 -1.7466806 -2.3862605 -1.9855558 -3.6097648
1843.MA-08.03.SALE.txt 3.2051177 1.3092334 1.1928263 -2.7883477 4.3248787 3.8490474 1.6115974 0.2750008 -0.5015928 2.8775098 3.4478705 2.9864118 -0.35786858 -1.4701381 -0.9649689 6.9833574 4.454359 -2.6745107 3.42447 3.4092264 0.014220551 1.7074044 4.3569865 1.7067778 3.2984507 -1.8283559 -2.5969806 0.21356048 1.3120428 -4.946093 1.837071 -2.2580438 -3.925078 -0.8017397 -5.4597187 2.4536822 8.554305 -2.6521847 -2.177254 -1.9737157 -6.252388 5.2441697 -1.7814246 -6.432782 2.2390037 -1.281308 8.594077 0.7265995 0.8299588 -1.6266656 -6.4273233 1.0811961 -3.966699 -0.96492416 0.02594616 2.2931592 -3.1876333 2.6250384 -1.4757352 -1.2128237 -2.10474 0.79643655 -2.1973033 -5.0132213
1850.OH-01.09.COLU.txt -5.770684 2.257559 -2.990479 1.4904996 1.5535963 -3.796237 -1.0643235 -0.13375196 -0.3225639 3.1935651 -2.3694794 -0.8507451 -2.5784233 -0.8471772 -2.705235 4.899613 -1.5170214 -6.6399364 -3.3670416 1.1542289 2.0321805 -0.92148983 3.0825248 -0.10978246 3.9951553 -2.229082 0.5461526 -8.797819 2.5548074 1.7919223 -1.6982372 -1.6296419 0.36453485 4.6417727 -1.8007276 -5.731377 1.819022 1.8058434 1.7005551 3.8083649 1.5600595 3.9216132 6.933711 9.137318 -1.4811574 -1.8809782 -0.0016370242 -1.7618114 0.72915715 5.3136487 2.3336947 -0.89848065 -1.1606137 -5.2232513 -5.754634 -0.2573972 3.080087 3.443886 0.5088857 -1.5691423 1.8016268 -3.6495194 0.63354915 -2.0367537
1844.NY-09.18.SCHE-Minutes.txt -1.6988965 -0.6832355 -1.1717789 1.486345 -5.055307 0.9962237 5.3611193 -5.3850746 -0.0687369 6.1714997 -1.7040284 1.7764844 -5.4834437 1.7407994 -0.6987359 -2.2690578 -1.6551547 0.053307697 -7.337903 -0.1332275 -1.8624991 6.4998875 5.491962 -0.20743658 0.9290365 4.0459623 0.27237797 0.96764785 -1.8540809 2.8905578 2.1655924 -5.919929 -1.9566958 -4.216934 2.5886202 -1.7648638 -3.562011 -0.45224738 -1.3148315 0.27019894 0.8798129 -0.88282484 6.833697 -3.5931196 2.805883 -2.510996 -0.97235256 2.0562158 -4.0318017 -0.5644062 -2.1980453 -3.5142663 -2.939946 5.6785545 -0.7060285 4.092317 1.6500696 -0.97725135 -7.549288 -2.4446607 0.010173713 -1.416387 -1.6422477 3.626863
1853.IL-10.06.CHIC.txt -5.037005 6.6174555 -1.2232611 -2.4041166 -0.24516094 3.4806335 -2.4455006 -2.1189227 2.1242065 -3.506325 -0.92527515 -0.94036263 5.247771 3.212876 3.8047104 -1.6426841 -1.805008 0.62654966 6.2561603 0.1047862 0.4217419 -0.6886655 -1.9382402 1.6885707 -9.422528 -1.995858 5.0884576 -1.5618203 4.9876776 -1.3310426 2.5419014 0.6245893 0.63166994 -1.8790929 -2.6560462 3.5031486 -4.7055945 1.5813835 2.7117832 1.3993807 -0.38142696 4.701705 6.1057663 -1.8584137 1.2718667 0.8640158 1.9076469 -1.8189625 -0.27042684 -3.9014564 0.3187167 -2.500558 1.4641083 -5.9979873 -0.78380585 -4.750428 -1.8642856 4.929302 0.20833805 -2.8179994 4.2585707 -4.820316 -0.4194095 5.574275
1857.OH-01.21.COLU.txt 0.6969354 2.8700264 2.968066 1.9676468 4.4450316 -0.031160925 0.58214194 1.7167903 -2.3541663 -1.6286633 -1.2983178 -3.228671 3.721219 0.45238963 1.155957 2.3727028 1.1535667 -3.7382295 -5.957541 -2.7925906 2.773764 -4.3227487 4.5186777 -3.0999699 -1.7649857 0.2748959 -5.162656 -8.365213 2.563845 2.635608 -0.93874663 7.674186 0.4628518 -3.333635 -4.4899325 1.4609829 2.2352273 3.431748 -1.365991 4.2081623 7.6335664 6.227748 2.4086647 -4.7118106 -0.039574854 -2.431954 -2.2193842 -7.4820933 -2.6520967 4.0011888 5.9915066 -1.2014813 -1.7545261 -4.4594502 -5.606473 -0.69229865 0.33706248 -1.1673805 2.5011256 -2.6862354 2.8069704 -3.74945 3.4923463 0.059192374
1865.NC-09.29.RALE.txt -3.6143384 -2.8341331 3.3758123 -2.4046588 0.4356546 -0.03769919 -4.0513406 2.2564487 1.1862049 -2.5751178 -4.86911 1.0018109 2.447633 -2.9862602 2.2043002 -4.7450852 -0.64642227 2.045501 1.3347101 1.4042621 -0.27485606 2.1122398 -7.6259937 1.9425411 1.4834969 1.2172558 -2.2184625 -2.5129778 -0.78061944 5.0891376 -1.8626146 -0.61532366 2.0429268 0.7214394 -0.68903553 3.6536102 -0.63441515 -2.8472762 0.1689511 0.092044055 -1.847994 4.7476234 -3.8222263 2.4489522 -1.6228248 6.3940525 2.50164 4.4761505 -2.5034523 5.81572 1.3445739 -0.059425622 -1.5466924 1.6432008 -2.6511412 0.2020253 0.52123356 0.6484151 -0.18720254 -2.5356407 1.241255 3.3331459 1.1007155 -1.0273987
1865.NC-09.29.RALE.01.txt -3.6502032 -2.7938232 3.0255692 -2.592895 0.103204146 -0.19102362 -3.9107556 2.1568267 1.1416363 -2.6798594 -4.908974 1.2447155 2.3114285 -2.458051 1.9911102 -4.738201 -0.76658887 1.9663908 1.2449733 1.4481661 0.16101733 2.1940005 -7.622646 1.8750403 1.4917023 1.0496367 -1.7376686 -2.6633399 -0.31309852 4.7328134 -2.0433774 -1.0033932 1.8230953 0.49815714 -0.4617039 3.41259 -0.9134228 -2.851961 -0.023478048 0.07162904 -2.190602 5.0790296 -3.8538547 3.0118632 -1.8163263 6.655278 2.3179889 3.9600766 -2.3563604 5.992242 1.1848321 -0.40171656 -1.407162 1.6804638 -2.5674922 0.6168151 0.32727647 0.589988 0.049084697 -2.5889275 1.5002775 3.4516394 0.61476886 -1.195766
1848.OH-09.06.CLEV.txt -0.6408473 4.5662384 4.83346 -2.1727386 -2.7020957 -0.5377083 0.03421585 3.5472388 1.3978497 -2.5256999 -4.058486 -2.2233527 2.1818206 5.3514285 -4.126893 5.3633776 -0.9119932 -5.591144 -6.671956 3.010772 1.3035215 -2.1511967 1.8956064 0.48811242 3.4399998 -0.6354094 -3.0083148 -7.5927644 5.7610765 -2.7267904 1.8477201 -1.4974335 3.6575167 3.0139527 -1.1754773 -2.1909661 -5.743943 2.9664843 -1.4133636 3.206983 1.2642502 -0.65686107 4.6496134 3.384528 3.9098308 0.7677346 -1.6044666 7.501101 -4.162724 -2.105988 -3.5392115 -5.2457857 4.174853 -6.4901958 0.7522779 -0.49531642 1.5354736 2.602224 -0.6045491 5.741925 -1.2802931 -2.1961932 1.5600582 -4.6554103
1856.IL-11.13.ALTO.txt -4.5396686 1.870769 2.084088 -2.0968661 4.291985 2.8100479 -5.0698977 -5.917679 -1.2679158 -1.6086303 -0.8108476 -6.639699 2.6013608 2.1598606 3.694853 -2.1568851 -1.9255934 2.6150455 1.8601258 -0.69652724 0.030976113 -2.5771036 5.202698 2.2226906 -3.7216089 2.4560838 1.6914184 0.62443 4.2588515 -2.7639458 1.586713 -2.7911131 1.86088 -0.20170641 -3.1966941 3.6084914 -3.7382593 4.7963915 2.6315699 4.949585 0.39239785 2.3968284 2.8777428 1.2375884 -1.0991634 2.2998176 4.1806607 -2.710322 -0.31783625 -6.0924 -1.3906115 0.35749325 -6.5764465 -2.5938592 -0.37165725 -8.518941 0.25648528 -0.46195185 -0.15413451 -7.0906053 2.4959807 -6.134975 -2.3198624 3.5450313
1865.NC-09.29.RALE.02.txt -5.123896 -1.5719951 4.732632 -2.5583656 -0.21641472 -0.89298016 -2.5435326 0.54086846 0.97081465 -1.410835 -6.2519746 2.1955435 2.9852521 -2.190707 1.666491 -4.047669 -1.5635185 0.5587334 0.2867718 1.9750062 -2.1017597 0.7693011 -8.094249 1.5140104 1.9302614 1.5466621 -2.4984322 -2.7170415 0.5246532 4.83725 -2.0759141 0.21435924 1.1945657 -2.1893785 -0.14656301 2.564557 -1.9506426 -1.1367271 -0.32358122 0.79863405 -3.427873 4.3066072 -3.0252523 2.3104987 -2.038884 5.5962753 1.3283948 4.9839716 -4.04831 6.0168586 -0.06348564 -0.5250561 0.44801632 2.3311071 -3.2773685 -0.71779436 1.3748469 -0.111624576 1.2794695 -1.1531699 2.72807 2.9014363 2.8915281 1.2464309
1830.PA-09.24.PHIL.txt 6.959397 -4.2437716 -7.367818 -1.1663643 -3.2513463 4.344137 0.605911 -1.1172038 4.280965 0.51668084 4.5144987 0.62631494 -5.385367 3.8095682 1.6473184 -1.6405368 -1.689109 -4.066542 0.0069226143 2.7799523 5.0849595 2.6002498 -6.834333 -1.286 -2.808249 -0.6314973 1.5892936 -3.9729936 -0.97368497 -2.2533002 4.868996 -3.2796874 4.5038443 -3.5225945 3.617081 -1.0131425 3.6312563 -2.0146587 -3.699252 -1.7838694 0.6634919 -1.9856155 -0.04515907 -0.75122344 -1.3801205 -8.238391 -2.4455185 -1.5258214 -1.7451859 4.4314346 -5.2983384 -3.5445116 4.0969353 -1.5655725 -0.6295927 -2.3158503 -3.8531675 -0.67406344 -0.58971506 0.9391587 -2.5826883 4.401829 -2.7942193 1.3801538
1866.PA-08.08.PITT.txt 6.5927286 5.037293 3.6159043 -3.600149 -3.0185127 -4.0837703 4.5859923 -5.8981547 3.5453825 5.365106 -4.6886897 -2.5579984 0.18969607 4.438763 0.45656916 0.4108873 3.0052702 2.7451189 2.8774529 -2.6703708 -7.1952043 -1.8468486 1.4265666 2.0910776 0.24152906 -7.5093 2.7847674 0.8235416 -4.648995 6.0891223 2.7620864 7.237273 2.5339503 1.1831212 -8.04658 0.3141948 2.869821 -2.9414306 -6.463451 0.7370841 -4.559723 0.40719557 -0.5519628 0.8527174 1.9491345 4.7169166 -1.634786 1.0663508 -3.1151328 -2.1122599 1.6169815 -1.177285 1.3300726 1.8294206 -0.98656523 4.7092905 -1.5877644 2.3309746 0.8248955 0.13022102 -5.1439323 3.9649012 -0.41992462 -1.7660446
1871.TN-02.22.NASH.txt -5.4606586 -4.0692625 1.3211015 -1.9259334 1.6689572 6.837627 -6.487878 -2.8990796 4.5821376 0.8839119 -1.9688432 0.9099458 -0.01036968 4.412083 -0.016563606 0.6323195 -0.2393818 0.93144345 -0.2811622 -2.4564524 1.913087 -3.6497076 1.4388942 1.2702906 1.467944 1.5760843 3.709248 4.3138227 -8.155997 3.6064584 0.3807905 0.46319646 -5.7541003 -1.2224033 5.641294 -6.2568116 -3.727393 -1.8609972 -4.2588787 -2.2964852 -0.9889749 4.937825 -0.3894962 2.975032 -1.3084657 3.2755764 -3.2650993 -4.9766617 -3.311076 2.3329911 -0.18036763 4.9472013 10.564213 -0.628822 3.2942572 0.9418957 -4.044087 -0.42371964 -2.4441767 -4.2636213 -3.7204452 -2.3177416 6.6251316 6.7122006
1856.OH-01.16.COLU.txt 1.7726045 -1.0559572 -0.92097265 -4.9280167 -3.2487214 -2.8212209 3.8099217 5.268939 1.5675336 0.10424103 -2.7643764 -0.10260093 1.0345936 0.2994997 1.7016022 2.6441061 -3.2733517 -0.6431529 -3.7363887 3.495083 2.7801075 -5.670795 2.365946 -1.2425232 2.5212507 5.9724264 -0.8746594 -5.954188 3.8892822 0.20842268 -4.681255 4.820047 -2.9899998 2.2861753 -2.0467834 -6.3240066 5.3124228 -1.2009578 2.8400517 7.604937 5.488369 3.1814432 3.8660305 -3.1886625 -4.296257 -1.8760129 1.9941554 0.24178395 2.0661907 7.2938433 0.41837946 -4.649473 2.4033222 -4.6258802 -5.461344 1.5302814 -0.3848639 -2.5205154 1.2662725 -4.958393 1.9613949 -0.7127492 0.6850195 -3.9713821
1849.CT-09.12.NEWH.txt 5.3149047 -2.2024798 -1.7410363 -5.0704365 -1.8186452 2.638875 1.5396627 -1.1286168 -4.244197 -0.45163584 -5.438617 2.857346 3.6566367 4.1866193 -6.8943286 0.13738383 3.4194326 -6.4846454 1.1548871 -6.6210084 0.36641532 0.48428997 2.2017634 4.0143676 4.3240566 2.0706317 -1.2390815 4.8042345 0.9477705 -4.517778 -1.7710478 -1.3923588 0.60162884 0.20593688 -1.5787431 -10.919802 -0.23930648 0.18348992 -2.0853071 -3.668264 4.973772 -1.2276046 -1.4660128 1.3662866 2.26915 4.542899 1.9663074 -1.8565772 1.607425 -3.9830933 0.9182702 -1.4742469 -2.6917841 4.498959 -3.2379935 2.871831 -5.7873983 -6.932955 7.008597 4.747649 2.6538453 -4.239161 -1.7175723 -0.43546462
1854.NY-01.02.ALBA.txt -0.4622639 0.57853395 -5.503207 1.389155 2.0421271 0.78276014 -0.51004916 5.148296 -1.561697 -0.559379 -0.5452106 -4.2318454 -3.583864 -1.6614394 1.8790662 -1.9516245 -4.165297 10.267325 5.182412 -1.7566829 -0.48635504 -1.3374275 2.8641176 -3.2983584 0.07450859 -3.81047 -1.2098875 -2.2158146 -4.0616403 -2.6690285 3.8854759 1.7164755 -8.613162 0.8489508 2.3126438 0.7645996 -5.380262 -1.5554042 -4.260139 2.4848723 2.3356166 -7.0523343 -2.830585 3.936127 0.3866279 -1.4870169 0.9523451 -0.26833072 -1.3333306 -3.281001 5.490683 -2.1829753 -1.8934879 1.3028675 7.576299 12.756305 5.4018283 2.3813138 1.4325287 -2.8630283 -3.5528064 -0.352405 -3.1035209 -1.5689763
1858.MA-08.01.NEWB.txt 1.5137995 0.5760743 7.0046926 6.7620993 -4.3642907 -9.085516 -4.235404 -2.782806 0.8060553 -0.404378 0.7884553 -0.48221445 -1.193851 0.4467221 -1.286265 -0.324617 0.71112597 -3.8563797 0.7369483 -2.615496 -3.6042569 -3.0402594 1.9106477 3.71414 -0.9331479 2.0366325 2.7103992 0.77934784 4.46794 -1.8993849 3.0863616 3.9634845 -4.2444553 -2.664018 8.704512 5.7306595 0.6603654 6.1435537 -5.268817 -7.0574 0.05585767 7.7237225 1.8806329 -0.8815175 0.20106031 -1.6714846 0.048357237 -4.019373 -0.09615417 2.2956183 -1.4328297 -3.0379817 2.4146967 0.228402 6.3727503 -1.4928949 5.4941335 -0.98792094 -1.8549181 1.3254771 7.359459 10.025915 -0.05826049 -4.031346
1867.PA-01.08.PHIL.02.txt -7.204366 0.8301273 2.9355786 3.337301 -2.0305483 -3.668802 -2.763354 -3.433752 -1.4740534 1.2072084 7.0874777 4.374595 -2.5615208 7.7594156 -2.0647104 -4.3808346 -2.2318404 -0.14041165 4.6609735 -0.19520254 1.4053813 1.2684572 4.441582 6.8653054 0.55622435 -7.097076 -2.2402294 -5.2693663 2.0534122 9.696848 0.46493638 1.7664006 -3.0127518 -6.319648 -4.0137143 1.9281665 6.8794518 2.7240617 1.7163001 -2.5912848 -4.165182 -5.14377 2.7728662 4.71055 0.34957823 2.208014 -3.3348646 2.5718527 3.903167 0.02943931 -2.225227 4.0648103 2.101028 2.919481 7.601901 -0.045550577 -2.162582 -0.2063185 1.871223 -3.2603135 -3.1334023 1.7193677 0.96142703 4.4661236
1843.MI-10.26.DETR.txt 1.268362 -0.9060322 8.436135 -0.13221225 -1.1310241 4.6165714 -3.884021 1.7112571 1.7506591 -9.66625 -0.98098004 3.2245889 -4.5694056 4.548852 -3.5274959 1.6835871 -3.3225052 -0.24278726 -5.3422017 -1.1471387 4.093717 1.237983 6.723803 -3.2403738 -4.085692 4.907018 -0.2146677 -1.9622567 2.1444073 -0.9706361 1.661273 1.4645408 -6.7608376 -2.2624972 -3.659038 -1.0696532 -5.9504657 -0.13727078 -2.3867528 -3.9663012 -1.7686031 0.53441125 -6.408999 -3.2556612 -1.4103787 9.072797 0.79372144 1.5379368 -4.1997313 -0.42424035 -1.8974043 -0.36057878 -1.2104763 -3.10107 8.204961 -1.394008 -5.8852973 1.5909305 -3.8169386 3.024144 4.5530887 -0.8952878 -3.117263 0.14322083
1841.ME-10.06.PORT.02.txt -6.7856064 -0.35936898 3.355939 -4.082031 4.9522185 2.2891824 -0.1893529 -0.9559256 2.1617298 -4.0172815 3.4166439 3.828083 3.5872064 -0.8663648 0.07531724 -0.5023776 8.713033 -4.204295 0.9786835 0.98062885 -0.17980932 -1.6933312 8.406093 0.47508454 1.2881583 5.4216065 -6.35222 -2.0222478 1.4671093 7.341113 -0.33425444 0.12919053 -2.2110598 6.1773252 0.61439127 1.2618258 -1.3662881 -3.484553 2.2279098 -6.618066 3.1980882 -3.544004 2.783016 4.1858516 -2.3891046 -6.7312894 -2.3531427 -5.053651 2.3859398 -7.7582874 -0.26299778 -5.005804 0.03697674 4.1871605 -2.6677248 -4.598634 2.9261339 -7.447458 -1.6600462 1.2463019 2.793426 5.8808384 2.7026129 0.60904807
1854.MA-01.02.BOST.txt 1.9850438 1.5665814 4.676486 3.6936996 -2.5134928 -1.1785702 2.3090892 -4.4623837 0.76572603 -1.3830581 0.78897715 -4.6659627 3.2680936 -5.6018305 -1.1882488 0.15563712 -2.3845358 -0.5201342 2.798278 -3.1073506 -4.9189334 -0.9728041 -1.8923134 -2.4182718 -1.517075 -3.1133955 1.5375037 0.90331554 1.1388268 -5.6795273 3.3085284 -1.2477763 7.159361 0.77454543 5.916158 -4.3071966 1.5752034 -3.4477956 -3.7209282 -8.369859 7.981569 8.398398 3.648532 -3.848791 -1.9862949 -3.0233316 -2.553323 -4.606802 -3.4715486 -2.9244397 -0.9336867 3.674745 -0.4426589 -7.818622 3.9106472 -0.060805365 6.1779327 5.398183 -0.86258906 -4.21947 9.740532 2.979376 -1.9376162 3.4846983
1858.NY-09.14.TROY.txt -1.3403547 7.276375 -1.7618691 -7.1782956 1.8986986 -3.9651387 -2.0221667 -3.8962758 -5.2321086 1.3822007 -1.5464809 1.9786593 -4.1959524 6.1514597 -0.7643629 -7.054012 1.7572622 3.7258506 0.87329024 1.4051365 -3.504214 1.579359 5.33711 -7.209946 2.90429 1.7783657 7.173833 -4.149843 -1.6810567 0.7845123 -1.9834795 0.14939505 -10.16368 -1.5488168 6.0222564 -1.0105355 4.3176584 0.018372722 1.7985173 -3.3415368 2.0482576 -1.8001674 -1.5494294 4.6089215 2.4760094 2.707365 -1.4032525 -7.530809 -5.1034503 -0.26107517 -0.48633662 -7.007546 -3.5955827 4.9364376 -3.971656 -0.84378695 0.034148805 6.0136333 -0.9881441 -0.12972865 3.494267 -2.571934 -4.4507813 -3.7185364
1865.MA-12.20.BOST.txt 6.828367 -6.3034844 6.048728 1.9713418 1.6051333 1.1123205 -0.7264415 1.494862 7.325269 3.10702 1.2875999 -8.078265 3.5507247 2.4185562 1.1969973 -4.9610353 -0.7968571 3.624506 -4.216576 1.8160231 -1.287273 -1.458136 1.8166889 6.4080424 0.022366416 -3.745908 -0.01929856 -1.8162147 4.779082 0.8138114 1.7029774 -4.01114 -0.4847651 -2.5563145 2.156646 0.62754005 4.1214695 3.1828115 -4.4911704 -5.594474 11.869757 0.7246748 0.4593293 6.2752395 0.32676643 -2.9332018 -0.34860614 -4.196798 -3.1193604 1.6615217 -6.780958 4.611656 -1.4329039 4.7497654 -1.2483318 -6.609887 5.5270576 4.683679 -1.7961794 -6.3667345 4.459914 4.436257 2.8082283 -5.025402
1851.ON-09.11.TORO.txt 2.1291118 0.3335247 2.5960927 3.4845746 -0.28579527 -1.3701622 9.126494 1.6281046 3.6088636 -0.79422235 -4.9680567 0.21861918 -0.28984505 10.04491 -1.9832677 -2.2017858 -0.12998545 -4.1800327 1.0381846 -1.915664 8.943007 -4.7500176 2.9818316 -5.3490415 -5.7262034 -2.4542565 -1.4955386 -2.208976 1.834132 -5.4158072 4.2948656 2.632216 -0.8875766 3.7268438 1.2360442 2.5535998 -1.7837548 2.506832 7.1031656 0.9932834 2.659485 1.5524994 -7.4317727 3.6335242 1.7705064 2.987394 4.6210713 8.7109585 -1.1484362 1.8649503 -2.0011275 -6.491777 2.9505346 0.5500031 8.903886 3.1870189 -2.0088356 1.3963009 -5.2703896 0.028600287 -1.325964 -2.57749 0.735383 -3.0231595
1866.KS-10.17.LAWR.txt 1.4583304 6.0246925 1.6736342 -4.8584404 -3.3830287 -6.845872 -1.0191078 1.1496066 1.1115932 -3.2735357 1.5220912 5.0075865 -2.1193714 3.4849257 1.3864131 -0.605558 2.753323 1.2150124 3.7786279 -7.2627606 -2.1077397 -2.1931715 -3.231702 6.3501344 2.2812355 5.3607817 1.064158 -7.688681 -3.236342 -3.5977523 -2.4135127 0.88824457 8.024644 -3.6773455 -2.7408295 -1.7477096 5.1518693 4.135418 -1.0057304 7.965065 -3.1926274 3.1231308 5.6845927 0.72676957 2.4473236 -4.8275404 -5.1163983 0.9736087 -0.43735102 -0.24152018 1.9165294 2.2996879 -2.992654 -8.5835285 6.7335687 4.2039065 -2.222757 -0.29584044 -0.67591417 4.6087766 0.64018345 5.5963326 5.0335064 3.5328054
1871.KY-01.01.FRAN.txt -3.941669 0.59233767 -4.9716024 -0.7400545 0.92831135 2.3590686 -8.439765 -6.0281672 0.60954887 4.405704 -1.4377832 4.723878 9.248108 -1.9303584 -2.888223 3.0970101 6.7939963 -4.540777 -1.6452979 -2.0322635 -5.161315 -7.935221 -1.0540799 7.5394816 0.98592883 -0.3621293 3.7210286 1.6786039 -4.4714136 -3.4171593 -2.039988 0.034936078 -5.9567704 -3.1565232 6.7617874 3.5993724 -3.0481114 7.458719 -1.0811372 -0.8487333 2.376384 4.7439904 -1.2826976 1.4707088 -0.35507724 6.205504 0.87282306 -1.370274 -5.927938 0.2756391 -0.4686232 0.2798476 -4.359283 -3.3028505 4.4162183 -1.0909759 0.7604604 2.8970757 -9.480673 0.24901637 -1.7456272 -0.7537143 4.58291 -0.04346861
Frederick Douglass -0.07411704 2.4262285 0.5055192 -1.4448507 -3.4141443 2.7103434 5.6072288 3.0851026 1.4447453 -4.935953 2.218531 2.0098 1.8036366 -0.97008306 -2.3455448 -1.2579694 5.6255608 1.3082765 0.61840355 4.22377 1.8846827 0.13299213 -0.47120678 -0.49086484 2.7604115 -2.3635037 -0.15682471 -2.4766939 0.27107543 0.8633517 -0.5278549 -5.4364867 -2.2224464 0.36748827 -3.3632398 -0.25813147 -3.145106 5.4670415 -4.1882133 8.521388 1.0451149 4.3882346 0.9682138 -0.9935307 -4.659938 3.9086082 1.0705777 -7.073952 3.17318 1.152656 1.3313032 0.4954685 2.7863345 3.7755892 5.562606 -3.8666544 4.770847 -4.431689 0.6428622 0.09738681 -1.6741408 -2.224448 -5.015453 4.5021744
1858.ON-05.08.CHAT.txt -4.038891 -5.580504 1.8034997 -0.112223685 -1.0245582 -1.6726421 -4.5999494 1.7298836 -2.3566895 -2.037004 1.6439297 -0.84279025 -1.2691203 4.5634427 4.1672378 2.5642068 2.0119848 2.8470857 5.6509266 0.89375246 9.100407 -2.3432717 3.956434 4.8411984 -2.8031273 -0.4907901 4.740464 -8.525791 -0.22137827 -5.3216076 3.9228792 -1.8891493 -4.1030555 -3.504461 0.086123876 3.0926793 -6.217899 2.220482 1.8120364 1.9075354 5.9743824 2.5233474 -5.551878 -1.1042817 -4.727076 -0.85334134 -1.7329895 3.8945582 5.7547407 -3.1151528 3.5552459 -5.252191 11.553306 -9.4962635 3.1238039 2.2541623 -4.5612235 -3.0544422 -0.8239299 -2.6785967 -4.283032 1.7173456 -3.7760243 -5.3777003
1895.TX-05.23.HOUS.txt 5.307109 0.935245 3.3258343 -2.513052 -0.85698706 2.2956278 -1.9321854 1.4934402 0.40727478 6.628484 -4.966964 -1.3778981 2.882665 0.84775114 5.5024114 -3.2673469 0.7549831 3.0948415 -2.941816 -2.5829773 1.5249683 -1.0477465 1.5514678 -0.9055267 1.5275878 -3.360585 0.4273184 -3.9041514 -4.4610987 0.029984877 0.98625165 -3.810443 1.8272502 -11.346646 7.7728715 2.5788133 5.5002646 1.615681 0.9294724 -0.19856466 7.5124555 -0.06487565 -3.6388206 4.594879 -6.5765386 8.564129 -6.1079473 2.3338983 5.2491927 4.6874366 -5.686643 0.33288732 -0.2422053 -10.093571 4.815819 7.136995 -1.3102987 7.584512 -0.7325262 -3.8658218 -5.032562 -5.7099237 3.1505656 -0.8544889
1865.NJ-07.13.TREN.txt -0.2214424 -1.008271 1.0599892 10.563982 2.0792618 1.309528 -2.911131 -4.9202952 2.0875206 2.5041943 0.6745518 -2.0079143 5.113138 4.357534 0.08161773 5.8173375 6.9614673 -7.338784 8.48999 -1.9017837 9.045633 3.3846557 -2.6850204 -3.1852376 4.703931 -9.3533945 -10.737021 -2.1834407 -4.2272415 2.2589724 -0.70741034 -0.2825075 3.9753425 -1.2564378 -1.8661832 6.659416 4.326161 -4.1908464 5.3092484 -7.5889244 -8.32466 3.351544 2.3754199 -1.7799145 3.6889176 -0.9553094 0.35464132 -0.21666606 -2.8000433 3.6830513 1.4862213 0.1350165 3.797898 3.173485 2.7656553 2.8583758 -0.07265813 -3.052402 3.7000425 1.7266862 4.4659505 1.9120232 -2.8608367 4.1066003
Johnson -0.8569921 -1.2096136 -0.086885475 0.7715718 0.71960336 -1.3990766 1.2740892 -1.3359548 0.6968747 4.034927 -2.5344508 0.8856454 3.1307003 0.25827402 0.7669495 -5.785064 -7.107971 0.07306472 -0.92227376 2.9197361 1.3342748 3.5438302 -3.4076405 0.77841014 -1.6029298 0.76928085 0.90630096 3.314572 -0.17540671 0.76454633 -4.869371 -1.5769176 0.7599763 0.73248935 -1.4204259 2.9426398 -2.249025 -5.504406 -0.99439913 -0.91188437 1.2765532 4.352073 -3.8067603 0.054026626 -1.3250886 2.7019367 1.2701842 0.7287824 3.9588509 -3.03045 2.1316996 -1.3298846 -1.4093626 -0.5778401 4.0868382 -2.6835759 1.7188903 -2.1185212 4.577474 5.5500555 -1.9819576 1.7561419 1.759646 -0.24089497
1850.NY-08.21.CAZE.txt -2.779881 -1.3699913 0.4068336 -3.921856 1.979541 -2.7737677 5.4738994 7.178456 -3.398265 1.3493758 -6.862951 5.4997263 7.3676805 -2.732453 5.6244783 -3.9295995 0.66476625 -1.3406817 5.0165586 -2.891984 3.1484938 -0.3155916 2.9043512 -1.0210087 -2.6544924 2.8308802 -0.81295806 -1.1610272 -2.3539264 1.8972262 2.7984834 5.8514247 -8.526605 -10.939939 6.559287 1.2421148 -6.836825 -4.2554874 1.8288219 -0.98790795 5.4082093 -1.4734075 5.579096 2.695085 -1.0806441 -0.0472676 -3.0823917 5.728719 3.3368356 -3.4051557 -3.7063391 -0.90009296 4.7269855 3.2627964 2.9394934 7.785798 2.8011594 5.967696 5.5693116 -4.1839895 4.901045 -7.389336 0.83013767 -2.1757267
Douglass -1.9822228 2.5759196 -2.3438222 1.9029303 0.04076587 0.5847761 1.9756399 -1.3599695 3.716446 -5.483005 4.6572456 0.61900645 2.4153101 2.1580129 -0.57290864 -2.0727284 0.09095184 -3.2189593 -1.9657105 2.428689 1.5143791 -1.1497674 2.9388301 2.131915 0.736572 -1.8115114 4.923201 -2.7549286 -0.2982064 -3.065946 1.118717 -1.0295796 -0.98971236 -1.033377 -0.62355065 -0.93481255 -1.1048435 -1.7998382 -0.42393517 5.6451044 -2.919268 2.0925393 0.66535413 -2.128754 -5.079566 6.079616 -1.608817 -4.3121543 3.4327211 0.6378707 0.62088436 -1.2904655 -0.8043361 0.5260014 -1.0019406 0.4147155 5.140438 -3.0408459 3.3481135 -1.4225596 1.0775006 -1.0808091 -1.0943084 0.9241643
1865.NC-11.29.RALE.txt -0.62612534 1.7596747 3.1451275 -2.687225 -0.6212779 3.8492188 5.12371 0.43828744 2.7671304 -4.0328774 -3.2301054 3.9248438 -1.5008935 -4.8176475 0.12875998 -5.122404 -3.9784715 0.7606724 1.901757 0.73419243 1.6230112 2.645996 -10.451606 -0.4838868 -5.897301 4.1651497 -0.26880607 -3.4307697 -1.9611651 6.426852 -0.8772942 3.2132962 -1.5297543 2.3840938 5.631652 2.2323081 -4.8007054 -3.2185938 -1.1566248 3.6213374 -3.203302 6.329774 -2.8602886 -0.74693733 1.2530648 2.7022293 2.7538617 6.740554 -4.92696 6.9405203 1.1868551 -0.18918133 4.9007487 -3.8394022 -6.1532393 2.2996507 -3.4517002 0.29983595 1.4435724 -1.42939 0.5726792 -0.9137491 7.2663383 3.189826
Jackson 4.8722596 4.5146694 0.19750799 0.48791727 4.9255443 5.672112 -0.7958255 -0.989883 -6.248793 3.3630974 -3.7571201 -0.18406977 2.0427473 3.4033525 -0.06045989 0.6269645 -0.3250006 -1.9589249 0.94356453 2.4503484 2.4748945 -1.2977419 -4.7548895 0.43213052 -1.73035 2.13531 3.1013806 -0.15157475 1.782829 5.9234037 -0.022349134 1.6428133 3.7631989 1.3061458 0.13676734 -7.566324 -2.0999382 2.3630245 4.9325666 -0.98102635 -1.3800371 -1.9111797 1.1951318 -2.4254103 -5.279196 -3.0770905 0.05089981 -1.3066251 0.3105948 1.03547 0.811019 0.66057247 -2.3379145 -2.649869 4.689246 0.25119925 1.0458975 2.5143342 -2.655553 -0.5847787 0.24004099 2.531872 -0.109125234 1.3225328
1851.OH-01.15.COLU-b.txt -2.2874684 0.14480187 -3.3530161 -0.6528119 -1.472453 -2.4354796 -2.6078496 4.812582 -3.6397212 -12.090657 1.1936113 2.1603162 -0.85782266 3.1401327 -1.9132446 2.9896028 -4.6584353 0.621927 -0.8966982 -5.484937 2.2219307 -3.1428218 -3.2322187 -0.09766053 -1.8639271 -5.0092983 -1.4753951 1.8773206 8.286115 2.1306527 -5.254834 3.179952 -1.294769 -6.4251933 -8.321906 -0.5065366 2.2819445 -2.8545911 2.7950647 -0.525616 -0.44386628 -0.5533411 -0.5170278 -3.537814 0.38155994 5.0419207 -5.196068 -1.9716407 -3.8895047 6.226685 5.6419864 0.83665776 -6.0326085 1.464321 5.2478557 0.120406635 3.351568 3.2452457 0.97285867 -0.984677 -4.208656 2.6289048 3.123066 2.1253538
Harris -3.6757078 -4.9639897 0.019564671 -0.31620932 -0.2597497 -2.2508166 0.760871 7.7798295 -5.139235 -5.345443 -3.3399696 -3.2349207 -0.38251987 -1.9825013 -3.2050173 0.7313042 1.6220254 2.7253656 0.10558216 -1.1165015 -4.992548 -3.2892652 -1.3539164 -0.021459585 1.7624121 -0.030555084 -0.8099755 -8.483082 0.7969669 1.830927 0.7251246 -2.6399093 3.4869277 7.969335 -0.66422945 3.5297115 -0.8316124 2.1175873 -2.9753826 -4.772908 0.99315494 3.2587187 1.8376856 -2.8426995 -6.1746125 8.098671 1.415636 1.0367645 1.6447946 4.836454 3.445201 0.52036345 2.8848774 8.100227 -0.6155208 -5.0566173 0.57164085 -1.415837 -2.9666555 2.3804054 -3.5531323 -2.3838172 -1.8409681 3.6560473
1863.NY-07.16.POUG.txt 2.554226 -4.1603503 2.5641274 2.1126873 5.338248 0.29561353 -0.85362387 2.466632 5.7680373 -4.2248693 -5.999474 -3.927522 -5.1424456 -3.7510252 0.5866177 8.392074 -4.4525437 6.879938 2.7338264 -1.2904716 4.563655 3.8958914 2.732424 6.55219 -6.4219384 3.143991 -3.7427077 0.37523422 0.26678646 2.1946473 -5.505617 -1.6713539 -7.4072933 -6.766469 7.0494957 6.800126 -0.661839 -0.34144714 -2.6493382 0.6294801 -7.2770987 2.8650908 7.504277 0.62516963 0.3017589 3.080388 0.9309407 -5.34603 1.40512 -6.370219 3.7037556 6.2553334 7.002198 8.0028515 -2.2814016 7.7025046 -2.9324312 -8.16191 3.161517 -4.5603623 1.6033763 0.042588215 1.0048875 -3.8908553
1867.DC-01.28.WASH.txt -0.6904995 -4.813325 1.1665114 -3.5732784 4.3935256 1.1110896 5.8617854 -0.9106646 -1.6526229 -3.202203 1.579839 -3.1214468 8.280508 4.4054027 2.5948663 -2.5060096 -4.8998837 5.1357293 10.131137 -2.2399094 0.08492747 -8.899687 -3.0948627 2.0600188 4.413587 -2.765004 2.3141932 -6.2122245 -5.850463 7.1990986 -1.9406239 2.7770357 -3.877875 2.3730106 4.9078493 -3.9679399 1.506056 -5.4514046 -7.76733 4.5905013 4.506873 -1.3342403 0.33914587 -5.593515 -0.92988145 -0.0031253928 -5.745161 0.5668724 -6.8565764 -3.2872138 -2.4117186 1.954109 2.2800245 1.5373048 -5.196755 5.8725953 2.3238306 -5.5900016 3.7125816 -1.2095013 -0.14527096 8.212925 -2.6513371 0.45558718
Smith -0.54351413 3.9069026 -1.3685657 -4.7416544 1.4160182 0.31435853 0.3060834 1.6843122 -0.6585065 3.567599 -2.5059702 1.5308571 -5.494667 -3.480254 -4.8968525 5.463211 2.209199 1.9779989 2.0040398 3.7389038 4.04701 0.79840034 0.35455227 -0.1544399 -0.20448351 -0.8012347 0.10899218 -0.21424052 1.8752348 3.6267345 -4.145224 -1.330137 2.7039726 3.7972126 -0.4765314 1.08841 -0.6977589 -0.12570861 -3.8021917 -1.7312589 4.22544 3.3406386 -4.44477 -2.9289842 2.3595257 -3.4727523 -3.0162606 -1.3152121 -0.9232807 -0.35288623 1.0848149 -3.5800595 0.22598164 3.3762562 6.4026318 -2.866385 1.1515524 -2.0738287 -1.2159286 -2.6539922 -0.29815683 -3.4983377 0.060134962 3.333069
1867.DC-01.10.WASH.txt -2.4003887 -0.31737268 6.372607 -2.0640764 3.9570837 4.270722 0.77558124 2.5585315 3.592096 7.641578 6.30054 -0.7840012 -4.923106 4.9792457 -0.30399856 -3.4873385 -4.4623227 1.7676009 -1.5838847 2.0557911 -2.588258 2.8475316 2.371843 6.645821 -4.9050593 -2.8716493 -0.04277309 -14.577145 -5.5367956 8.832816 1.6215233 4.7308483 -4.3426547 2.977126 -4.371908 -2.5867198 4.229798 0.5775077 -8.841632 5.7864413 4.4561205 2.8382509 -4.568256 -1.2036377 2.3521054 2.6621902 6.6977057 -2.0355024 -6.2577505 2.5540464 -1.4769077 2.325127 -2.9819632 -0.086213864 -6.9850802 0.3093637 -2.721989 -2.1704438 2.830655 0.2279513 -5.922595 4.6776514 8.1925335 -0.7235805
1852.MD-07.27.BALT.txt 7.657941 2.8975532 3.9067185 -5.4381714 6.28296 -0.18803604 5.915989 -4.7174606 2.6886528 -5.447146 -3.2001321 5.9940014 3.5468895 -6.8863907 1.343915 -2.1333516 1.0828956 -7.7765465 7.5761514 -6.2630477 0.15609641 2.7476554 0.10331117 1.3809125 -11.438714 -1.692648 0.0015203514 -7.7747483 6.5371904 4.611836 -2.6776075 0.7276317 -4.4122267 -5.3649216 -0.60491645 1.5171458 5.5801897 -3.4881282 0.46130016 -6.232892 -0.5035951 -3.4216692 -2.179801 10.292995 3.0658212 1.2350334 -1.5910085 -3.6116626 3.9549983 0.7046244 -1.6289212 -5.0449967 2.3528047 -3.2003903 -2.6878378 -3.284874 -0.73428005 4.713715 2.2918913 -3.9749079 -2.2250588 -2.874376 2.5710373 -6.888265
1844.NY-09.18.SCHE-Report.txt -0.20704488 -2.4322748 -5.0485287 -4.64319 -2.2065682 3.4363363 1.7470638 -4.9646792 -6.5451145 -3.4062965 -0.4270309 -5.805208 -5.124702 -2.4051526 -1.0939559 -6.3521132 -3.8524282 -2.908035 -3.739221 -2.1249347 0.27015242 -0.16501363 -1.6979487 7.1822042 3.0395036 2.542615 6.57861 2.473467 -7.0068216 -2.1880488 -5.540336 -5.5891843 1.7964242 -3.0315368 6.3185706 6.2348146 5.418531 3.2344737 3.279177 -0.59455556 -2.5090756 0.86871177 -2.8175077 2.489186 6.147721 -4.025356 5.5345926 -5.1601086 -9.063113 6.1207213 3.2070186 -4.02154 3.1446013 4.986699 -1.21182 3.7248197 0.034788653 -1.1217692 -5.1003666 -4.729081 3.6941066 -6.069701 -3.2854292 -2.04652
Chas 0.7746672 3.554608 -0.43190727 0.4995348 3.7877667 -2.2114305 3.586421 7.302241 -3.741968 2.0863047 2.350361 2.969843 -1.7062503 -2.4256675 0.14354889 -3.707557 0.51506764 3.3797257 -0.94237065 -2.742454 0.16957061 -5.3085055 2.1580992 2.843686 4.162924 -6.7326665 3.186495 1.6937313 2.7712607 1.2873968 1.4414989 -0.25582677 4.8925276 4.2050366 -2.3823164 -2.682949 -3.1053948 2.9522047 -0.9675739 -1.10195 -0.96710026 1.0532299 2.3775113 -0.26785272 -0.59176177 3.639468 5.9071174 -2.887254 -2.1599174 -0.9516149 -1.8292508 -0.8683269 3.5905657 -1.9232553 2.5021935 -3.7048898 -3.5259883 -2.212317 -2.8697782 -2.7026868 2.1679623 0.8607477 -3.34248 4.2211547
1863.KS-10.13.LEAV.txt 0.7016725 2.3022718 -0.5769091 4.6645837 4.0417523 -5.523798 -3.002743 -2.9143019 0.85367966 2.0113077 -5.540038 -2.4862804 4.9280233 3.200264 6.452451 0.33224833 0.55064493 -1.169099 2.6548643 0.81813955 -0.21061355 1.2017647 6.362377 -4.1642575 9.712811 1.2020494 -2.681829 -2.36635 -3.3580518 -2.798719 1.8483034 -4.019487 0.42735785 4.8935933 -1.1787283 -2.6512256 7.478292 8.113162 3.5184553 -2.245175 -2.345379 7.225495 3.477407 3.504757 -1.9972593 0.416581 2.3119392 -1.589342 -0.2704242 -3.5199533 7.334649 -1.2016298 -4.1777377 -1.0777562 1.3406074 9.355843 2.6286452 0.046438508 5.041739 -1.07991 6.95775 -0.38160512 -0.59009224 4.1600394
1857.IA-01.05.MUSC.txt 6.631635 -2.4800465 -0.764153 -3.482949 -2.5921407 -2.9864333 2.6576033 -5.635109 10.61216 0.19373184 -2.827706 -5.8975024 3.7998712 4.3686085 0.054238643 1.3189561 -4.8089685 3.6193144 -3.248007 2.8625472 -0.10467483 -2.7077255 2.2638056 -4.3849163 1.6438361 -2.9882238 -4.591557 2.0150707 6.470671 4.668534 -4.1574545 -2.6969583 1.2324615 6.1698914 4.5665545 -5.2575502 1.5709531 -4.963679 3.9482553 -4.0371146 -1.8523282 -3.2199624 -1.0538698 1.954056 -3.9096255 3.0518258 -0.27475977 -2.8155642 -0.40880376 -3.800029 -1.8376833 7.428857 1.5273362 -0.70427364 1.7138064 -2.3397832 -2.642489 -0.61954606 4.015285 -7.6872473 -2.2587621 -5.6633825 -5.472901 4.6410365
1855.NY-01.20.ALBA.txt 5.9721403 5.447773 1.1036391 -1.4248872 8.1488285 2.9872444 -0.043022953 3.4052536 5.601385 1.3367496 4.4367776 -5.645668 -0.07616055 -8.431214 -0.59662604 1.3317505 -3.8338406 5.030817 0.70532393 1.8350936 6.675305 2.6033854 -1.5820651 -0.035310216 -1.6418736 -0.515579 3.1704412 -4.95533 -6.5932517 -4.678171 -8.836311 2.360068 -0.9380656 -1.4792434 3.5661077 1.6087244 2.8775983 2.6826262 -0.15495706 -1.8115755 -2.0807738 -3.6289835 0.87666047 2.7613869 4.7483892 5.4291034 4.6470623 -0.60618174 -5.1267576 -1.6685873 -4.1463985 3.993534 -10.023304 -0.29772317 3.4397876 -1.1483158 8.789941 2.823414 -2.3263001 1.1450217 8.59436 -5.4378495 1.5114115 -1.4126663
1854.CT-09.27.MIDD.txt 6.088723 5.497237 -2.383809 2.053333 1.3153172 4.0196986 0.595166 -2.9217694 0.33414677 -4.9629836 -7.1538386 -2.608992 2.7051482 -4.338256 -6.158498 -3.7233288 -1.2218815 -0.26152495 -2.4046867 -5.6200275 0.9210616 -1.1237572 -0.072108746 1.6810899 -2.7576785 0.7638494 -6.6734996 0.11942588 -4.0549974 -0.1562594 -1.1961488 -2.3859184 3.7391937 -7.376445 -5.2893605 -2.5527081 -6.126039 -0.94903505 -8.860897 -7.9068303 9.030329 -1.1709194 6.149204 6.690772 2.3745472 -1.3414913 -1.5142756 3.8859835 0.24161737 -1.6101917 -0.048309807 -2.3683605 -6.147466 -1.1491996 -6.146991 0.89978194 -2.5994036 3.576477 6.7718987 -0.57594234 -1.6334943 -8.3470335 -3.2703965 -1.2186376
1868.IA-02.12.DESM.txt 2.3636687 3.1700847 -2.848514 -2.5837595 -1.8812766 -3.6815996 6.6526732 -5.1561623 3.8535447 -2.482701 1.1918103 -1.0599208 -0.70961046 2.854355 -5.410356 2.8908267 -7.1584644 6.24445 -0.734361 -2.1261547 -2.759601 -0.75383 1.5789268 0.052275397 1.8639851 -1.3519077 -4.9638267 -2.8455555 0.6183829 7.165489 -4.8829527 1.1334774 -2.3639622 6.7582197 7.478797 -3.0897553 -1.0049583 -2.8545456 2.5137508 0.61930746 -0.99945605 3.7903826 -3.8408494 3.5093107 -1.17932 -0.8391981 2.5803232 -1.6726382 -0.5732238 -0.9985379 1.0021552 10.043566 1.7945427 -6.070439 1.4016858 -1.4788743 -5.178376 -5.6360545 8.786954 -2.7911468 -1.7165012 -6.744074 4.2397747 6.2645903
Brown 0.5048276 0.80690587 -2.8565686 1.5465698 -2.7397609 1.3884568 -4.1604166 4.373162 3.2339566 0.17093536 -0.094970845 -0.8031165 -4.5245905 3.2557874 2.8492146 -1.6394598 -3.7355943 -4.498424 3.1144118 1.4391096 0.37995273 -4.3426785 3.6173918 0.61463416 5.076417 4.6859026 1.3183669 0.19818196 5.260308 1.5216379 -1.4794738 0.5304007 6.2011347 -0.6116306 0.00786962 0.4077561 2.1659017 -3.8835814 -0.21154667 -2.7147129 -0.4950933 -4.9617934 5.3634186 -1.9490185 -3.7798643 3.7355244 -0.39764008 -2.05097 -1.1760324 0.87117034 4.037924 1.1692868 -0.5953817 -0.23622856 -1.9331748 0.79965955 -1.0187438 2.233516 -1.6257943 3.1906412 1.1328872 -3.7741241 -1.2056932 -4.661324
Sumner -4.45514 -2.575996 5.4411783 4.4446144 0.8944008 0.6397714 -0.09309636 3.5746098 -4.523815 1.261519 -11.882092 1.1195531 0.92276865 0.35170558 -3.0180748 -6.8977833 1.2277545 3.6207445 -0.7618945 -5.6535296 -0.65152127 5.995152 -1.98388 -2.4946218 -0.68413144 -2.23123 2.1620884 -1.5980273 0.63910484 -0.4667314 -0.92167 -0.36035576 3.3838649 1.0587401 0.21372172 -2.737384 1.3392981 -2.9661155 0.5150743 2.0590541 -1.5276723 1.5359948 -1.2112677 -0.083964214 -0.14555123 3.827214 5.596937 2.0871167 1.1110052 3.133813 0.72013336 3.6920497 1.7420156 0.6053492 2.151359 -9.238495 2.8394544 1.9890438 1.370945 1.6828618 -5.427616 4.368539 -3.266455 2.483916
1845.NY-09.08.GENE.txt -4.4000707 -5.761736 1.0677109 -3.3338861 0.46326798 -3.6388073 -6.600294 2.4158924 11.548957 -2.9992776 0.31255051 1.0502714 2.0845609 7.0768127 3.5302 5.1723633 -6.335248 6.9034514 -1.6434875 -1.0968491 2.0860226 -8.15968 2.0064504 2.831711 -2.1144238 -2.1230283 -0.6422763 -1.7333035 5.3460884 -9.138852 -6.758106 -9.205399 -6.7532268 -3.1359596 0.801249 -1.3443882 -2.036928 7.0375414 -2.806895 -4.3053956 -4.0013103 0.6884794 -4.621328 0.5314201 3.232545 -8.537111 -2.3862684 1.5930194 -1.9147379 3.822039 0.36564693 6.5743284 -5.6083207 -2.7991261 0.04241631 -4.9502196 -8.5493555 -7.514817 -0.080344 1.7726413 -2.0541658 0.3002634 0.66505575 4.2295604
Lewis -1.517053 2.503623 -3.6465254 0.3284416 0.66056526 -1.8836681 -1.1383733 0.9459784 -2.3807843 -3.2483969 0.19651665 -1.0999533 3.8272693 -2.162759 -2.465194 0.36577606 -3.6056817 -2.874256 0.968041 -1.065229 -3.8816452 -0.051474467 2.4367356 -4.7751765 -0.17817357 1.0659437 0.9342659 -0.95948094 2.052121 -1.8748988 1.9729779 -2.665128 2.0440123 -0.26389188 -0.16631539 1.3256613 3.4867601 -0.41296142 1.606067 2.1316698 -4.9333963 -2.8246353 -5.5582776 0.26810992 -2.6870108 -1.5454115 2.2328043 -2.952185 -0.020525955 -5.4563904 -4.2061915 2.7552977 2.9117255 -0.14068495 -1.420245 3.1571078 -2.3441603 2.6030579 -1.5451137 -1.1735454 -0.41132963 0.73650175 9.125157 -3.2287118
Clark 0.9222304 -0.014787884 3.6739213 0.83849704 3.7584534 2.5845544 -1.4430186 1.8405904 -5.806795 4.4592676 -3.9076333 1.4604899 -2.7652538 7.587729 0.65935796 7.574562 -1.0281442 -3.5815897 0.9378862 7.042452 -6.043758 1.7908372 -2.5467894 0.20785196 -0.4119724 -0.8044437 0.18540806 -0.8480141 2.528446 -0.17850663 -4.9387197 7.2582536 -0.00027410605 -0.14379859 1.6230239 -5.0102034 2.472511 0.22551645 -1.4459147 -2.5532584 0.6851874 -3.926127 0.9636218 -1.4024612 0.49990976 5.0454607 -1.7900543 -0.7893221 8.237942 3.5895226 5.253915 -0.32568085 1.3669435 -3.4823377 -4.0869436 0.13417338 6.244055 1.5469823 -2.9803176 -2.521405 3.88062 2.210198 0.21167602 2.7358296
Charles B. Ray 0.3060405 1.0348077 -1.2125187 1.4570414 -4.181707 -1.2058947 -1.1335534 0.1986836 2.0873048 -1.7071111 2.2058663 3.7100606 -0.17592345 -4.058466 -2.174943 -1.1163232 7.2068853 5.197787 -1.7576846 -1.6069572 -1.705957 3.8322961 3.4049032 1.2937793 -0.919252 -5.309194 1.1086698 -3.0183764 -0.7044341 1.2832301 -1.2986511 -4.2959304 -0.6183492 0.40953746 2.8238358 -1.369443 -1.9200346 -2.1883554 -1.0752202 4.8220954 0.80981445 1.6338681 -3.4307392 -4.9614744 1.7207551 -2.9976766 0.70874125 -3.4289067 -0.27053103 2.9275813 -1.3816332 -4.3688874 -1.1307232 3.481449 1.321756 0.083645985 1.5266193 -5.7743106 -1.910228 -1.2022699 2.1251001 -4.616114 -2.617605 -1.154658
1879.TX-07.02.HOUS.txt 2.4255095 3.8155403 6.4044933 -2.554868 -2.9335728 5.4498982 -4.7921686 -4.739841 12.199725 -2.5767546 -7.036951 6.7847347 6.571518 -6.4353685 1.4070474 0.6587132 -2.9651327 -8.959049 -0.37494096 4.2403345 -1.3146861 -2.8885205 0.9826295 -5.795692 -0.99628705 0.56256276 0.8714374 3.057889 -2.6083024 2.9106982 -2.5068645 -4.6014633 1.894472 0.02545284 4.9220843 4.6205535 4.0320096 0.19189273 1.5027572 1.0147569 -1.4725512 -8.629392 4.809546 6.2099223 -3.408187 -0.013821302 2.2236357 2.57607 2.5009918 5.0665994 -5.6891146 -6.462745 0.172698 -2.042382 -1.3168614 0.69293094 -3.172263 -2.0227082 0.7343913 -5.290205 -3.9083438 -7.405431 1.3844699 4.4503345
Anderson 0.6606769 5.9610553 0.076158024 3.6286757 5.656173 -0.5818692 -4.183506 1.3551844 -3.417752 0.7463332 -4.5163517 0.06420833 0.7261693 -0.8849856 -0.28325146 2.3115518 -4.3035398 -3.372152 6.920218 8.106913 -4.7331467 -3.2159991 -0.75764114 -4.0076265 -2.2054358 3.1240723 0.6863394 -1.104481 5.5332446 4.935858 -5.17076 -3.2740178 0.9256376 1.9935098 0.61438745 -4.170767 5.907193 4.5222793 -6.008052 -2.5846698 4.297807 0.48757046 -7.632447 -3.1816278 -1.2495997 -0.19763197 -0.5880166 1.4519367 3.3784912 -8.605876 3.3440673 2.0807517 7.1204104 3.74554 1.2835621 2.334173 -1.2432764 3.1971025 -2.296024 2.5358672 1.8396338 -2.6152806 5.35777 6.210936
Jenkins -4.335873 1.6953039 -2.064759 0.07101856 2.8008978 -1.2988111 -3.260418 -1.5709625 0.18174449 -4.322845 0.9771957 1.8715086 0.2789437 0.5192613 -0.56287813 -1.5158708 -4.81082 -3.591895 -3.8699105 2.01309 0.89085114 -1.212274 1.4529591 -0.8516623 -1.8385864 0.25482884 0.8877435 -3.4113665 3.5790617 -3.2175353 -1.5547229 4.6622434 2.3525646 2.1229866 1.6381568 -1.9191865 4.5804877 -0.40234452 -1.1451534 1.9435127 -3.2359838 -1.5516735 -1.8898187 -1.5409034 -4.0784225 0.13213487 -1.4105719 -2.492067 2.5798426 -3.9878838 -0.26137054 0.4252016 1.3851845 -0.27429408 -2.3120458 6.343096 3.8334434 -0.69529706 -2.2812932 3.1681366 0.7015746 -5.386432 2.029048 -2.8074164
1851.IN-08.01.INDI.2.txt -3.477845 -2.5500808 -3.8860786 1.4885336 -1.9444444 -1.0201406 2.6111054 -0.8879627 5.268793 5.8243685 1.8825176 -1.8417379 -0.88853043 5.058817 0.22195554 3.9630115 5.0787435 2.8953433 1.3974515 -4.172111 7.063246 -2.699675 -0.043520324 2.0980835 -0.81995916 3.3150265 -0.19722153 -2.0763464 -1.4740642 -2.6478167 -6.862847 -5.3507347 -2.01861 6.688325 3.080036 -7.711601 -2.574798 0.5103528 4.6111813 0.7548289 2.2336545 2.825336 -1.2224896 5.7967086 -0.35237294 8.309127 0.0011237268 4.0206127 5.183512 -1.6683812 -1.1289178 5.6050267 0.38936573 -5.3354917 -4.951613 -0.19033839 -3.3740263 0.42739272 -5.276826 -2.7506053 -3.072426 -4.0548716 3.9235427 -1.8383533
Langston -6.148279 -1.7225693 -3.0623267 0.67428106 -2.0352156 3.3090398 1.1103109 -1.3738074 0.2509226 -3.1032429 0.1184851 -2.4931798 3.6028528 -0.11133396 -4.0136485 0.59613085 -1.5208895 -1.9804904 -1.7287377 -3.8278482 0.58258057 -6.3507824 3.2015996 -0.31504688 2.3905134 2.0510592 -3.7706268 -5.1735706 0.8426135 0.30161625 0.32771003 4.67342 2.6244574 2.4643922 2.7884307 -1.2937237 2.072598 1.6409396 1.1244692 3.2352097 -2.1845446 -4.509571 4.7811346 -3.430857 0.6265135 6.0499206 -1.7239286 -0.2798806 4.5107374 2.9734485 2.5958846 3.894675 2.5660787 0.7634214 -0.23579079 -1.185902 2.5541766 6.8835793 -0.66130126 -2.0464497 0.8555716 2.0721376 -2.9154215 -1.642128
John Peck -0.9774428 -4.1811852 -0.80905086 -2.3302433 -5.1528616 -0.1530136 0.28991112 1.0647374 2.4191108 -1.5359306 4.7731776 -3.638975 3.2645135 -1.2236376 -0.09782788 1.2553875 -0.86683565 -4.431897 1.6719148 0.57122666 1.5777596 1.5008109 -0.8112836 0.9354001 2.247297 -0.87092334 3.147282 1.5662098 -0.366239 -0.056286536 4.5667686 4.0398884 -0.8691679 3.0891087 -1.9528996 0.42477074 2.5706806 -1.3239757 0.07543715 0.01901149 -3.9772544 -2.3133857 0.78357095 -0.6642666 1.1433382 -4.10492 0.7075321 1.9251472 0.74338293 -2.2600112 -1.6956146 1.7166225 0.38643706 0.6950647 -2.325212 -0.7581819 -2.4299922 4.1521525 -0.2275823 1.5631207 -1.6644837 -0.7593111 -0.40945014 -2.4170377
C. B. Ray -0.34746847 -1.0230867 -1.1565707 0.30089152 -1.7424499 1.4107894 4.77128 0.9300551 -3.3133538 4.3526773 0.7795207 1.6502787 2.844418 1.5250988 2.6033149 -3.336545 2.7328463 7.5103893 -5.880706 -4.988495 -2.6728706 2.489883 3.3993695 -1.2484387 -1.7455932 -4.0940723 0.46873337 0.47188565 3.68028 1.0664549 -1.4320755 -2.6830277 1.9139163 -0.17568892 0.57954985 -3.3004246 -1.9457276 -2.8957684 3.2026603 0.22192036 -0.7412956 2.057038 -1.484584 -0.83796877 2.9959755 -2.2069232 0.3518639 -0.16881812 -0.86649233 -0.9733743 1.647496 -1.2194103 0.104804255 -2.0141335 3.246995 -1.9821113 1.7194905 -1.7592582 0.33511725 5.502824 3.4919376 1.018234 0.044141 -3.1390846
Wilson -0.14153428 7.518433 2.1643631 -2.320434 0.15988533 -1.3874573 0.3035864 1.58616 -1.2418255 1.5718135 0.7604453 0.8336109 -2.0831842 -6.062943 -1.5691577 6.2222967 5.1367674 1.3373165 2.3388693 1.1435229 2.3847117 -0.7527484 -0.45765504 3.0792732 -1.3185178 -0.41772604 1.2504854 -1.1956967 1.9357022 0.29126242 -0.48585823 -3.3300493 4.4291954 7.1474867 1.5542843 0.5062703 -1.5077477 1.7537789 -0.91890705 -1.0232818 3.429238 -1.1211809 -5.615752 -1.8175929 -1.4163219 -4.272215 -1.6962914 -2.275706 -3.5463922 1.7773979 -0.93218833 1.8074491 1.6619861 7.989866 4.9242377 -0.60697377 -4.23281 0.7769621 0.6099437 -1.8872298 -0.9991924 -1.7156248 -1.3851434 0.9056905
Williams 0.76153016 -6.425711 -3.1334147 -6.524097 -2.624213 -1.2178742 -1.0202885 0.055805642 -0.95008063 2.0828638 2.7710655 2.7217321 -1.4329718 -4.3020597 -3.344866 0.13992861 -1.4142286 1.6800617 3.242876 0.58386844 1.6302931 -0.60194767 1.7703402 -5.066953 6.1221967 -4.3170075 -3.8257742 0.21725367 -0.023605982 -5.615961 -0.540431 1.7803152 -0.49078283 3.1788902 -7.679466 -1.5797731 -3.931776 5.015843 -2.2704682 0.82238495 -4.3084817 4.297697 4.508168 1.5695739 -0.11627446 0.6694787 -0.36967415 -2.1424215 0.1823574 0.081099726 -2.4556255 -0.72376126 4.037781 1.6336681 -2.8174157 0.9504674 -1.1903381 3.8976138 -0.7318218 -2.5771234 1.670439 0.3990872 2.719585 2.1642716
Gerrit Smith -2.3517737 4.820552 -5.2766666 -7.441353 -1.4975375 -0.035119154 -1.6032665 1.7667189 1.5570562 -1.132238 0.014149091 0.16718799 -2.9050584 -1.9509364 -0.6962669 3.9862697 -0.19859792 1.9904327 1.6647573 -0.15547702 -0.78819907 -2.6773407 6.1206207 1.3765634 -2.0015485 -4.490329 -2.1484096 -2.5342786 0.6440306 -1.1342531 -2.9818404 -0.9304919 2.9703631 1.9508461 -1.7401967 -0.029548977 -3.2333586 1.3267496 -0.26832354 2.2418349 3.934527 2.2965279 2.9053621 -2.9438248 -0.2142951 2.4933474 2.4109197 -4.540374 4.124611 6.626416 -1.9996183 -0.65644187 0.9624528 2.0232127 -0.58041626 0.53673375 4.5226035 -3.5242672 -2.9884145 2.2082617 3.261235 -1.2038455 -3.4694026 1.6274434
William Rich 1.1137257 2.540173 1.3014294 -0.9175158 -1.9744214 0.18354182 1.9416416 -0.69593275 -0.23072238 1.7472651 -0.42220923 3.9071689 -2.113901 -1.7182739 2.4007127 0.26471835 1.3674303 3.3476534 -0.9052079 -4.453818 2.6756995 4.4991937 -1.3809549 0.6341849 4.2682085 -4.341603 -0.84220535 -1.9463632 0.6288375 1.0335954 1.652312 -0.83966863 1.9536414 -1.3613728 5.9756126 -2.879747 -2.1020274 -0.4528163 4.344031 0.5144507 0.560653 -1.0806017 -4.452274 -4.0361943 2.8681781 -5.7379117 1.4012697 -0.3609715 -2.2095869 -4.0273395 3.4087126 -2.6375337 -3.86748 1.3161391 -0.1821211 -3.071022 0.79116815 1.0485386 -2.2192154 1.2415578 0.33236575 -0.7291404 2.8013167 1.3855945
Horace Greeley -0.04838709 -1.8398592 -2.4116492 -1.9951866 2.5410252 -2.487404 -6.017801 -0.6825671 2.360627 -3.3483126 -1.9331305 -2.1654263 1.5437378 -3.5928452 -1.9462028 -3.7102995 -2.7680407 4.680071 -1.0139674 -3.1128912 -5.9753475 -0.13434929 -0.53554595 -0.8340284 -4.088344 -1.8285512 -1.8507028 -4.0599413 -1.0377913 -0.83812886 -1.2746154 -2.9634197 -1.4022355 -2.3110583 -2.4558117 3.6432924 -4.2676697 -4.778784 2.8704839 0.8769051 1.2248149 4.7581906 -0.43566442 0.7943247 -2.8153462 8.9950285 6.508574 3.1502423 1.8042315 0.8796081 -1.7105983 -0.39607513 1.4619157 2.710775 -0.40129802 -1.1888201 3.2907898 0.15504366 0.6070631 3.8224788 -1.9300567 6.7165365 -2.9959707 5.5770693
1883.KY-09.24.LOUI.txt 0.9377966 -1.3122072 8.001341 -4.5282545 7.438011 6.4714594 -0.45202056 -3.7189448 -5.483767 -10.062566 -1.7092655 -4.8149405 2.775093 -7.263185 -3.453397 -0.4961866 -10.595579 6.246295 3.0841746 0.13633732 1.4936181 0.97720855 -2.171386 -0.30835432 2.8498087 4.3233533 1.3435304 1.1208726 3.0533648 0.55828756 -1.3021632 0.8575062 -1.7373986 -2.3696876 5.0630426 1.7461469 -4.910658 1.7608016 -6.3977294 -0.27964953 0.66095006 -4.135448 -2.2080686 1.2109749 -1.4156847 5.000828 0.15674809 -2.265824 -4.461428 1.3015403 0.036419768 -2.7192328 2.9927716 -3.8505886 -5.017042 -0.67475015 0.2581423 4.6692157 1.2801396 -1.2962298 2.2585542 1.2471676 -2.3431487 -0.90221345
Geo -2.114872 -1.3168727 -2.3138354 3.5132735 -1.6400383 0.15035206 5.477542 -0.88831085 2.520317 0.58643484 3.2412622 2.6123486 5.130242 -0.07880278 -1.5900393 0.5868894 -3.2842126 -2.6429338 -0.48046988 0.16923055 -1.6683424 0.79185873 1.1260425 2.8236156 3.6769705 -0.005279846 -2.6738884 5.0053825 -0.24246067 -2.6078954 0.8856874 2.3408077 2.761747 -0.25581482 -0.93569064 0.74948287 -1.3650224 0.2249218 -1.644092 -1.0571065 -5.7513995 -0.9688734 -5.4812403 0.7282588 0.5991745 -3.9779785 2.1226115 -0.6377039 1.9150363 -3.197159 1.9241552 -1.6684953 2.6235733 1.5995499 0.2026119 0.8330318 -3.3519924 9.308667 5.2543616 -6.348944 0.66571504 4.0202265 -1.037813 0.9398583
N. Y. 2.0850961 0.57696795 -0.28819707 1.2915084 -4.200266 0.4482065 1.0018948 2.6460426 0.45322406 2.3634503 2.9015968 3.2553813 -3.0451639 -0.9581528 -3.721504 1.1266983 1.9568198 2.6104763 1.5843178 -3.0469356 -1.763336 3.32954 2.3848927 -0.37729776 1.7421838 -2.2537794 2.5908947 -1.5082749 0.86939096 -0.76713395 -4.677431 -0.49298975 1.6494471 -0.3247339 0.73559976 4.722893 -2.6677365 -2.6909497 -1.5480857 -1.7485112 1.9737902 0.56701016 -1.7732718 -1.8304043 0.980687 -3.6015496 2.2875733 -1.5550454 -1.3715163 0.2075545 -2.046285 -0.38505208 -0.8294666 2.5977254 -0.7182664 -1.4106003 2.0309174 -5.5872555 -3.2800307 -0.11673244 -0.69092005 -6.5135455 1.4505258 0.46082857
Ray 0.72782964 2.0660045 -2.530937 3.5975516 -1.4927006 -2.7266133 -0.027207658 -2.3060672 0.914433 -2.2007174 3.6199942 3.1780894 2.1615355 -2.2440584 1.7637141 -1.800589 4.744025 3.316396 -2.7115722 -0.5850384 -3.9896097 5.670789 4.142984 -0.9649041 0.7476683 -1.4136175 0.46068773 -2.599075 -2.1756942 1.4851552 0.78067523 -6.2488155 -1.635127 -1.9337614 1.652074 -2.615935 -1.8262696 -0.6770628 2.076371 2.4320266 -1.8564327 0.9650175 -5.8458424 -5.1259627 3.3687847 -1.0734035 -2.1447365 -1.129881 -0.5085131 0.8502078 -0.5369812 -2.9131377 0.009313741 1.0408596 -0.8056875 0.30844373 0.50898474 -4.031984 -0.05543193 -4.987525 2.2765915 -1.6757078 0.85276014 -2.3355753
Stephen Myers 0.8636186 0.9365977 -0.3737743 -1.6489884 -0.85082936 -0.96631 4.027356 0.42119756 2.6510909 0.25084144 0.9370669 -0.80924386 1.2080344 -0.3767035 -4.877962 -1.44097 0.05077213 3.1759534 0.16058989 -1.1476675 -3.2712157 3.2563286 3.5924268 -3.1080334 1.531019 -1.2844707 -1.5593152 0.74743444 0.9310268 -1.5117234 -0.28816405 -1.364819 -0.81717503 -6.4125023 1.3551388 3.4185164 -1.5928427 -2.9970713 2.1264396 3.1591299 1.6622618 -0.18252479 -2.2776613 0.28000325 3.4502776 -1.3236734 0.5789528 -0.74120384 -0.30005264 0.036752313 3.3292577 -1.1421493 -3.000717 -0.23600146 -1.5922023 1.1361142 0.763881 -5.2424393 -5.775476 0.708279 2.3596928 -0.6258858 3.1949322 -0.035548475
1849.NJ-08.21.TREN.txt 2.9083774 2.3584075 -1.7811569 1.7409232 0.9858486 -1.8578149 5.701283 2.0132282 -0.5139867 0.33849648 5.2733474 3.1866887 4.2049656 -1.7137016 -2.4797657 4.5813365 0.596832 -2.128396 2.528285 4.6820745 -2.1939197 -1.8604742 -0.5090982 2.9551518 2.6031067 -4.911845 1.9228271 4.0005403 -1.4127584 1.5413537 -3.8798738 -2.9841256 -2.6343772 1.4861453 -1.7935945 -2.8114579 2.9489737 -2.4928145 0.10656424 -2.2601824 -3.7999406 1.6891426 3.1050675 -1.8292855 1.0359426 -0.64074785 3.8708544 1.4100993 -1.7841007 0.28772864 2.6698632 -4.2268853 2.9383643 3.290921 1.4353589 3.7001224 0.61747414 0.9002965 -2.665571 3.2010438 0.7350151 3.3204908 1.8731618 -2.4745553
William Whipper 0.08614393 -1.393891 -2.1605306 -2.8063192 -1.8575124 2.544375 0.39752838 0.5621175 2.6939182 2.4585357 2.8178687 -0.41350958 0.7153845 -0.46937358 0.66725886 4.402986 1.626993 -0.6754623 -0.32977968 0.5170427 2.3112526 -0.5898597 -4.098794 -0.6019888 -2.4157631 2.5290685 2.1451612 4.5428324 -0.14118028 -3.3278844 2.11837 2.6331317 2.9575262 -0.3285685 -0.7187227 2.0248146 1.4868646 -1.6131699 -0.6798632 -2.6930468 -0.15252031 -3.9222996 -0.4841751 2.2067363 -3.943759 -2.8367455 -2.7377048 2.5185695 -0.71634454 -0.5606899 -2.4626186 -1.6080699 -2.4421859 0.65942395 0.7901477 -0.15669826 -0.38850215 -0.18137002 1.1673243 2.6454835 1.0510367 1.6586691 -2.5084252 -1.9182731
J. W. Loguen -1.0102237 5.1451917 2.8456657 6.617085 -5.2767487 2.4089372 -2.7324026 4.827824 0.25577208 2.1333196 -4.914417 -0.41041082 -1.021458 -3.83246 -3.8054051 1.259939 1.5562656 0.37838012 5.6727242 -2.8539338 -3.9693935 -2.661854 2.1969886 -0.6987568 -0.37309507 -3.6522262 1.2386789 -3.0333521 -0.18623933 1.2539374 -7.182948 -2.1195674 3.491982 -3.5220068 1.0624827 -3.4759042 -0.990255 -1.4635652 0.860682 6.9313807 0.8699797 -1.5829618 -2.3315883 -1.4956176 -2.0707421 0.28482804 7.931119 -4.495653 -0.85892314 0.3647937 0.18126673 -0.4021861 0.10537692 5.4010053 2.9186385 -4.048886 -2.440443 0.57831115 -5.0874085 -0.88095534 -1.2360259 -2.1981785 -5.2367315 -0.30580443
Jesus Christ -0.8691563 -4.799351 -2.8605006 -3.488452 5.7283955 0.9433123 3.510802 2.8903604 1.441131 -0.3320747 -0.044222195 3.7800255 0.0047805794 -1.0022888 -6.6933827 -2.0845222 -1.7868237 2.2502534 -0.30552983 3.2516503 -4.5219254 -2.4854257 3.156449 -5.6657825 4.6640625 -5.476885 -5.1197996 -2.1219409 0.29268205 -6.363776 3.4507492 1.970934 1.7699838 -1.1111193 3.094673 -0.019909985 -2.2835622 3.0077 0.9298166 2.9109588 -1.7643286 1.3227332 4.1718583 2.195082 -2.283932 4.7255116 0.72736347 -3.5356877 -0.48807526 1.9928923 2.6461918 -0.8150672 0.756612 -1.4322093 -1.0487804 -0.36570928 -1.2246097 -3.1727371 -3.8335648 -1.0247227 2.4587326 1.784943 1.7356114 3.7827802
Hamilton 3.011328 -1.2462665 1.2134571 1.6448667 -6.290787 1.0237191 0.38705525 1.6856389 -5.053833 -2.0522485 4.2478166 -1.4433733 -2.3327293 0.4038416 2.4938095 -0.11565079 -3.337424 -0.097496666 -0.25540102 -0.9213072 -0.55534446 -4.050431 -1.9239467 0.16648051 -1.647949 -1.7730168 0.07272263 2.3453648 -4.463645 2.447477 0.72254133 1.3695989 -1.1771007 -0.97654396 0.32174 2.2325845 3.4914331 -1.0915852 -2.5113058 3.4531882 2.6343267 0.35355932 0.038950898 3.5490015 -4.8863325 -1.6297697 -0.39942247 3.669597 2.6135678 -3.2152553 -3.1947453 1.2757332 -2.639657 3.910661 -4.4396114 -1.7141421 -7.880165 0.97982055 -3.2574718 4.7705364 5.808682 -0.17445807 3.9265573 -0.9077351
William H. Topp 0.018879324 -4.7260456 3.6171777 -0.13213405 -2.801484 4.1884327 -0.26399645 1.6152456 2.8449771 -2.2525854 4.896505 1.9790221 -3.032775 -0.10783771 0.9074263 0.55620396 3.712478 0.52358544 0.7488319 -1.41154 -5.818801 -0.27051425 -0.121735714 -1.5413598 -0.56396276 -2.2292378 -2.8787518 -1.2204729 0.70111275 2.3077996 0.42390633 -4.1495733 1.1846542 1.6242948 4.5329943 -1.4488114 -0.020553952 1.0311363 -0.62618953 3.5711834 2.6852615 2.0504625 0.90941334 -0.15290074 3.4687002 -0.87817496 -1.0891448 -0.34458718 -1.070959 -3.3242826 3.6375587 -4.1014113 -0.6090404 3.1684675 0.019587021 3.1506608 2.3278468 -0.37980264 -1.8204117 3.6164558 1.0677459 -7.2418017 -0.28128126 -3.241864
Andrew Jackson 1.3448354 -1.508879 3.111586 0.30728528 4.6262493 -3.7484381 0.3339537 1.9984701 -0.058645025 -1.8582114 3.1408372 -0.7074065 -2.6425743 2.5903854 -5.7899528 1.8979151 -0.1378058 3.2705858 -1.350285 -0.38697174 2.5810537 -1.9453125 -4.308267 2.9824553 3.118766 2.8577828 2.4672315 5.0977654 -3.1885116 5.978303 4.3501635 1.5788935 0.5505573 1.7296121 -1.2366723 0.47497922 2.0781686 1.0762087 2.8510778 1.1047044 1.7684106 -1.2032295 4.249823 -0.4138797 -4.8394623 -3.0211616 -0.7618119 2.0187461 1.6991096 2.2344317 -3.4243248 -0.56390494 -1.9385495 -3.0069032 1.291415 1.2333272 -2.9953017 -0.012380525 -1.3955656 2.092381 4.669182 -4.5778346 -0.715238 -1.4061376
John 2.1761644 -2.0855644 -2.196024 0.94608444 -2.5788255 1.9625683 1.6306983 -0.03317256 1.0676665 -2.6529176 0.32438385 -3.1897085 0.5943873 -1.5341728 -5.5739284 -1.134092 1.2044042 0.3213264 0.21801774 -3.7667036 -1.9715437 1.7839848 2.909893 -1.5499017 0.3634786 0.48726502 1.4425384 -2.5901928 0.28757197 5.883904 3.2334695 -6.4754696 -3.0273314 -0.6494836 0.75669223 -2.1526768 -1.6628795 0.8965716 3.5464272 4.5323806 -1.2286649 -0.7155573 0.023168564 -2.1629767 0.10941331 0.30586752 -1.2697806 0.99233717 -1.3100146 0.1909362 -0.40347433 1.3054364 1.4761407 -1.7187964 2.3269022 0.1293199 3.6137204 -1.6906267 -3.932709 1.4406375 4.399446 -2.0517032 0.37562433 -2.8271482
1866.NY-01.01.ALBA.txt -0.049641225 1.3826739 -0.5771747 4.9559097 1.3307564 3.389848 -0.65320414 -1.5409958 -2.6406648 -1.9746783 2.143869 -1.4940135 -1.086882 -1.5787721 -2.9136448 -2.8935351 -3.4626553 -0.76374793 -0.8228307 -0.35463342 4.672833 2.2140505 1.6400013 -0.33484852 5.9819083 -5.7491255 4.14086 -0.9822599 -2.5540862 2.426965 -3.6575928 -1.8780608 1.153558 2.6948016 -1.1822163 -3.3523464 3.9164782 -2.950668 3.1224573 -3.1143527 0.48476774 3.6227453 0.19701111 4.5706787 0.68007505 -1.6928741 -0.28821245 -2.005491 2.4692934 5.0252185 8.270573 1.1277759 3.9480221 -0.70630056 1.3408511 2.4451926 -1.1496854 -0.029121408 -4.7541623 1.0582019 -2.4832053 1.2541196 -0.6463354 3.2640734
John Brown 2.0843098 -1.0290953 -0.11738202 4.763638 2.9436276 4.363967 -0.70426303 0.6324339 -1.285343 -1.6285256 -5.314706 -1.6564249 -6.5322304 0.7289714 -1.7837334 0.44126955 0.74504435 0.6908725 2.6108837 0.9471534 -2.4129834 -6.4010577 0.54810756 0.057588965 5.4448915 1.2439296 3.8914778 -1.7434568 1.3143452 7.786554 -3.8978355 3.7416372 0.74211335 -5.2499976 -0.4055752 -3.977532 2.5732086 -1.4454252 3.3012521 0.7530604 2.7036772 -0.10337365 1.3344628 -0.7404571 1.3758717 2.746425 2.1867366 2.6527638 0.7254397 -2.7537336 -0.28227738 1.7896644 -0.8371334 -2.0150044 0.9440398 -0.82644993 -2.2506936 -0.2413764 -4.878723 -0.24220644 1.7359303 -1.2085464 0.46131566 4.3454065
Perry 6.673182 -2.0585108 -0.15525515 4.125279 -0.5198878 3.5532446 -1.7296376 1.9579455 -0.79601955 4.7617655 0.9885889 3.166433 -2.0276363 2.4744022 -3.7894444 -3.013681 -0.5487062 -1.281694 0.7535791 0.30100384 1.3925666 -0.44905058 -4.6126556 -4.416716 -0.9266342 2.354205 2.3950276 3.7082095 0.53236216 10.111951 -3.74894 -6.1877656 -2.6261387 4.4653254 0.16506809 3.662579 -4.165519 0.88021916 0.86972904 -1.8926318 1.001166 0.16453408 5.0278525 -4.6594396 4.767751 -1.0993544 -2.155157 -0.64271575 4.8662887 -0.71783715 0.12621796 -2.7760448 -3.8678043 -6.3895135 2.4754002 2.5329444 0.114567466 1.8304675 1.3258938 -1.1381696 1.7054467 1.6140903 -0.17232743 -4.471579
Butler 1.2311641 -0.39737347 -2.3627253 -0.4541253 -1.629472 -1.1527823 0.700245 0.11306826 -3.0886028 -1.9802752 -3.8921459 -2.2457683 -0.14951617 2.503712 0.56895965 3.5757647 -1.0233467 -0.830199 -0.17106958 1.1410549 0.8489465 1.710254 -7.5653396 -0.031919807 1.3595476 1.193698 3.1812596 -1.4388427 -6.374149 -1.3081808 2.6078813 2.965362 0.046381384 3.6162443 1.33674 0.5766231 2.7386909 -1.4476786 1.6647036 -4.4783096 0.15836239 -0.40641078 -1.1018826 -3.5298855 2.3344781 -1.1541151 -3.179067 -0.75544715 4.476957 -5.4245005 -1.118615 0.057998724 -1.7932769 2.092913 2.3198094 -6.053594 -5.112512 -0.126668 0.3462787 -3.8545606 -2.2991154 2.4277892 4.701527 0.91497266
C. H. Langston -2.5847301 -0.95695984 -2.4581647 -1.276978 0.15009719 0.3921177 -3.5057607 1.3604221 0.581654 -2.8712525 1.3860937 -2.0671463 -1.7709651 2.9217155 0.72141707 -0.58348525 2.1570518 -3.393336 -4.0869684 0.6765197 0.51973695 -3.0975506 4.2801538 2.509679 -0.3657658 4.8498135 -0.36639774 -5.4988685 4.6776934 0.35078293 1.2430657 2.828927 2.1299014 4.6588774 -1.9575536 0.35648292 3.6152265 -1.9090737 -0.7363039 -0.26091206 -1.2546331 -5.166438 6.0125847 -0.8166269 -1.7802943 4.208551 -1.1422921 -1.8322495 0.3972407 4.1164384 6.111383 1.4722942 1.6379478 -1.6076194 -1.4896127 2.6255896 2.2038562 1.611066 0.67791766 -0.30139652 1.6253042 -4.493234 -1.0338808 -0.7960605
Troy 1.5975245 -0.2769413 -4.0403748 2.4000392 -4.4588637 -0.11653449 2.8975668 -0.09553977 -0.8693508 4.48941 -0.39930853 2.9994655 -2.0708585 -0.66176784 3.899077 -4.485987 1.0031404 0.966254 -3.8297222 -7.2845917 2.4803228 0.08447213 -0.23194082 -4.1275797 1.6050524 -3.5199573 3.292963 -0.06257854 4.173856 6.0546165 2.788819 -5.5775876 1.2207634 -2.3120046 4.1614075 -0.9510671 -3.0653079 -1.9970136 1.4089609 0.92382586 -2.2118647 -0.1569714 -3.0583274 -2.870635 4.4296317 -1.9387113 3.0413692 -0.98624957 -0.0075129014 -2.2474222 0.081250675 -1.9062068 -5.92732 -2.901136 -0.8568567 -2.460813 -0.5201771 -2.0306416 -1.239505 2.0837274 3.638942 3.197749 1.2488717 -2.6311707
William Johnson 3.272496 3.2547333 -2.8615582 2.580861 3.3514128 -2.1059341 -2.535129 -4.501684 -0.008892751 -1.0578777 2.851431 -3.9175255 1.2721815 0.5718841 9.41737 -2.3090446 3.1145885 -1.3878036 -2.5877464 1.7746797 0.011117316 0.57739383 0.27334073 1.764707 -3.6835806 7.2234206 1.6501614 -1.5701706 2.0564942 0.19422181 0.8391733 -0.54975957 -0.19796832 1.422123 -3.8557222 1.6230981 -3.055283 1.9989178 2.3243504 1.1661859 0.39797667 -3.9656055 5.6304364 -0.15740743 3.1763546 0.8048819 4.068475 -2.7765226 -0.68519294 0.8974472 0.44064012 1.8785027 0.28092182 -1.2829044 0.9197926 2.9860132 -0.7015571 -1.1724048 2.0192823 1.0316316 -1.957117 -0.39479876 -0.5967661 5.479192
Wm. H. Topp -1.1057937 -2.1726277 3.0261593 -1.3080481 -0.66731334 2.7428706 1.5897671 -1.4079711 3.621723 0.45844495 1.806853 2.761988 -2.5213702 -2.6318395 -0.89650846 0.52421695 5.2467346 4.1917715 -1.9344622 -1.372137 -2.489907 0.43810642 0.070170105 0.8651272 -0.8664931 -3.4746652 -2.1515043 1.6109163 0.98357886 -0.45954123 -0.65095854 -1.67189 -0.8488725 0.48395362 3.2763052 -0.20847341 -0.45928228 -2.0554276 1.5108243 2.4738166 3.7611449 -0.105058216 -0.16450845 -0.79730624 5.3187222 -3.883932 0.04252936 -1.5646331 -1.133002 0.3123786 2.3170128 -4.740623 -2.0252466 0.39615795 1.7289454 2.390787 1.087685 -1.7159708 0.20948863 1.7172089 0.8838308 -3.315367 -1.674483 -1.4725262
Myers -0.58050245 0.8576267 -1.4855937 -3.1822872 -0.94576234 -1.1743066 4.3686953 1.516873 2.6012347 -2.0154998 -0.4702434 -1.2815729 -4.758113 -2.3782268 -5.363263 -2.4022229 -1.2574431 4.134291 3.5673106 -0.8263607 1.2686228 4.8954678 3.6915612 0.49542916 6.365722 -1.7220325 -4.211791 4.171246 -1.921673 1.8139867 -1.2402586 3.4117684 1.431831 -5.6357365 -0.5243703 3.977018 -0.061222468 2.083402 1.7847809 2.884858 4.7122846 2.7734149 0.50521785 1.5954291 3.3231814 -0.124807514 -2.6901653 -2.1963093 -0.118208386 -0.73173606 -0.7605637 -1.307759 -1.5819666 -0.9733712 -1.4481906 0.4387221 -0.94538397 -3.4499674 -7.4929814 0.4950046 1.6507931 0.039553028 4.0207744 3.253278
Roberts 0.1049944 -1.6775545 -3.2777836 0.18875383 1.0016037 -1.0306906 -2.064351 4.60197 0.26454222 2.0581062 0.7771229 -4.068395 -1.1265262 -1.1000361 -3.4123921 -4.330789 -2.864181 -5.2770853 -0.7848778 0.71017855 5.589988 -5.3899703 -0.7693432 -0.935726 -0.75277466 0.41619745 1.4137565 -0.041979734 3.4116087 4.1002855 1.2355022 -0.36233738 -1.1933106 5.801518 2.5722277 -0.70322853 3.139525 -0.79715264 -2.015484 -0.2271912 -1.9389907 -1.8797299 3.8429573 -3.7143307 -1.5175167 5.386657 -1.7853926 0.8000101 0.6206581 -4.1564546 -0.74933255 -2.7168224 -0.39392567 -5.830884 3.2445095 -1.6250669 1.3706666 -1.0923221 1.1195158 0.31669918 -1.3078753 -1.2094551 -0.88367075 -1.0307268
Christ -1.1025953 1.0299299 -0.7761904 1.928086 1.2741499 2.4772332 -2.4137301 4.454145 -2.5860147 1.1819085 -6.331806 0.43201497 0.63953555 -0.3878269 -10.841845 -3.1649916 3.8581064 3.6451683 3.2516418 0.2651631 1.954058 1.5935093 4.1097655 -2.8093383 -3.332156 -3.0488029 3.9766965 -0.46513492 -1.4549567 -2.5495558 -3.6822584 0.28005332 4.1345577 3.2833612 -2.646375 -2.5924025 1.1057096 2.5237782 -0.38901585 -0.7007369 0.4937883 -3.703499 -1.245716 -1.941573 0.61667204 2.135142 3.0906372 -3.3539083 0.028945714 2.705026 -5.4849825 -2.1126485 4.739063 0.9766892 2.1022882 -2.0351768 -0.40686744 -5.4522915 -4.161497 -5.526422 1.429818 0.34804997 4.83807 0.7618277
Brooks -0.54396254 0.20517403 2.7840128 -0.18104078 5.0269055 -5.8417816 -3.8292642 1.2917573 -2.4110858 -5.5776844 -5.7209697 4.8141985 2.6764867 -0.3954542 0.52821124 -0.9859976 -2.4503665 -0.2224493 -2.2825062 -4.788559 -3.446401 4.9141307 -5.7290897 0.5742382 -1.3761159 3.4227214 -2.9714613 -1.0779194 -3.3424125 3.9537091 1.4612771 -7.9793096 0.87431496 3.6878169 -1.7282321 1.2443284 -1.4926115 5.078626 1.59008 -4.400906 0.9396319 0.65903383 -6.1050553 0.1385551 -2.1033852 2.561415 5.5397453 3.2973704 -1.0134625 1.1460456 1.9906667 7.096531 4.0746 -0.12999204 0.16137321 0.5013166 1.0461837 3.5907252 -0.57182616 -0.0073489775 -2.9542046 4.4799814 -2.3961847 2.1760411
Warren -4.0500436 -1.9326615 -2.1060557 1.4631373 -2.1530938 -3.7530391 -2.546339 1.067149 -6.1109295 -2.805082 -3.707684 2.4729245 1.2936293 -0.013143724 2.9623203 -1.6471043 -4.4324036 1.5663755 -3.3644824 0.7640958 -1.8418714 2.594007 4.3643255 -0.079559684 -4.828044 -1.9793477 -2.744367 -0.4292002 -0.40185285 -0.28486383 -3.854789 -2.9242284 1.9860781 2.913327 -1.0459076 2.829082 -1.1210579 -7.472543 -4.7542834 4.898219 0.07260016 1.7171994 -0.35545868 5.292562 -4.711965 5.368544 2.0975573 5.4389567 -2.61992 4.0885735 0.8720629 1.0461764 0.15266745 -0.48914212 -6.312004 -0.39205346 -0.41948968 -0.06715943 -0.034927476 2.8712718 3.5407526 2.8630836 0.57386726 -3.2052448
Amos G. Beman -1.0604745 0.20362762 2.4199312 -1.452145 1.1219801 3.1089349 -2.5045624 0.053643696 2.378174 1.0122063 6.072236 0.9187619 -0.06823238 -0.2977613 -4.8345885 -3.7369435 -0.41284505 3.9361565 -0.5582753 -3.8128219 0.20128554 2.090033 4.303824 0.51096076 -1.8816578 -0.17644045 -2.275777 4.5679173 2.0109413 -4.764442 -1.1618043 1.2099591 3.241512 0.023073893 1.1855524 -1.9063917 0.2824092 1.0860482 0.29458925 -0.010662979 1.244255 -1.0019982 -2.8195229 -0.684415 2.8436656 0.040558245 0.011052792 0.9505968 0.93956405 2.9534602 -0.121748984 -4.1653647 4.8485417 1.8078027 -0.1989056 1.1842211 4.4068303 -1.6741192 3.5974262 -0.07968672 2.0488274 -2.454399 0.14561732 -1.5013524
J. W. C. Pennington 0.7490929 1.3728701 0.025459507 -0.6692109 -2.500224 5.083938 3.509242 1.5458072 -2.6626415 1.3597865 -1.4369053 7.5170326 2.3679535 1.9581245 3.7034628 -1.500135 1.1982486 3.7627306 -2.0084884 -0.36744633 0.18850726 2.3044848 0.7195939 2.0138867 2.7964227 -5.8489656 -1.1336176 3.166753 2.0096705 0.93258435 1.1363773 -0.40577927 4.175432 -0.6704748 4.789868 -1.4567368 1.7662653 2.5131161 0.7692548 5.164085 -2.403729 -1.9656607 -3.393096 0.47762752 -1.7385143 -5.795849 2.7606676 -0.9101798 -1.2882929 -2.1015463 4.865728 -5.372112 -1.1206247 0.5592936 3.8809988 -6.242721 0.36463353 -0.200357 3.8293283 3.5407014 0.6133706 -0.6821504 -1.6079957 -2.865636
David Jenkins -3.5853355 -1.2439283 0.2508147 1.8662068 1.7102144 1.8847706 -0.7655174 3.422675 -1.4869738 -4.3721104 2.0194685 1.3604295 0.81267637 4.7877717 0.01733713 -1.0758376 -0.96591896 -4.0088196 -2.5326822 -1.9027848 -1.3037412 -2.9838758 4.314085 0.02911852 -3.9866135 1.309236 0.105931 -3.8355868 0.97877717 1.5956123 -0.80349344 1.0066252 2.1883492 5.51784 -0.15609412 -1.0197389 4.1860805 1.1091844 -3.6073916 1.5444857 -1.8911282 1.2143252 4.3827577 -0.6344829 -5.318556 1.6317129 -4.0503488 -1.1136549 0.07095571 -0.23959412 2.1228242 -0.62339616 1.6183264 2.0029862 -2.544514 3.7719934 3.6960788 2.2966435 -2.2502778 1.9789592 1.548417 -6.2144613 -1.9251242 -2.3044996
1868.PA-08.11.WILL.txt 4.1479216 2.4790041 0.32197323 -1.0378635 -7.579901 -0.669899 2.617907 -7.463943 -0.76014835 -1.2517351 1.2815726 2.3004608 1.7617822 0.9961339 -2.414736 0.5296563 3.6528337 5.0587215 3.0356045 -1.9804335 -3.8762505 -1.4262199 2.5420332 2.460383 0.97665393 -3.3116484 0.9207413 3.5840917 1.890246 3.469176 0.16199967 4.679528 3.525672 2.6031003 -4.1086726 -0.5949019 3.1595192 0.670324 -0.6430397 0.489742 -0.13042569 -0.024201889 -1.9971579 1.6549612 -4.1270614 1.9369241 2.767292 4.642588 5.9958153 -1.3990263 -1.6661981 2.7026868 -3.8284707 -0.2824821 1.541294 0.9769945 2.4321663 -0.5447725 -4.2325172 -4.5691857 -4.5145607 4.8767676 -3.967759 -3.7587323
1841.ME-10.06.PORT.01.txt -2.7597585 -3.628378 1.0955055 -0.81172717 1.6347944 -1.5102774 3.6403515 -1.0901055 -0.6920823 -0.4957106 2.0304525 0.9737871 0.62742 -3.2326016 -0.770462 0.7160909 1.1933537 -1.2050887 1.6272032 -0.31381243 -0.40873143 0.99243516 2.6440027 -4.6500254 -0.17516373 2.6845489 0.92285866 3.4400206 1.8382756 3.5895793 -2.605189 1.3953041 1.0284406 3.607692 0.4817379 0.37083316 2.0084891 -1.0151434 4.8892393 2.0945168 1.9339447 -1.7357389 -0.48111847 -1.8300289 -2.706832 3.9275591 3.0729856 -4.5848756 -1.1114135 -2.500221 -0.60162073 -1.9336711 1.9138019 1.8895161 1.0494345 -2.0212708 2.5664852 -0.009469456 -2.8937356 -0.0027854796 1.0162193 3.0308986 1.4614335 1.6696116
1841.ME-10.06.PORT.txt -2.8479428 -4.206108 1.3666006 0.1081195 2.0334141 -0.73252416 4.2482724 -0.47898382 0.28597015 -0.23295118 2.1482928 1.0734917 0.054688692 -2.6394286 -0.36963665 0.7860234 1.8542049 -0.7166147 1.9979948 -0.34421414 0.33102965 0.3264038 3.238084 -4.5475116 -0.65524924 1.7416742 1.5251625 2.8808675 0.6371084 2.9573798 -2.8022811 1.7766234 1.4815369 3.6728184 1.0771967 0.69231695 2.3676028 -1.4854921 4.6984315 2.2666826 2.0886788 -2.321445 -0.3602393 -1.2967473 -3.0456638 3.7600143 2.5315542 -5.090633 -1.1524744 -2.507536 -0.50274295 -1.6276181 1.8329041 2.2028182 1.3177658 -2.098672 2.1595137 -0.35633168 -2.4761245 -0.20790878 0.39467072 2.5807307 1.8606008 1.641431
J.W. Loguen -0.64396083 -4.76128 6.4531593 3.9363399 -5.2786746 -2.2404156 1.4075615 -0.06230764 4.724525 2.1325686 -1.6756225 1.1027732 -2.665003 -3.4671633 0.7743859 0.12764159 4.9987993 1.7993877 1.8524889 -3.2441275 -2.3490224 -0.22705063 -0.9580182 -0.79450905 1.1242672 -3.3184764 2.4096768 -0.8588898 -1.5832487 0.3165642 -4.8531976 0.29643658 -1.2770319 -1.0449756 -0.8559459 -1.4748728 -1.4373626 -0.86924297 0.18833128 5.8215246 -0.0023973547 -2.308048 0.13061996 -2.0205662 10.78466 -3.3275 2.6616719 -0.32761016 -1.0937078 -1.2682272 4.0165224 0.08794964 -1.680268 1.7037776 0.10886234 -0.8031237 -2.9975665 4.3775697 -3.468313 -3.337023 -2.0450132 -1.3880854 -5.699198 -1.5761381
Lincoln 0.1277282 1.1200404 2.2210433 2.2666218 1.4853302 1.1899703 -0.44771367 -4.4039564 -7.556275 -2.2154841 -3.3257396 1.5646358 -3.3052278 -0.81455517 3.3137972 -2.3318374 -2.7502172 2.3211112 -1.7618287 5.390518 3.4125245 -0.4021717 0.012850362 2.1243465 0.7212353 -2.389495 0.17295513 3.822467 -4.172765 0.1993306 -3.4246988 4.685273 -1.6331679 0.4413405 -0.5779394 -3.5207353 8.073891 -5.1002474 -1.1020752 0.3853102 8.347559 1.6328883 1.5131397 1.7857368 1.9534236 2.5109594 -0.072599255 2.9922318 1.5876689 -4.5852575 -0.7756303 4.643861 1.47883 -1.7529076 0.3870162 -2.8800006 -8.590747 -0.30314624 -8.3776045 -0.28509444 0.9987605 2.0845127 1.060266 0.73600894
Francis 0.43765524 -1.3251865 0.6443758 2.0820699 -2.6866016 0.7801447 -4.2354956 2.1976988 -1.3818707 -0.05607039 3.4772496 1.733698 0.3232476 0.5561763 -1.6090424 -0.90094376 0.20220122 -2.199479 -0.3377864 -2.3420002 -1.1265557 5.731351 0.8875462 -1.8450607 0.035421316 2.9658916 1.992449 -1.6107266 0.091072746 -2.6627316 -1.6368018 -2.8644242 2.4125164 4.1845016 -1.2938468 -1.6012498 -0.9745929 2.0518084 3.4031646 0.154094 -0.51855254 -2.4639273 -1.0676501 -2.5537772 3.752057 0.0847707 -2.3770082 -0.7159424 -2.318138 -3.5774775 -3.6017244 0.86207026 2.264461 1.4174274 -1.0225852 5.134044 0.17788777 1.137739 2.6498826 -2.8850198 0.73142654 -4.4782076 6.084173 -4.842092
S. Myers 1.0999244 -1.6299955 -1.2399787 -1.1758094 2.4433172 -1.3287394 1.6562285 -0.22038001 2.1946533 -1.9438747 -0.3822161 -0.20626378 1.0571976 -1.2860695 -3.3752894 -3.9142146 3.1746724 3.23594 -1.5602682 -0.17565557 -3.6221356 0.519402 3.5748088 -4.8883333 -1.0997586 -3.2211363 -2.2081845 1.7909459 0.11495922 -0.7111679 -0.7924734 -3.0040443 0.8697369 -4.437304 1.7979711 2.151384 -3.5805573 -2.8214068 4.555865 5.313625 1.3366036 -0.37617803 -1.313392 -1.1849238 5.3518867 -1.1749978 0.39258534 -3.085939 0.5255177 1.0868558 0.57792395 -1.6899027 -2.9117084 -0.38646445 -1.7914093 4.3246217 -0.8312159 -3.5699418 -4.595351 1.3400445 1.901403 1.4673785 3.8649983 -1.9326887
John B. Vashon -1.3952388 0.1288652 -0.13949089 -2.8455386 -2.8999314 1.8422894 -1.0980237 0.18195824 2.3066263 1.3715036 1.8908558 -0.7788059 -0.8667001 -3.7449446 1.4433875 4.7244773 4.063424 -0.5861302 -1.0354222 0.40516502 4.568214 1.1450045 -3.465795 1.3002555 -2.9617043 -0.20512159 1.988148 0.8013565 -1.8091822 0.023151241 2.7538416 4.2944894 0.62835455 2.0532546 3.5715952 -1.7566882 0.39135018 -0.71784 0.44797474 2.0960858 1.4834198 -2.9812446 -2.8194869 1.9900852 -2.0071084 -5.3369646 -0.4700404 0.9116571 -2.026365 -1.491658 -0.6263183 -4.1798205 -4.044083 1.8737745 2.3498366 0.12497965 -1.3567955 1.703829 2.815844 2.7783809 -1.1698217 1.415007 -5.8594217 -1.2046119
Garrison -0.9665103 -1.8789326 -2.7542071 0.41724563 -3.8708942 -1.6129997 -3.593699 -0.8422221 0.8262727 -1.1086568 6.637848 0.14080438 4.2317953 -2.1187265 -1.7215915 -2.0635169 4.517129 1.6833766 -2.5170035 1.9199537 5.1359754 5.2088017 -3.0267627 -0.3356435 -1.7232959 -0.21445487 4.2617426 -0.43260366 -4.280277 -4.5194597 4.8352175 1.8414054 -1.5220423 1.2134314 -0.9419201 -4.425276 3.1406329 4.0053654 -0.6834725 -0.20974654 -1.6411061 -3.514814 -2.0127413 -2.5785174 -1.5939778 -0.97311646 -1.5529486 1.2942208 4.5274673 1.7333765 -3.1108124 -5.3628097 -0.4415456 1.5503231 -1.0244086 -0.82460845 0.06113022 -3.2253075 4.7762713 0.23050496 3.2165446 -0.55805504 -0.02954488 -0.5106812
Morris -0.7424236 5.345322 -0.4589859 5.2611547 -2.69589 -3.527329 0.42801934 2.718598 -2.641211 -3.6369076 -0.68289304 5.657728 -2.4102116 0.9043239 5.182881 -5.1757994 0.8494434 -4.545328 2.1176324 0.6828424 4.855409 -1.7832385 5.26412 1.0430467 -2.2467604 -1.6071178 1.3177499 8.085749 0.5959309 -2.800488 -0.5945493 -5.1981964 -0.092151254 3.7134955 2.6104965 0.3730107 -0.060028497 -0.17942947 -7.928741 1.1115853 3.5679142 -2.0069153 -0.612809 1.7926176 -0.972896 3.348212 2.5232592 -0.57421577 -7.1699905 -0.8856603 -2.0633228 6.8510785 -0.6636567 -6.2137647 -3.4103692 -0.57227635 -2.736972 -1.4147896 3.2148354 -1.8162081 0.77055705 2.5899043 2.222809 -2.657395
H. H. Garnet -0.17926918 -4.1546702 -1.7431333 3.0272493 -2.2532554 -0.46981302 5.697963 -1.8608992 2.4892497 1.198831 1.5213705 -0.7799499 -0.051927377 -0.5030673 3.4028022 -1.7111937 0.89706796 6.5851474 -1.6072147 -2.2626407 -1.4769274 4.5697827 3.7371614 -0.19178687 3.936132 0.47618082 0.26846486 -0.85787845 0.7688839 2.8239534 -2.1584141 -0.09211109 -1.5810115 -1.8570387 -1.328263 -0.9951259 -1.8866065 -2.2324662 2.7227178 -3.1254537 2.023294 3.6973565 0.55365974 -4.0177894 5.999139 -0.65081704 -3.1287806 2.0591054 -0.4475016 -1.4221213 2.816416 1.4344323 -2.2921658 0.22481671 1.6187723 -1.0300697 1.2627119 -2.446962 -1.6545415 5.1710095 -0.24190514 -1.6205952 0.735191 -2.2546372
D. Jenkins -4.460275 -0.50225973 -2.2598016 0.2979813 0.8522081 -0.85681397 -1.5212402 1.597242 -1.0550725 -3.435636 0.57294863 1.1851106 -0.049506728 5.1530576 0.32817993 0.5660588 -0.8378704 -3.7927954 -2.160239 0.4601654 -0.04100456 -1.7402683 5.6977925 0.75089663 -0.8407688 3.2748604 -1.0032868 -4.874857 2.012377 0.72752625 -2.8079176 3.7476072 5.053344 2.6135058 0.16590221 -1.4460851 2.193219 -0.12598844 -1.8293651 0.06411413 -2.7886407 -1.6347647 4.194425 -2.0789905 -3.004265 4.2026815 -0.91262376 -1.7616274 -0.22941487 2.0647278 0.8674122 0.69442254 0.9035655 -2.0850503 -1.9824044 2.1465995 5.1991377 1.4403863 -0.554688 -1.3161241 -0.3691178 -5.3295074 -1.33154 -4.658118
Henry Johnson 4.3563075 2.774992 0.48529798 1.0950779 -1.8142148 -0.64570445 -3.7994435 2.963612 3.0057065 3.1256714 5.080934 1.0139453 -6.857078 -0.91415954 -0.7838387 -7.197201 3.8296623 -2.1551945 -2.9209528 0.1966122 1.5292375 -1.6390612 5.2821627 -2.0283484 0.89000463 2.3097181 0.2928285 3.2368693 3.9052384 0.57603353 -3.733389 -0.4165587 1.4487362 -0.363033 3.2615223 3.1547394 -4.895809 -3.5135102 1.8879975 -1.161463 -0.52310073 1.8034062 0.84650236 2.3201175 1.7662178 0.5656966 1.8880988 -0.1372835 -5.8506713 -1.7738883 3.1158907 -1.1821505 -0.9207613 -2.409038 -1.3733093 3.4246266 -1.7219033 -0.6716928 4.9478755 0.30617735 -1.6015505 0.67413026 -1.4425062 0.067666076
Charles L. Reason 0.33803102 -2.7980623 0.95735973 -0.79035413 1.3743124 2.7798016 2.1345654 -0.7936854 2.9546 0.543485 2.724532 1.5011533 -1.3329581 -0.9530757 -1.608238 -2.07218 4.216503 3.7933667 -2.8066037 -1.8331732 -3.2866087 -0.49213037 1.1878747 -0.17125726 -0.6776719 -3.3185031 -1.4207449 2.8104124 0.94435996 -1.5268167 -0.5536951 -1.8902719 -0.57627434 -0.56949776 2.7409656 1.4921178 -1.2601626 -1.4621475 2.2367384 -0.4525842 2.307744 0.25220767 0.3925915 -0.8842587 4.846877 -1.7885903 -0.60538715 0.3632222 -0.2530694 2.0462623 0.7087988 -2.5834746 -0.5889171 -0.91790235 -0.49109402 2.4041395 2.29604 -2.952121 0.3015382 2.0692449 1.2681084 -3.022379 0.036603075 -0.38280943
Bill 2.0574672 0.80790585 1.3124186 -0.96620446 -1.2008485 -5.777015 -3.0000103 2.616669 2.1460345 -1.2688161 1.6121694 1.0007298 -4.877615 0.45847404 0.17335522 -5.9987617 -3.0846894 -2.9644938 -1.2333101 -0.32166412 6.574306 -2.4502034 -4.0570555 -0.15693915 3.0974767 -1.9322047 -2.2217429 0.8455123 1.0740937 0.7792537 -0.23488663 4.347793 -1.3607546 -1.039817 2.963975 -0.2924979 -0.6422692 -3.2975323 -3.8936589 -2.5184424 -0.66031617 1.6768534 2.9225426 -2.228523 -1.2031896 0.79857904 1.4398719 0.7497243 3.267267 -1.3819078 0.46293265 -2.0086665 -6.434922 -2.6193573 -2.3511605 -1.3366035 1.4382136 -3.127406 0.1249091 0.8398373 -3.8265066 -2.8472388 -4.2793245 1.5428346
Thomas Butler 4.5755377 -0.60853225 -2.4740648 1.2484777 -1.695753 5.0414095 -2.4503324 1.0932328 0.7839331 3.4043152 -0.577669 -0.8590328 1.4782683 1.8468852 0.29875362 2.663285 1.5175488 1.0903052 0.6244375 0.7101474 2.375852 2.0191262 -6.030294 1.4922062 -1.8121984 2.48772 2.5141468 3.4600418 -0.7944426 0.55575514 2.3759027 2.6386547 0.8789004 2.512009 -0.33725458 1.1211113 -0.13642426 -2.4921741 0.2696775 -1.9625351 -1.1088265 -6.2840657 4.2790165 -2.2396922 -4.888186 -2.8285122 -5.079542 -0.50065494 5.378471 1.9624269 -1.3946004 -4.307119 -3.5044098 -0.18315001 -0.764746 0.5240452 -0.5667485 3.6719458 -1.0714457 2.1788728 4.2005615 2.821191 -0.62383467 -2.3917556
P. A. Bell -0.6586714 3.0998552 2.3311489 1.8602521 -2.7352235 -1.6945238 -1.3074278 -1.2000413 -1.3630172 3.4650996 0.057547387 0.39334038 2.2533967 -0.3472693 2.437803 0.5692499 -1.054944 0.3903214 -1.058373 1.412439 -3.783412 3.2208447 -2.5415156 -0.29033723 -4.0218477 -0.6020325 -4.4461284 1.6540192 -0.364545 -2.2046843 -2.4191139 0.6968863 -0.010172264 -0.66831535 3.1288614 -2.923048 0.08590354 -2.23323 -1.8083489 4.3601117 0.065623306 -3.0544095 -4.49381 3.4896338 -1.4950836 -3.7757754 1.3137978 -4.0611625 -0.5496542 -2.718583 -0.8596778 -3.4047384 -0.14001477 0.14289148 2.9080272 1.006323 -2.802803 -2.840499 -1.2498316 1.3828248 1.1269143 -1.5439731 -4.6644363 -3.434635
Green -0.09166242 1.2333227 6.500773 1.4293655 4.276613 -2.2430847 1.2636131 3.786937 -0.32636556 -3.3894823 2.6649451 -0.95239663 -2.4434242 3.112045 -6.815229 0.9405101 0.711864 3.8414392 -2.8257418 -3.48895 2.5669086 -3.0989254 -3.0627065 2.7716146 4.2663984 2.00768 2.0278716 3.511916 -3.3286376 6.561173 0.7032027 2.3200338 -1.9838889 1.0176171 -1.3702404 -0.0700202 4.290623 0.5228648 2.4659584 1.9917363 2.5324903 0.050555617 3.9788558 0.96243346 -3.732051 0.005888713 0.5136315 2.8484304 2.2607214 0.8120153 0.43011174 1.0455604 0.65596116 -3.572803 -1.5634651 -0.2604791 0.097478144 0.3614862 -4.625888 -0.49114332 4.7442827 -3.6058624 -2.9779112 1.8069857
George T. Downing -0.43604857 0.5202864 1.1167579 -0.8446418 -1.7069539 5.6165023 8.924532 0.8319048 3.1854196 0.61316407 0.6133378 2.6280181 3.86402 1.8891474 -1.8863908 -3.6611755 1.5094299 0.48508495 -0.2130211 1.7561424 -0.46682197 -0.69651353 2.0414078 4.7151685 4.803182 -1.6935514 0.13857427 4.424329 0.01624772 -1.6368028 -0.6917022 -0.24219298 -3.4267 -1.2313101 -0.14059171 2.7276628 1.686467 0.920022 -1.20395 1.7030073 -1.0084596 -0.95656 -2.0362537 0.25219032 -2.720789 -0.24696755 -2.2236905 -0.09533227 3.2316678 3.2676215 7.349079 -1.7047963 0.9829418 0.28839478 1.4858657 -3.8126075 1.6831752 0.37243447 2.851304 3.4658473 0.13770589 -1.0209923 -3.3809686 1.6630573
Abner H. Francis 0.5889593 -3.9873047 -2.1707435 4.4114614 -3.8283832 2.846159 -1.8704115 0.34551165 1.6368488 -2.345873 2.180826 0.7777506 -1.4103373 1.3844055 1.1981304 -0.15941499 0.8973548 -1.6973366 -3.0646386 -1.7180642 -2.2401955 3.026227 0.9272212 -1.7178841 0.46528694 0.111475445 4.279467 -1.7692349 0.60848117 1.1596437 -0.04188148 -0.94352925 2.5431585 2.6430724 2.1905131 2.2678065 -1.6397257 -1.1588383 2.8297021 1.7384862 -2.6102057 -0.850317 -0.06969127 -1.1582673 3.097766 -1.3517389 -2.1458447 -1.2489495 -0.26628813 -3.097921 -5.1129208 0.058597982 -1.7663282 -0.013841597 -0.8601508 3.8374393 -0.6739582 -0.08871227 1.9412692 2.0418541 -0.31488517 -4.0323973 2.4229722 -7.071962
Benj 0.5656372 -2.6047688 -3.9168549 -2.050218 -1.3775123 -4.8314066 1.7183967 -3.594241 0.91981584 0.14873776 2.42232 -3.7408783 5.3831515 -3.3966053 -1.7406442 0.16242842 -2.0620906 -0.3999461 1.4994582 2.374733 -1.599655 -2.0647101 2.5251358 0.53438365 0.8994004 -0.4567929 -5.517496 5.24104 -0.43682498 0.7091186 4.7835784 2.33202 0.5983851 -2.1664946 0.012250228 -2.070935 -2.7992523 -1.9663005 -0.5658061 4.468669 -5.2084713 -0.35243797 -0.0063366476 -0.5023946 3.5282736 -3.5985503 4.284719 2.3615894 3.5958023 3.107951 0.35478282 0.34140944 1.8381574 4.013684 1.4947834 -0.24502076 -5.7733746 7.106797 0.74478567 -0.81114215 2.7994385 3.400134 -3.4906487 -2.0132751
Robert Purvis -0.7358822 -0.41341233 -1.8370845 -2.0222127 -0.7380523 2.2404525 1.400561 0.5828068 1.3595647 2.1531844 3.4108894 -1.9641697 1.6655366 -1.493122 -0.19143711 3.7971497 1.6749091 -1.2144371 -2.2408712 0.6172396 2.2193134 -0.22190222 -3.5306277 -0.49066636 -2.5546854 0.7851107 2.0586438 2.9544365 -0.683923 -2.1998258 3.2680893 3.8388798 1.0638183 0.35954735 1.9022924 0.6883262 1.4824198 -0.15452789 0.12398295 -2.8748667 -0.49539685 -2.843063 -2.5603657 3.5570204 -2.0341356 -2.2957034 -0.33026126 3.7897644 -0.51834357 0.043174453 -0.92878604 -2.238502 -2.9794147 -0.70660985 0.5867719 -0.9244439 -0.7644541 -1.9673948 3.2816422 2.2300694 0.48827392 1.7532905 -3.6736047 -0.16435677
J. W. Duffin 4.5835514 0.69607335 -0.3857696 5.0916157 -1.2870463 3.9751658 -0.5791416 0.7230098 -1.709567 4.536864 2.777911 1.8640717 1.0821279 3.331048 -0.14336744 -0.7917483 3.5794516 3.9010458 -1.770442 -1.4925897 -8.351203 2.5387692 0.85820025 -2.9048676 -2.9765232 0.28769755 -0.95932585 1.6024497 -0.2673358 2.7780204 -3.8786077 -2.2347577 -1.0343869 -1.376316 1.1302319 0.12676787 -3.5259619 -4.202393 0.79001445 1.4318765 -1.473094 -1.285343 0.28231028 0.40360036 3.500075 -1.0011487 -0.82325417 -1.4109446 2.7661004 2.6160975 1.0882362 -4.928792 -1.9895966 -2.9366498 -0.9228025 1.4075097 0.72454506 -0.29117912 -0.7141845 -1.5786912 4.5936155 0.9412189 -1.5950301 -4.495386
William H. Seward 4.371211 5.5687833 4.386389 3.610929 5.3712854 -1.104131 -6.63592 3.0344994 0.7210644 1.6396837 4.5944433 -3.2440066 0.042226136 6.126051 1.9527931 0.49201742 2.2335942 4.1775346 -1.0443143 3.2307255 -2.9688973 -0.19309746 -2.123976 1.4726744 2.9866014 5.610633 5.7115912 0.4736325 2.1201024 4.894494 0.33200163 3.4416044 -2.3831706 2.2380514 -2.8400478 1.0260772 -1.9979622 -6.136643 3.5633905 -1.5672175 -0.06907842 -2.1045272 9.545812 -0.5620781 -1.8689421 4.2781467 1.699313 -0.8480305 3.4649663 2.4293165 7.0832033 -3.5967221 -1.9700994 -3.912872 -3.1270206 -0.61275494 -0.99088186 1.6134694 -1.2903649 -2.3106863 1.0616558 -1.6637218 -1.6038754 4.033045
Jefferson -1.6493113 7.311466 -1.4471487 -2.364387 4.0947704 -3.9422405 1.7689812 -2.3095644 -3.6056077 -0.6693785 1.4514279 0.51095843 -0.0013124204 -2.53642 1.025154 7.0196323 1.664757 -4.034074 -2.1681826 4.162093 4.02802 -3.1974885 2.14137 -1.0553609 -1.758935 5.047209 -1.974014 -5.2152033 3.060936 -1.5225701 -1.443779 -0.33781612 4.0119915 4.620975 -0.52132934 -0.2677992 1.2341039 4.066036 -2.805886 -0.058892146 0.6925871 0.19101152 -2.2335236 0.3227706 -3.3867671 1.3501905 -5.6889577 0.4463858 -2.2105258 1.0247694 3.415244 6.013689 1.8487161 4.020893 0.17463374 1.5660503 -0.81920654 3.9475877 0.13371168 -4.886778 -0.8642654 1.6666548 -0.9218924 2.8001342
A. G. Beman -0.71181846 1.3718675 1.3303543 -1.215249 -1.3042747 -1.5105376 -3.4916513 0.06299023 1.1317815 -2.814555 4.5053287 2.1900039 2.3637824 -1.0659078 -5.0956836 -5.502706 4.718399 4.3010697 -1.2268151 1.371611 1.3341479 5.318631 4.4151983 1.2895327 -0.38679147 -3.8617196 0.72904235 0.97403014 -1.6767055 -5.4205513 0.761435 -0.35314158 -0.4026484 1.3304844 1.8655642 -3.2844675 1.0362042 1.2984604 0.9910867 1.4796987 -2.335242 2.0010185 -1.7214493 -3.2287004 -1.5064079 0.13954133 -2.0814426 -1.156028 1.8077819 2.5214748 -0.75748426 -5.80611 3.1227925 2.357727 -0.84261936 1.5260663 3.8018143 -4.3912473 4.0221343 -1.9745189 2.5418718 -3.1176586 1.1072916 -1.4093966
Theo 3.5098612 -3.566332 -0.8163392 6.867432 -2.6924553 2.1528697 0.4200769 -0.22157457 -5.889118 -1.5365018 1.1924943 2.0569582 -5.5676117 -1.4107804 -0.79129577 -2.7313778 0.81543183 2.9960914 0.29770863 -0.12330553 -1.402653 -0.7853997 3.9899728 0.8935946 0.8158267 -1.0319232 2.4275827 1.7382196 -2.5333555 0.6565504 -4.492158 1.2888578 0.2693554 -0.12846488 -1.0662712 2.5281372 0.8620023 -2.6355252 0.26285657 3.4097822 2.5003157 -0.44526252 2.7978044 2.6074045 -2.3816824 0.5859196 -0.13260445 2.0943854 -4.2126093 -2.838353 -8.928369 2.2350156 -0.59335256 -3.0604522 -1.3501443 -0.52331614 -6.3625536 0.7493369 0.1747706 -0.05982296 3.7897391 0.36927223 5.1582627 -0.025214946
Stephen Smith -0.38683364 0.30490926 0.83840644 -4.097168 0.27071327 4.1913366 2.701184 -1.5304779 -1.0126795 3.1778111 3.412396 -0.23686601 0.990883 -1.308722 -3.56275 3.7024918 1.7573342 1.0929239 1.3411788 0.023631936 -0.92548317 -0.61961615 1.0964411 0.45327157 -0.038274966 -0.2936089 1.297526 5.400582 3.1388116 -1.1523594 3.6532156 -0.25562367 0.38046786 1.1847054 -0.19715911 2.5501688 -0.31814414 -1.7840858 1.3359447 -2.7403715 -0.15420434 1.8832191 -0.06231038 1.560805 -2.1533616 -3.968285 -1.1759068 0.9495107 -2.017251 3.8454392 -0.07456661 -0.025030065 0.1679888 0.9087167 0.6607237 2.0235574 -1.9343212 1.0792805 2.7939076 0.37929246 -1.4252927 -0.24941331 0.44916987 -3.2505178
1842.IN-07.17.INDI.txt -3.5572956 1.4948139 -2.790596 1.5183568 0.68440056 2.5382173 -2.5891597 -0.121757194 4.6446657 3.0011787 0.5816947 1.8720821 1.7419623 2.9321606 0.68007684 2.4464931 1.029975 -0.28787306 -0.12641504 3.6929936 2.8852499 1.607416 0.33786455 -1.1900681 -1.1944858 2.1286633 5.244842 -1.7183874 1.7180309 0.8712975 0.44981664 -1.4542282 2.4348161 2.8385177 2.955326 -4.117752 -1.585953 -0.11070511 1.3119043 4.180587 1.8110725 4.4169917 4.2137218 3.0872445 0.95661193 3.8097186 3.0783045 0.5270671 2.0900266 -0.8745181 -0.11342403 2.2675455 5.036747 -0.44826376 -1.5829144 -1.6018673 -1.304119 2.0277324 -2.7735567 -1.9632121 3.3733313 -0.73694915 1.8537973 1.2997258
Mason 1.3172537 -6.03585 0.78368515 -0.38312298 -2.9673634 5.6804657 4.7329307 2.9705567 -7.5573473 -2.8625283 1.2837657 -7.3778934 0.47961912 3.3553326 0.60427445 4.5607386 0.5844494 -4.5899487 1.0508741 0.42365322 -6.4886193 1.0740147 -2.5048456 1.560668 -2.7992842 -1.1875678 2.579131 -3.4858012 -0.5703358 -3.951073 1.0461802 -1.8179246 0.045332327 2.4528399 -0.00759595 1.671621 -0.89166695 1.7951467 1.9531035 3.7847755 -2.3001945 1.2297578 3.233101 1.9876088 -1.4377927 7.0725374 -3.14397 -0.8604391 -0.06718028 -4.397677 0.193162 -4.1526637 0.70207864 -1.1246749 3.6914873 -2.7005498 6.4793406 -2.2248402 1.0970329 -4.2710676 -1.9009179 2.5456386 4.280994 3.0701406
