5271 64
1879.TN-05.06.NASH.txt -1.5321954 -2.9368894 3.9696727 5.371166 -2.2537224 -4.9806895 0.108676516 -2.1425855 -1.4381001 0.6947669 -1.5403398 3.6971667 0.6851251 -1.563556 -0.9849793 -0.1430655 2.6005046 -6.705632 -0.30998573 2.0724409 2.150613 -1.9794668 -3.1995287 -0.84029657 4.8067484 2.3933187 2.41122 -3.579889 -3.6269312 -2.6418939 -1.8364421 -2.1539392 0.7772486 -1.8502228 3.229209 1.4726714 2.5560312 -0.50962096 -1.7940067 -2.9108272 3.6485183 -3.7688415 -2.4923878 1.5809455 -2.0708745 -2.5378456 -1.0534647 3.1275356 -1.9743115 -3.6602795 1.6922355 -3.3818533 2.0964909 -2.770142 0.7954025 -1.8188484 0.27884126 3.8153884 -3.3826227 7.085752 7.0589876 1.3353101 0.15952939 2.9529896
1895.TX-05.23.HOUS.txt 0.10940902 1.0684826 -1.3241531 0.73984826 2.151657 2.8272786 1.1858361 0.035928056 1.1462063 3.2760477 3.182159 0.6779031 -2.1894543 0.021315401 -1.0782653 -1.7777499 0.7128194 -1.5369076 5.343036 3.2367792 -2.574839 -1.9297177 -2.3904192 -2.4276817 0.5239003 2.6532345 1.5777882 2.2676 -0.55444634 1.2564427 -0.6822565 1.2349491 3.4230938 -4.3226113 4.1860347 2.128713 -1.4780009 -0.80615234 -2.0869205 -0.20208175 -1.610385 -3.6891615 1.7306755 -0.826365 2.4434984 1.3535208 0.2721405 2.4252648 2.5033464 2.9313312 -1.9264376 -0.7997514 -0.94342387 1.0570624 0.028769765 4.5117044 -3.3003392 0.99428606 2.3549376 4.314504 2.558964 2.938795 1.8648895 -0.06454247
1864.NY-10.04.SYRA.txt -1.4996687 1.4362769 8.266266 0.24717791 -4.1936574 1.5086188 1.6415236 5.501543 -6.0437927 -1.2515122 -4.3945546 11.744335 1.8628716 0.91708314 -3.1927865 -5.675223 -4.7434707 0.72824097 6.6748853 -0.034786474 -2.8298848 -2.4317586 4.9001403 3.9446301 4.2227635 4.249524 -0.12543258 6.2920384 -0.9524201 -3.7709424 -3.762979 4.2252846 -3.8923745 -2.7188349 -1.8681723 -2.9324105 -0.9401029 1.1647401 1.4855876 4.118039 -0.9430234 -2.1355965 -1.1008761 1.932229 -0.083638474 1.3185335 -6.1477385 -0.9773088 3.2219207 0.5707955 0.30880854 4.6186857 -8.664085 -2.8072727 4.199529 -1.8489265 2.9774845 -7.2971373 2.8339312 -3.8759222 -4.9113407 -2.738356 0.53467804 2.146865
1856.CA-12.09.SACR.txt 0.2122139 -4.095525 5.1309915 -5.974647 -3.6730354 -0.1577015 2.522016 1.8595821 0.6439526 -0.3635137 5.580106 -6.8390884 -1.5799773 0.9929719 -0.047030304 1.7076654 -2.6600306 -0.85463434 -5.2034745 0.02061841 1.8931363 5.552159 -0.2031679 -0.7490117 -2.3014054 -3.0333028 -4.750477 2.7888207 4.503411 4.1336875 0.36010435 1.7740504 1.3358837 1.9213619 2.6050532 1.9093324 -0.5367057 -3.8172526 -4.1001263 -9.783527 -0.8136236 4.065925 3.4059937 -5.2016263 5.297254 -3.7618582 -0.24417113 4.6761436 -1.0457693 -4.69422 -3.3149016 4.220944 -3.1294467 -5.766233 3.1558871 -0.5298675 -2.328767 -3.4512868 -0.5549975 1.9505091 -4.7122617 10.105758 -3.0733824 3.8743262
1847.NY-11.06.TROY.txt 0.64164966 1.6037577 -0.41396987 2.6220493 -5.748 -8.11735 1.6516737 -1.6993927 -1.9831237 7.380793 0.92086935 -0.9978381 5.8090672 -1.9013803 0.24589227 3.0885942 6.4482207 -1.8708065 0.5538238 -1.5749456 4.6602182 4.903059 -0.03230337 4.6137304 -4.302631 3.9252214 -3.5159323 2.9773235 5.2184973 -1.788189 -3.5880709 1.814503 0.06712077 2.264466 -1.8507483 1.6913764 6.1785407 2.3446321 -0.8248851 4.0650463 6.063397 7.0293565 -0.4933751 -5.8722754 0.60264117 9.136865 -1.1696827 -7.816781 3.348188 -0.48087868 -3.5854394 -0.9695469 -7.1457644 3.7757528 -4.3701787 -1.0804572 -2.2331254 -0.3935843 6.7681165 -5.832827 1.6324005 -1.42033 2.2987444 -0.4044768
1853.NY-07.06.ROCH.txt 2.6420884 -2.233344 0.6641572 -5.406841 3.137886 1.738297 0.7853225 6.2851257 0.07756926 0.29248732 -1.5451639 -0.14016727 5.9022827 -4.607871 -2.970187 -1.2326819 6.2301383 0.97378176 -9.291146 -2.6316073 -2.9987385 6.887444 0.85766536 2.772545 0.80375826 9.373878 -0.56715065 -1.5484716 -7.1088824 -3.5384326 -9.985364 -4.725061 0.28841355 1.9001253 4.898038 -6.597017 -0.6794173 -1.8546518 4.8925686 2.5475993 -0.2606942 0.43850476 2.9572852 2.1824253 -0.8246347 1.6767989 2.8593562 -4.657562 -4.891133 2.883631 -5.113969 -4.4710884 -1.6092632 2.9268668 2.9030788 -1.1766988 -5.172145 7.871756 0.8958126 -2.0440862 -2.149195 -4.9786534 -2.908036 -3.691791
1855.PA-10.16.PHIL.txt 5.156087 -0.87805945 -8.61643 -0.60175514 -0.6334946 -3.1509335 -1.9903429 -7.7507477 -4.6921844 -1.7662976 -3.104354 -1.3304106 6.5498495 -0.0038904604 -3.6335363 -2.3934202 -3.9115388 4.888403 -2.746667 -0.5042256 5.1438727 -4.004954 -3.1855814 4.348284 -0.9677517 0.037315007 3.4691622 3.1415248 0.52558166 0.9836646 -7.097286 -5.341359 -2.9229226 -1.3738819 -3.001311 -5.0952134 -3.3580391 -3.7678597 6.124307 1.7666683 -3.2004793 -3.6324992 -4.2275505 1.6219906 -2.6254947 5.2243185 5.779092 5.0188375 -5.2914586 2.9695299 -5.341369 1.9703058 -4.672435 3.0103285 -0.16592501 -5.828408 -5.5411143 -7.0503144 1.9646966 -6.867157 -0.9790106 -3.4408107 5.206125 2.854122
1843.MA-08.03.SALE.txt -1.172001 5.225184 -2.2726243 4.615617 -5.2524333 -0.2753956 2.3196216 -0.045507666 1.6805958 -3.6190548 1.0373809 -10.776154 -1.2710093 -7.89997 3.0895615 2.112501 -5.4657736 4.2553725 -0.093946084 -2.9377935 6.9464016 0.6527833 -1.5804077 5.7064505 -0.40890062 1.0331663 -7.343142 -2.904917 0.94057876 -3.997215 -1.6495917 0.65812665 -5.0548506 -2.9180984 -5.058546 -0.26446038 -2.9840715 -2.1998482 6.9277706 2.8269677 1.617022 0.8105647 4.4734416 -4.933746 -0.39120474 -1.6117128 0.3390025 2.2645254 -3.1452372 1.9315407 1.5531784 4.218219 1.6076638 -0.8149827 1.640916 -2.896601 4.8445663 1.0190955 0.40431726 1.3384726 -2.4549494 -0.21014833 0.695443 0.8536609
1840.NY-08.18.ALBA.1.txt -0.22236878 -2.0455208 2.3310022 6.6732626 2.943671 2.9529922 -2.0751202 -1.7011784 -0.057310935 5.4971237 -4.8803263 -2.1825843 5.2815332 1.7576225 6.5943437 4.3019705 -2.6215463 -2.9614596 6.9406414 -4.912032 -0.51521385 0.76010287 0.37599507 -5.253936 -0.8478037 3.0196753 -1.4734228 6.9816303 -5.490316 -3.6037095 -0.1647866 -4.6094785 0.017241687 4.0536394 -6.597055 1.8650267 -1.0461491 -2.465793 0.28530726 -4.5594497 -2.5051227 10.764336 -2.7879739 -6.2161665 -1.3317188 1.171124 3.1119332 -0.0038376567 -0.033717517 -0.66557765 0.8870428 -4.3153615 1.3536767 0.925366 -0.4641008 -1.7386069 7.0658803 -1.9207841 -1.3619063 -12.067536 -0.90805155 -3.2744129 -3.090895 -2.663338
1843.NY-08.15.BUFF.txt 3.7355096 -1.6817945 3.2091982 0.9327019 -5.776476 2.051128 -6.2441654 -2.1013327 -7.6739936 -1.8372571 -1.1413847 -2.2554104 -8.579612 5.265795 -2.1452453 -0.6196061 -1.8002037 2.2738097 -6.6278014 2.9292421 -0.7980788 5.3809505 -7.883317 1.2389683 -1.9198573 -4.510852 -0.530741 1.629458 -6.969925 -4.616613 -3.5187528 3.9891303 0.95354635 2.3542647 -8.928126 -1.5539056 1.6920723 -2.6292582 0.44423392 1.6096647 -5.4627495 7.3016114 -2.197231 -4.652181 -4.0176616 6.2402034 1.2354999 -5.2026033 4.1717367 -6.0984898 2.491661 -4.072006 -0.54262894 -3.2103915 -3.2033534 -0.18860237 -4.8943796 -1.1963828 0.6332951 1.0098231 0.48868266 -1.1540352 -1.4337182 -6.019201
1871.TN-02.22.NASH.txt -4.960635 -3.1705832 7.7665253 2.2193444 -0.06954943 -0.81581473 -3.745712 -3.83743 -0.36788747 0.5250684 -2.727539 -4.073097 3.1247642 2.0906668 0.98911464 4.9421797 4.6477923 -0.3281836 -1.7599564 -5.189928 -4.3601475 -3.145204 4.849607 3.243215 0.08693454 -5.462546 -0.03364961 1.0227414 -2.625896 1.3951285 1.7333524 -1.4902005 5.0673122 -7.2146444 1.23607 -0.18025689 -0.64032257 3.4386494 -1.0563561 -0.5715255 -1.4016888 -4.139319 3.5426733 3.8137386 -0.94924474 2.8162677 0.45205772 1.9543748 2.6270137 2.2001398 -0.99807894 1.2171868 0.816786 0.37099075 2.697624 6.914234 -0.16368894 -1.3944732 0.5601798 11.185681 -1.6863564 2.4161873 -5.0265975 2.0329638
1865.CA-10.25.SACR.txt 0.3924704 2.9619253 2.1033638 -3.8088727 -4.850032 -1.7835579 4.578477 8.802184 8.006562 2.671743 8.857755 -0.20868415 0.04177722 6.8731656 2.6495183 3.3635638 -5.4136257 -1.955129 -3.0435028 5.768761 0.2746007 2.5520866 0.40316588 2.7225652 -3.538904 -3.7830596 1.8837789 1.5092393 -0.1007236 2.1260207 0.08653008 3.6347625 -2.0708234 2.7130024 0.9102229 -0.78830844 -1.3336306 -0.3381105 -4.8029246 -10.619165 -3.6919906 1.7402658 5.6932216 5.796513 0.7328488 -0.3662023 0.8257348 1.1179026 -2.221516 0.4355982 -3.8356953 7.1044607 1.4946442 -0.23946914 3.5033066 -1.2018174 0.3110244 -3.2125072 5.4409986 1.6261744 2.1071596 -0.98004615 -5.3555956 1.5296786
1832.PA-06.04.PHIL.txt 6.0747747 4.401695 -5.8339 0.9345924 2.7576244 7.0467024 2.9120576 7.0438676 2.5602026 4.7009206 -2.7670884 2.9027798 1.4466308 6.5374365 -1.3037353 -1.4535587 7.0466185 -0.629417 1.7781352 1.5686595 4.54226 -3.1797984 -7.637467 1.2287219 -0.4428016 -2.6698499 -3.7304385 -3.1826391 0.13441245 4.2615137 -1.8641732 -4.549825 4.316538 4.5093155 -1.7152466 -1.0744761 5.0606904 5.449156 6.9234056 2.8808055 -2.1921628 -2.1914682 -2.2882898 -3.4813082 0.6085084 -4.6938696 -4.7641525 -5.6188307 -9.760203 1.8289257 6.8521056 5.86224 -0.20248748 -2.6303203 2.5934594 4.3731017 0.3035659 4.050463 3.1809978 1.0444913 -8.044565 -3.4358053 1.1295608 0.073814616
1833.PA-06.03.PHIL.txt -2.3727822 7.324318 -0.058012575 3.3504786 4.0109177 -0.510153 -4.5319734 3.6603532 5.1597395 4.2568507 -5.8229136 -1.5051631 -3.3554173 6.9358187 -5.205209 3.4106226 -0.44208407 -5.9884934 2.1154354 -4.051457 2.7519307 -1.6749434 -4.556543 5.2491565 -0.70543027 6.149272 -4.978783 -7.868414 1.0595074 6.8218536 2.6210365 2.3263428 3.6134374 7.2690315 2.756722 1.01912 -2.898747 0.6715805 5.7143226 2.658064 -6.5686383 0.28658804 -2.9215832 -0.67753357 -1.0406932 -4.6797724 -3.4487612 -4.047226 -6.0050383 2.7514725 0.11060563 1.8024447 -2.7772276 -3.547906 -3.3542588 -4.4065194 -3.497925 5.7575855 -0.43648195 -2.679596 -8.456155 -3.336811 1.5566099 2.0060225
1848.PA-12.13.HARR.txt 5.4621243 4.127948 -2.0179644 -7.5673337 -2.4788141 1.2218397 -4.1889405 7.6826105 -2.9486835 -0.005700381 1.7274334 -3.0892704 -4.271438 -3.5564668 2.0222852 5.8869977 3.3012571 -4.070849 -3.411766 3.8635995 0.66437227 -5.239354 -0.51821524 -1.3982221 2.5564888 -2.0395415 -1.4568138 0.19205143 1.8344666 3.3658254 6.6380587 2.8093278 -4.134131 -0.9435522 -0.45920748 -1.4652902 -5.372331 0.7315474 13.019976 6.0507812 2.5955153 0.99922144 -4.151584 2.4999113 -0.115129426 -2.299297 1.7386162 6.46958 -1.8852049 4.7184424 -1.7934142 2.8731563 -1.1398224 2.114905 5.951361 -3.1591277 -5.9851527 -0.9294007 -0.26671112 -4.6228395 -1.3323826 -4.475264 4.3071566 -2.2318552
1849.CT-09.12.NEWH.txt -0.43480396 -2.267409 -3.4849164 -2.7691882 7.3352494 0.9901477 3.1739442 -3.0592313 2.817931 -4.7085724 -5.0300093 -2.8022366 3.2843401 1.0420709 -4.417915 1.0963049 -1.5621326 -0.71990263 -2.1983612 -2.040756 2.3987472 1.1085509 2.9590082 -0.64834327 -6.559511 -2.2561426 -4.5149345 -1.1814616 1.3849179 -1.6388456 1.5532314 -4.5756373 -2.8579674 3.836726 -1.8021165 -3.436404 6.36326 -0.08736809 -0.09604297 2.2832577 -5.6849637 5.3810062 -2.8319051 -0.48537424 6.5952 8.301592 -2.1303616 0.13635248 -4.514258 1.27448 -0.9700143 -0.70425993 1.5872507 -1.1031833 -0.3954331 -5.518061 -3.841704 1.4897263 4.4168997 2.601838 2.8596454 -7.4913716 -1.6175697 -3.5953948
1834.NY-06.02.NEWY_MINUTES.txt 7.0654163 -0.13309696 -0.41548678 3.5834668 2.1387324 3.8306026 -2.3042223 1.2181157 -2.1872644 3.1224883 -4.4360566 -2.1675427 0.09048833 6.2190123 0.92917705 5.388979 -2.4121315 -3.5826216 -0.64326197 -4.7367435 -0.65998685 -5.334738 -5.8745103 -2.3915122 -3.6818914 4.3708563 -0.34109932 -1.3430848 2.6581635 4.0399723 0.8277565 7.5253353 1.0359788 -2.4447587 0.5272187 -3.366059 -1.7197978 -0.37130007 -0.35607705 8.736128 0.9133211 4.43935 4.72379 -1.4128119 2.9824765 2.597814 -1.5647871 2.019685 -9.213133 1.900558 3.100567 7.8082476 1.8970999 -5.91207 0.58778954 -6.6148624 1.2698232 13.078762 -0.30580565 -2.6224144 -6.525264 -4.3529654 7.6446433 3.192425
1851.NY-07.22.ALBA.txt -0.95070153 -7.0299 -4.236328 -4.4610834 -2.093656 1.9847594 1.8421967 3.3214293 3.049738 -3.8024242 -8.205232 -3.7634194 2.3552494 5.7516685 4.3205714 6.903953 -1.536867 -4.3126974 -2.5372398 1.1815921 -1.6320442 0.04099957 0.4271012 -6.317563 -1.786497 4.785998 -3.0837731 -1.3388847 2.3676214 -0.8144887 -7.616226 1.3560416 -6.596476 -0.60298115 -3.6237805 2.5112274 8.309397 4.7847137 4.0643063 -4.2457576 -2.6826315 -5.89488 -0.99140996 -1.7802377 0.31374672 3.081656 3.7209702 -3.106244 7.8612123 -7.7077045 -0.50137776 -2.3064795 -7.190415 5.425096 -3.8450427 2.4715307 0.58143663 0.3283721 0.44671324 -7.77516 0.027267722 -7.8382525 2.822253 -2.7297146
1844.NY-09.18.SCHE-Minutes.txt -2.3415709 8.201891 2.2306955 0.3561086 4.2919087 3.4523373 -8.768032 1.2468574 -3.7902496 2.4163327 -2.257648 -0.80258125 4.5405607 0.23288149 8.310622 -0.841429 1.3376154 2.2124147 3.0349576 -2.2386034 8.238323 9.211376 0.8041955 -4.088389 -3.841385 -2.2175086 4.017619 1.6606525 -2.7839715 -6.684494 0.72768533 -5.449717 1.5388546 -0.5303992 1.0962094 6.555363 2.2720485 -2.6286795 -2.2362444 -0.57298076 -1.3114815 1.9969356 0.31661764 -0.29853913 0.44676486 2.20372 -0.26472804 -2.0804756 1.1629966 -2.5887134 -1.381045 -3.993082 -5.135692 -2.0409448 2.1318667 0.67960244 5.7702217 -1.2921087 0.9076036 -10.011601 -4.5256524 -5.5701985 4.5133505 0.9443427
1866.PA-08.08.PITT.txt 5.5411806 6.361705 -1.9990947 -0.90475994 3.4395037 -2.0596159 4.566221 1.5728925 -5.5683885 -6.3521314 -1.361382 4.869238 0.4505632 2.2274933 -0.59596455 -2.1333332 -4.2565536 -4.172319 -4.7775383 -4.8301206 -1.7642651 0.13860668 3.5132766 4.619369 1.2944084 -3.7581327 0.045153543 -1.9613003 0.047478516 -2.0242608 0.81450385 0.7880326 0.03712336 -5.705838 -3.4443254 6.289721 -5.5439367 -2.1361308 8.7183075 4.097538 7.611553 -1.0461234 0.27091715 0.068385504 6.7351656 -4.323542 1.0954767 -3.5116022 3.164002 -0.51361066 0.7928051 1.8822194 -0.19718683 -1.8157549 4.058824 -1.8842536 0.6418347 -4.008886 1.9697448 -3.9692287 -1.3332602 5.8711753 -2.2353344 0.32487985
1851.OH-01.15.COLU.txt 2.4857237 -1.4919682 -3.9569378 -6.549951 3.806049 -1.6304185 -9.117138 4.209136 2.0556269 5.3302526 2.1148877 -2.029221 0.9845521 0.98401445 -0.99102944 -8.478507 5.0459223 6.9780564 -6.4856224 -1.4410311 -4.71798 -7.402898 6.917038 -0.21721017 8.9359865 2.018531 -1.1124593 -4.835622 0.33775422 -3.5051727 -1.1880484 4.618254 2.6151552 0.21907817 1.2175226 -4.0253344 2.4894907 4.5404754 3.9051802 0.5245675 1.018906 1.3614494 -1.2107081 1.5953081 -2.1726484 -0.08127507 -0.34914148 -1.0670155 11.206979 -3.0666285 -5.643124 4.5197573 4.2964687 -4.195437 0.71247923 0.24006447 5.1694407 2.8658013 -3.4772236 -4.896427 6.563165 -3.4440339 -4.314664 1.3744687
1855.CA-11.20.SACR.txt -0.5387719 -2.453382 3.5941377 0.8061893 -0.7971119 1.6241075 4.2486615 0.84552497 3.4449532 3.643546 11.751318 -3.9799616 0.50628775 2.0894644 0.3403443 1.7257726 -8.424002 -3.9803452 -3.90062 -0.70398986 -1.2094736 6.0347905 -1.0433496 -1.9339806 0.22816274 -9.479632 1.3445698 -3.5568736 0.9485587 -0.758623 2.4560432 7.639295 -3.3133812 1.9060371 0.49295956 -1.7555019 -6.700993 -3.242422 5.514303 -8.705237 -3.447475 3.9683266 2.4673862 -3.9174023 3.3069186 -2.0596566 -3.777078 -1.1817659 -5.5516973 1.0560939 -8.25307 -0.15766957 -0.073409416 -1.5152398 2.012209 4.5754943 0.98903954 -5.580025 2.912213 2.1668315 0.47464588 8.594429 -0.22954477 -0.5529935
1850.OH-01.09.COLU.txt -3.5547097 -1.2374692 -7.192241 2.7970665 0.720466 -2.0837595 -6.5996375 7.6017814 0.27932188 -1.7896363 2.4442267 3.4469738 -0.50273883 4.3427467 -1.283445 -0.5974986 9.414815 11.091706 -3.8998017 0.28974888 -1.5974609 6.5322356 3.3914833 1.312671 4.234903 5.3948894 1.1590793 -2.1745186 3.0928817 -1.3861485 6.8558536 -0.071091294 -6.228542 -4.782441 -2.5081642 -8.322151 0.21928419 6.210386 -1.0525199 -0.24087375 -4.682298 -0.4315019 -3.1073182 -0.76167375 4.5553236 -2.221733 4.791715 1.0538664 6.266733 -4.149339 -4.5038433 -2.7931483 5.432752 -2.0813477 -1.375199 -2.4193382 5.0954113 4.7102594 -1.4511117 -3.1891458 3.9834952 1.5654093 3.0263069 0.6811111
1871.KY-01.01.FRAN.txt -0.098093875 -2.408671 -0.78024304 -4.567697 1.4610602 2.1094387 -2.0135744 -1.1602391 0.4897293 3.0868607 -2.1655498 0.46417904 4.238732 0.19080098 2.3900445 5.8339095 -1.6468382 0.4218422 1.0343455 1.0288857 -4.3551426 3.4062083 -4.680942 -2.1128757 -2.7931337 -0.16505814 4.9014225 -2.5667522 2.4583082 1.7623367 1.231807 -2.0922945 1.0785416 -4.542114 3.7122376 1.2787724 -1.4778203 -2.981123 3.1023662 -3.268327 0.31655255 -8.89219 -0.97664243 -3.9874592 -5.509665 0.6854189 1.4471495 5.179412 4.1602993 -0.31080395 -2.3117182 4.461498 5.7674694 2.1990633 0.14911368 -6.1284513 -0.31241423 -0.8517953 -1.7180365 4.185663 -1.0053798 0.8471784 -8.492892 -5.6192293
1841.ME-10.06.PORT.02.txt -6.8729925 -1.2493172 -2.1970737 -3.0594375 -1.5381871 -8.663975 -4.1110215 -1.366349 -5.948045 -2.6888423 -1.3019398 -2.9795942 1.3523457 0.5460926 -0.24412338 0.23997201 -5.3323226 5.1627183 -2.7006783 1.1781768 -5.8649406 4.9199414 -3.1654394 -1.128769 0.21159256 -1.2839574 -3.9986844 4.1634307 -3.2180595 6.921673 -5.732032 -1.6368454 -0.8227246 4.4026656 3.3154833 -2.2353835 0.611657 -2.0838952 -0.080019586 -2.8191733 3.9412282 0.0009761161 0.24507244 2.0892663 -1.1315416 0.39618254 -2.7189577 -1.8187059 0.15897562 -2.6819096 0.31521946 -3.2235847 0.8380599 3.8737895 3.93806 -1.9198836 2.6177058 1.5550796 -2.6002293 0.17346825 0.5121844 -6.144097 7.3876047 -5.9377527
1853.IL-10.06.CHIC.txt -2.9426565 -7.1856427 4.278514 -3.1270704 7.238068 9.1660185 -0.81021464 -1.2546475 5.165592 -1.3684919 7.042296 0.748141 -0.89520216 -0.759263 1.221164 1.845987 -4.1518393 8.985692 -3.4652948 -2.0256991 -3.590088 -1.2427636 -2.4197488 3.492775 -1.6995091 6.8586373 1.2718114 -0.4241848 -5.516853 3.0114202 3.3682797 -5.1446137 4.751037 4.18809 -2.909009 0.73124963 -2.0252457 4.1768603 2.3669772 0.31769294 5.6464477 -3.6276183 -1.7058855 -3.086384 -6.826138 -2.0285392 2.7157347 -7.700371 2.055422 -2.3704755 -4.396923 2.9261932 -5.710295 3.4512472 -0.5289834 -4.8459716 -0.72952724 3.456899 -0.49780536 2.9062939 5.9755187 2.5072095 -0.24994767 3.8863926
1851.ON-09.11.TORO.txt -0.5681826 0.59827054 -1.7984107 -3.164943 0.46763387 -2.3831248 -0.85225093 -1.0442367 4.787564 2.071498 -2.1502323 -1.0009755 -4.1298895 -6.229573 -0.3993776 -0.29224223 0.9894704 -2.155113 -0.8897625 8.267945 -3.627033 -1.4492909 2.1388817 3.570544 -2.4672623 -2.1754608 5.596168 3.3981845 7.169018 -1.7743459 -3.8618667 -3.7201834 1.2651632 -2.0852075 -2.4454274 -4.614999 -4.4541483 -4.799533 -1.4280866 4.445033 -7.4091396 1.7647555 -2.510668 0.090772085 0.71202886 3.1001046 -2.693698 -3.8913145 -2.468955 -4.0522313 -0.839978 -2.9741814 -4.5437646 2.7634735 -5.3702316 -0.33245432 2.0874214 3.5562503 -6.3672967 -1.2895595 -0.34821737 0.2023711 1.8036205 -2.6004388
1855.NY-09.04.TROY.txt 2.711836 4.8137074 0.28504577 5.8765035 -3.5206118 11.328743 2.4561858 -3.2892878 -6.5437446 0.13800499 -2.4325273 -3.3806422 -0.8022634 3.3643746 0.6382231 -3.8013666 4.152907 -3.081014 -4.4823194 0.096243985 0.660811 -1.5840712 -7.075088 0.9438187 0.4030096 1.8440293 2.3889494 6.9135957 4.39603 -0.26294777 -2.8618186 -3.2890933 -1.1169589 4.18017 -5.4838066 -2.0173314 2.4180005 -1.2704645 -2.553376 -8.667937 3.3217287 -10.8454275 -2.35148 0.8717065 5.595366 3.231606 1.2602636 -7.3419366 1.4731671 2.0377536 -8.120324 -5.0906734 -1.0210916 7.0156665 0.6624081 -7.391478 4.497451 -2.0575614 -1.1674478 -3.8257275 -1.3997737 -5.082241 -1.5595481 4.6110754
1831.PA-06.06.PHIL.txt 2.44284 3.7126625 -5.9434266 1.7895441 2.3400025 4.1819854 6.1025996 5.796242 7.8739643 -1.1142415 -1.9155751 -1.6113343 2.9580824 3.2832787 0.18665208 1.2843533 10.695628 -1.2757356 1.3709867 -3.9666076 3.6715815 -1.3227308 -2.102252 -5.542748 2.3527026 -1.9004453 -8.162499 -2.0451982 2.0277917 11.621112 -2.4912217 -1.9106023 0.22693735 5.794546 -2.1857805 -2.3898761 -2.230583 2.34825 4.3954973 5.373952 1.4246113 4.167246 -1.7501024 -0.066964276 -7.11229 -1.9931201 -1.2484573 -4.301988 -5.8739696 2.7816877 6.8448195 3.2866075 1.8076478 -1.6549767 -3.7547972 0.40833893 0.46220562 2.8176374 0.6111223 -3.308071 -5.395711 -3.314917 -0.25922325 7.897399
1843.MI-10.26.DETR.txt -3.223166 0.9264809 2.3908188 4.276314 2.4398432 5.070152 -2.4699554 -6.5122466 -2.9239316 -0.595379 6.944305 -3.7134726 1.8118519 -3.1228404 -4.798936 -0.71006566 3.6453674 -6.672945 -2.286798 3.3465455 -1.791439 -4.043571 5.53593 -0.04969933 -1.772097 -0.7688158 4.8258014 1.0778067 -0.052069042 0.5386758 -1.0253757 0.16259408 6.4038076 1.0773698 -1.8014406 1.2926178 5.8652735 -1.4379166 -5.779985 3.5113633 -5.063854 1.2779772 0.47711262 -2.775897 -5.0316253 -1.3078427 -4.3471994 -2.1021197 -0.53142613 -3.029345 -0.484697 1.4157298 -0.072429426 3.3978984 5.305382 2.4655378 -3.7611625 6.3389435 -9.272034 -3.5532644 3.8160648 -1.8295293 -6.182729 -2.162751
1856.IL-11.13.ALTO.txt -2.9432309 -1.9755992 0.19202274 -0.01873969 1.5446461 9.381289 -5.69348 -2.1076992 -0.6317488 2.2507417 4.3253274 0.5151028 -1.3242847 -0.8910453 -1.1153809 3.1629238 -8.380125 4.497027 -2.8151186 -0.5848858 0.12938918 0.8356882 0.33710295 -0.036645383 -0.6971712 -2.217072 2.5257986 3.2105925 1.5330848 -6.856639 1.5111715 -0.6839896 1.6817952 4.399747 0.78770286 -7.081748 5.9995847 1.4729211 1.7860373 -5.5386643 7.2196016 -1.8142322 -7.659541 1.0612297 -6.2819233 -8.313432 2.0375862 -4.276892 5.219783 -0.54604477 -1.4277 2.7404494 -0.86000764 4.2388625 -2.921596 -4.2854505 -2.8142674 10.436065 4.931324 2.0397155 0.24642599 3.1967845 0.9236218 2.9803853
1857.OH-01.21.COLU.txt 4.611676 -3.519239 -1.7731297 -2.893266 -3.3004472 -6.468151 -7.0256114 8.044419 1.8320969 -2.6691053 5.3948555 1.6293153 -1.9943434 6.7628603 -0.23858565 -6.255037 -0.2557485 11.45603 0.33381286 -1.3853503 3.5581808 -5.9568944 7.675654 0.9556644 -0.3985259 2.7802413 0.5449261 -1.368126 -3.893857 -3.7965662 4.643652 2.3308485 -4.741989 7.7768373 -0.41219848 -6.7410293 0.57935387 -7.0579386 -2.6993504 -6.0203924 2.6760447 -5.26684 -0.2924784 -2.2344086 1.4710029 1.8563112 -3.0945945 1.7090957 5.5815163 -2.1855123 -2.0088103 -1.9161335 -3.0296106 7.104129 2.457396 0.6811911 2.239031 9.793571 -0.73275834 2.4047582 1.6278949 -1.5211753 -3.4966068 -3.88422
1867.PA-01.08.PHIL.02.txt -2.8969722 3.9312398 -4.082247 0.83874416 8.889162 -1.5507345 -1.3374177 3.2500656 -8.031054 3.758248 -2.4982154 3.286555 -6.3664436 0.82697 -0.97065246 2.2019901 -9.426212 2.727106 2.8057308 -2.5005407 -1.6135349 -2.4954863 -2.2235932 3.3123052 4.045204 -1.2132175 1.6363859 -2.5573707 2.8878758 -2.2128391 -7.484891 -2.0430665 -2.8714755 -6.836961 -0.9789092 3.13088 0.70642227 6.1687455 -3.3575873 3.1701984 0.611343 1.4098059 -0.493272 3.7796698 0.03515736 -0.40707615 -6.809615 1.0468802 1.765161 3.740839 -0.949221 -3.1504676 -0.23089279 -0.108281285 3.911225 3.008891 -0.6205706 1.9077184 0.25885716 -3.1145203 3.7363632 3.3447483 -6.7560062 8.241649
1858.MA-08.01.NEWB.txt 1.242884 -4.7368956 6.605629 -2.270386 -2.3521926 -0.027151756 3.0568216 0.94180804 -2.8642921 6.9615893 -5.9421067 6.5523586 5.1876655 5.8382716 -0.5533741 -0.037130527 -0.6384227 5.37806 0.16704443 3.1116323 1.8886069 0.90086985 -3.3293374 2.248445 -0.29637888 -3.7936237 -3.5428646 -4.9818277 2.0476978 -1.1582031 -1.2437365 3.2852597 1.1355643 -3.4354537 -5.3374214 2.077457 -4.799587 -3.3490365 -0.2142817 7.4557767 -1.7739884 0.79976183 2.5273004 -6.907635 -2.8187711 -2.833547 -1.9942931 0.051378082 -0.67084706 -0.8832714 -7.069472 0.8870662 5.5164204 8.152337 -2.4958375 -0.8904646 -5.9760594 -1.2188975 -10.254048 -4.6951084 0.55072254 -7.3584695 1.5043862 2.8031294
1865.NJ-07.13.TREN.txt 6.326622 3.3034344 0.8109254 1.3126307 -1.8456689 0.6441753 8.6488695 1.3412966 -6.7901917 2.1512182 2.553279 -5.614685 -2.6988587 1.4443369 -5.5444684 1.5568463 -3.2856877 1.8509144 0.9679894 -7.387175 2.760996 3.567493 1.3194653 7.0917068 -1.6910152 0.16147333 0.59702194 -1.6524223 2.4743629 2.0294998 -1.3342903 0.036037777 -2.3486428 -3.9957676 1.5085933 -0.38336748 -2.2838008 0.43420318 0.813925 -1.6353204 -1.5715189 -0.025446955 -3.7402973 -3.595508 -0.9272776 -3.203401 -1.5774686 -1.2793505 -1.688087 3.828343 8.040952 -1.0941826 -2.1916122 -2.900533 -2.7127821 -1.1085397 5.247739 2.354067 -6.6012015 1.4574628 3.0539827 -9.106503 -0.29352453 -2.4957538
1868.IA-02.12.DESM.txt -6.8572984 -6.12921 -0.25124246 0.96670586 -4.357674 -2.3983564 -3.3515933 -1.4357346 0.2572032 -3.7705202 -2.5442986 4.4984016 -2.2240224 0.033410963 1.4051483 -4.650785 -0.09011507 0.99449605 1.1536659 -0.13949504 0.7063257 -4.2785726 -0.86034197 -2.2635782 -5.09375 -1.1650856 0.60085654 2.4940841 -1.3485324 1.1761421 -5.254719 -0.35187134 2.0070553 0.61870223 -3.3860037 0.54743975 -1.2747186 7.739613 1.2943586 -1.4372814 0.28655073 -0.6137476 0.24085832 5.6176796 1.7745619 2.7050393 0.8242529 0.2874224 -0.4849686 -2.9734113 -2.3755207 -1.6000061 5.854763 -0.6140478 3.2276742 1.3051834 0.8143082 -5.353244 2.4083114 -2.9967985 -4.8939486 7.626297 -2.622143 1.4482872
1848.OH-09.06.CLEV.txt 0.07045529 -4.6224065 -6.489885 6.074366 2.4494214 6.3157306 -9.004844 -0.09191592 6.001552 4.4642982 1.6943932 5.085173 -1.361244 1.6398408 -0.50530964 3.6751013 4.61739 1.4545592 -3.0451055 1.7125045 2.428642 3.077541 6.2820034 2.8308501 10.321867 1.272428 -0.27692455 1.7831258 3.6890247 -0.95804906 -3.116148 -0.14972556 -6.716465 1.8895931 -8.844413 0.9898138 -0.7818153 0.16079909 2.0899706 5.1575756 -5.5288057 -3.563655 3.9312673 -0.8627611 -4.331428 6.3124294 -4.7358 -4.4783173 2.710791 -6.3214417 0.98954284 -7.031658 -1.4098872 -1.7961696 7.7968984 -6.297803 -1.0692788 5.7059784 -0.222794 1.5963908 2.4442506 3.3539102 5.4103007 -7.475211
1840.NY-08.18.ALBA.2.txt 4.392291 0.91707385 0.92906046 8.238434 -4.036365 6.235011 -0.86081195 -0.3536772 -6.5105667 5.901588 -4.032712 1.939683 2.0540884 1.2132081 9.91259 7.6176496 -4.4794745 -2.4157734 1.4522887 -2.9476626 3.1407504 1.5987307 3.5972912 -0.31461623 -1.3697362 3.7231371 -9.293004 -1.0296996 -3.6538298 0.60247564 -3.7838404 -4.6982465 3.0518177 2.2952902 -2.3092928 2.591515 -3.5267622 -10.240341 -2.197822 1.5020803 -8.237115 3.573642 -7.438236 -2.4119387 -1.1051615 5.9674683 8.503225 -1.3049114 -1.184218 -1.7620753 0.5370324 -3.1781642 -0.39077476 4.1041303 2.997728 1.8033314 7.5304966 1.6567577 5.8814898 -5.658123 -1.0498931 -0.21766198 -2.1060739 -0.4007776
1858.ON-05.08.CHAT.txt 3.2801692 5.0007753 1.9396863 -2.8880954 1.1307234 2.274303 -1.8405149 -3.7444098 2.9870296 5.9656744 0.2642761 1.2243862 -3.8332813 -0.9442594 1.5208405 6.3629503 2.9799898 4.4082956 -1.9733337 6.065917 -3.1678944 0.28772527 0.18460886 0.37780842 -7.7044215 3.3308113 -0.33889815 -0.79414564 -2.1601691 -1.9423882 0.16447148 1.605161 -0.072288185 5.655214 -2.3395123 0.10963091 1.4873714 -0.85858434 -4.2190857 7.0022473 -5.226968 -6.734509 7.061107 3.543055 0.12450385 -8.697943 -1.7468779 0.03305443 5.391294 4.334192 0.6559892 1.8785397 -5.8309727 -3.9086075 0.87926245 -1.6055294 1.0411067 2.2507584 -3.5962431 -0.3790167 6.678286 2.845987 1.5533864 1.8770566
1866.KS-10.17.LAWR.txt 1.1549104 1.1349853 -2.5475566 1.1229147 2.440803 1.1744453 2.9201484 6.7899966 1.2993637 7.011006 -0.8061518 0.6935278 -0.51559424 -0.66422504 4.381314 -0.30777776 -2.6197908 5.420746 -2.10429 -7.709153 -8.073271 -2.1127107 1.784452 -2.1178029 -0.8987736 -2.949403 4.5932508 -0.26607832 -1.095998 2.9782891 3.509879 8.803611 -6.585946 4.912777 -5.5830626 -1.3369261 2.8187263 -0.18180923 -0.3936399 1.9539769 2.2480733 -0.6146523 -4.2294335 -8.065254 1.6111885 -0.474418 -1.1879647 -1.041608 0.09867198 -3.8888197 4.98451 -4.1065774 -1.9542167 -0.02090762 1.6864852 4.9374576 -5.611973 -1.6708783 -0.874653 -6.200332 2.2749698 1.3357581 -3.3371656 2.5472674
1856.OH-01.16.COLU.txt -1.513279 -0.99716693 0.24737553 3.4245 -0.6860096 0.9682372 -6.865392 4.0204115 3.9587424 -2.7040536 1.612468 2.334132 2.9897666 0.7070231 -1.8609269 -8.074924 4.49579 11.91224 -5.0260777 2.452257 -7.264667 -4.0873747 1.4463519 8.859542 5.5129175 3.723697 -1.9191257 0.94912434 -1.3016268 -6.1774936 4.1477075 5.637306 -5.265403 4.6230135 3.4975832 1.3924664 4.0362716 0.62489635 1.323383 -0.10861567 -4.769142 -3.9521432 -2.6495392 2.3857267 7.559572 3.165692 -2.7589288 2.9773293 0.14161457 2.0185723 3.3914664 3.0688982 2.462315 1.9515572 2.0260131 -1.5257257 0.29316828 3.8122258 -3.078571 -5.7881093 4.6828947 3.6008108 3.05642 -8.553951
1830.PA-09.24.PHIL.txt 4.317778 -0.79295874 -1.8825798 5.2186484 5.6728997 -1.3785532 2.705675 4.0270705 3.7376425 -0.9665983 -1.3174566 0.6908261 -5.30118 3.0098221 1.0837872 -1.5864131 5.950905 2.7495453 1.6660362 -6.007904 9.593802 -2.0862262 -0.9439786 0.1166689 0.34399766 -0.5799247 -7.1274767 -1.5078403 -1.0947617 6.114567 1.4036999 0.017088752 5.1276755 2.168104 -1.4002218 1.0360339 -4.9598274 4.4950867 -0.961934 5.906545 -6.915601 -1.1532602 0.2865846 1.6855367 -0.6870578 -3.3372915 -0.3030599 -0.92799926 -11.611286 1.1763865 2.9977207 1.2803919 -3.3058243 2.3020875 0.9972145 9.498226 1.8637443 3.1798158 -0.31688467 -5.8246956 1.1973413 -4.624093 12.244233 3.759042
1854.NY-01.02.ALBA.txt 8.963725 0.7309 0.20867172 -8.562106 1.6293495 1.3450121 -9.061037 -1.798805 -2.5474994 -2.678436 -0.5650679 -1.4238703 -1.1807165 -0.278601 4.325606 6.034665 3.4356277 -5.6956058 9.398642 -4.142064 1.7713687 1.4295667 -2.073757 2.7533615 3.7668679 -1.4880435 1.4160925 -0.9606141 0.6405082 -0.3176934 -13.227451 2.2918725 -0.4026739 3.2887046 -1.3477993 -1.4557384 7.946461 -4.8986955 0.9324273 -4.889051 -5.1066704 -1.0485846 3.416033 1.1594193 8.296649 -4.5226183 3.9898748 -7.1046443 -1.7105348 0.38909268 -0.7897725 0.07726078 -1.2850621 8.407507 -3.4223292 -3.825109 -1.9697691 -5.850326 3.6586297 -6.562511 -1.7674655 0.58249295 -0.87470967 2.6186547
1850.NY-08.21.CAZE.txt -1.7611 -3.0076463 0.907422 -4.582764 -0.31289637 3.851803 -3.022408 -3.9636736 4.9181476 -4.1521993 -0.58879167 -3.9430008 -3.5446007 4.418265 1.8733464 -1.2755489 4.2205763 -1.6531271 3.2302139 2.7795012 -4.4950714 6.6784883 -3.5269887 1.755149 2.2048407 2.6463447 2.0407279 -0.9643197 -4.5592623 1.9248534 -3.1023335 -0.25733814 2.9300158 -1.9762485 1.1915324 -2.3268132 6.841247 -4.784042 2.8849034 4.827732 2.3853729 -0.30410284 6.596083 -1.7765254 3.3274686 3.108269 -0.93764466 3.4493113 -2.8189151 1.1150054 -0.9518502 -4.2971945 -6.830467 4.57696 -1.5867872 -3.1331346 5.111821 0.72245634 0.93643457 -5.9627542 6.41729 2.593028 -1.1071007 1.0903305
1854.MA-01.02.BOST.txt 3.8943496 -2.4876664 4.625304 -1.36572 -5.0002904 6.416114 2.4537296 -5.541532 8.47946 2.8819141 5.24892 1.111712 4.189475 0.90897053 -2.7629578 -1.3804656 1.6750876 5.038687 4.4183483 -0.73039347 4.5130076 6.4851336 2.1174483 2.7138536 -8.667747 4.713341 2.2278218 -4.640298 -4.291245 5.370951 -0.2993178 6.7510347 -2.9363942 -5.2861347 -2.7957163 -0.4153253 1.7983592 -5.8690953 4.162575 -0.49457946 3.282688 0.057754643 -2.2722785 3.116695 -1.738101 -0.7521315 5.0053926 -0.29084295 -1.9653473 -4.5109067 -5.3159957 -5.6762457 -0.18702771 4.174561 4.225394 0.3537228 -5.910444 -0.0240926 -3.955267 1.0020626 -2.4800606 -2.688932 5.6841288 -0.59456515
1863.KS-10.13.LEAV.txt -4.374954 -0.67181736 0.54998696 -3.9925659 0.4903545 -0.20254982 0.3721364 -1.4906251 0.17562042 -0.80158687 4.6949115 -0.20756884 -1.9085567 -2.5933056 -2.5016797 1.8948321 0.7377499 4.179779 -3.4134429 -8.290423 5.123581 7.2855754 1.1304572 4.5763717 -2.1717007 -4.3713923 -0.45917112 0.5173213 -0.52744097 -1.4520088 8.360149 6.081258 -6.598853 0.28803065 -1.4331359 -9.587147 1.7043314 5.585603 -0.34799054 -5.615828 -0.3987016 1.4889271 -0.8235706 -3.8577206 2.8659115 -3.5468786 -7.0858126 -0.7899589 -2.9101272 -5.9670486 -2.1224544 2.22697 3.4716845 1.474428 -5.6364446 1.376304 0.40451232 -3.1019537 -3.1210673 -2.7931244 2.605381 3.2547362 -2.6872878 -8.181118
1857.IA-01.05.MUSC.txt -2.7018275 -7.5798006 -0.66109914 -1.5839219 0.6901965 1.7068231 -0.12287619 -1.3946452 -0.46085185 -4.254309 -1.3580966 4.5209455 0.57084686 2.4425926 -4.497309 -3.4736292 1.8993893 -1.3319548 7.1023216 7.679966 5.589587 -6.2500815 3.3445969 6.1924334 -0.08505016 0.10654553 -1.0416957 3.750065 1.7524098 3.1377602 -1.9913553 -0.12084811 4.403681 -2.9401507 3.1560562 0.8828641 -5.5046 4.119813 5.4672956 -4.0559 4.055909 7.06632 -1.415766 6.6063805 -0.26250964 -0.7484402 4.753471 -1.4421062 0.41381767 1.2992225 -3.0265548 1.5751969 6.6316667 -2.5510125 4.665668 1.9557142 1.5923176 -0.3683568 -0.3180768 4.1266913 -2.35344 6.646417 3.8921425 -5.5115247
1852.MD-07.27.BALT.txt 0.6986246 -1.8306059 -4.221985 -4.059018 -1.4222902 -1.7100072 0.7629199 -4.309138 1.9179158 -8.610724 9.66281 0.91887724 2.8349102 1.0599043 4.277642 -5.4638624 -3.5909865 0.49560183 -0.046452377 1.4043627 -3.1161215 0.27824253 -5.331101 -0.81065184 7.0103846 2.968059 -5.210405 -1.818798 1.9816477 1.6434312 -3.2796679 -4.7623057 -1.1310339 -5.652473 -2.1554267 -5.4046597 -1.025934 -3.2680929 1.925013 -1.0159305 1.6624314 4.325483 0.41652521 -1.0383546 3.540025 2.140092 0.022029724 -1.9853369 -2.962757 -5.3281083 0.92633134 0.679378 -1.2311313 6.201228 5.872663 2.358093 2.2255619 -6.371584 -4.102035 4.056748 10.547556 -1.869043 2.977319 4.413333
1865.MA-12.20.BOST.txt 1.8577061 7.2063227 2.1385224 1.2795929 2.4294999 1.4247086 -1.8804586 -3.265116 -2.3434691 -2.1213298 -7.165339 9.201461 -0.033897396 -0.28355423 -4.840998 -2.888708 -4.548041 3.0761504 0.8023795 3.4200032 4.908293 3.7876267 1.4338547 2.4203942 0.75372857 5.34738 -10.712697 4.743418 1.0360276 2.8567605 -0.7060066 5.2249846 4.374632 -13.344383 3.074658 -4.3547783 0.30990443 -1.852292 4.916779 -9.029263 0.89136964 2.0402782 3.8654397 1.8718278 -3.7241163 6.7339554 -0.115382805 -0.72157323 0.90437996 -2.14474 -7.290434 -0.1324295 0.8813729 8.25902 -3.3861854 1.8437337 -8.683275 4.2026625 -1.7073269 -1.6793629 -3.0539753 -2.3999283 2.7929678 2.651192
1851.IN-08.01.INDI.2.txt -12.630832 -3.5547662 -3.8248024 5.961382 -0.30283397 -0.090615384 4.920822 2.9694963 8.0086975 -1.2229174 -7.0720053 5.3438253 3.8793092 0.9457031 -1.6506294 -2.4447436 -1.8656833 0.8606823 -1.6952869 5.616156 -2.2147884 -0.42325872 5.194208 -2.7670224 -4.133137 -0.9027426 -1.7505728 3.610858 0.03516087 -2.4853475 11.168234 -2.5112143 3.3443222 2.37219 -1.8481345 -2.3082142 -4.4553137 0.34479982 -3.7654607 2.6343195 -2.2980745 -1.3473196 -2.3289149 1.7518423 -3.2369125 0.91504514 4.015235 6.860288 3.1363485 -0.44849828 -6.3017883 -1.4720901 -0.25921035 -5.454241 3.8812919 0.7475845 0.6920706 -0.7865666 3.0537121 0.11745306 2.4854674 2.555993 -0.07551236 -3.6224153
1865.NC-09.29.RALE.01.txt 4.034358 2.0047164 3.360741 7.891079 -5.8109746 3.8586102 0.13201228 4.6573167 5.5832295 -0.1623644 0.60860324 -0.9171601 -6.6205983 1.8408997 -4.184952 -5.7334514 -4.249045 -0.04061138 -5.731647 -5.0564175 -1.2478933 -1.5212531 1.8686489 -5.701542 1.7412153 -4.253844 3.7256408 -2.3906827 1.4609003 -4.1729636 -0.8333718 0.6401657 13.812476 -9.495302 7.600429 -2.191263 0.5835726 10.241338 -3.5301707 -0.5214748 -2.1783745 -3.2909257 -2.3204918 -2.3837698 3.4654977 3.4201765 -1.5173359 -1.8424094 4.2418976 -1.5258675 -0.5709632 0.5289804 -6.1848183 7.653752 7.1106377 -13.675264 -1.9364245 -7.880618 -4.357349 -1.0554785 3.0953553 -2.1609514 3.538341 -4.093044
1865.NC-09.29.RALE.txt 3.8020425 1.6630853 3.6098654 7.7709413 -5.7349987 3.5055065 -0.040138252 4.804719 5.681923 -0.14190033 0.5054746 -0.82034945 -6.5483313 1.9616061 -4.0547233 -5.8363957 -4.3732967 -0.055557918 -5.5620418 -5.5529633 -1.6224425 -1.3390917 1.8966566 -5.8713403 1.7007213 -4.0915437 3.913017 -2.6146686 1.3408196 -4.4767003 -0.720566 0.67349905 13.702587 -9.463664 7.534079 -2.2856362 0.72514814 10.173613 -3.7250955 -0.5383016 -2.3543236 -3.565677 -2.0192142 -2.6410093 3.5652099 3.4176824 -1.5934341 -1.9541135 4.72142 -1.8154404 -0.7800467 0.71507674 -6.1919107 7.1257157 6.8551803 -13.677993 -1.9919218 -7.940363 -4.615599 -1.3400025 3.1063826 -2.0486274 3.8150268 -4.1256094
1883.KY-09.24.LOUI.txt -1.8400708 3.1782749 7.9717164 5.1787558 0.5722114 1.1748914 -0.001636447 1.5810486 5.129356 -5.6145315 3.133699 -3.7107508 2.2922864 -2.2020338 -1.8656704 0.5086973 -1.8033398 -4.086196 3.8479917 -0.47613057 -0.64007676 5.6707463 2.4250023 -6.129646 11.006237 -3.0036373 4.3868403 -2.1746018 -1.9187211 -0.077329725 5.0925674 -0.24357586 -1.1253352 -3.759777 -0.64169174 0.6668235 4.10448 -4.1977444 -10.173164 -0.6883113 1.5453479 -1.5669945 -1.1190219 1.8351923 -1.3614178 -0.5291806 5.6524324 -2.218068 0.10304837 -1.455204 0.5893262 3.8657181 -9.295238 7.2588105 -2.8855538 -2.0944722 -6.518268 1.5897107 -1.9548371 -1.5812882 4.988516 -8.130521 1.8019737 0.51517415
1865.NC-09.29.RALE.02.txt 3.8385124 3.5769527 4.923082 6.757268 -5.4139357 2.8752313 2.9625669 1.8862449 7.239869 1.2932855 3.6106207 -0.046469554 -5.2362556 -1.3128614 -5.676462 -7.232066 -2.8983915 -2.299113 -7.2602053 -5.326344 -4.5229244 0.7781279 -1.0633045 -7.9396315 3.0058982 -4.8826413 1.5967958 -4.4581065 2.4143474 -3.054751 -1.3289663 0.4530093 11.569045 -11.764319 5.6344347 -3.104761 3.2382824 12.768253 -2.4224052 0.39700803 -2.8574245 -5.006241 -2.0709975 0.011926051 -0.8534643 4.3536572 -0.57367194 1.0034382 4.4702873 -2.5655127 2.0704663 -3.1559427 -5.1452265 4.5297165 4.1932135 -15.781843 1.0339149 -8.709842 -3.923107 -2.109728 1.762526 -1.3350906 1.5363337 -0.67851174
1863.NY-07.16.POUG.txt -7.497451 0.7200695 9.849768 0.47650686 -3.0852232 -3.1545236 1.3222593 0.7866991 -5.261869 0.16309485 -6.419214 -1.1835517 -4.791599 1.6759384 -2.0346627 -2.0345259 1.2825366 1.7396604 7.33917 3.0550084 -5.4008236 0.7608743 -0.00026348373 2.924422 -0.88793474 -7.173826 1.7863147 -3.9077907 -3.4038768 0.36246097 -6.666238 -2.0905364 1.1625041 2.1753821 -1.1251696 2.7257693 6.965912 4.8289094 6.2208366 -2.4798152 -6.4034534 5.1280403 -1.250031 -7.5653715 2.906963 -1.3179042 12.740881 -3.7586832 -0.2514025 6.6211147 -4.5745726 0.4034266 -4.7823586 0.18461771 8.72031 -4.0125217 1.4597688 -0.4843633 -0.5608316 -0.7439251 1.920944 -1.2601526 0.8890952 8.820374
1858.NY-09.14.TROY.txt -4.964955 -6.706917 -0.59594584 0.47466257 0.95037 2.9948032 -4.071539 8.071995 -1.7716961 -11.259247 -4.159269 -2.7796662 -1.772785 4.6098366 4.412753 9.817383 3.7243412 -1.1669317 -0.50914466 -1.3534093 2.030704 4.180876 -1.7665449 2.28981 0.041113265 4.1325264 7.7854357 11.507253 -4.2754374 -5.510967 -4.442809 6.452301 -0.10139691 -6.009132 -3.2233958 5.5752525 1.9596364 -9.490006 -1.08472 -4.1185555 -1.3013579 2.507285 -4.6559024 -5.2392063 5.489179 2.1465971 -8.341478 -4.918855 1.9232484 -1.7218857 -8.959417 7.061533 4.8244586 3.3831377 -0.096010566 5.2356424 1.0446366 0.06333175 2.116564 1.7180593 5.961646 -8.512402 2.942197 6.0009465
1849.NJ-08.21.TREN.txt 3.1214817 0.5955795 -2.010213 4.906757 -4.1884437 -7.186274 7.5293202 -4.0996246 -4.6630425 -9.833545 -0.7455913 -0.34960368 -2.2790003 -8.592261 7.09076 1.5950342 -4.332597 2.6229548 2.0370364 -4.060838 3.908824 3.4645813 7.727177 6.892926 -1.056293 -3.4564786 3.2461712 -0.2968041 3.0103028 -0.3346929 0.97322094 5.6313806 2.1272092 2.9036398 -2.9460416 -0.61562204 1.184883 3.182663 4.978394 0.6957579 4.2397466 2.0809593 -0.026251132 1.8378701 -2.4853513 2.8272831 0.12917064 -3.8656256 0.2168179 6.6022053 1.2247965 4.3747463 -0.37963122 1.5778102 0.6199606 -4.0469675 -1.5523192 0.9977166 -1.8369801 -6.215003 -0.7292785 -1.4437723 -1.6219473 1.685276
1879.TX-07.02.HOUS.txt 2.270245 -1.7194636 -2.7446523 -4.771933 -0.6043079 0.70900524 -7.65681 -0.44935524 5.2596135 0.25313 5.205867 2.8367217 2.2758155 5.516717 -3.192991 3.238305 -1.8556511 -4.0168366 0.50546974 0.5780608 0.7795714 1.0891892 -3.5574684 1.1215451 5.2998405 6.0322094 -7.996942 2.356668 -2.024454 -1.1373723 -1.2100625 -12.030792 7.3557835 -3.7597508 2.997036 -5.6020966 -4.9588113 1.6078414 -4.964105 4.7048235 4.602961 -6.682111 -2.7900956 3.159281 3.3722045 1.7588882 -5.5625587 3.1011794 -3.2012205 -2.1756234 3.5343409 4.0746727 3.0335116 -0.06245941 -3.4407027 -2.252497 0.8048984 1.9421911 -6.1331964 4.5106063 -4.888528 3.179135 5.367031 -2.4988987
1866.NY-01.01.ALBA.txt 2.0366752 5.2359524 3.184779 -1.8716158 3.602354 -4.8880787 2.63495 4.537122 -1.885357 -0.3345316 4.8006954 3.5072958 1.9707599 -2.1426213 -3.6031127 -1.6359562 0.8714657 3.4570408 2.0202389 -4.3950343 0.24324128 -0.22357957 1.9248315 -0.6300081 0.3225054 0.6842938 0.99900246 1.2358655 -0.31480783 -2.5667207 -0.76020235 1.191343 -4.5126166 -2.5291753 -3.1587155 -0.22175041 -2.733544 5.9806585 -5.832551 -1.9574281 -1.6947256 2.0547051 -7.2491107 6.4722805 -2.2292166 2.311493 1.4513144 -7.371177 7.459003 0.0167568 -3.1416376 3.1853867 2.6457667 -2.9087567 2.1114843 2.0288808 0.6006513 -4.1508555 0.1302455 3.3255842 -5.912718 -6.863396 -0.4301641 0.46026754
1842.IN-07.17.INDI.txt -5.745889 -9.431303 -0.6275493 1.7790561 -0.14223225 2.4078803 0.86065274 -0.20189986 1.9718535 -1.7843032 5.350999 -1.4399614 3.7199545 2.023358 3.8981912 -1.7707175 2.2926605 5.726164 -2.7903132 1.476578 -1.2698202 2.4411209 0.75380325 1.5763975 2.696189 -2.6606057 5.480406 1.9046869 0.47726363 1.3111258 9.670395 -5.293822 3.0633614 -1.2646786 -7.3438206 1.038976 -0.28017777 5.1077175 -2.9126415 6.500552 3.980171 2.707062 -3.3533082 2.6640878 1.5690902 -0.10297022 -1.9976237 2.072009 7.9637637 4.477445 -3.2303374 -0.53825635 -0.089323916 -1.4449835 5.337971 -4.0156355 2.1832595 3.9084668 1.7838447 5.904636 -2.939885 -1.6188116 -2.8649144 -3.585924
1867.DC-01.28.WASH.txt 2.7936833 4.8930836 9.801925 6.3980985 -1.1487122 -0.12024029 -0.8576377 8.293964 1.1017722 -4.712747 -4.648858 5.05779 3.9086516 -8.050873 -7.968496 5.6809773 -0.58212 1.1169496 7.051053 4.209852 -1.231229 -2.990013 -0.27166846 6.924824 2.3532307 -6.133462 7.219942 -5.1892433 -6.9914727 3.3227146 -1.6150657 -0.12784104 4.862137 -1.8567351 2.127678 -0.92317647 -1.2028689 -3.2761488 6.381968 -2.8319635 -1.0842099 -1.6995225 1.341667 5.536989 12.014924 3.0322595 -1.1970183 -1.0115837 6.2733703 -5.780976 2.0784357 -6.310227 -1.0891248 -1.8012726 0.299729 0.78713197 2.2249563 -3.6680028 1.4900633 -4.2841425 2.8742993 -3.269573 -5.7970333 1.5036952
1844.NY-09.18.SCHE-Report.txt -1.6105796 -0.17265785 2.5395422 0.0779144 -1.061495 1.1402247 -0.26353225 -3.4724739 -0.89602244 -5.757617 -3.206568 4.2726464 0.5425251 3.3059187 -2.3306239 0.9925315 3.1954567 -1.639512 -1.3984658 -1.6652324 6.5536346 4.6358323 -11.04656 -4.7365837 -1.0106394 -4.247114 -4.397409 3.6786056 -3.8740191 -8.885794 -4.2394753 -5.666381 3.3957374 -3.1939156 0.7954195 6.282291 -1.6409509 -0.68367535 -0.06542175 -2.6303914 -11.588157 1.4498007 2.5786493 2.29231 -0.66201496 3.3959112 1.5655171 -8.364745 7.9082313 9.634723 -3.5837111 7.2133355 -1.6354986 2.2480402 -5.3582673 -5.269569 8.06682 2.961967 5.512777 -5.7591953 0.16184479 -4.304373 -0.7285239 -0.26201418
Frederick Douglass -4.709666 -1.6152954 3.7650278 0.3553092 1.2210083 3.1590517 3.4850187 -4.7891817 -5.0297 -1.2270819 5.393903 1.3758433 2.4415648 -1.2142738 -3.9375863 -5.532938 0.8579718 4.9655695 -0.72170705 4.9915943 5.7070146 -5.285121 -0.9508214 -11.2918625 1.0255485 7.396799 8.4706135 0.23853588 3.4665177 2.0715013 -2.515474 -2.3773794 -4.2785892 2.0930068 6.02724 -1.4081364 7.4281993 -5.086007 2.77669 6.717004 -1.3175727 -2.4926248 5.66833 3.6250844 -1.3846691 -3.7330804 4.571022 -4.3514414 3.3887305 -3.4387393 0.9897219 -1.9768293 -6.4022913 12.558466 -6.2934914 -0.26205596 -0.60814506 -1.354917 0.3602368 2.7656546 3.7471347 3.0276089 -2.1418445 -2.3560536
1867.DC-01.10.WASH.txt -5.4167676 2.919812 1.7392336 7.737689 7.648814 -8.487781 -2.450044 13.325638 -5.598828 -9.561725 5.2825756 4.142132 -8.947667 -0.9391823 -5.2290125 -3.8725371 1.973628 1.6951901 3.2023714 -2.256686 1.4375304 -1.0532658 0.23529509 9.40959 1.1757686 -5.525439 -3.1974304 0.8778803 -0.15659724 -1.0436698 -1.1938856 -4.9410987 3.4788916 -5.4222245 0.6453091 0.25630146 4.3215113 0.3558332 3.2228415 -3.3400192 -0.6570493 -7.3263307 -5.4800453 -3.0223818 1.9806867 6.2234907 -1.8212837 5.0985174 -1.6577433 -2.001173 -2.3240025 -3.0389276 -1.3312913 8.375388 2.9584463 -5.17811 0.7234934 -0.72761625 8.321959 0.419327 -8.65627 8.99463 -4.51915 1.4991405
1872.PA-08-31.HARR.txt 1.4172412 -0.54692465 2.2659483 5.3944497 1.7053862 -1.1275142 1.4395527 4.0080447 2.8689864 -5.772006 3.130411 1.6743256 -7.333509 -0.059900865 -1.6095563 -1.5382276 -8.257881 -4.5002394 -1.1552356 -1.5179832 -3.981894 -6.3791666 -0.578684 0.65494704 -0.5135526 -0.9629873 3.990722 0.27583545 -1.6229527 -2.2946882 -1.5314255 -2.0372782 2.9887576 -3.3386521 2.3292105 8.515345 2.310075 3.2798502 -0.98841524 2.254914 7.363976 -5.767944 -4.9504237 7.6470146 2.366478 4.32371 4.435221 -0.6285485 -0.22338708 -0.9875763 1.5301296 -2.629333 -6.7999034 -3.021064 3.5616283 -3.166596 3.3057513 -3.4959452 2.3132362 0.104705155 -0.97890466 -1.5592748 -1.213023 -0.7897269
1865.NC-11.29.RALE.txt -4.87528 -1.1743544 5.8680882 7.1893215 -6.75593 6.690024 1.2482958 10.554143 6.8760066 -4.1481404 3.0470133 -3.3316126 0.0386185 -0.037151568 -1.9316022 -12.4052 -2.860473 -7.111977 -1.4694455 -8.690928 -1.7896595 -3.0807953 1.903866 -4.9976873 7.671556 -2.540687 4.5385923 3.0725517 0.12043314 2.7319617 -0.9220932 -2.930204 10.53858 -9.504276 5.949488 1.533211 -2.2729287 7.781135 1.8339046 -3.5266852 0.85050166 2.65076 -5.358906 -6.1867895 0.24697334 12.899108 1.5708525 -1.383075 -2.0050714 -4.961432 1.9981533 -2.7737427 -0.35480934 7.9061017 1.8845704 -8.73549 -1.589769 -5.8317485 -1.0931299 -0.19413826 0.5724161 -0.25422233 -2.4655638 -1.194617
1854.CT-09.27.MIDD.txt 2.7685556 6.862144 -2.3525944 -7.0222387 6.4394975 5.294211 -2.3618948 -2.2551885 5.2563467 -0.13613865 0.27379948 -1.1183786 3.6461093 2.9018028 -3.1671891 -0.08233002 2.1345382 -3.0763695 -2.141529 0.049439467 2.3282022 5.4950075 -4.047386 0.7937771 3.4430678 7.4465265 -11.117596 0.45323625 -2.8553164 -4.645205 3.4507143 -5.139507 -5.8899574 -1.0024679 -7.0812626 -0.58732635 5.52339 -10.945725 -0.28560746 -3.3955736 -1.9468385 -2.2202513 -5.209289 -0.6309721 -0.971507 4.5426583 -5.727137 -0.4036325 3.7482507 -2.8903155 2.5992117 -6.364696 -10.126738 1.918722 -4.230653 2.191227 -4.2885313 1.4979613 3.7391798 2.184563 2.9036682 -6.1960664 -6.972094 4.2735095
Johnson -2.6588001 -7.4542627 1.3356197 -1.8818011 2.3220265 -0.49014267 0.61155105 -0.66661096 -2.4113421 3.720596 -1.7010674 0.97718245 -4.3730907 7.89891 3.156998 -1.2522404 0.80331796 -3.8480828 7.0375757 -0.9374657 -2.2836921 0.64198184 -2.4486322 1.9521997 -6.040668 -4.280366 1.0082784 -2.5447776 8.66331 1.8172941 2.250555 1.1657414 2.5272112 -1.6581252 -6.6577277 -1.4411237 -2.2104216 -4.1470866 -0.629218 0.7672232 3.8748238 -5.7189345 1.269321 2.1243114 -10.952265 1.0163512 4.9089074 -4.898196 -4.6411357 0.86113995 -0.9710532 7.7860556 0.16130044 2.1070626 -3.869955 1.8287923 -3.4510677 -4.4015 7.239182 3.206866 -4.0200076 -10.995984 -2.550342 -1.1285698
1851.OH-01.15.COLU-b.txt 3.6580157 -4.969867 -3.3284588 -0.08047468 -2.440842 -4.7807913 -6.8458734 8.038038 2.9607904 -1.7581363 -0.42893946 3.0484438 3.7839289 -2.1744444 -4.5570097 -3.7466125 -8.361984 3.5708861 -1.8894078 -5.322581 -3.9967773 -8.172144 4.700169 -7.616177 3.0438416 4.2216763 -1.6563627 -4.113656 2.5531485 2.3977299 -1.3361671 1.6856556 5.835446 -5.1630907 -1.4472663 -1.0137041 10.151736 0.40013802 0.14614674 5.275681 -1.3596282 3.1706295 0.7876395 1.9488528 -2.4110548 -5.269979 -3.7431738 0.5509857 2.1146302 -6.518803 -6.9102726 4.0834765 -4.8519297 1.0711384 -0.5060851 2.4297972 1.5823904 3.9476297 2.1943834 -3.1047332 2.533225 -2.6736982 -8.008987 -5.275467
Douglass -3.0930269 -8.187488 5.8742323 3.9091697 2.928551 1.348237 -1.6854558 1.3107877 -1.2149249 -2.0222106 2.4641547 3.476735 -3.5921257 2.5718322 2.9493594 -5.772072 4.270845 5.9249334 -3.5102143 -0.9034779 2.677732 -3.6780171 -0.6480823 -1.5403247 1.686451 8.358058 3.5290077 0.5896794 7.567272 -2.3141594 1.3396132 1.8327947 -4.984042 5.174052 5.093341 -3.7770174 6.7905927 1.3251523 3.0020401 3.7808192 1.8303053 2.7719688 -2.508279 4.698899 -6.122854 -4.2511086 3.2654848 -4.6164327 6.003592 -2.5240579 0.20250058 -4.7935925 -2.3868325 2.3591952 -6.723651 -0.47788516 -1.097475 -0.4034051 -2.7629848 4.4423313 -0.1341614 -3.5972083 -0.05783232 -1.751136
1845.NY-09.08.GENE.txt 3.0203228 0.85686153 -1.2244935 0.29003385 -2.6203249 -0.8071275 -2.4961197 4.6104794 -7.071196 6.599712 -8.619379 2.311745 2.9469373 -0.034956705 -0.23279083 -1.236622 1.0107243 1.1785785 -0.31428376 2.9392414 1.3342564 -8.829838 1.9629557 5.709497 -16.109604 6.1232023 -3.827989 6.5304074 -1.349173 3.6565216 1.5254464 0.8312315 6.0081477 2.040748 6.669426 -7.5442834 0.90972847 2.0607824 1.065522 2.2946362 -0.51236093 -1.3991896 -2.367032 -6.700101 1.604622 -3.7153003 7.2915435 -2.6130972 -4.691543 -4.761373 -1.0042194 4.62196 -0.8034649 -0.22864193 3.720385 4.2823973 2.3152075 -1.3007395 -5.5777016 -3.4446197 2.583425 -1.11315 -8.802514 1.9598655
Jackson 2.2748256 6.1837955 0.79370433 -4.495293 2.648198 -3.6733189 -1.9893109 -4.436854 5.826781 -0.82941014 7.267846 0.4707244 1.3095218 1.0899615 -3.5032477 7.177679 11.178031 -0.846247 -2.8738656 2.3162143 -7.3808756 -5.0647445 0.7946923 -2.273178 -1.2691175 -0.82424253 -0.41226685 -3.3389919 -1.302808 -3.9806046 3.1748378 3.144593 4.369801 1.0866106 -3.0588398 0.044722937 1.3736231 2.2380946 -1.5438563 -8.095204 4.621133 2.432346 3.941141 3.2517579 -9.645697 0.83350617 -0.85092413 2.6052015 -5.865236 1.6761373 -1.0910863 7.458809 -2.8327403 -3.1550446 4.876421 1.624226 0.36304325 5.297636 -0.9051489 4.2768507 1.5828888 4.299809 1.3878069 0.16355307
Harris -0.17200574 -0.40869695 -2.6325774 -6.03855 -4.2062325 -5.414079 1.6228752 -4.356322 -1.6807274 5.4928274 -1.2314427 5.2000475 -4.2015476 -6.218995 0.90754515 -6.184119 1.1825625 1.8605154 7.1385074 7.8632364 -5.5125017 0.49310237 4.7568884 4.3510137 11.339379 5.322287 -0.13684846 2.043584 2.5209494 -3.00716 6.061185 -3.6800456 0.72583276 1.7303829 9.047016 -3.9708772 5.6276827 0.32541317 -1.6532077 8.056013 0.54395056 -4.810394 8.117264 3.6983364 5.522374 5.134781 4.830919 -4.398045 -0.16587795 -6.3495393 2.4797113 -2.8148937 -1.5537136 -0.35622612 -4.349679 3.49565 -0.24486326 3.8421526 -2.1720963 0.2885935 1.6178831 1.4111528 -3.8004029 -1.1673405
1867.OH-01.16.CINC.txt 0.9480326 -1.006512 -1.3046622 0.71824926 -1.1261592 -5.8958635 -0.45288107 1.2833633 5.83686 0.6604377 -4.8286266 -5.370775 -1.2663358 5.9618587 0.42960837 -2.589591 -4.7236 3.4807527 -1.6443138 -0.5241415 -4.612469 -0.5402818 -0.37066513 -1.1512594 7.6847763 1.5548817 -0.22865969 -0.86829716 2.189496 1.396443 0.31574804 -0.29235777 -2.3549397 6.101605 -2.5691955 -1.9528517 -6.4087586 -3.4919014 -1.4235895 -1.5342636 -3.6268842 -1.9982388 4.890214 6.118263 0.6997162 0.5513692 1.9433086 1.2958168 8.072286 1.7056742 -4.1994147 0.35521725 2.4483845 -2.7097824 -4.1548457 -3.7049983 -2.3793502 0.8857708 0.14127871 4.6018147 1.4321785 4.0753756 1.8236083 -2.258172
Smith 2.310694 1.2760603 0.3243416 -12.551476 3.379619 -1.1057007 -5.6897316 -4.532733 -0.47259054 2.4953926 -5.654036 -10.767471 3.662859 0.94140434 -1.843394 -0.2556905 3.5783467 -2.0926545 0.82989854 -0.40162903 2.1242714 3.8638365 -1.7106816 -5.661514 0.58132756 1.3651583 5.6661706 -0.8023554 3.6453614 6.6534605 1.3511565 0.15439162 1.6561167 -1.2879324 2.836192 1.1648475 -2.2192533 2.5582492 -0.2644431 2.6416354 1.1552875 -5.6274867 2.8528237 -0.48799926 0.932097 4.126163 4.637831 7.122877 3.52852 1.1492069 -1.8217844 3.4415016 -1.1798054 4.6262956 4.1789823 6.1050825 3.060805 -0.57540166 6.7780685 -2.307889 0.86548597 4.9186296 -0.3131965 -5.585736
1855.NY-01.20.ALBA.txt -3.457178 -0.9803552 0.26899147 -0.079283044 -0.24996465 -2.2249758 1.324524 -0.9750028 3.1102908 -5.9393177 -10.141244 0.9002789 -1.5786922 1.4984326 -3.681404 2.0489826 5.263514 -6.8891196 5.8191733 -1.2130355 0.9240743 0.5805327 -0.454855 5.36535 4.6131372 3.1834555 -4.2212787 5.692968 -2.1582284 2.7160838 -4.6209955 -4.0569654 -3.1040943 1.6443633 -1.0860542 -6.8733525 2.017204 -1.8975132 -1.0606571 -2.5190432 -0.45492342 -5.365736 -0.6668809 -12.625284 -10.24808 -1.7890226 0.4937266 -5.9223638 9.0647545 2.8058808 -0.2864747 5.817817 2.4214225 6.970378 2.9809146 2.4098203 -8.289969 -2.1959424 4.8103004 -4.442325 4.5923047 -0.5775998 1.8486843 6.0663357
Chas -2.4176445 0.47271958 -3.7187297 -7.203124 -1.5504614 0.08571123 2.6943896 -9.150686 -2.8018787 1.4351422 4.090176 4.3571925 -3.5820968 -1.659842 -1.267497 -1.0849339 -6.414108 3.0238624 -8.500557 4.8445125 1.1700435 2.3170311 0.38201573 2.0617745 4.3727794 -3.52959 4.0185676 -6.8354855 -6.934877 -2.4109304 -2.6952047 6.5373225 4.269533 -1.0269632 2.52416 -0.18012913 -1.7745888 2.3801544 -0.15705267 4.81743 11.237102 3.086515 -5.293492 -1.5243247 4.99298 1.6275597 2.126281 -0.20985049 -2.1656177 -1.5921961 -3.411864 -4.2269726 -0.94891715 3.888124 -4.486247 4.892714 0.7341074 0.90894294 -1.8208089 -0.06429499 4.495063 -0.9043265 -7.723036 5.7325926
1868.PA-08.11.WILL.txt -2.1150818 5.435545 -2.175364 -0.5589149 1.5671529 4.520397 4.775053 -1.3169377 -3.079353 -2.3248785 -0.7702263 -0.6269773 2.4876096 -4.3548727 -1.8960202 2.4015281 -5.9740286 -0.8804413 -0.06751535 0.4849218 -4.1598597 2.3154373 0.87806195 3.7584872 3.5803604 0.87653804 2.4281905 2.118546 2.1858132 0.8013982 -0.0029129009 2.0359142 -1.851059 -7.443937 -3.788382 6.1333685 -2.1614683 4.386106 4.7518363 5.8074555 0.37176225 0.7545631 -1.9848765 5.3922315 1.2542062 -2.0972645 1.928854 0.3510113 -0.97620046 1.9619937 0.8444304 2.2578187 2.0009508 -3.7587218 0.67966866 -2.5457072 -4.358751 -9.368887 -0.5799795 -4.266426 0.23971525 0.9005531 3.0964127 -0.048225027
Brown -0.23421 0.47892734 0.20092104 -0.08909779 5.497014 -3.9031491 -3.3021963 6.432126 2.8803248 6.3213387 -1.7838689 7.3980923 -5.214094 -2.0090206 -0.67373234 3.1057327 5.3702974 10.205988 -5.309931 0.1316058 -0.5352341 -2.1948934 0.3566098 2.7089212 3.325359 -2.0912387 -2.1858635 2.2127912 0.29094535 -5.6007304 4.193779 12.572384 -0.5838489 2.3921428 -2.4061396 -3.7202396 2.002859 -1.7408932 -5.186969 9.198204 0.0019465347 -3.517878 -0.0012308903 -2.761176 -0.057995416 7.780271 0.5489088 -2.8526022 3.2868972 -1.8146474 5.671809 0.5846789 5.0913544 -3.3789213 -6.974765 1.0655507 1.0731318 -1.9934676 -0.55761874 -4.7229996 -0.7235907 0.66827595 5.5217423 2.4933329
Charles B. Ray 1.4774611 -1.6757205 4.9650393 -0.58065915 -1.8734477 2.7942836 -2.7603812 -0.56284195 -4.810531 -2.4822009 -4.9434843 -3.0774455 -2.905405 0.4501713 5.57832 3.3920286 1.538176 -2.0010703 3.1789234 0.7403975 9.011285 7.2056475 0.4487786 -7.9092817 -1.8898488 3.602879 4.727574 0.8776951 0.87115663 0.64241385 -4.115757 -6.817348 4.2420497 6.2086167 -2.529009 -5.5786 2.8969665 2.6247575 -0.77958333 1.9571301 0.9690921 5.982016 3.6310463 -5.615146 -0.25042126 0.45866877 1.7597144 0.5908115 3.150747 -0.23052259 -4.1235485 -9.559515 -3.2404096 5.8462024 -5.1506147 4.186179 3.3309462 -3.47603 4.7343135 -3.3680882 1.559249 -5.300533 -2.2113545 -3.452719
Sumner -2.7322567 -6.263405 5.7617626 1.7070189 -6.355115 -1.1910862 -0.9964613 -5.053523 -8.318928 -1.9115647 -1.9039587 1.7326318 -4.8042397 -2.013492 -6.336018 -0.8376534 3.3524246 0.13418382 3.431332 -3.2364612 -6.86074 4.454686 5.9529724 0.0008139369 7.8494835 0.51753557 0.54594123 -2.7625322 -12.995816 -3.7420285 0.5342337 1.3904791 2.29462 -2.1426659 -3.393625 4.0559745 1.087431 1.0762665 -5.546117 0.841082 2.3692453 -5.1409607 5.5926476 5.012044 -2.7309387 -0.45562142 2.4183254 -0.26683792 -4.859983 0.3361129 -0.37408063 -1.6845523 -0.757576 -6.048525 -0.6415943 3.8920064 -6.593247 0.12506008 6.758089 4.944473 -2.4028203 -5.4746885 -5.9147224 -3.0169363
Clark -3.6663477 -2.1863072 -4.817287 -2.8399916 -5.804169 -2.8430567 -4.3822284 2.1215641 4.2019296 0.287664 1.2314239 2.784117 8.599779 5.6021028 -2.908969 -2.6147656 2.217013 9.454158 -3.8829238 5.599 -4.0543995 -4.8298826 9.000961 6.9719176 -2.8702946 1.1662025 2.7391822 3.4965494 2.4089286 -5.6564965 1.0229276 4.056962 5.6546483 -5.8428736 -3.1257632 -0.38225982 -1.3990078 6.5763893 2.2785745 -3.6085312 -6.0324187 -1.7790196 0.6465629 11.890405 -2.796857 2.0599468 -0.07786039 8.085909 1.0378239 0.17511119 -1.2723635 0.7785343 8.313467 -5.381442 -0.26066583 2.0692582 5.757647 -7.1928525 7.500196 1.9304847 -2.34954 1.7969967 0.17162292 2.6008947
Lewis -5.4700565 0.9849475 1.6126667 3.4567568 -5.974675 -3.896209 -1.3355652 0.81287044 0.25037193 -4.404623 3.8721693 -2.945682 -6.0622582 -1.6916625 3.266723 0.5010562 -7.7828827 -5.33568 -5.9733114 -4.8163424 -0.19669676 0.81020355 -7.8110056 -1.0125891 2.9635925 -0.72260076 -5.337554 0.17927209 3.8882358 7.3842735 -1.9170207 1.1930244 -1.484927 7.213123 -1.4704572 0.12793349 -0.59658134 -7.3658686 1.3497403 -1.4595209 -1.3137976 -0.76723135 2.1438344 -3.8259923 2.931483 -0.9734075 0.9705782 0.5407623 0.061956774 2.5864146 0.44467488 -2.6317637 5.069539 -9.718167 -2.8937764 -0.69819057 1.5282191 3.1447563 -8.924862 8.702006 -1.9447116 0.25546706 5.7354608 0.5968377
P. M. 1.9259061 5.436566 3.7185185 4.4969845 2.9998844 -0.727016 -3.3877454 2.8134987 6.271671 1.3604599 -2.9224348 0.72904927 2.4887908 -5.27892 5.633705 -2.1234663 -1.2952127 0.2850193 3.3947754 -1.364892 7.574522 4.7416897 -2.2301319 3.0245445 -3.1921666 5.4664083 -2.1691732 0.16107738 2.319206 0.2583831 2.087439 -1.432624 -3.2210205 3.4111152 1.0791819 -2.8677447 1.7495561 -3.991336 1.7682048 11.162884 0.9782026 1.1236441 4.67174 0.52003765 -0.21972755 -0.10970458 -3.383633 -9.711512 1.659966 7.210774 2.6900685 4.589629 0.40665284 -5.02881 3.9332602 1.568437 -2.706844 0.20163925 -3.110364 -2.0117118 -5.44511 -1.3953799 6.7169485 -0.68900275
N. Y. -3.4911168 -1.2592428 1.1271188 -3.7085354 -1.5099959 -1.625425 -9.247676 -0.36143556 -3.4350746 -1.5395124 -7.8757715 -3.882984 0.036930148 5.8697577 1.2982409 -4.6408367 -7.1283693 -3.29561 1.2776928 2.4068325 -0.67986774 6.0902095 -0.06715271 -4.9350286 -2.239492 4.3227606 0.66624725 2.525546 -3.2786503 3.1052706 -2.8199985 -2.6221392 0.35276195 3.1548703 -0.16662028 -2.893188 -3.2689126 -2.1767018 2.658397 3.8016868 0.46937487 2.1726615 -0.18959135 -2.5091872 -0.10132167 2.543142 -0.45186457 -4.042924 -1.6513305 5.778733 7.8329506 -3.5105553 -0.4008656 0.33314627 -0.9822273 -0.56837696 0.7621947 0.6895121 2.020328 -7.170525 -3.263583 -6.9285927 4.9808235 1.4093544
Anderson 0.7155686 0.8763008 1.8546686 -2.6788867 0.39078942 -1.426092 6.4191804 -5.149414 12.719449 3.7891886 0.5068078 -2.7693305 -2.6999838 -1.3579098 4.326407 2.7625775 1.4384209 -0.09346668 -1.4335918 6.170723 -10.469397 5.0344105 -0.0024478994 -1.4967786 -5.4539933 -6.6207743 4.8853803 4.75358 2.925388 6.3079557 2.1564033 0.9323643 3.7234795 -0.11480548 2.73012 -0.22880557 -10.573047 -7.6572146 -5.2080674 -3.8407435 -7.065148 -5.3027453 4.790708 3.4360166 1.2327174 0.9678141 -2.166906 6.9088717 5.2299905 0.73978966 -4.482834 7.842311 1.1497726 -3.4836419 -3.1123896 6.2827687 2.249962 -1.6733006 0.04422221 8.587338 -1.8827077 7.708623 -5.532003 -3.325451
Jenkins 0.4540233 -2.168733 -2.4669502 0.9736335 2.4217103 -4.630986 -4.8832984 3.6061854 8.064698 -3.363496 4.080297 1.3326064 -4.5008183 8.8076315 4.452038 -0.49345395 1.9450729 0.4858033 -10.420799 2.8627467 -2.9780746 -0.53956693 1.7007102 2.956674 5.4350705 5.081435 3.9195623 -0.5587649 1.0297056 0.8863949 -1.1556263 3.963457 -7.588332 6.73895 3.3210588 -2.7949333 -0.37649074 2.6113384 0.034891453 -2.3737886 -6.127881 3.5410688 3.3855143 -0.7708315 0.33847448 -2.193049 4.346919 -0.36270455 6.4473767 0.60520065 -0.8909862 0.31653586 1.8325483 -3.801192 -7.1168003 2.9868493 -2.3057292 1.7291554 -0.6028676 -0.13549317 -3.7681224 -6.949586 -2.8408413 -5.7737045
Wilson 4.9463477 2.4550974 1.4040334 -12.252725 -1.5480938 -1.84279 3.87134 0.9192573 0.40567338 1.6124554 1.3942072 -5.754181 -1.3234147 -3.3841045 -2.309076 3.485825 0.546123 -6.403806 -0.66726846 1.8888311 1.3168972 5.009548 -7.2457204 -5.999741 -0.41402385 3.7771926 -0.6885696 1.7413441 0.49350655 6.6139317 3.930364 7.7069383 1.8130395 1.2753052 2.900874 -1.7618191 -0.6179523 -0.053098142 0.8411571 2.4844575 0.16672209 2.4209542 5.917968 -1.7744567 5.3909197 3.6622746 1.2987005 1.9237523 -2.6677406 8.176853 -5.574743 -1.7252388 -4.2707853 2.944697 0.76509607 3.9522774 2.0882416 2.3267794 2.7387495 -1.5434934 1.3367804 11.5456295 1.0523505 -2.7009318
Williams -6.7759795 -0.049464166 -4.030838 3.6249988 5.7371855 0.38499087 2.7710783 -3.567058 -4.8280315 -8.227902 -0.03808493 -1.4755397 3.1317847 -2.4557035 2.271006 -0.47222483 -2.8530564 -8.9672785 -4.856537 -0.8544884 4.005112 -6.2180443 -0.0043766913 2.5949442 -1.8059723 2.0466413 -3.3248234 -13.698372 1.6115898 -1.3520443 2.845005 -0.61216664 -9.604114 -3.0595698 2.3783557 -4.986446 -1.9561019 2.658557 -0.49557483 6.1951885 0.6930265 -2.7597005 0.58067954 -2.7282078 11.58406 -1.349962 2.9027817 2.8193161 2.7738008 -9.08314 7.706057 1.1567447 4.366438 -2.3166368 0.37260965 -3.6371183 5.4330497 3.3587832 6.482554 2.0575411 5.407718 -1.1163359 3.612904 -3.1517613
Stephen Myers -3.2305315 2.3092422 -1.4037429 -1.6506102 -6.6129756 -3.567337 -1.3177431 -2.014819 -3.7755437 2.3299074 -8.109183 -2.0361266 4.4111304 -1.3899434 4.7221475 -4.1363378 -3.7212322 -0.5253669 4.8913503 2.2069144 -3.2780101 1.5484536 4.331534 -3.2801852 -3.257465 -0.917691 2.6109285 6.7442484 4.676868 2.7681334 -5.3567634 -9.530735 -0.12086143 2.5131135 -4.6879463 -0.2681868 -0.64587086 -5.32764 -0.89960384 -1.6523556 2.1704926 0.53566813 -3.761604 2.0602548 2.6705236 3.133624 -3.7891934 -5.8856177 5.2917695 -2.5723426 -0.29785946 -2.5618634 -4.2869725 4.746674 -2.9667864 -2.3946075 2.2072384 -2.5734816 -0.57489955 -7.99538 -1.6305228 -4.5045533 7.733427 -1.5106862
John -0.65794146 6.030159 1.7344444 3.0591369 -0.53336793 -0.72755927 -2.611183 -2.4453673 -1.5871136 2.2471797 0.80563545 0.52733684 4.408185 -3.6628373 1.5284611 1.4304103 4.4003096 -3.091746 -2.2911086 -2.3188672 3.5157433 -1.7079883 6.721155 -3.9078321 5.5220356 5.0108967 6.371833 1.0840601 0.79379976 -5.443824 0.368737 -9.076542 3.5705116 5.715358 0.75054985 2.1351886 7.640782 -1.0428164 -2.7028627 -0.016732637 2.827853 2.8382287 2.418243 -1.6978205 -2.4159195 3.3840184 5.0588756 -5.261389 3.8863904 -2.7173474 -5.0652733 -6.9720755 5.09551 -2.6572123 -0.3455728 3.7834227 1.4914739 1.4235083 -8.613583 -4.744272 3.9539032 -1.0747449 1.9133432 -1.6234986
1870.NY-10.01.SYRA.txt 3.1205058 1.3995558 1.1499387 4.6913214 5.2273684 -5.191323 -0.74283713 -5.2925925 -4.3155932 4.6125917 -4.675458 3.6293018 2.0609584 -0.226205 0.23471297 -2.6410105 -5.0930014 1.1612285 4.673778 1.8833747 -0.23216124 2.4448962 -3.2965472 -0.37438232 -2.2258787 1.0297512 0.77465165 -0.81548774 2.719448 -3.343627 3.9081213 3.4358048 -2.2600389 -5.590411 0.04464129 3.8744478 3.2579696 2.6607983 -4.827896 -0.59787226 2.0652661 -1.0919094 -1.7043904 -3.0006776 1.3195095 0.17051686 -3.422197 -2.5342355 0.26078436 2.1199033 -4.779454 -2.77693 -3.612743 0.8439568 -0.6825379 4.3177094 -1.173975 -1.0097959 -0.8045146 -0.7553544 -0.16816027 1.7130677 0.12191833 -1.1469871
William Rich -2.851109 3.0028424 2.5753226 -6.4577494 -1.3229423 -1.2061183 -1.2884756 -1.138124 0.12225633 -1.0335265 -5.5593295 -1.1027422 0.5115561 2.6911633 4.3417063 1.2876656 0.95060617 -4.6915936 6.8133435 -0.68851894 5.1803737 6.4749694 6.695082 -6.4635715 -0.53088474 6.397628 1.0288703 -0.7883985 1.7804059 1.5313177 -2.9128902 3.4921188 2.027231 5.4576716 -5.174552 7.7519765 -2.2847574 2.9007993 -4.5705843 -6.537543 -0.09096642 3.5870595 -3.5827503 -6.1385117 3.0838134 2.2629097 -3.1862745 -2.309849 0.038650066 0.91293937 1.510079 1.8068261 -8.0341 -1.2907737 -0.306213 -0.31265074 2.910164 -4.141153 2.0421085 -3.5565786 -7.5833664 2.2424862 1.7140568 0.5510265
Langston -3.6162732 -2.263912 -2.7159452 0.59981465 -5.847967 -1.2052351 -1.0983785 5.214345 2.728038 -4.0843325 -2.6559262 9.632997 3.8243363 -3.9887614 -4.5165706 -1.1167442 5.763065 5.8659873 -0.40168956 0.73851913 -1.7439178 -4.350869 2.5735173 -0.1380274 7.2472496 3.5355349 4.6770234 0.8315378 -1.7405432 -4.517611 2.0281956 4.0026712 -8.115192 -3.5233076 4.6254845 -1.7065506 6.366247 -2.3195903 -3.0203438 0.22195037 1.1394991 1.1355733 2.5662866 6.6917853 4.5364428 -2.9126713 3.0469456 -2.1238308 1.9824028 2.029755 4.445023 -7.848693 0.31994852 -5.8784294 1.1696218 -4.1217346 1.4345303 3.3925097 -6.8046837 3.606525 -3.0633488 0.6322317 -5.351638 -3.280101
Gerrit Smith -6.6428995 -6.617976 -0.94281584 -6.096433 -5.0235972 5.093105 -0.98649037 2.3070636 -0.31368652 -0.32519564 0.59350216 -2.794339 0.7726838 1.2161931 -2.678413 2.1428165 5.1086125 8.67601 -5.6653953 -0.08620911 -0.67731756 0.32129943 0.20360519 0.04959284 0.12546396 8.856874 2.9511902 -2.2483227 6.8676953 -0.3884807 0.21356957 -4.0949144 0.6229333 4.6851907 0.38923895 -0.22737716 1.3936623 3.2900214 -2.0802197 5.5490513 6.6944885 -1.8798927 1.0883946 4.0231805 8.237547 -2.3783684 5.9973583 -4.065977 4.7723455 -4.1711664 3.197047 -5.574717 -1.9880329 9.861405 -6.5541797 -1.7642114 5.5817647 1.4109917 8.165733 -5.306267 4.706788 1.6194224 -1.7160611 -5.3130016
C. B. Ray 2.1995852 0.27111265 -5.114024 -0.35849643 -5.848618 -0.47224024 0.2664708 -4.839899 -4.5684566 0.7640552 -1.1906571 1.3201805 -3.2863305 -1.7229688 -2.2037966 4.5191174 0.915331 -1.6501149 2.0402694 -4.345266 3.482405 4.874058 0.91318256 -4.2731533 -2.1234832 0.8797109 4.6795645 4.3463683 -1.6034925 -2.7707438 -6.388112 -3.2360451 7.283118 3.7321765 -8.82641 -6.1990423 -4.531421 -0.39606455 -2.2017019 0.042492088 3.9635255 4.3282 -0.8320824 -4.4688826 -1.3593314 2.6237419 5.6784635 1.2130233 -0.522269 -0.28376365 -5.3182564 -9.109177 -2.5981143 0.67869306 -1.3933008 0.1107922 0.36880925 -2.4143434 4.0384045 -1.8513044 -2.3728466 -9.431456 -3.1892474 -1.1016372
John Peck 2.47241 3.8489528 -2.686569 4.3398004 4.3144026 2.15328 0.87107563 6.1446605 4.6424184 -6.1385493 -1.9059784 4.931073 1.1026706 -2.7974262 -1.194591 -2.867477 -3.921058 -4.664719 -0.45111898 -3.1036546 0.8230031 -0.6003229 1.679336 6.891745 2.6174722 1.623679 -5.8544374 0.8702925 1.932665 2.3408186 -1.5051107 0.67016846 -4.1932297 -0.7499839 -0.19455984 -1.9484336 -2.49577 0.88262594 5.2873664 10.396785 2.538574 -1.3570505 3.3249419 -5.888003 1.9832505 -5.42151 1.6218266 -6.923711 -3.3815722 7.688681 4.868729 3.0293624 -1.2636805 -6.685841 3.576889 -0.39386013 0.8225736 3.9352725 -2.1337714 -0.41003987 -7.338028 -2.33076 1.811189 0.89579636
Horace Greeley -0.48390263 -13.077913 3.6126604 -0.122099996 -1.4309057 2.112966 2.8049557 -4.894696 -3.6256683 -0.191147 3.5627773 -0.5139494 -5.3717847 -2.9174616 3.8188665 1.0077057 -1.2344315 -2.259024 2.4061937 0.9644873 -3.5645833 -5.2827053 -2.9026737 -2.4019637 0.028647013 6.99921 2.0532873 -3.1538596 1.7356924 -2.1980915 1.667201 -8.24637 -0.15304978 3.6015723 -5.4127893 9.618365 5.8657804 2.623099 1.5820848 -4.829536 6.353449 -10.990874 -1.2269274 5.6400247 4.4816895 -4.387333 2.1971776 -5.4906564 -3.0590644 -7.123101 0.10933 -3.4093535 -0.89205045 1.1946553 -7.2921515 -0.2452388 0.068471454 0.49697047 0.49078536 2.6854856 2.4310582 -5.685633 -1.9069943 0.79316324
Jesus Christ -7.955457 -4.752778 -10.095327 4.641862 -5.796085 -10.443251 -5.028598 -5.4045625 -6.685225 0.28917852 0.41682202 -0.66239405 7.6698456 -2.3213804 3.1635838 1.7707187 1.854329 0.5887718 -2.6884673 7.200276 -1.1750276 0.18558933 -2.3465455 -3.330313 3.456732 2.2192812 0.887301 -5.739209 2.5866766 2.244993 -1.547408 0.5656234 -1.9985235 -2.2015321 3.9801311 -4.8787684 2.6729686 0.60078573 -1.1814117 -3.24961 4.513359 -2.0324655 -7.798357 3.4001544 7.2346673 3.970826 0.32017824 -4.2477455 3.0826395 -6.540641 2.7817397 -1.7691147 0.31222054 4.682077 -1.192525 -1.4135921 -2.1523368 -2.973711 1.50247 2.362038 0.5422182 -3.415146 3.9147863 -0.113487326
J. W. Loguen -1.1816269 -0.08526876 8.936394 3.4816928 -3.7033155 3.1181786 -1.3418489 -2.2496238 -7.3930206 -4.617203 -4.467667 6.119199 -8.68776 0.6473042 -1.4295715 -1.0066627 3.5750942 -0.7791039 -0.24291207 4.0318675 1.9448608 1.4451635 -0.19606088 -2.8827255 2.41318 2.6738555 1.0340959 -0.058694694 -6.1760564 1.9386404 -4.303553 4.0191007 4.2606516 5.7449665 -5.9153733 -1.8030607 7.3138366 -4.928647 -4.2796392 3.280847 5.6214643 -5.671483 3.1900687 2.1357415 0.6177847 -3.247273 -1.0083114 2.8667276 1.1293552 6.2055945 0.93644077 -4.0421896 2.58042 -1.6959867 -4.374106 -5.1261773 1.7955419 -10.362363 2.4978385 1.3766732 7.6543713 4.387085 -0.16367206 -0.10955566
Hamilton 1.2367359 5.771681 1.792519 -0.562827 -0.20297411 2.135852 7.4953623 5.200384 -2.043188 2.4547188 -4.1352143 2.8680253 -10.600499 3.3806674 0.44976377 -4.443242 -0.27965418 -1.783564 5.2985992 -2.8710039 -4.2098184 -4.840847 -1.0418787 7.16967 -3.1140685 3.3605855 4.6315503 -2.713179 6.87319 9.516594 -2.9034164 -8.753402 -0.6446592 -2.4007664 -4.2387004 -2.4621544 -1.6918943 -2.1289532 -1.8850185 2.4466631 -2.6078167 -0.4405712 -3.9351575 1.4086884 -1.2194974 2.1507108 -10.127217 -4.5887613 -1.1386844 6.1264515 2.5347953 2.6039026 0.4930116 -3.714345 -2.3133576 -1.694221 2.6851215 5.2806034 -4.034459 -4.3458014 -4.8431816 -0.20486234 2.722553 4.5752664
Geo -0.5883079 1.2765336 -6.5808425 2.6768413 1.2245277 -0.91026336 -1.5558238 -3.583659 -1.3335303 -7.0716143 -2.1204844 -6.2227793 -4.952829 0.635455 0.29556134 -7.664713 -4.109684 -0.9033035 -2.6785579 -1.1693411 6.017732 1.2751989 -3.5087876 5.001841 -3.809498 -4.0543885 -5.292612 -2.0713763 5.222114 0.5995449 -2.3936245 11.810988 -0.3298584 -1.6329722 -4.139136 3.3452702 -8.345628 -6.7143736 2.817999 0.8785745 1.054371 7.0236697 0.917244 1.1383466 2.6209118 -6.4540167 6.847277 1.6228827 -1.5567397 1.2061931 5.7121124 -2.4375024 -5.713482 -5.2062955 4.280971 -4.5421042 -5.6956844 -4.3537755 -1.9425261 2.96904 -6.3277674 -0.90293276 -5.156988 2.3057737
William H. Topp 3.698289 -2.1342335 -4.8620276 2.028749 1.2208534 -7.1054616 1.8288076 -5.451236 2.5220408 4.243324 -4.3032007 0.529455 3.0937443 -4.1802826 5.4866447 3.8147695 -1.0631502 -1.233859 0.15413181 4.8098273 5.697514 2.1458306 3.4366226 -1.7883017 0.5489117 1.496487 5.9873247 8.951886 1.4163605 3.6262438 -3.059765 -3.8733761 0.8633224 1.4547491 -8.258878 -1.2515912 4.421229 -0.3423169 1.9819945 1.8432978 -6.9188976 1.4257355 -2.9871955 -4.4310565 4.9247417 2.172824 3.327778 -0.8709233 5.495009 -2.9937491 0.57621455 -3.1548085 -4.2895074 7.481839 -4.623992 -2.8399036 3.3053906 -0.67145264 -1.5631429 -5.3953786 -4.6974845 0.90981877 -0.3589109 -4.7393684
Ray -0.50921494 -0.37734103 6.1619506 0.3226809 -6.6098566 4.6747375 -2.0386283 -1.4820071 -3.7938843 -1.4947656 1.8507882 -4.249078 -1.6549503 0.5742439 3.4867253 3.756666 0.6649813 1.4112291 4.405498 -3.5229595 8.815482 7.193123 -3.3821878 -4.041179 -2.405368 -1.4407189 0.8290776 5.957095 6.1758056 -1.7242379 0.88837904 -5.2502327 3.9186206 10.120181 -0.04120747 -0.39262173 2.0253942 -0.53119576 -4.683016 -5.358007 -2.6877565 9.697937 -0.26382157 -4.0182095 -0.9665538 3.7743845 1.1221715 4.067106 4.785173 -3.5824277 -1.6688384 -7.586531 -2.8416374 -1.3982787 -1.1901644 3.0005577 -0.5194658 -3.7309937 0.5536864 -3.9651232 -0.25176919 -0.338862 -1.3041483 2.1018047
Andrew Jackson 3.7539573 6.5755587 -2.1596453 -0.010541122 9.261571 -3.915881 1.709881 5.0689754 2.179038 0.4646695 3.2157333 -4.807203 2.7836752 1.0745147 -6.122531 0.8285192 3.2113795 1.445207 0.24969797 1.8046627 -3.2358906 -1.6725674 -0.018557634 0.9314059 -0.79671234 3.1204855 3.381715 -6.104646 2.941219 0.8699404 -3.7986662 -3.3092318 4.2791667 2.2232556 -1.4836352 -1.2858273 5.9077244 6.2797747 -3.0841124 6.1263976 7.542619 4.1073685 2.1128056 -1.4756545 -4.015648 9.072431 -1.9188087 -1.4127151 -0.108242966 3.2836 -1.6402947 3.631667 2.0168054 -4.560043 -0.07578612 7.359643 -4.4842625 7.7142053 -6.7765937 -9.079263 -1.7141199 0.26742265 0.20863223 2.301027
Troy -2.3381898 7.434165 -0.54007995 -5.055883 -1.2762773 3.599734 -0.977192 -4.2463374 -0.9020862 1.0010601 -3.523356 4.574933 -2.1312191 3.3443372 6.673139 0.83904827 0.7963399 -2.7698543 5.2505846 -4.835504 7.130582 1.2182331 0.21729065 -2.65184 0.6238613 2.791006 4.4009624 -1.6070589 -0.453511 -0.09366193 0.7700086 0.5578297 8.84241 4.9038363 -8.17408 7.4088087 -1.9455752 -1.256097 -5.9738407 -3.010785 -3.8902183 1.0359302 -1.402262 -8.284877 -1.3669151 -2.5374355 -2.9396489 1.5105205 -4.0055323 3.1678524 -3.2635372 -9.163746 3.9185212 6.57885 -1.0332322 -1.8151183 6.8804526 -0.7371001 -0.22671513 -4.7676153 -7.307115 -7.445662 1.7169663 0.40578258
William Whipper 7.0491457 1.0289754 -3.8553138 -3.4791417 1.4187613 -0.86017513 -3.2367449 2.6659322 3.7973201 1.6508015 -3.9381986 -1.300745 0.48649588 0.154692 -5.235009 0.28136986 4.230398 -2.6474051 -2.9362466 -1.865253 1.7959546 -1.6996808 -6.1364584 -2.3481803 -1.3104287 0.71460664 -4.431004 0.49971056 0.45411834 4.65346 -0.22781418 -2.7433267 -1.5416802 -1.163127 -1.0633488 -0.5537264 -3.9958982 0.19415686 6.69865 3.1893413 -1.5532471 -1.6410334 -3.009685 2.1799648 -2.1883893 -2.136307 2.4820476 -0.072211355 -9.584663 9.155853 1.6500599 2.7413309 -0.66118777 -0.82676584 2.0658324 -0.80477214 -4.9419336 3.9276302 -0.1044614 -3.72295 -2.6346145 -4.133765 4.2663383 3.1958556
Lincoln 0.45553803 3.3997798 8.665033 0.34215835 -2.4104939 -2.738233 4.0228105 3.6539514 -2.6102538 5.388502 5.061565 2.6581771 -2.3192213 4.366836 0.21730469 4.1247897 -2.7382433 5.1317244 1.610147 -4.2150106 -5.864326 -3.1430874 9.523666 7.2177734 -4.6412416 -0.52286434 4.724045 -0.9125561 -2.2751155 5.3792768 -4.7110224 -5.623007 -5.6066155 -11.068151 -1.6761702 0.82261145 -3.2237053 4.4717903 -6.0744653 -7.2021475 -2.9950345 3.3128922 -1.2525667 6.219252 -1.8841537 1.0129076 -7.7733035 -0.30055776 2.6878319 5.7387586 3.2036011 8.857197 3.1334093 -2.1722364 0.7546655 5.713935 -2.7617366 -6.0055847 4.2881756 5.6158843 -1.694557 -1.2456789 -4.448062 2.3443305
Christ -5.7363057 -5.825934 3.4923942 -2.1803393 -1.6157973 -2.2027743 -5.824427 -7.5680428 -2.6145706 -5.3670077 -8.666252 -3.8105426 -2.1627915 1.0910994 -3.8039632 1.3011392 1.6589298 -2.2620695 -6.435388 -0.55268615 -7.165555 1.8855393 2.655351 1.318112 -1.7786355 -5.1771526 -2.962526 -0.4951874 -8.854561 2.5156069 -2.7032661 -4.8522196 4.902981 0.5659714 7.1706395 -4.6104736 4.125229 -2.7477403 -1.9422251 3.8967297 1.7607512 3.3968425 1.1846591 2.056638 -0.23386754 2.7975562 -4.349744 1.260971 -4.256451 2.6237237 3.2600765 -8.959202 4.4404664 -0.4089428 -1.823833 2.5400126 -1.71712 0.7921836 3.9830954 10.613556 8.895272 -3.5888329 -0.15330216 -5.075146
John Brown -3.8260398 2.131644 6.9454412 5.301921 6.234463 -4.3326616 0.3434989 -3.9414897 -0.3371689 6.631636 -6.20905 1.1146302 -2.4829476 -0.8984634 3.8566327 3.061577 1.4641564 2.4993353 4.6442404 0.5968767 -7.9757295 -4.838462 8.736219 -0.8851057 3.210769 4.3934546 3.8728065 -1.4300423 -8.89204 -5.2290816 -1.7028413 -2.4408696 4.312477 -3.0002952 -3.0889485 -2.7718127 3.368612 0.1102194 -5.711488 0.49385267 3.2796113 1.7402962 -6.8157306 6.3736014 -2.7990606 0.23719028 -5.203652 6.0661163 7.5931206 1.4048612 3.0592852 1.3210188 2.8761399 -4.109963 5.289177 4.0426064 4.9032764 -5.3593664 -3.723222 0.73976135 1.6439594 3.2402122 -2.7486265 5.0922318
Roberts 4.0151205 -4.19467 -2.4738007 -2.6994019 5.562065 0.22166723 1.2290049 2.8751643 7.0762835 2.9447987 -4.041963 8.001146 2.0216029 -1.7939997 -0.27378872 2.2816103 4.002594 1.4212637 -2.8105042 3.713185 1.8490229 -1.1061978 -1.3269124 2.2667363 11.34044 -2.4973998 3.1696417 -7.3069305 0.52752036 -0.34626257 -0.42255366 -0.23534359 1.2666544 2.521737 8.117367 -0.7464012 4.639357 -0.41024446 -1.5092523 3.9365087 3.262087 -7.064299 -0.5241983 -6.3831973 -8.781208 0.85992837 4.76924 -1.7762854 -2.0874727 0.89836764 -1.7534199 -1.1426115 9.711214 -3.4501934 2.4388332 3.5155857 -0.532789 2.5192616 -9.051506 3.469123 -1.8381891 -4.4754553 -0.97114193 -4.1336274
Perry 1.4063354 0.4605957 2.3921866 0.44935343 6.394176 1.4333383 -0.1275647 -2.5056083 -0.30487895 -0.75921243 3.318801 2.961971 8.425457 1.6548872 -1.7617034 10.801246 -2.6094112 -3.2679996 5.7149916 1.3386865 -3.2949533 0.11983165 -1.8378526 -5.9673967 -6.2294226 -1.5063424 2.7450147 -1.0928149 3.7099037 -6.5242095 2.4907768 3.216127 6.736417 0.90025777 -3.2700105 3.3257513 -4.1306677 -2.4145386 -2.0716572 2.6476734 -3.5152702 -2.26721 1.4623513 -9.001545 -12.092485 6.0658665 0.85507053 4.933282 -4.224419 -0.59578925 3.659392 -2.3806725 12.149055 5.279127 2.5232356 -1.01883 6.1444 3.2269886 -4.9732094 -8.502701 -4.951854 -2.6584716 -1.4151223 1.8481581
Butler 0.43468294 -1.8590734 7.1539106 -3.724731 2.6634266 -0.62268424 -1.799368 1.7826722 -0.23255779 -0.21565524 -2.7065804 -2.1400502 2.5146022 4.858884 1.4032012 -0.9607108 0.27265066 -3.0096862 6.1825237 -3.903754 -4.371663 1.7330813 3.082183 3.6346767 0.30310816 -1.982844 -5.1447763 -2.399934 6.160444 6.6366944 5.2835817 0.80372113 5.5131407 0.9316358 -0.6745884 -1.9051973 -4.6602597 3.7963238 -2.5533245 -0.68951654 -2.4858387 -1.328818 1.0175457 2.4237747 -0.9871574 1.8418962 -6.0789723 1.3189161 -5.073005 6.020278 9.404072 5.0640764 -5.894599 -8.286976 4.231976 1.5566751 -1.5908034 -1.2017468 1.1771003 5.6757936 -10.587696 6.159876 0.4064132 6.066859
Myers -9.333243 5.821574 3.6848986 -2.6618536 -2.544213 -4.8474717 -4.7192006 2.9303725 -5.8980184 3.5091105 -4.7419887 -0.61597383 3.3270502 3.1937726 -0.65080476 -2.0155997 -6.487592 3.3240044 2.9434211 1.6822923 -2.0651636 2.8081555 1.5317254 -6.793016 -3.468417 0.5140196 -0.82532334 -2.8079824 1.8824133 5.7569985 -7.712401 -7.7798157 -8.499799 -2.0613594 2.763339 5.5092883 2.3729186 1.8325745 -5.1075664 4.0147114 8.721453 2.045869 -4.7768307 0.22135286 4.323416 2.5572872 -4.9720736 -4.085053 8.617652 -1.5652872 2.5250807 0.23368788 -4.2306476 3.2483845 0.61286634 6.0982366 2.6949806 -4.0134916 3.634581 -6.0293465 -0.84065866 -2.3519518 5.0753713 -3.206282
David Jenkins 3.0039637 -2.4176412 -4.616163 -0.9422935 1.5083818 -1.8343952 -5.3881927 1.5981641 4.7375503 -2.2221074 1.0492363 1.0680269 -4.802091 -2.0949671 0.01649828 -4.5477147 5.421594 5.3941298 -6.8220983 3.2016702 -3.9305584 0.06657467 1.8404672 6.9792414 4.9295616 -2.2971458 5.8564024 3.9032142 -3.0481758 -1.6674383 0.20894945 0.42476115 -5.83281 1.3769659 3.0657184 -8.548101 -0.40248135 0.69332504 -1.5407536 3.3638473 -5.3952537 4.061214 1.5977534 -2.6700268 -1.3846649 -0.029947992 3.448039 -3.2790136 6.2882133 -6.233267 -4.32383 -5.4449162 -0.6865397 -3.5587318 -4.3945374 0.8133205 1.1763866 6.6633763 -5.1144066 -1.3701996 -1.6884007 -0.14952184 -2.988871 -6.5031147
Amos G. Beman 2.248209 -5.776036 -4.851098 -1.9802421 -1.8576486 -2.1883538 1.2978663 -5.1561537 -1.9570035 -3.1869888 -5.3318152 -0.60175276 0.30111992 0.26272315 -1.485216 -1.8980008 1.5543092 -3.6251888 -5.378342 -0.43335122 3.1799476 3.896206 1.6478741 -0.72471976 -4.964389 -2.360269 -2.5135972 1.5551938 2.0931082 -4.7811294 -7.9543376 -0.82207996 -3.3590958 1.5928931 -0.9825004 -6.6000686 3.8711877 0.22904696 -1.2706035 2.7599306 -0.343912 4.0647 -2.6481073 -0.50304455 3.4867787 6.5772233 2.5386858 3.1513357 -0.13967414 2.0275092 1.5828564 -0.57780164 -2.3689754 2.0387669 -2.4708996 2.4279227 -9.34416 -1.4969572 4.2311487 -3.5097659 1.167946 -6.012274 -0.10785604 -9.05179
William Johnson 2.4679089 -2.6033306 -4.4197426 1.5298308 3.8705313 7.6016192 4.4908113 5.8958006 4.1898985 4.108801 4.0256495 1.2640762 5.2001987 5.751577 8.959881 1.0574951 -3.0608687 7.1512127 1.2658663 -6.0101557 -5.4686856 -3.3308957 -4.672671 -5.6362743 -0.6804228 -6.4156575 -1.3476155 3.4588149 -7.5017123 -4.77254 5.9927363 -0.1506717 -0.2573242 6.8949294 -1.2786819 0.3498011 -0.60977906 0.5515761 4.5280504 -6.9504094 -0.8737314 3.5067708 -1.808718 -4.681251 -3.2245462 -5.9292054 -4.000571 -4.473133 -4.3011928 -0.2555502 0.5896975 -0.79238665 -6.808804 3.6363175 -5.4853654 -1.277211 2.8266714 6.393851 -3.3168883 1.013042 0.43037993 7.4546504 -3.422871 3.887682
C. H. Langston 0.0047709206 -1.5487374 -7.9511037 -3.373221 2.504072 -3.4697325 -2.8811615 6.875284 4.9465704 0.0057921116 0.46928027 4.6335635 1.4671762 -2.7482011 1.3804348 -0.8929826 4.4191065 12.127825 -9.85364 -5.360685 -4.253219 -4.0905437 2.4073372 2.0679474 8.575543 2.8830957 3.9055645 2.7652109 -2.5143516 -4.878227 5.1677647 1.74608 -3.2120452 2.1798632 4.7527742 -4.7841125 3.4582677 1.6268038 0.5254861 -0.53950757 -3.815559 -1.1622683 6.2308483 -3.0826654 1.0110463 0.08449673 1.3866841 -0.9848976 2.810884 -1.8630905 1.1973776 -6.0693355 2.72509 -1.3482136 -0.9834335 1.1812997 -0.59124976 4.0390506 -1.6650385 -2.9982016 0.9945954 1.57769 -1.6924615 -1.344179
J. W. C. Pennington -0.53799015 6.052197 -8.198638 -2.168127 -2.4258256 -4.103184 -2.1218312 -5.371032 -2.861852 -1.4688756 -0.65638816 1.4837092 -5.27129 1.8262486 -4.3430967 -2.0035775 3.3955722 -1.3694946 1.470142 -1.2877362 6.744967 5.0625796 -2.5310173 -2.664823 -2.3964906 5.064268 4.371939 -1.7282178 -1.3638583 4.5688953 -7.6994033 10.283108 5.4503107 6.144323 -6.664361 3.4330683 -1.0117211 -0.68288326 0.70822805 1.9033554 -2.6771119 1.7018721 -6.6408577 -3.165482 -1.594777 3.184294 4.387233 -1.1427746 -5.0467033 1.3112342 -0.57918 3.0422814 -6.8824553 0.15958019 -7.2050395 -4.228665 -1.2983139 -2.3637533 0.857177 0.14207257 -0.06426506 -1.7863448 -2.13375 -5.413637
Wm. H. Topp 5.444239 -1.8928777 -1.634283 -1.1182891 1.164846 -5.828861 1.6859018 -3.4614713 -1.2452391 0.64981693 -4.4950533 -1.7850696 7.5960436 -2.9596453 1.8758658 4.6450458 -0.87272465 -1.0299476 -0.6142736 1.4242302 4.1445675 5.0486183 0.5087874 -3.816543 -0.98935294 6.8310494 4.78436 3.874271 -0.8021188 -1.1264479 -6.0368447 -2.1225471 3.6481097 3.2413263 -5.2345223 -1.6224614 1.558164 2.17545 0.95580924 -0.7135825 -1.7452406 2.7277584 -2.3177242 -2.639264 3.2437928 0.38430318 4.4357386 1.499074 2.3661296 2.8808975 1.695832 -4.750356 -3.1054966 8.680261 -0.41557682 0.013361539 0.18358652 -1.4249803 4.0373387 -6.1217866 -3.4515133 -2.8097131 -0.95175046 -3.9370403
1865.IN-10.24.INDI.txt -0.4577479 0.21749213 -3.0095828 0.44383472 0.7415437 -0.47347882 6.9314113 -4.2637887 3.3461218 -1.5102137 3.092862 3.6336951 -0.8644702 -1.2306387 1.6154492 -4.2752066 -0.55385995 2.6100454 -2.5543208 3.898644 0.30089858 3.3708107 3.503058 -4.3403764 2.0707266 -1.8909298 0.6170156 -0.98751754 1.1494597 0.05525362 6.444915 -2.0548995 -0.71271455 1.1485025 -4.7277007 0.25453165 -0.79820794 2.58304 0.45014775 1.1004428 -0.6019059 -0.20950668 -2.6446404 4.54929 -5.539605 5.3512115 1.9890885 -1.2834547 2.2283423 4.0707984 2.1877098 -4.864012 -1.5912277 -1.8182845 4.907325 2.0132923 2.1979454 1.2117618 -1.6099716 0.4315345 -1.7407618 2.2801256 -0.7209382 -3.8148088
Warren -0.29712296 -5.6373715 -3.5377538 3.6882968 -4.1730843 5.6492043 -1.119167 0.5979294 -13.036482 -1.1375864 8.232205 -2.2121313 -13.566006 2.7296622 -0.6373757 -2.1926985 7.806375 3.9449053 1.5723603 -4.291123 -3.1033053 4.855906 -1.1680142 10.14734 1.2488286 -0.4011164 1.531076 -0.57463163 1.629912 0.80109626 4.748685 -1.5800804 -3.9047637 0.30670604 -3.7456708 -2.665759 -2.5536993 -2.0236745 -2.5139625 -3.4205353 -2.5731258 -2.5583112 -0.8549014 1.140518 1.7137141 0.9964362 1.6726424 -4.265217 2.5160754 -2.743456 -0.8376763 -4.522877 7.428875 -6.6985965 -8.130757 -1.2379051 0.35900533 0.0898403 1.2110614 -3.9489129 4.0678706 -6.996733 -1.3972067 -3.7983427
Brooks -2.34634 -4.217223 0.29835132 -2.9609365 -2.5342119 -0.6837909 3.596198 -2.5542457 -3.3774412 -0.9366347 14.40786 -8.623088 -1.3217471 -2.08802 -5.859871 1.8743916 -3.89878 -4.5080986 2.379714 3.096776 -4.9222608 2.5184252 3.4893646 -3.6292922 -1.14135 -6.71405 -5.0566783 -1.654921 2.0611224 -2.1328573 6.971288 0.17532675 1.6485862 3.0418775 -0.5331782 6.169043 -0.08250122 -5.399188 -2.8581882 -5.8357205 -5.153016 -2.2291825 5.3934774 0.9521197 3.4225142 0.008259204 -1.5618869 -4.76756 -5.5264115 -3.9415734 -6.8660297 4.2336035 0.96569335 -5.7424707 0.44046313 5.6940613 -3.6231954 -0.9318144 -7.854636 -4.030455 -3.6789448 7.8484626 -6.32399 3.372826
Jefferson 2.1618128 -0.2956271 -7.2820587 -5.968241 -3.7517428 0.75095046 0.17305785 3.9889255 0.161192 -1.8167926 10.839635 -3.722177 -1.3460971 1.7372267 -2.2536764 1.0771276 5.6698246 2.1505468 0.6112615 0.53183365 -2.0072668 -1.3145125 -4.5201674 -4.9945655 1.7955704 -2.1235242 -2.0126054 2.3073947 -0.20865436 0.96296704 11.623589 9.040324 -8.383105 -1.0734497 8.240206 -1.5254529 -7.7194185 0.057700217 1.3463191 -6.0945625 -5.6741004 1.4325992 0.41465527 0.60133666 4.84407 -3.3272197 -1.7430845 6.861187 6.2622313 1.1026058 -7.5254292 -1.7535232 -3.7167819 -1.1632211 2.2555654 2.3114464 0.121242575 2.156257 -2.3384342 -0.51907635 0.622148 11.311369 0.45062143 -1.3220507
Morris 2.2516663 -4.9155116 7.4919147 -4.0130143 -2.6337295 2.7258964 6.405079 -0.1515792 -2.807353 5.347391 8.800628 -2.4698973 -5.4954634 1.7461243 -1.9725419 -3.2429402 -2.4040256 -0.14680757 -0.39634505 -1.4916606 5.498077 9.549412 -5.2811284 6.0117903 -4.295972 -11.243842 0.11711962 -2.6680775 -6.229756 -0.74585676 0.9645264 8.908875 -2.7115748 -2.3198683 0.6809707 -2.0736 -3.868144 -3.9294145 1.7785342 -0.4759156 -4.0477076 2.3656197 -3.3835285 -3.08203 -1.6277064 -0.2918181 -8.98256 -3.6808202 3.5342135 2.129442 1.7068698 -5.7277412 10.790198 4.4060917 -7.4631324 2.037038 -3.079168 -2.3267026 -4.915226 -0.0585559 0.7400106 -0.48478323 0.09488872 -3.1338842
Scott -5.915829 1.9484029 1.6133492 -6.7970004 -2.033773 -4.8601475 -4.121597 3.388424 6.8575406 3.2838378 5.3078585 3.327288 5.818326 10.500197 -3.6612108 0.900468 -4.307443 5.9754453 0.34274697 5.5110765 -6.9943476 -2.5606217 -4.3872957 -0.37708855 -3.4333408 -9.709331 1.0336384 -2.2886298 0.6636869 3.3592045 -2.3192186 0.78323334 -8.707876 2.1328695 7.4947367 1.8016884 -4.5740557 -7.127636 -6.833991 -3.5923305 4.887937 -3.4651978 4.0809174 -6.220322 -4.8990903 -2.4555447 0.9683618 3.6361148 1.5767734 -3.1241176 -0.6755163 1.2045444 8.305125 9.628446 1.654957 -3.676414 5.7223744 -2.5994077 0.5861866 2.6179268 -0.14310372 -7.00811 -0.85522544 -8.340839
1867.PA-01.08.PHIL.01.txt -3.5681376 1.0783089 0.028718965 3.325561 -1.3299409 -3.7784963 -2.3562284 5.9049683 1.7391208 -3.4775665 3.495029 2.2388344 -2.4807951 -3.8198116 -5.8142905 -1.3827199 4.526264 0.43117946 1.8523535 -2.528066 0.52745205 1.6006078 1.4167931 1.0098574 1.1781135 -3.4395506 3.3811622 -0.90470654 -1.5034456 0.36055663 -0.08998906 1.4669366 -4.984869 2.1091242 -1.9752592 0.85556924 4.046022 -0.9303459 1.8308787 -0.65364516 -0.2815172 -8.10295 -3.3800936 3.0656583 -0.32281294 1.5100614 -0.5511651 1.6872915 1.258434 4.7350497 -1.4014192 -6.7555437 3.6193278 0.031934097 1.2300867 -1.901645 4.1702423 2.9418907 4.421149 -1.9574958 -1.5680789 0.76701003 -4.1005025 -0.3750807
Theo -0.2720641 -0.59759367 5.323787 5.330606 1.9987291 -0.70608366 1.9234054 -1.6013156 -8.189643 5.217044 -0.4201053 0.4464257 -9.405179 1.7328712 0.73703027 3.2844946 -3.079263 -3.5173743 2.25586 -2.5261147 1.2743039 -0.3671406 -6.448934 1.9651128 -0.42267314 1.6106455 4.7028384 -1.7336609 -9.290228 2.964194 -2.8932323 -3.0163007 -2.3095365 -4.323817 -2.1410365 -0.5907314 -0.7344927 0.5713665 -3.7228823 -1.7947074 1.2610841 8.288757 -5.0341473 -2.7602963 -3.0499504 6.451723 -0.22908582 4.1180496 1.1978992 1.1458062 10.748519 -3.9065468 6.9072537 -7.231085 -3.9125903 -1.496115 1.5230246 6.7622294 -4.323375 -3.9272795 3.238812 -0.11941752 -0.3122036 2.2567275
Mason -2.238448 -5.5372033 -5.550938 0.5169975 -0.11773877 -1.092834 -3.855304 -9.699012 -3.1988482 6.193666 2.3070009 8.920982 1.874628 -2.436436 2.5731401 -4.016938 -5.6695056 0.41930994 -3.3929179 3.777093 7.46852 -2.9914951 3.120016 1.1418532 4.338322 -2.5408914 0.13967574 3.812255 1.0590718 0.8799321 0.60723484 -7.0656 -0.48798537 -3.2381675 0.72856385 -3.5744054 6.3590803 3.5435784 4.695451 -2.2361326 1.4842544 -4.116939 -0.055594664 4.1578407 -4.5267863 -4.7489142 9.932972 1.957451 -5.4453945 4.494157 2.773556 -2.395261 -2.8056421 -3.2042973 -7.486069 -6.2348294 -2.5151062 1.4541547 -6.864428 5.770238 0.9252819 5.713745 4.495942 -3.6882086
Green 1.3124217 4.873607 3.253721 -1.9849882 6.1846843 -1.1409625 0.2492471 4.943421 -2.0438406 -3.856354 2.4210289 -2.28743 -0.14491293 -1.51866 -8.144573 -4.524876 -2.2045438 4.8174944 -0.35932437 4.656268 -7.0129733 -2.091665 10.528844 -0.8708436 1.4010112 5.1866803 6.788346 -1.7558641 -1.7752092 -4.685204 -6.9696717 -3.4250414 -1.858392 0.52511096 1.5042313 -1.401176 2.3781846 5.5115747 -3.7856352 4.2867937 4.60152 -0.15260117 0.89470595 0.6129872 -4.530312 3.58373 -4.6277504 0.64056623 2.840893 3.8384356 -3.8772943 1.4197528 3.0387652 -4.0041003 1.7687001 6.106496 -4.285182 0.21097985 -8.55065 -9.308313 -2.3167028 0.18802576 -3.4397016 3.7154555
Beman -1.8602705 -7.7306347 -0.684386 -0.3717819 -2.8373318 0.3243066 -0.86266345 -6.62233 -3.6571767 -2.9879117 -1.503401 -2.4154136 0.15415551 0.3721825 -0.55806345 1.1080079 -0.32959142 1.3288198 -0.49213335 1.677593 8.558721 -0.17485464 -0.5866453 -2.774754 -5.47072 -2.16868 -2.0939283 -0.32362095 3.5626094 -0.57684964 -5.17491 -1.091284 -3.0888233 5.6680408 0.18953095 -5.3164873 5.127992 3.226126 2.5725791 2.9400387 -4.163705 6.122061 -5.1529937 -0.16724549 2.4271197 9.104364 0.5193122 3.836879 3.1071594 -0.17234938 0.67546177 1.3347981 -4.4643064 2.0475512 -8.573671 0.5934259 -7.8815145 -4.1152887 3.103068 -0.5844974 3.8499715 -7.732775 0.15493 -4.457851
Jones -5.711733 -8.33816 -0.115118824 -0.51988477 3.0394998 3.4266615 -7.273841 -1.0996006 -2.7507946 -0.40310752 4.056702 -0.15648293 -5.8867073 2.916323 5.9490094 0.3888462 -7.175688 5.0626035 -9.192299 4.7729125 -5.1186795 2.5157068 0.78812015 -6.181336 -1.6401176 -2.1082716 -4.4956784 8.02297 -2.564446 5.240259 -3.7383196 -1.6545277 -4.1633153 2.1136556 -2.752859 1.9318582 6.682777 2.4818754 3.7041967 0.90167046 4.0386834 -1.558109 -3.2155416 -4.2309284 -2.5714772 -2.6388474 4.2972984 -9.877547 4.773044 -3.2695692 4.455442 -1.4643363 -2.7537382 4.5457654 -6.9251356 -1.9961693 -1.2577076 1.996702 -2.3105433 6.685044 0.08045948 -3.0740638 6.0353684 -5.9649673
J.W. Loguen 6.2556205 3.9781697 1.6242534 3.3689332 4.906208 -0.16131267 3.4696624 0.71151775 -7.0094976 -4.6583824 -2.9199755 5.674589 6.2994714 4.591553 0.9858516 2.1019945 -5.145821 -3.7813373 5.0714617 -2.638248 0.30919933 2.8827522 8.212164 -2.267013 1.9736224 2.26766 -0.92981416 6.104984 -7.982283 -1.32427 -0.7492334 4.8951716 2.2771292 1.0053849 -5.403177 4.3468695 0.89961696 1.3323588 -1.2597134 2.0911648 1.7506979 0.82837623 0.2691357 -3.862925 2.9613128 -5.316456 2.381412 3.1518629 4.864963 3.7914128 2.405417 -6.3046346 1.4416791 2.6005933 3.668712 -5.3328476 6.912563 -6.8167615 5.283382 -5.6394367 -3.7668002 2.1690505 -2.4859347 0.6832945
A. M. -1.0140039 3.8103096 6.540844 2.0718281 1.6880784 -3.7235851 -3.477856 -0.93811035 0.013846917 1.4151735 -1.8017036 4.1352887 -6.5784 2.0909383 0.13892409 0.49944946 1.8444985 -3.5979447 3.0350516 1.6534792 -1.7182904 4.0975175 -3.7732477 1.5140753 -5.8410525 3.505727 -2.7428598 1.3294805 0.924404 -0.6780581 -0.8039416 9.1359625 0.8600635 6.4389663 -5.6843576 -4.292657 -0.28942144 -2.6174722 -1.2909601 11.234924 0.8764586 2.5431669 -2.299438 0.21183775 -1.5028214 6.0148144 -1.8852519 -4.15726 1.4410316 5.1153874 5.172886 6.51953 -2.7628257 -5.7064176 -2.634814 -3.2812054 -2.57941 -1.6905342 0.44558626 -0.63872445 -3.5474062 -1.5810218 2.6065185 1.9106311
Henry Johnson 3.2027876 -5.646806 1.113658 -3.3334541 1.6949053 0.8353094 -1.11759 3.2396953 -4.8681827 3.6637793 -5.438006 -2.127256 -5.5434227 -0.9551469 7.5404043 5.1653237 0.21447666 -3.432602 -3.4193027 2.9660256 -1.0397006 -3.804772 -4.6708193 -3.8358185 0.94064415 -4.3403497 -3.4879365 0.898527 -7.5126452 -3.984183 3.356682 5.5029054 -5.794016 0.7052662 -6.4563503 3.7072642 -5.5857406 3.2613513 2.859787 -1.6788306 -1.7575262 0.13867426 -3.3364973 -8.652565 -5.0746517 4.0812416 -2.4302573 1.5691737 1.6044043 -2.6128292 1.9230167 -6.2554836 2.1609294 8.620858 -2.1186087 -0.985795 -4.992778 -3.0271015 1.8191184 -9.68894 1.4078519 -3.944306 0.48479435 -2.8279896
Charles Sumner -7.596341 0.11055296 -1.0054194 3.2756858 2.1327124 0.09123817 0.41510624 -6.007709 -5.2291555 -0.7376764 -4.211551 2.357372 -5.3048453 3.5026345 -1.8403451 -0.14149725 4.9655666 11.230652 3.4258037 -6.1423225 -3.8855517 -3.7951543 4.8457303 -5.4492064 -1.6531264 -0.7784277 0.68628013 -9.654741 -2.0938914 8.362454 -4.0890384 7.9057937 3.2037163 -12.62228 -4.391107 7.9871035 0.6350417 -0.21682653 -3.5553396 -4.3417916 7.0115848 4.5357203 5.3251686 7.9550166 -0.10894333 0.87801325 1.4342899 5.385709 -1.00258 6.440123 2.876863 -2.3220491 -2.721187 0.88613474 7.729737 4.8528028 -1.436393 -3.7903128 4.5040097 5.9585447 -3.069692 -3.4257395 -11.628936 -0.22943057
Stephen Smith 4.361407 3.3605933 -2.3150613 -2.5049815 -3.7942672 -5.391712 -0.5563833 -1.3517908 -0.83333594 1.1818542 -1.221932 -6.7421327 3.7697387 -9.275033 -1.9286176 2.2634218 -1.1342697 -1.62692 -1.5146922 -2.5220282 4.017633 0.5287864 -6.5502934 1.390587 -2.3754494 5.202077 -2.8423338 0.44688272 2.340904 -0.6689251 0.9686138 -0.02190647 -4.0243897 -1.4797996 -4.235164 -3.1342375 -4.667297 2.8264737 5.2459364 5.637936 4.3992796 1.7957609 1.6375184 0.9753035 0.06954327 4.7607512 4.3770404 0.93144614 -3.9433966 6.44487 -1.8626919 3.616596 -1.5373449 1.6669905 4.375477 -2.7902255 -3.2140465 4.6275024 1.7766696 -2.6933794 0.32027048 -2.533922 2.833033 -2.495604
William H. Day 1.8013594 -5.0915174 0.16253053 -2.7935698 3.8775568 4.2186604 -3.456385 4.4738803 0.35213766 -0.93187165 3.2423627 5.3146243 1.7700285 -3.1453538 -1.282402 -0.712385 -2.5122998 10.394663 -5.5654597 2.5912316 -3.8258793 0.33881783 9.626082 1.3553716 7.611554 8.616786 4.0238233 4.4024587 -0.32876092 -2.4382386 3.128489 1.9733608 -3.8432903 0.98908275 3.7970328 -3.720718 1.406743 5.0138164 0.24671583 6.612242 1.3883039 -1.2425624 -1.4684415 1.5175319 0.01038614 -2.4079764 2.4657018 -8.58932 3.0708644 -0.22100449 -3.874803 -2.1161678 -0.21757397 -3.314421 -0.5364087 -1.0034155 3.2585888 -1.0457157 -1.8435594 3.0849257 -2.8215969 -0.7017412 -1.6993774 0.25640765
Benj 2.1648006 9.371119 -8.258126 8.049032 -3.4023252 4.219376 6.175434 3.9504008 0.41225263 -4.7964435 -1.6301954 -1.3108732 2.875554 -1.0761758 4.0254564 -0.5800233 4.149755 -1.8354448 3.6716847 -5.1184816 2.7398775 -3.2761946 -2.5970452 7.125835 -1.3083725 -4.211191 -6.7755246 -4.8005004 9.242937 -1.3417169 -2.9618585 1.009235 2.2789364 0.6676394 -8.16277 1.7375536 0.28711677 -1.9899924 1.8109353 3.1415958 12.959468 2.7351592 4.166917 0.93789834 8.097784 -4.000201 3.0616584 -4.070554 -0.38452208 1.7215413 0.74705905 -2.4539661 -5.015254 -0.10527795 0.58233047 -0.4838936 -0.23700918 -2.0569139 -2.0635462 0.34212032 -1.3547301 -1.4256673 -0.9410183 -3.198279
Garnet -2.0538023 3.1244502 4.6566124 -1.2839925 -1.4351443 -1.2782464 -2.016438 1.9273217 -5.109673 7.0680227 -4.3158937 -0.90375733 5.1520925 2.4813879 -0.3649631 -0.6688551 -1.8794585 -2.4255443 11.160939 -2.0885994 4.789783 2.20582 3.7084312 -6.1602373 -2.5397995 0.7983046 2.141492 0.7102831 -0.10035932 -3.4030046 -0.20109388 -5.4808135 -3.9433343 1.2166299 -1.4860691 -0.8016222 -4.233955 0.29094654 -6.56266 7.335962 5.471674 4.613 -0.28850624 -2.5786073 -0.97633946 0.9418185 2.0636823 -4.6229615 4.5594053 -5.855728 -2.6182806 -1.6550053 -4.881356 -0.31338808 1.90896 -0.42982662 5.7926507 -7.9263005 5.73415 -2.7155657 -0.5835473 -1.2231013 0.36162525 -1.603879
S. Myers -1.743777 0.40696466 -0.50911885 3.7561083 -4.107605 -4.9952145 2.1832137 -1.3888292 -3.201207 1.1176888 -0.6872362 -2.7290177 1.8212053 3.0019932 4.4591937 5.175367 -1.6430811 -1.6854596 2.4119868 -1.1510581 -5.778986 3.4431353 -0.6736529 -5.585068 -2.4725645 2.0252278 -3.1684976 5.562412 4.610675 1.6034756 -4.5072455 -5.3156104 4.327915 6.7549214 -3.2419388 0.4495825 5.2435646 -2.101132 1.6779723 -3.7764742 5.399708 1.9193003 -2.6478126 -2.9664533 3.6883824 1.6066469 -0.91601855 -1.3210604 6.950536 -2.264231 1.4616958 -8.405407 1.9324143 8.750481 -1.0529817 0.0692744 3.8279846 -2.0749316 2.1131215 -5.0724134 -2.4673548 -7.300106 6.0665793 -3.178567
A. G. Beman -0.99914366 -6.94246 5.048166 -1.0546657 -0.33894122 2.2203534 0.60774684 -2.05934 -1.4089295 -4.9842606 -1.6060448 -0.6012116 -1.2500819 -1.6024582 0.26709622 2.6233404 3.154768 -0.13848877 -2.4268944 0.86416715 3.745903 2.6753578 0.00498539 -2.0683985 -4.086233 1.5335313 -2.4216523 -3.3442218 2.5141296 -3.5004694 -5.350775 -1.5315661 -3.2105782 7.325219 4.0227623 -5.940435 4.878826 5.116298 -0.06362788 2.786923 -1.7209648 8.759977 -0.7773473 -2.5534647 1.9521813 7.7486124 0.8573907 0.51715976 2.3008478 -0.50693643 -1.2702206 -1.9429772 -2.8906696 2.0276039 -6.4911375 3.3755255 -7.0516195 -0.14122249 3.6715052 -0.008823748 2.695713 -7.352514 -1.1569884 -8.209103
Francis -1.3587486 -5.593596 1.5915531 -2.7253778 6.4683385 3.6798036 -0.6377646 0.34296772 1.1241114 -0.4677595 0.5321342 -0.66200733 -4.4616613 1.2771007 -1.240393 5.4227924 -5.2133718 -5.062253 -2.5981498 -3.559767 5.2453327 0.86380625 0.40728205 -1.6229631 -3.5350404 -2.9308581 -4.4022884 7.5510178 -2.0718918 2.479099 4.8828435 0.5566298 -1.3965033 4.3761654 -2.1383038 -3.8409085 3.2062387 -3.5495486 -1.6206899 -0.6670525 -7.3469234 8.985698 2.9014695 -8.734568 2.999963 10.210922 3.768301 1.1627488 0.6639146 -3.0152807 4.7959023 -3.1136599 2.2875965 -11.226985 0.8321196 -4.627657 -0.75785506 1.0026072 -2.5440695 -0.54287225 -1.1992965 2.5193193 1.0233288 -2.1686585
William H. Seward 4.69377 -0.9784707 2.1522143 -3.498323 8.173927 1.8333888 -2.9006326 6.3319664 0.1762314 -1.2460519 1.7529287 2.3198678 3.5461442 -1.2363855 -0.6503298 -3.2563787 -5.3622293 10.81251 -0.17575394 -0.85836595 -9.352032 -2.577752 5.7067094 -1.6747808 0.518353 4.117864 3.7393248 4.887281 1.0048673 -9.198389 1.3866031 7.092973 3.8907785 5.330992 -4.346178 0.62118274 -0.10984944 10.727617 5.2136493 -0.40533 5.9405093 -6.8335834 -1.0437406 -1.6510578 -6.6099854 1.2133687 -7.750066 -1.1052355 -1.1483963 -2.6035652 0.6166512 -0.760985 0.39922196 -2.7141461 -3.0051353 0.34666955 1.1361476 -4.38665 0.13826528 -0.6692149 2.8827765 0.044292975 0.5839903 9.775842
George T. Downing 1.2513001 -0.2286537 -1.5989221 -0.5316022 -0.75874895 -4.609346 5.794753 -0.98716915 -3.8033082 1.4457369 -3.4824505 2.6753488 3.2786503 -5.540639 -9.0941105 -5.0895514 0.89952606 5.0507283 2.5114622 1.4661982 1.8264534 1.9018832 0.3445388 -4.7259135 -1.9099771 6.7347293 5.067294 1.569484 5.506355 -3.049484 -6.164412 4.2183204 -2.3838642 1.0651289 2.2523015 -1.5109441 -0.9791337 -5.6755886 4.093317 2.1401546 1.1587818 2.6348977 -2.066798 4.7444763 -3.883823 1.677949 5.192298 -6.447949 -1.886707 2.1103086 0.5384508 1.8457814 -6.717844 2.186484 2.9095228 -1.5954506 -1.7339637 -4.491188 5.3263187 -3.1199605 0.38438419 -2.9632115 -1.4319713 -2.1609132
P. A. Bell 5.321901 2.8835764 -3.6615064 0.5077047 -4.491134 4.2015424 -0.45612076 6.1778035 -0.3089776 -2.4132485 1.4954146 -0.39499825 0.5227041 5.5087023 0.7339968 -1.6416849 -0.42217824 -1.2739723 -3.7601123 4.7419543 5.735997 -1.4007618 -5.1521907 5.054665 -1.9271071 -4.5536532 3.6417458 1.3037874 -0.11779452 8.357572 -6.0898967 -1.2045594 5.8357315 5.2115946 -10.918604 -2.6097016 1.3447068 -3.3403506 -2.3414457 -4.972325 -4.262643 0.4130875 0.8896121 0.26612127 -1.8523971 -2.4798245 3.3367898 1.0528892 -4.4039702 4.840722 -0.8725169 -0.41030303 -0.09520755 -0.907593 -7.064718 -0.62918437 -3.7167418 -7.01256 5.0145245 0.66002655 4.082027 -3.5675104 0.4390292 -1.9809963
J. M. Langston -2.4586697 -3.1079597 -1.8985226 -2.3955333 -4.16128 0.17338845 -1.369825 7.6211324 1.5809851 -4.589089 0.8716257 8.9592905 3.1798973 -0.620802 -4.72963 -0.39314038 3.1481369 9.958477 -2.3077996 -0.44136986 -2.42158 -2.5828369 5.072146 2.508768 5.5474343 4.215869 2.9569724 5.79513 -0.6665175 -4.8042803 2.2639675 1.1002792 -7.644294 -0.49479964 6.153873 -4.3087296 0.9036829 -0.539835 -0.6665297 3.502509 -3.6934292 0.19193594 4.9578137 1.3953421 1.8664585 -0.5337062 2.0634592 -4.607797 5.4451632 2.127842 3.0703857 -3.5137548 -1.1368073 -2.6667588 0.33102506 -2.4147394 0.9365499 2.145957 -3.3378806 -1.980208 -4.3140798 0.3992027 -0.7897852 -2.6927292
